{"learner":{"attributes":{"scikit_learn":"{\"_estimator_type\": \"regressor\"}"},"feature_names":[],"feature_types":[],"gradient_booster":{"model":{"cats":{"enc":[],"feature_segments":[],"sorted_idx":[]},"gbtree_model_param":{"num_parallel_tree":"1","num_trees":"300"},"iteration_indptr":[0,1,2,3,4,5,6,7,8,9,10,11,12,13,14,15,16,17,18,19,20,21,22,23,24,25,26,27,28,29,30,31,32,33,34,35,36,37,38,39,40,41,42,43,44,45,46,47,48,49,50,51,52,53,54,55,56,57,58,59,60,61,62,63,64,65,66,67,68,69,70,71,72,73,74,75,76,77,78,79,80,81,82,83,84,85,86,87,88,89,90,91,92,93,94,95,96,97,98,99,100,101,102,103,104,105,106,107,108,109,110,111,112,113,114,115,116,117,118,119,120,121,122,123,124,125,126,127,128,129,130,131,132,133,134,135,136,137,138,139,140,141,142,143,144,145,146,147,148,149,150,151,152,153,154,155,156,157,158,159,160,161,162,163,164,165,166,167,168,169,170,171,172,173,174,175,176,177,178,179,180,181,182,183,184,185,186,187,188,189,190,191,192,193,194,195,196,197,198,199,200,201,202,203,204,205,206,207,208,209,210,211,212,213,214,215,216,217,218,219,220,221,222,223,224,225,226,227,228,229,230,231,232,233,234,235,236,237,238,239,240,241,242,243,244,245,246,247,248,249,250,251,252,253,254,255,256,257,258,259,260,261,262,263,264,265,266,267,268,269,270,271,272,273,274,275,276,277,278,279,280,281,282,283,284,285,286,287,288,289,290,291,292,293,294,295,296,297,298,299,300],"tree_info":[0,0,0,0,0,0,0,0,0,0,0,0,0,0,0,0,0,0,0,0,0,0,0,0,0,0,0,0,0,0,0,0,0,0,0,0,0,0,0,0,0,0,0,0,0,0,0,0,0,0,0,0,0,0,0,0,0,0,0,0,0,0,0,0,0,0,0,0,0,0,0,0,0,0,0,0,0,0,0,0,0,0,0,0,0,0,0,0,0,0,0,0,0,0,0,0,0,0,0,0,0,0,0,0,0,0,0,0,0,0,0,0,0,0,0,0,0,0,0,0,0,0,0,0,0,0,0,0,0,0,0,0,0,0,0,0,0,0,0,0,0,0,0,0,0,0,0,0,0,0,0,0,0,0,0,0,0,0,0,0,0,0,0,0,0,0,0,0,0,0,0,0,0,0,0,0,0,0,0,0,0,0,0,0,0,0,0,0,0,0,0,0,0,0,0,0,0,0,0,0,0,0,0,0,0,0,0,0,0,0,0,0,0,0,0,0,0,0,0,0,0,0,0,0,0,0,0,0,0,0,0,0,0,0,0,0,0,0,0,0,0,0,0,0,0,0,0,0,0,0,0,0,0,0,0,0,0,0,0,0,0,0,0,0,0,0,0,0,0,0,0,0,0,0,0,0,0,0,0,0,0,0,0,0,0,0,0,0,0,0,0,0,0,0,0,0,0,0,0,0],"trees":[{"base_weights":[-5.0264247E-5,-4.832816E1,1.1679291E1,-2.5815876E0,-7.3863834E-1],"categories":[],"categories_nodes":[],"categories_segments":[],"categories_sizes":[],"default_left":[0,0,0,0,0],"id":0,"left_children":[1,3,-1,-1,-1],"loss_changes":[3.9510672E5,2.452E3,0E0,0E0,0E0],"parents":[2147483647,0,0,1,1],"right_children":[2,4,-1,-1,-1],"split_conditions":[2.366432E0,1.4666678E-1,1.1679291E1,-2.5815876E0,-7.3863834E-1],"split_indices":[0,1,0,0,0],"split_type":[0,0,0,0,0],"sum_hessian":[3.3E1,2.8E1,5E0,2.5E1,3E0],"tree_param":{"num_deleted":"0","num_feature":"2","num_nodes":"5","size_leaf_vector":"1"}},{"base_weights":[2.457778E-1,-4.602629E1,1.1192657E1,-2.457475E0,-7.1094364E-1],"categories":[],"categories_nodes":[],"categories_segments":[],"categories_sizes":[],"default_left":[0,0,0,0,0],"id":1,"left_children":[1,3,-1,-1,-1],"loss_changes":[3.620935E5,2.1820469E3,0E0,0E0,0E0],"parents":[2147483647,0,0,1,1],"right_children":[2,4,-1,-1,-1],"split_conditions":[2.366432E0,1.4666678E-1,1.1192657E1,-2.457475E0,-7.1094364E-1],"split_indices":[0,1,0,0,0],"split_type":[0,0,0,0,0],"sum_hessian":[3.3E1,2.8E1,5E0,2.5E1,3E0],"tree_param":{"num_deleted":"0","num_feature":"2","num_nodes":"5","size_leaf_vector":"1"}},{"base_weights":[4.695327E-1,-4.3834194E1,1.0726298E1,-2.339325E0,-6.8428344E-1],"categories":[],"categories_nodes":[],"categories_segments":[],"categories_sizes":[],"default_left":[0,0,0,0,0],"id":2,"left_children":[1,3,-1,-1,-1],"loss_changes":[3.318425E5,1.940918E3,0E0,0E0,0E0],"parents":[2147483647,0,0,1,1],"right_children":[2,4,-1,-1,-1],"split_conditions":[2.366432E0,1.4666678E-1,1.0726298E1,-2.339325E0,-6.8428344E-1],"split_indices":[0,1,0,0,0],"split_type":[0,0,0,0,0],"sum_hessian":[3.3E1,2.8E1,5E0,2.5E1,3E0],"tree_param":{"num_deleted":"0","num_feature":"2","num_nodes":"5","size_leaf_vector":"1"}},{"base_weights":[6.7262894E-1,-4.1746716E1,1.0279368E1,-2.226856E0,-6.5862125E-1],"categories":[],"categories_nodes":[],"categories_segments":[],"categories_sizes":[],"default_left":[0,0,0,0,0],"id":3,"left_children":[1,3,-1,-1,-1],"loss_changes":[3.0412247E5,1.7256172E3,0E0,0E0,0E0],"parents":[2147483647,0,0,1,1],"right_children":[2,4,-1,-1,-1],"split_conditions":[2.366432E0,1.4666678E-1,1.0279368E1,-2.226856E0,-6.5862125E-1],"split_indices":[0,1,0,0,0],"split_type":[0,0,0,0,0],"sum_hessian":[3.3E1,2.8E1,5E0,2.5E1,3E0],"tree_param":{"num_deleted":"0","num_feature":"2","num_nodes":"5","size_leaf_vector":"1"}},{"base_weights":[8.564453E-1,-3.9758915E1,9.851065E0,-2.119798E0,-6.339203E-1],"categories":[],"categories_nodes":[],"categories_segments":[],"categories_sizes":[],"default_left":[0,0,0,0,0],"id":4,"left_children":[1,3,-1,-1,-1],"loss_changes":[2.7872175E5,1.5334492E3,0E0,0E0,0E0],"parents":[2147483647,0,0,1,1],"right_children":[2,4,-1,-1,-1],"split_conditions":[2.366432E0,1.4666678E-1,9.851065E0,-2.119798E0,-6.339203E-1],"split_indices":[0,1,0,0,0],"split_type":[0,0,0,0,0],"sum_hessian":[3.3E1,2.8E1,5E0,2.5E1,3E0],"tree_param":{"num_deleted":"0","num_feature":"2","num_nodes":"5","size_leaf_vector":"1"}},{"base_weights":[1.0224322E0,-3.786585E1,9.440603E0,-2.0178812E0,-6.101441E-1],"categories":[],"categories_nodes":[],"categories_segments":[],"categories_sizes":[],"default_left":[0,0,0,0,0],"id":5,"left_children":[1,3,-1,-1,-1],"loss_changes":[2.5544523E5,1.3619609E3,0E0,0E0,0E0],"parents":[2147483647,0,0,1,1],"right_children":[2,4,-1,-1,-1],"split_conditions":[2.366432E0,1.4666678E-1,9.440603E0,-2.0178812E0,-6.101441E-1],"split_indices":[0,1,0,0,0],"split_type":[0,0,0,0,0],"sum_hessian":[3.3E1,2.8E1,5E0,2.5E1,3E0],"tree_param":{"num_deleted":"0","num_feature":"2","num_nodes":"5","size_leaf_vector":"1"}},{"base_weights":[1.1716237E0,-3.6063232E1,9.047241E0,-1.9208702E0,-5.87265E-1],"categories":[],"categories_nodes":[],"categories_segments":[],"categories_sizes":[],"default_left":[0,0,0,0,0],"id":6,"left_children":[1,3,-1,-1,-1],"loss_changes":[2.3411564E5,1.2089805E3,0E0,0E0,0E0],"parents":[2147483647,0,0,1,1],"right_children":[2,4,-1,-1,-1],"split_conditions":[2.366432E0,1.4666678E-1,9.047241E0,-1.9208702E0,-5.87265E-1],"split_indices":[0,1,0,0,0],"split_type":[0,0,0,0,0],"sum_hessian":[3.3E1,2.8E1,5E0,2.5E1,3E0],"tree_param":{"num_deleted":"0","num_feature":"2","num_nodes":"5","size_leaf_vector":"1"}},{"base_weights":[1.3053625E0,-3.4346546E1,8.670268E0,-1.8285195E0,-5.652466E-1],"categories":[],"categories_nodes":[],"categories_segments":[],"categories_sizes":[],"default_left":[0,0,0,0,0],"id":7,"left_children":[1,3,-1,-1,-1],"loss_changes":[2.1456944E5,1.0725625E3,0E0,0E0,0E0],"parents":[2147483647,0,0,1,1],"right_children":[2,4,-1,-1,-1],"split_conditions":[2.366432E0,1.4666678E-1,8.670268E0,-1.8285195E0,-5.652466E-1],"split_indices":[0,1,0,0,0],"split_type":[0,0,0,0,0],"sum_hessian":[3.3E1,2.8E1,5E0,2.5E1,3E0],"tree_param":{"num_deleted":"0","num_feature":"2","num_nodes":"5","size_leaf_vector":"1"}},{"base_weights":[1.424776E0,-3.2711685E1,8.309011E0,-3.4812107E1,-5.440521E-1,-3.8193222E1,-1.209093E0,-1.0881836E0,-2.0666416E0],"categories":[],"categories_nodes":[],"categories_segments":[],"categories_sizes":[],"default_left":[0,0,0,0,0,0,0,0,0],"id":8,"left_children":[1,3,-1,5,-1,7,-1,-1,-1],"loss_changes":[1.9665775E5,9.5095703E2,0E0,1.09140625E1,0E0,2.8927734E1,0E0,0E0,0E0],"parents":[2147483647,0,0,1,1,3,3,5,5],"right_children":[2,4,-1,6,-1,8,-1,-1,-1],"split_conditions":[2.366432E0,1.4666678E-1,8.309011E0,-3.614701E-1,-5.440521E-1,-5.8378E-1,-1.209093E0,-1.0881836E0,-2.0666416E0],"split_indices":[0,1,0,1,0,1,0,0,0],"split_type":[0,0,0,0,0,0,0,0,0],"sum_hessian":[3.3E1,2.8E1,5E0,2.5E1,3E0,1.7E1,8E0,4E0,1.3E1],"tree_param":{"num_deleted":"0","num_feature":"2","num_nodes":"9","size_leaf_vector":"1"}},{"base_weights":[1.4535199E0,-3.1245386E1,7.962799E0,-3.323938E1,-5.2365416E-1,-3.6458836E1,-1.1553602E0,-1.0446582E0,-1.97069E0],"categories":[],"categories_nodes":[],"categories_segments":[],"categories_sizes":[],"default_left":[0,0,0,0,0,0,0,0,0],"id":9,"left_children":[1,3,-1,5,-1,7,-1,-1,-1],"loss_changes":[1.8041492E5,8.530586E2,0E0,5.658203E0,0E0,4.4492188E0,0E0,0E0,0E0],"parents":[2147483647,0,0,1,1,3,3,5,5],"right_children":[2,4,-1,6,-1,8,-1,-1,-1],"split_conditions":[2.366432E0,1.4666678E-1,7.962799E0,-3.614701E-1,-5.2365416E-1,-5.8378E-1,-1.1553602E0,-1.0446582E0,-1.97069E0],"split_indices":[0,1,0,1,0,1,0,0,0],"split_type":[0,0,0,0,0,0,0,0,0],"sum_hessian":[3.3E1,2.8E1,5E0,2.5E1,3E0,1.7E1,8E0,4E0,1.3E1],"tree_param":{"num_deleted":"0","num_feature":"2","num_nodes":"9","size_leaf_vector":"1"}},{"base_weights":[1.4769503E0,-2.9845005E1,7.631012E0,-3.173784E1,-5.040161E-1,-1.7401699E0,-1.1040148E0],"categories":[],"categories_nodes":[],"categories_segments":[],"categories_sizes":[],"default_left":[0,0,0,0,0,0,0],"id":10,"left_children":[1,3,-1,5,-1,-1,-1],"loss_changes":[1.6551445E5,7.65E2,0E0,1.28125E0,0E0,0E0,0E0],"parents":[2147483647,0,0,1,1,3,3],"right_children":[2,4,-1,6,-1,-1,-1],"split_conditions":[2.366432E0,1.4666678E-1,7.631012E0,-3.614701E-1,-5.040161E-1,-1.7401699E0,-1.1040148E0],"split_indices":[0,1,0,1,0,0,0],"split_type":[0,0,0,0,0,0,0],"sum_hessian":[3.3E1,2.8E1,5E0,2.5E1,3E0,1.7E1,8E0],"tree_param":{"num_deleted":"0","num_feature":"2","num_nodes":"7","size_leaf_vector":"1"}},{"base_weights":[1.5290743E0,-2.8468185E1,7.3130493E0,-1.5130152E0,-4.8511964E-1],"categories":[],"categories_nodes":[],"categories_segments":[],"categories_sizes":[],"default_left":[0,0,0,0,0],"id":11,"left_children":[1,3,-1,-1,-1],"loss_changes":[1.5177684E5,6.816875E2,0E0,0E0,0E0],"parents":[2147483647,0,0,1,1],"right_children":[2,4,-1,-1,-1],"split_conditions":[2.366432E0,1.4666678E-1,7.3130493E0,-1.5130152E0,-4.8511964E-1],"split_indices":[0,1,0,0,0],"split_type":[0,0,0,0,0],"sum_hessian":[3.3E1,2.8E1,5E0,2.5E1,3E0],"tree_param":{"num_deleted":"0","num_feature":"2","num_nodes":"5","size_leaf_vector":"1"}},{"base_weights":[1.6088939E0,-2.7113745E1,7.0083413E0,-3.1730957E1,-1.7928446E1,-8.727442E-1,-1.7281529E0,-9.877062E-1,-4.669281E-1],"categories":[],"categories_nodes":[],"categories_segments":[],"categories_sizes":[],"default_left":[0,0,0,0,0,0,0,0,0],"id":12,"left_children":[1,3,-1,5,7,-1,-1,-1,-1],"loss_changes":[1.3911192E5,6.610176E2,0E0,1.244707E2,3.7128906E0,0E0,0E0,0E0,0E0],"parents":[2147483647,0,0,1,1,3,3,4,4],"right_children":[2,4,-1,6,8,-1,-1,-1,-1],"split_conditions":[2.366432E0,-3.614701E-1,7.0083413E0,-5.8378E-1,1.4666678E-1,-8.727442E-1,-1.7281529E0,-9.877062E-1,-4.669281E-1],"split_indices":[0,1,0,1,1,0,0,0,0],"split_type":[0,0,0,0,0,0,0,0,0],"sum_hessian":[3.3E1,2.8E1,5E0,1.7E1,1.1E1,4E0,1.3E1,8E0,3E0],"tree_param":{"num_deleted":"0","num_feature":"2","num_nodes":"9","size_leaf_vector":"1"}},{"base_weights":[1.6153852E0,-2.5897806E1,6.716329E0,-3.0288805E1,-8.576579E-1,-8.378321E-1,-1.6479117E0],"categories":[],"categories_nodes":[],"categories_segments":[],"categories_sizes":[],"default_left":[0,0,0,0,0,0,0],"id":13,"left_children":[1,3,-1,5,-1,-1,-1],"loss_changes":[1.2762326E5,5.939863E2,0E0,9.7947266E1,0E0,0E0,0E0],"parents":[2147483647,0,0,1,1,3,3],"right_children":[2,4,-1,6,-1,-1,-1],"split_conditions":[2.366432E0,-3.614701E-1,6.716329E0,-5.8378E-1,-8.576579E-1,-8.378321E-1,-1.6479117E0],"split_indices":[0,1,0,1,0,0,0],"split_type":[0,0,0,0,0,0,0],"sum_hessian":[3.3E1,2.8E1,5E0,1.7E1,1.1E1,4E0,1.3E1],"tree_param":{"num_deleted":"0","num_feature":"2","num_nodes":"7","size_leaf_vector":"1"}},{"base_weights":[1.6338465E0,-2.4718178E1,6.436483E0,-2.8912422E1,-1.6366964E1,-8.0431646E-1,-1.5713998E0,-9.0568584E-1,-4.172516E-1],"categories":[],"categories_nodes":[],"categories_segments":[],"categories_sizes":[],"default_left":[0,0,0,0,0,0,0,0,0],"id":14,"left_children":[1,3,-1,5,7,-1,-1,-1,-1],"loss_changes":[1.1705585E5,5.425762E2,0E0,7.520703E1,1.6988037E1,0E0,0E0,0E0,0E0],"parents":[2147483647,0,0,1,1,3,3,4,4],"right_children":[2,4,-1,6,8,-1,-1,-1,-1],"split_conditions":[2.366432E0,-3.614701E-1,6.436483E0,-5.8378E-1,1.4666678E-1,-8.0431646E-1,-1.5713998E0,-9.0568584E-1,-4.172516E-1],"split_indices":[0,1,0,1,1,0,0,0,0],"split_type":[0,0,0,0,0,0,0,0,0],"sum_hessian":[3.3E1,2.8E1,5E0,1.7E1,1.1E1,4E0,1.3E1,8E0,3E0],"tree_param":{"num_deleted":"0","num_feature":"2","num_nodes":"9","size_leaf_vector":"1"}},{"base_weights":[1.632633E0,-2.3609856E1,6.1682944E0,-2.759889E1,-1.5658813E1,-7.7214843E-1,-1.4984472E0,-8.654297E-1,-4.0160522E-1],"categories":[],"categories_nodes":[],"categories_segments":[],"categories_sizes":[],"default_left":[0,0,0,0,0,0,0,0,0],"id":15,"left_children":[1,3,-1,5,7,-1,-1,-1,-1],"loss_changes":[1.0738956E5,4.8762695E2,0E0,5.5773438E1,1.1964355E1,0E0,0E0,0E0,0E0],"parents":[2147483647,0,0,1,1,3,3,4,4],"right_children":[2,4,-1,6,8,-1,-1,-1,-1],"split_conditions":[2.366432E0,-3.614701E-1,6.1682944E0,-5.8378E-1,1.4666678E-1,-7.7214843E-1,-1.4984472E0,-8.654297E-1,-4.0160522E-1],"split_indices":[0,1,0,1,1,0,0,0,0],"split_type":[0,0,0,0,0,0,0,0,0],"sum_hessian":[3.3E1,2.8E1,5E0,1.7E1,1.1E1,4E0,1.3E1,8E0,3E0],"tree_param":{"num_deleted":"0","num_feature":"2","num_nodes":"9","size_leaf_vector":"1"}},{"base_weights":[1.6284395E0,-2.2551287E1,5.9112854E0,-2.634501E1,-1.4981425E1,-2.0283508E1,-1.6486294E0,-8.26964E-1,-3.865448E-1,-2.7098999E1,-5.772008E-1,-7.4125975E-1,-2.2117004E0],"categories":[],"categories_nodes":[],"categories_segments":[],"categories_sizes":[],"default_left":[0,0,0,0,0,0,0,0,0,0,0,0,0],"id":16,"left_children":[1,3,-1,5,7,9,-1,-1,-1,11,-1,-1,-1],"loss_changes":[9.8522E4,4.3813477E2,0E0,5.431543E1,7.6799316E0,4.0193604E2,0E0,0E0,0E0,6.0609326E2,0E0,0E0,0E0],"parents":[2147483647,0,0,1,1,3,3,4,4,5,5,9,9],"right_children":[2,4,-1,6,8,10,-1,-1,-1,12,-1,-1,-1],"split_conditions":[2.366432E0,-3.614701E-1,5.9112854E0,-4.2498723E-1,1.4666678E-1,-5.39318E-1,-1.6486294E0,-8.26964E-1,-3.865448E-1,-5.8378E-1,-5.772008E-1,-7.4125975E-1,-2.2117004E0],"split_indices":[0,1,0,1,1,1,0,0,0,1,0,0,0],"split_type":[0,0,0,0,0,0,0,0,0,0,0,0,0],"sum_hessian":[3.3E1,2.8E1,5E0,1.7E1,1.1E1,1.1E1,6E0,8E0,3E0,5E0,6E0,4E0,1E0],"tree_param":{"num_deleted":"0","num_feature":"2","num_nodes":"13","size_leaf_vector":"1"}},{"base_weights":[1.5328298E0,-2.1644178E1,5.664978E0,-2.5315483E1,-1.4333537E1,-7.1161133E-1,-2.7465542E1,-7.902127E-1,-3.72052E-1,-2.1564088E0,-2.2943172E1,-5.5246586E-1,-1.5779716E0],"categories":[],"categories_nodes":[],"categories_segments":[],"categories_sizes":[],"default_left":[0,0,0,0,0,0,0,0,0,0,0,0,0],"id":17,"left_children":[1,3,-1,5,7,-1,9,-1,-1,-1,11,-1,-1],"loss_changes":[9.05265E4,4.1548828E2,0E0,3.803711E1,4.0427246E0,0E0,2.1533203E0,0E0,0E0,0E0,9.835376E2,0E0,0E0],"parents":[2147483647,0,0,1,1,3,3,4,4,6,6,10,10],"right_children":[2,4,-1,6,8,-1,10,-1,-1,-1,12,-1,-1],"split_conditions":[2.366432E0,-3.614701E-1,5.664978E0,-5.8378E-1,1.4666678E-1,-7.1161133E-1,-5.39318E-1,-7.902127E-1,-3.72052E-1,-2.1564088E0,-4.2498723E-1,-5.5246586E-1,-1.5779716E0],"split_indices":[0,1,0,1,1,0,1,0,0,0,1,0,0],"split_type":[0,0,0,0,0,0,0,0,0,0,0,0,0],"sum_hessian":[3.3E1,2.8E1,5E0,1.7E1,1.1E1,4E0,1.3E1,8E0,3E0,1E0,1.2E1,6E0,6E0],"tree_param":{"num_deleted":"0","num_feature":"2","num_nodes":"13","size_leaf_vector":"1"}},{"base_weights":[1.4416145E0,-2.077439E1,5.428935E0,-2.4327406E1,-1.3713664E1,-6.831445E-1,-2.6398489E1,-7.55089E-1,-3.5809937E-1,-2.1024964E0,-2.1959923E1,-5.287877E-1,-1.5103481E0],"categories":[],"categories_nodes":[],"categories_segments":[],"categories_sizes":[],"default_left":[0,0,0,0,0,0,0,0,0,0,0,0,0],"id":18,"left_children":[1,3,-1,5,7,-1,9,-1,-1,-1,11,-1,-1],"loss_changes":[8.3181016E4,3.9390234E2,0E0,3.6887695E1,9.7509766E-1,0E0,4.9166016E1,0E0,0E0,0E0,9.0105273E2,0E0,0E0],"parents":[2147483647,0,0,1,1,3,3,4,4,6,6,10,10],"right_children":[2,4,-1,6,8,-1,10,-1,-1,-1,12,-1,-1],"split_conditions":[2.366432E0,-3.614701E-1,5.428935E0,-5.8378E-1,1.4666678E-1,-6.831445E-1,-5.39318E-1,-7.55089E-1,-3.5809937E-1,-2.1024964E0,-4.2498723E-1,-5.287877E-1,-1.5103481E0],"split_indices":[0,1,0,1,1,0,1,0,0,0,1,0,0],"split_type":[0,0,0,0,0,0,0,0,0,0,0,0,0],"sum_hessian":[3.3E1,2.8E1,5E0,1.7E1,1.1E1,4E0,1.3E1,8E0,3E0,1E0,1.2E1,6E0,6E0],"tree_param":{"num_deleted":"0","num_feature":"2","num_nodes":"13","size_leaf_vector":"1"}},{"base_weights":[1.3545568E0,-1.994043E1,5.2027283E0,-2.337911E1,-6.5603536E-1,-6.558203E-1,-2.5374424E1,-2.049933E0,-2.1018818E1,-5.0612444E-1,-1.4456229E0],"categories":[],"categories_nodes":[],"categories_segments":[],"categories_sizes":[],"default_left":[0,0,0,0,0,0,0,0,0,0,0],"id":19,"left_children":[1,3,-1,5,-1,-1,7,-1,9,-1,-1],"loss_changes":[7.6432734E4,3.7332324E2,0E0,3.5770508E1,0E0,0E0,9.099902E1,0E0,8.254863E2,0E0,0E0],"parents":[2147483647,0,0,1,1,3,3,6,6,8,8],"right_children":[2,4,-1,6,-1,-1,8,-1,10,-1,-1],"split_conditions":[2.366432E0,-3.614701E-1,5.2027283E0,-5.8378E-1,-6.5603536E-1,-6.558203E-1,-5.39318E-1,-2.049933E0,-4.2498723E-1,-5.0612444E-1,-1.4456229E0],"split_indices":[0,1,0,1,0,0,1,0,1,0,0],"split_type":[0,0,0,0,0,0,0,0,0,0,0],"sum_hessian":[3.3E1,2.8E1,5E0,1.7E1,1.1E1,4E0,1.3E1,1E0,1.2E1,6E0,6E0],"tree_param":{"num_deleted":"0","num_feature":"2","num_nodes":"11","size_leaf_vector":"1"}},{"base_weights":[1.283555E0,-1.9126667E1,4.985952E0,-2.246894E1,-1.2519368E1,-6.2958986E-1,-2.4391567E1,-6.9237196E-1,-3.2006836E-1,-1.9986817E0,-2.0118052E1,-4.8443428E-1,-1.3836706E0],"categories":[],"categories_nodes":[],"categories_segments":[],"categories_sizes":[],"default_left":[0,0,0,0,0,0,0,0,0,0,0,0,0],"id":20,"left_children":[1,3,-1,5,7,-1,9,-1,-1,-1,11,-1,-1],"loss_changes":[7.021635E4,3.5912207E2,0E0,3.46875E1,8.859131E0,0E0,1.2807129E2,0E0,0E0,0E0,7.562495E2,0E0,0E0],"parents":[2147483647,0,0,1,1,3,3,4,4,6,6,10,10],"right_children":[2,4,-1,6,8,-1,10,-1,-1,-1,12,-1,-1],"split_conditions":[2.366432E0,-3.614701E-1,4.985952E0,-5.8378E-1,1.4666678E-1,-6.2958986E-1,-5.39318E-1,-6.9237196E-1,-3.2006836E-1,-1.9986817E0,-4.2498723E-1,-4.8443428E-1,-1.3836706E0],"split_indices":[0,1,0,1,1,0,1,0,0,0,1,0,0],"split_type":[0,0,0,0,0,0,0,0,0,0,0,0,0],"sum_hessian":[3.3E1,2.8E1,5E0,1.7E1,1.1E1,4E0,1.3E1,8E0,3E0,1E0,1.2E1,6E0,6E0],"tree_param":{"num_deleted":"0","num_feature":"2","num_nodes":"13","size_leaf_vector":"1"}},{"base_weights":[1.204037E0,-1.8360268E1,4.7782087E0,-2.1595255E1,-1.1977763E1,-6.0440433E-1,-2.3448154E1,-6.615994E-1,-3.080658E-1,-1.9487122E0,-1.9255821E1,-4.6367535E-1,-1.3243653E0],"categories":[],"categories_nodes":[],"categories_segments":[],"categories_sizes":[],"default_left":[0,0,0,0,0,0,0,0,0,0,0,0,0],"id":21,"left_children":[1,3,-1,5,7,-1,9,-1,-1,-1,11,-1,-1],"loss_changes":[6.4521656E4,3.4010938E2,0E0,3.3640625E1,6.015259E0,0E0,1.6078662E2,0E0,0E0,0E0,6.927998E2,0E0,0E0],"parents":[2147483647,0,0,1,1,3,3,4,4,6,6,10,10],"right_children":[2,4,-1,6,8,-1,10,-1,-1,-1,12,-1,-1],"split_conditions":[2.366432E0,-3.614701E-1,4.7782087E0,-5.8378E-1,1.4666678E-1,-6.0440433E-1,-5.39318E-1,-6.615994E-1,-3.080658E-1,-1.9487122E0,-4.2498723E-1,-4.6367535E-1,-1.3243653E0],"split_indices":[0,1,0,1,1,0,1,0,0,0,1,0,0],"split_type":[0,0,0,0,0,0,0,0,0,0,0,0,0],"sum_hessian":[3.3E1,2.8E1,5E0,1.7E1,1.1E1,4E0,1.3E1,8E0,3E0,1E0,1.2E1,6E0,6E0],"tree_param":{"num_deleted":"0","num_feature":"2","num_nodes":"13","size_leaf_vector":"1"}},{"base_weights":[1.128181E0,-1.7625353E1,4.579112E0,-2.0756632E1,-1.1459656E1,-5.8022463E-1,-2.2542637E1,-6.32194E-1,-2.9651186E-1,-1.8999939E0,-1.8430552E1,-4.4380578E-1,-1.2676026E0],"categories":[],"categories_nodes":[],"categories_segments":[],"categories_sizes":[],"default_left":[0,0,0,0,0,0,0,0,0,0,0,0,0],"id":22,"left_children":[1,3,-1,5,7,-1,9,-1,-1,-1,11,-1,-1],"loss_changes":[5.92895E4,3.220254E2,0E0,3.2628418E1,3.595581E0,0E0,1.8950244E2,0E0,0E0,0E0,6.346753E2,0E0,0E0],"parents":[2147483647,0,0,1,1,3,3,4,4,6,6,10,10],"right_children":[2,4,-1,6,8,-1,10,-1,-1,-1,12,-1,-1],"split_conditions":[2.366432E0,-3.614701E-1,4.579112E0,-5.8378E-1,1.4666678E-1,-5.8022463E-1,-5.39318E-1,-6.32194E-1,-2.9651186E-1,-1.8999939E0,-4.2498723E-1,-4.4380578E-1,-1.2676026E0],"split_indices":[0,1,0,1,1,0,1,0,0,0,1,0,0],"split_type":[0,0,0,0,0,0,0,0,0,0,0,0,0],"sum_hessian":[3.3E1,2.8E1,5E0,1.7E1,1.1E1,4E0,1.3E1,8E0,3E0,1E0,1.2E1,6E0,6E0],"tree_param":{"num_deleted":"0","num_feature":"2","num_nodes":"13","size_leaf_vector":"1"}},{"base_weights":[1.0558507E0,-1.6920654E1,4.388316E0,-1.9951647E1,-1.0964111E1,-5.570117E-1,-2.1673462E1,-6.041016E-1,-2.853882E-1,-1.8524964E0,-1.7640663E1,-4.2478377E-1,-1.2132777E0],"categories":[],"categories_nodes":[],"categories_segments":[],"categories_sizes":[],"default_left":[0,0,0,0,0,0,0,0,0,0,0,0,0],"id":23,"left_children":[1,3,-1,5,7,-1,9,-1,-1,-1,11,-1,-1],"loss_changes":[5.4482605E4,3.048213E2,0E0,3.1641602E1,1.5526123E0,0E0,2.1455762E2,0E0,0E0,0E0,5.814468E2,0E0,0E0],"parents":[2147483647,0,0,1,1,3,3,4,4,6,6,10,10],"right_children":[2,4,-1,6,8,-1,10,-1,-1,-1,12,-1,-1],"split_conditions":[2.366432E0,-3.614701E-1,4.388316E0,-5.8378E-1,1.4666678E-1,-5.570117E-1,-5.39318E-1,-6.041016E-1,-2.853882E-1,-1.8524964E0,-4.2498723E-1,-4.2478377E-1,-1.2132777E0],"split_indices":[0,1,0,1,1,0,1,0,0,0,1,0,0],"split_type":[0,0,0,0,0,0,0,0,0,0,0,0,0],"sum_hessian":[3.3E1,2.8E1,5E0,1.7E1,1.1E1,4E0,1.3E1,8E0,3E0,1E0,1.2E1,6E0,6E0],"tree_param":{"num_deleted":"0","num_feature":"2","num_nodes":"13","size_leaf_vector":"1"}},{"base_weights":[9.8691696E-1,-1.6244848E1,4.205465E0,-1.917886E1,-5.245046E-1,-5.3472656E-1,-2.083906E1,-1.8061829E0,-1.6884579E1,-4.0657783E-1,-1.1612757E0],"categories":[],"categories_nodes":[],"categories_segments":[],"categories_sizes":[],"default_left":[0,0,0,0,0,0,0,0,0,0,0],"id":24,"left_children":[1,3,-1,5,-1,-1,7,-1,9,-1,-1],"loss_changes":[5.006608E4,2.884629E2,0E0,3.067871E1,0E0,0E0,2.3626416E2,0E0,5.3267114E2,0E0,0E0],"parents":[2147483647,0,0,1,1,3,3,6,6,8,8],"right_children":[2,4,-1,6,-1,-1,8,-1,10,-1,-1],"split_conditions":[2.366432E0,-3.614701E-1,4.205465E0,-5.8378E-1,-5.245046E-1,-5.3472656E-1,-5.39318E-1,-1.8061829E0,-4.2498723E-1,-4.0657783E-1,-1.1612757E0],"split_indices":[0,1,0,1,0,0,1,0,1,0,0],"split_type":[0,0,0,0,0,0,0,0,0,0,0],"sum_hessian":[3.3E1,2.8E1,5E0,1.7E1,1.1E1,4E0,1.3E1,1E0,1.2E1,6E0,6E0],"tree_param":{"num_deleted":"0","num_feature":"2","num_nodes":"11","size_leaf_vector":"1"}},{"base_weights":[9.30822E-1,-1.5585517E1,4.030233E0,-1.843708E1,-1.0009379E1,-5.133399E-1,-2.0038103E1,-5.5394965E-1,-2.5502014E-1,-1.7610291E0,-1.6160946E1,-3.8915667E-1,-1.1115025E0],"categories":[],"categories_nodes":[],"categories_segments":[],"categories_sizes":[],"default_left":[0,0,0,0,0,0,0,0,0,0,0,0,0],"id":25,"left_children":[1,3,-1,5,7,-1,9,-1,-1,-1,11,-1,-1],"loss_changes":[4.5997543E4,2.7657617E2,0E0,2.9728027E1,6.5010986E0,0E0,2.5491016E2,0E0,0E0,0E0,4.8797607E2,0E0,0E0],"parents":[2147483647,0,0,1,1,3,3,4,4,6,6,10,10],"right_children":[2,4,-1,6,8,-1,10,-1,-1,-1,12,-1,-1],"split_conditions":[2.366432E0,-3.614701E-1,4.030233E0,-5.8378E-1,1.4666678E-1,-5.133399E-1,-5.39318E-1,-5.5394965E-1,-2.5502014E-1,-1.7610291E0,-4.2498723E-1,-3.8915667E-1,-1.1115025E0],"split_indices":[0,1,0,1,1,0,1,0,0,0,1,0,0],"split_type":[0,0,0,0,0,0,0,0,0,0,0,0,0],"sum_hessian":[3.3E1,2.8E1,5E0,1.7E1,1.1E1,4E0,1.3E1,8E0,3E0,1E0,1.2E1,6E0,6E0],"tree_param":{"num_deleted":"0","num_feature":"2","num_nodes":"13","size_leaf_vector":"1"}},{"base_weights":[8.680205E-1,-1.4964272E1,3.8623047E0,-1.7724907E1,-9.576294E0,-4.928027E-1,-1.9269148E1,-5.293295E-1,-2.4545288E-1,-1.7170044E0,-1.5468299E1,-3.7247837E-1,-1.0638636E0],"categories":[],"categories_nodes":[],"categories_segments":[],"categories_sizes":[],"default_left":[0,0,0,0,0,0,0,0,0,0,0,0,0],"id":26,"left_children":[1,3,-1,5,7,-1,9,-1,-1,-1,11,-1,-1],"loss_changes":[4.227009E4,2.6161426E2,0E0,2.8807129E1,4.6132812E0,0E0,2.7077002E2,0E0,0E0,0E0,4.4704126E2,0E0,0E0],"parents":[2147483647,0,0,1,1,3,3,4,4,6,6,10,10],"right_children":[2,4,-1,6,8,-1,10,-1,-1,-1,12,-1,-1],"split_conditions":[2.366432E0,-3.614701E-1,3.8623047E0,-5.8378E-1,1.4666678E-1,-4.928027E-1,-5.39318E-1,-5.293295E-1,-2.4545288E-1,-1.7170044E0,-4.2498723E-1,-3.7247837E-1,-1.0638636E0],"split_indices":[0,1,0,1,1,0,1,0,0,0,1,0,0],"split_type":[0,0,0,0,0,0,0,0,0,0,0,0,0],"sum_hessian":[3.3E1,2.8E1,5E0,1.7E1,1.1E1,4E0,1.3E1,8E0,3E0,1E0,1.2E1,6E0,6E0],"tree_param":{"num_deleted":"0","num_feature":"2","num_nodes":"13","size_leaf_vector":"1"}},{"base_weights":[8.082204E-1,-1.4368467E1,3.7013752E0,-1.7041138E1,-9.162089E0,-4.7308594E-1,-1.853085E1,-5.0580513E-1,-2.3625183E-1,-1.6740783E0,-1.4805288E1,-3.5651156E-1,-1.0182652E0],"categories":[],"categories_nodes":[],"categories_segments":[],"categories_sizes":[],"default_left":[0,0,0,0,0,0,0,0,0,0,0,0,0],"id":27,"left_children":[1,3,-1,5,7,-1,9,-1,-1,-1,11,-1,-1],"loss_changes":[3.884535E4,2.4740088E2,0E0,2.7907227E1,2.9971924E0,0E0,2.8409277E2,0E0,0E0,0E0,4.095454E2,0E0,0E0],"parents":[2147483647,0,0,1,1,3,3,4,4,6,6,10,10],"right_children":[2,4,-1,6,8,-1,10,-1,-1,-1,12,-1,-1],"split_conditions":[2.366432E0,-3.614701E-1,3.7013752E0,-5.8378E-1,1.4666678E-1,-4.7308594E-1,-5.39318E-1,-5.0580513E-1,-2.3625183E-1,-1.6740783E0,-4.2498723E-1,-3.5651156E-1,-1.0182652E0],"split_indices":[0,1,0,1,1,0,1,0,0,0,1,0,0],"split_type":[0,0,0,0,0,0,0,0,0,0,0,0,0],"sum_hessian":[3.3E1,2.8E1,5E0,1.7E1,1.1E1,4E0,1.3E1,8E0,3E0,1E0,1.2E1,6E0,6E0],"tree_param":{"num_deleted":"0","num_feature":"2","num_nodes":"13","size_leaf_vector":"1"}},{"base_weights":[7.5127816E-1,-1.3797051E1,3.5471497E0,-1.6384739E1,-8.765767E0,-4.5416018E-1,-1.7822092E1,-4.8332247E-1,-2.2738953E-1,-1.6322266E0,-1.4170786E1,-3.4123537E-1,-9.746233E-1],"categories":[],"categories_nodes":[],"categories_segments":[],"categories_sizes":[],"default_left":[0,0,0,0,0,0,0,0,0,0,0,0,0],"id":28,"left_children":[1,3,-1,5,7,-1,9,-1,-1,-1,11,-1,-1],"loss_changes":[3.569866E4,2.339375E2,0E0,2.7025879E1,1.6276855E0,0E0,2.9509912E2,0E0,0E0,0E0,3.751848E2,0E0,0E0],"parents":[2147483647,0,0,1,1,3,3,4,4,6,6,10,10],"right_children":[2,4,-1,6,8,-1,10,-1,-1,-1,12,-1,-1],"split_conditions":[2.366432E0,-3.614701E-1,3.5471497E0,-5.8378E-1,1.4666678E-1,-4.5416018E-1,-5.39318E-1,-4.8332247E-1,-2.2738953E-1,-1.6322266E0,-4.2498723E-1,-3.4123537E-1,-9.746233E-1],"split_indices":[0,1,0,1,1,0,1,0,0,0,1,0,0],"split_type":[0,0,0,0,0,0,0,0,0,0,0,0,0],"sum_hessian":[3.3E1,2.8E1,5E0,1.7E1,1.1E1,4E0,1.3E1,8E0,3E0,1E0,1.2E1,6E0,6E0],"tree_param":{"num_deleted":"0","num_feature":"2","num_nodes":"13","size_leaf_vector":"1"}},{"base_weights":[6.970933E-1,-1.3249006E1,3.399353E0,-1.5754503E1,-8.386678E0,-4.3599612E-1,-1.7141531E1,-4.618381E-1,-2.1886598E-1,-1.5914185E0,-1.3563439E1,-3.2660785E-1,-9.3285435E-1],"categories":[],"categories_nodes":[],"categories_segments":[],"categories_sizes":[],"default_left":[0,0,0,0,0,0,0,0,0,0,0,0,0],"id":29,"left_children":[1,3,-1,5,7,-1,9,-1,-1,-1,11,-1,-1],"loss_changes":[3.280747E4,2.2116602E2,0E0,2.615625E1,4.6722412E-1,0E0,3.0401025E2,0E0,0E0,0E0,3.437224E2,0E0,0E0],"parents":[2147483647,0,0,1,1,3,3,4,4,6,6,10,10],"right_children":[2,4,-1,6,8,-1,10,-1,-1,-1,12,-1,-1],"split_conditions":[2.366432E0,-3.614701E-1,3.399353E0,-5.8378E-1,1.4666678E-1,-4.3599612E-1,-5.39318E-1,-4.618381E-1,-2.1886598E-1,-1.5914185E0,-4.2498723E-1,-3.2660785E-1,-9.3285435E-1],"split_indices":[0,1,0,1,1,0,1,0,0,0,1,0,0],"split_type":[0,0,0,0,0,0,0,0,0,0,0,0,0],"sum_hessian":[3.3E1,2.8E1,5E0,1.7E1,1.1E1,4E0,1.3E1,8E0,3E0,1E0,1.2E1,6E0,6E0],"tree_param":{"num_deleted":"0","num_feature":"2","num_nodes":"13","size_leaf_vector":"1"}},{"base_weights":[6.4553654E-1,-1.2723347E1,3.2577107E0,-1.514936E1,-4.012024E-1,-4.185547E-1,-1.6488071E1,-1.5516357E0,-1.2982121E1,-3.1260812E-1,-8.9287466E-1],"categories":[],"categories_nodes":[],"categories_segments":[],"categories_sizes":[],"default_left":[0,0,0,0,0,0,0,0,0,0,0],"id":30,"left_children":[1,3,-1,5,-1,-1,7,-1,9,-1,-1],"loss_changes":[3.0150885E4,2.0905713E2,0E0,2.5311523E1,0E0,0E0,3.1102856E2,0E0,3.148955E2,0E0,0E0],"parents":[2147483647,0,0,1,1,3,3,6,6,8,8],"right_children":[2,4,-1,6,-1,-1,8,-1,10,-1,-1],"split_conditions":[2.366432E0,-3.614701E-1,3.2577107E0,-5.8378E-1,-4.012024E-1,-4.185547E-1,-5.39318E-1,-1.5516357E0,-4.2498723E-1,-3.1260812E-1,-8.9287466E-1],"split_indices":[0,1,0,1,0,0,1,0,1,0,0],"split_type":[0,0,0,0,0,0,0,0,0,0,0],"sum_hessian":[3.3E1,2.8E1,5E0,1.7E1,1.1E1,4E0,1.3E1,1E0,1.2E1,6E0,6E0],"tree_param":{"num_deleted":"0","num_feature":"2","num_nodes":"11","size_leaf_vector":"1"}},{"base_weights":[6.0379565E-1,-1.2210592E1,3.1219687E0,-1.4568386E1,-7.6563516E0,-4.0181643E-1,-1.5860665E1,-4.234809E-1,-1.9562073E-1,-1.5128418E0,-1.2425818E1,-2.992153E-1,-8.5461074E-1],"categories":[],"categories_nodes":[],"categories_segments":[],"categories_sizes":[],"default_left":[0,0,0,0,0,0,0,0,0,0,0,0,0],"id":31,"left_children":[1,3,-1,5,7,-1,9,-1,-1,-1,11,-1,-1],"loss_changes":[2.7703516E4,1.9986035E2,0E0,2.4480469E1,3.401123E0,0E0,3.163152E2,0E0,0E0,0E0,2.8847754E2,0E0,0E0],"parents":[2147483647,0,0,1,1,3,3,4,4,6,6,10,10],"right_children":[2,4,-1,6,8,-1,10,-1,-1,-1,12,-1,-1],"split_conditions":[2.366432E0,-3.614701E-1,3.1219687E0,-5.8378E-1,1.4666678E-1,-4.0181643E-1,-5.39318E-1,-4.234809E-1,-1.9562073E-1,-1.5128418E0,-4.2498723E-1,-2.992153E-1,-8.5461074E-1],"split_indices":[0,1,0,1,1,0,1,0,0,0,1,0,0],"split_type":[0,0,0,0,0,0,0,0,0,0,0,0,0],"sum_hessian":[3.3E1,2.8E1,5E0,1.7E1,1.1E1,4E0,1.3E1,8E0,3E0,1E0,1.2E1,6E0,6E0],"tree_param":{"num_deleted":"0","num_feature":"2","num_nodes":"13","size_leaf_vector":"1"}},{"base_weights":[5.569781E-1,-1.1727194E1,2.9918823E0,-1.401043E1,-7.3250732E0,-3.857422E-1,-1.5258109E1,-4.0465495E-1,-1.8828736E-1,-1.4750184E0,-1.1893291E1,-2.863874E-1,-8.1798965E-1],"categories":[],"categories_nodes":[],"categories_segments":[],"categories_sizes":[],"default_left":[0,0,0,0,0,0,0,0,0,0,0,0,0],"id":32,"left_children":[1,3,-1,5,7,-1,9,-1,-1,-1,11,-1,-1],"loss_changes":[2.5461002E4,1.8885376E2,0E0,2.3673584E1,2.3272705E0,0E0,3.200598E2,0E0,0E0,0E0,2.6429468E2,0E0,0E0],"parents":[2147483647,0,0,1,1,3,3,4,4,6,6,10,10],"right_children":[2,4,-1,6,8,-1,10,-1,-1,-1,12,-1,-1],"split_conditions":[2.366432E0,-3.614701E-1,2.9918823E0,-5.8378E-1,1.4666678E-1,-3.857422E-1,-5.39318E-1,-4.0465495E-1,-1.8828736E-1,-1.4750184E0,-4.2498723E-1,-2.863874E-1,-8.1798965E-1],"split_indices":[0,1,0,1,1,0,1,0,0,0,1,0,0],"split_type":[0,0,0,0,0,0,0,0,0,0,0,0,0],"sum_hessian":[3.3E1,2.8E1,5E0,1.7E1,1.1E1,4E0,1.3E1,8E0,3E0,1E0,1.2E1,6E0,6E0],"tree_param":{"num_deleted":"0","num_feature":"2","num_nodes":"13","size_leaf_vector":"1"}},{"base_weights":[5.124153E-1,-1.1263588E1,2.867218E0,-1.3474677E1,-7.0083213E0,-3.703125E-1,-1.4679496E1,-3.8667536E-1,-1.8122864E-1,-1.4381409E0,-1.1383638E1,-2.741141E-1,-7.8293806E-1],"categories":[],"categories_nodes":[],"categories_segments":[],"categories_sizes":[],"default_left":[0,0,0,0,0,0,0,0,0,0,0,0,0],"id":33,"left_children":[1,3,-1,5,7,-1,9,-1,-1,-1,11,-1,-1],"loss_changes":[2.340051E4,1.7841943E2,0E0,2.2884277E1,1.4155273E0,0E0,3.2240723E2,0E0,0E0,0E0,2.4213159E2,0E0,0E0],"parents":[2147483647,0,0,1,1,3,3,4,4,6,6,10,10],"right_children":[2,4,-1,6,8,-1,10,-1,-1,-1,12,-1,-1],"split_conditions":[2.366432E0,-3.614701E-1,2.867218E0,-5.8378E-1,1.4666678E-1,-3.703125E-1,-5.39318E-1,-3.8667536E-1,-1.8122864E-1,-1.4381409E0,-4.2498723E-1,-2.741141E-1,-7.8293806E-1],"split_indices":[0,1,0,1,1,0,1,0,0,0,1,0,0],"split_type":[0,0,0,0,0,0,0,0,0,0,0,0,0],"sum_hessian":[3.3E1,2.8E1,5E0,1.7E1,1.1E1,4E0,1.3E1,8E0,3E0,1E0,1.2E1,6E0,6E0],"tree_param":{"num_deleted":"0","num_feature":"2","num_nodes":"13","size_leaf_vector":"1"}},{"base_weights":[4.7017175E-1,-1.0818772E1,2.747752E0,-1.2960096E1,-6.7052207E0,-3.5549805E-1,-1.412371E1,-3.6948785E-1,-1.7443542E-1,-1.4021851E0,-1.0895733E1,-2.62364E-1,-7.493827E-1],"categories":[],"categories_nodes":[],"categories_segments":[],"categories_sizes":[],"default_left":[0,0,0,0,0,0,0,0,0,0,0,0,0],"id":34,"left_children":[1,3,-1,5,7,-1,9,-1,-1,-1,11,-1,-1],"loss_changes":[2.150715E4,1.6854492E2,0E0,2.2112305E1,6.411133E-1,0E0,3.2351074E2,0E0,0E0,0E0,2.2182483E2,0E0,0E0],"parents":[2147483647,0,0,1,1,3,3,4,4,6,6,10,10],"right_children":[2,4,-1,6,8,-1,10,-1,-1,-1,12,-1,-1],"split_conditions":[2.366432E0,-3.614701E-1,2.747752E0,-5.8378E-1,1.4666678E-1,-3.5549805E-1,-5.39318E-1,-3.6948785E-1,-1.7443542E-1,-1.4021851E0,-4.2498723E-1,-2.62364E-1,-7.493827E-1],"split_indices":[0,1,0,1,1,0,1,0,0,0,1,0,0],"split_type":[0,0,0,0,0,0,0,0,0,0,0,0,0],"sum_hessian":[3.3E1,2.8E1,5E0,1.7E1,1.1E1,4E0,1.3E1,8E0,3E0,1E0,1.2E1,6E0,6E0],"tree_param":{"num_deleted":"0","num_feature":"2","num_nodes":"13","size_leaf_vector":"1"}},{"base_weights":[4.2997473E-1,-1.039214E1,2.6332603E0,-1.2465969E1,-3.2076925E-1,-3.412793E-1,-1.3589966E1,-1.3671325E0,-1.0428786E1,-2.5111607E-1,-7.172712E-1],"categories":[],"categories_nodes":[],"categories_segments":[],"categories_sizes":[],"default_left":[0,0,0,0,0,0,0,0,0,0,0],"id":35,"left_children":[1,3,-1,5,-1,-1,7,-1,9,-1,-1],"loss_changes":[1.9767355E4,1.5919214E2,0E0,2.1356445E1,0E0,0E0,3.2349536E2,0E0,2.0322986E2,0E0,0E0],"parents":[2147483647,0,0,1,1,3,3,6,6,8,8],"right_children":[2,4,-1,6,-1,-1,8,-1,10,-1,-1],"split_conditions":[2.366432E0,-3.614701E-1,2.6332603E0,-5.8378E-1,-3.2076925E-1,-3.412793E-1,-5.39318E-1,-1.3671325E0,-4.2498723E-1,-2.5111607E-1,-7.172712E-1],"split_indices":[0,1,0,1,0,0,1,0,1,0,0],"split_type":[0,0,0,0,0,0,0,0,0,0,0],"sum_hessian":[3.3E1,2.8E1,5E0,1.7E1,1.1E1,4E0,1.3E1,1E0,1.2E1,6E0,6E0],"tree_param":{"num_deleted":"0","num_feature":"2","num_nodes":"11","size_leaf_vector":"1"}},{"base_weights":[3.9779124E-1,-9.975855E0,2.5235393E0,-1.1991333E1,-6.1213174E0,-3.2762694E-1,-1.3077235E1,-3.3881292E-1,-1.5586853E-1,-1.3329529E0,-9.981783E0,-2.4034946E-1,-6.865304E-1],"categories":[],"categories_nodes":[],"categories_segments":[],"categories_sizes":[],"default_left":[0,0,0,0,0,0,0,0,0,0,0,0,0],"id":36,"left_children":[1,3,-1,5,7,-1,9,-1,-1,-1,11,-1,-1],"loss_changes":[1.8164434E4,1.5189038E2,0E0,2.0618896E1,2.4848328E0,0E0,3.2248145E2,0E0,0E0,0E0,1.8618909E2,0E0,0E0],"parents":[2147483647,0,0,1,1,3,3,4,4,6,6,10,10],"right_children":[2,4,-1,6,8,-1,10,-1,-1,-1,12,-1,-1],"split_conditions":[2.366432E0,-3.614701E-1,2.5235393E0,-5.8378E-1,1.4666678E-1,-3.2762694E-1,-5.39318E-1,-3.3881292E-1,-1.5586853E-1,-1.3329529E0,-4.2498723E-1,-2.4034946E-1,-6.865304E-1],"split_indices":[0,1,0,1,1,0,1,0,0,0,1,0,0],"split_type":[0,0,0,0,0,0,0,0,0,0,0,0,0],"sum_hessian":[3.3E1,2.8E1,5E0,1.7E1,1.1E1,4E0,1.3E1,8E0,3E0,1E0,1.2E1,6E0,6E0],"tree_param":{"num_deleted":"0","num_feature":"2","num_nodes":"13","size_leaf_vector":"1"}},{"base_weights":[3.6147174E-1,-9.583362E0,2.418396E0,-1.1535549E1,-5.856466E0,-3.145215E-1,-1.2584839E1,-3.2375216E-1,-1.5002747E-1,-1.2996277E0,-9.554049E0,-2.3005371E-1,-6.57108E-1],"categories":[],"categories_nodes":[],"categories_segments":[],"categories_sizes":[],"default_left":[0,0,0,0,0,0,0,0,0,0,0,0,0],"id":37,"left_children":[1,3,-1,5,7,-1,9,-1,-1,-1,11,-1,-1],"loss_changes":[1.6695674E4,1.4343506E2,0E0,1.9901855E1,1.7705994E0,0E0,3.2056934E2,0E0,0E0,0E0,1.7056567E2,0E0,0E0],"parents":[2147483647,0,0,1,1,3,3,4,4,6,6,10,10],"right_children":[2,4,-1,6,8,-1,10,-1,-1,-1,12,-1,-1],"split_conditions":[2.366432E0,-3.614701E-1,2.418396E0,-5.8378E-1,1.4666678E-1,-3.145215E-1,-5.39318E-1,-3.2375216E-1,-1.5002747E-1,-1.2996277E0,-4.2498723E-1,-2.3005371E-1,-6.57108E-1],"split_indices":[0,1,0,1,1,0,1,0,0,0,1,0,0],"split_type":[0,0,0,0,0,0,0,0,0,0,0,0,0],"sum_hessian":[3.3E1,2.8E1,5E0,1.7E1,1.1E1,4E0,1.3E1,8E0,3E0,1E0,1.2E1,6E0,6E0],"tree_param":{"num_deleted":"0","num_feature":"2","num_nodes":"13","size_leaf_vector":"1"}},{"base_weights":[3.2701918E-1,-9.206779E0,2.317627E0,-1.1097737E1,-5.603109E0,-3.0194336E-1,-1.2111781E1,-3.0936417E-1,-1.4439698E-1,-1.2671387E0,-9.144568E0,-2.2019742E-1,-6.289411E-1],"categories":[],"categories_nodes":[],"categories_segments":[],"categories_sizes":[],"default_left":[0,0,0,0,0,0,0,0,0,0,0,0,0],"id":38,"left_children":[1,3,-1,5,7,-1,9,-1,-1,-1,11,-1,-1],"loss_changes":[1.534589E4,1.3543555E2,0E0,1.9197266E1,1.1651001E0,0E0,3.1787964E2,0E0,0E0,0E0,1.5624988E2,0E0,0E0],"parents":[2147483647,0,0,1,1,3,3,4,4,6,6,10,10],"right_children":[2,4,-1,6,8,-1,10,-1,-1,-1,12,-1,-1],"split_conditions":[2.366432E0,-3.614701E-1,2.317627E0,-5.8378E-1,1.4666678E-1,-3.0194336E-1,-5.39318E-1,-3.0936417E-1,-1.4439698E-1,-1.2671387E0,-4.2498723E-1,-2.2019742E-1,-6.289411E-1],"split_indices":[0,1,0,1,1,0,1,0,0,0,1,0,0],"split_type":[0,0,0,0,0,0,0,0,0,0,0,0,0],"sum_hessian":[3.3E1,2.8E1,5E0,1.7E1,1.1E1,4E0,1.3E1,8E0,3E0,1E0,1.2E1,6E0,6E0],"tree_param":{"num_deleted":"0","num_feature":"2","num_nodes":"13","size_leaf_vector":"1"}},{"base_weights":[2.9434744E-1,-8.845492E0,2.2210593E0,-1.0677192E1,-5.3608193E0,-2.898633E-1,-1.1657366E1,-2.9561633E-1,-1.3898621E-1,-1.2354615E0,-8.752666E0,-2.1075962E-1,-6.01988E-1],"categories":[],"categories_nodes":[],"categories_segments":[],"categories_sizes":[],"default_left":[0,0,0,0,0,0,0,0,0,0,0,0,0],"id":39,"left_children":[1,3,-1,5,7,-1,9,-1,-1,-1,11,-1,-1],"loss_changes":[1.4105543E4,1.27864746E2,0E0,1.8516357E1,6.4727783E-1,0E0,3.1449268E2,0E0,0E0,0E0,1.4314642E2,0E0,0E0],"parents":[2147483647,0,0,1,1,3,3,4,4,6,6,10,10],"right_children":[2,4,-1,6,8,-1,10,-1,-1,-1,12,-1,-1],"split_conditions":[2.366432E0,-3.614701E-1,2.2210593E0,-5.8378E-1,1.4666678E-1,-2.898633E-1,-5.39318E-1,-2.9561633E-1,-1.3898621E-1,-1.2354615E0,-4.2498723E-1,-2.1075962E-1,-6.01988E-1],"split_indices":[0,1,0,1,1,0,1,0,0,0,1,0,0],"split_type":[0,0,0,0,0,0,0,0,0,0,0,0,0],"sum_hessian":[3.3E1,2.8E1,5E0,1.7E1,1.1E1,4E0,1.3E1,8E0,3E0,1E0,1.2E1,6E0,6E0],"tree_param":{"num_deleted":"0","num_feature":"2","num_nodes":"13","size_leaf_vector":"1"}},{"base_weights":[2.6341337E-1,-8.498838E0,2.1285198E0,-1.0273248E1,-5.128988E0,-2.782715E-1,-1.1220808E1,-2.8247616E-1,-1.3377686E-1,-1.2045777E0,-8.377554E0,-2.0172992E-1,-5.761859E-1],"categories":[],"categories_nodes":[],"categories_segments":[],"categories_sizes":[],"default_left":[0,0,0,0,0,0,0,0,0,0,0,0,0],"id":40,"left_children":[1,3,-1,5,7,-1,9,-1,-1,-1,11,-1,-1],"loss_changes":[1.2965748E4,1.2071411E2,0E0,1.7848267E1,2.0980835E-1,0E0,3.1049878E2,0E0,0E0,0E0,1.3113379E2,0E0,0E0],"parents":[2147483647,0,0,1,1,3,3,4,4,6,6,10,10],"right_children":[2,4,-1,6,8,-1,10,-1,-1,-1,12,-1,-1],"split_conditions":[2.366432E0,-3.614701E-1,2.1285198E0,-5.8378E-1,1.4666678E-1,-2.782715E-1,-5.39318E-1,-2.8247616E-1,-1.3377686E-1,-1.2045777E0,-4.2498723E-1,-2.0172992E-1,-5.761859E-1],"split_indices":[0,1,0,1,1,0,1,0,0,0,1,0,0],"split_type":[0,0,0,0,0,0,0,0,0,0,0,0,0],"sum_hessian":[3.3E1,2.8E1,5E0,1.7E1,1.1E1,4E0,1.3E1,8E0,3E0,1E0,1.2E1,6E0,6E0],"tree_param":{"num_deleted":"0","num_feature":"2","num_nodes":"13","size_leaf_vector":"1"}},{"base_weights":[2.341165E-1,-8.166218E0,2.0398357E0,-9.8852E0,-2.4536133E-1,-2.671387E-1,-1.0801409E1,-1.1744629E0,-8.018555E0,-1.9308732E-1,-5.5149275E-1],"categories":[],"categories_nodes":[],"categories_segments":[],"categories_sizes":[],"default_left":[0,0,0,0,0,0,0,0,0,0,0],"id":41,"left_children":[1,3,-1,5,-1,-1,7,-1,9,-1,-1],"loss_changes":[1.1918293E4,1.1395337E2,0E0,1.7203247E1,0E0,0E0,3.0596826E2,0E0,1.2013159E2,0E0,0E0],"parents":[2147483647,0,0,1,1,3,3,6,6,8,8],"right_children":[2,4,-1,6,-1,-1,8,-1,10,-1,-1],"split_conditions":[2.366432E0,-3.614701E-1,2.0398357E0,-5.8378E-1,-2.4536133E-1,-2.671387E-1,-5.39318E-1,-1.1744629E0,-4.2498723E-1,-1.9308732E-1,-5.5149275E-1],"split_indices":[0,1,0,1,0,0,1,0,1,0,0],"split_type":[0,0,0,0,0,0,0,0,0,0,0],"sum_hessian":[3.3E1,2.8E1,5E0,1.7E1,1.1E1,4E0,1.3E1,1E0,1.2E1,6E0,6E0],"tree_param":{"num_deleted":"0","num_feature":"2","num_nodes":"11","size_leaf_vector":"1"}},{"base_weights":[2.109016E-1,-7.8417463E0,1.9548441E0,-9.512383E0,-4.682312E0,-2.564551E-1,-1.0398385E1,-2.5901693E-1,-1.19558714E-1,-1.1450989E0,-7.67488E0,-1.8481097E-1,-5.2785647E-1],"categories":[],"categories_nodes":[],"categories_segments":[],"categories_sizes":[],"default_left":[0,0,0,0,0,0,0,0,0,0,0,0,0],"id":42,"left_children":[1,3,-1,5,7,-1,9,-1,-1,-1,11,-1,-1],"loss_changes":[1.0953182E4,1.0852966E2,0E0,1.6570435E1,1.305481E0,0E0,3.0098047E2,0E0,0E0,0E0,1.1005597E2,0E0,0E0],"parents":[2147483647,0,0,1,1,3,3,4,4,6,6,10,10],"right_children":[2,4,-1,6,8,-1,10,-1,-1,-1,12,-1,-1],"split_conditions":[2.366432E0,-3.614701E-1,1.9548441E0,-5.8378E-1,1.4666678E-1,-2.564551E-1,-5.39318E-1,-2.5901693E-1,-1.19558714E-1,-1.1450989E0,-4.2498723E-1,-1.8481097E-1,-5.2785647E-1],"split_indices":[0,1,0,1,1,0,1,0,0,0,1,0,0],"split_type":[0,0,0,0,0,0,0,0,0,0,0,0,0],"sum_hessian":[3.3E1,2.8E1,5E0,1.7E1,1.1E1,4E0,1.3E1,8E0,3E0,1E0,1.2E1,6E0,6E0],"tree_param":{"num_deleted":"0","num_feature":"2","num_nodes":"13","size_leaf_vector":"1"}},{"base_weights":[1.8452723E-1,-7.535628E0,1.8733927E0,-9.154256E0,-4.479716E0,-2.4620119E-1,-1.0011178E1,-2.4750434E-1,-1.1507263E-1,-1.1164734E0,-7.345966E0,-1.7689036E-1,-5.052351E-1],"categories":[],"categories_nodes":[],"categories_segments":[],"categories_sizes":[],"default_left":[0,0,0,0,0,0,0,0,0,0,0,0,0],"id":43,"left_children":[1,3,-1,5,7,-1,9,-1,-1,-1,11,-1,-1],"loss_changes":[1.0068669E4,1.0243677E2,0E0,1.5954346E1,9.026947E-1,0E0,2.9560046E2,0E0,0E0,0E0,1.0082562E2,0E0,0E0],"parents":[2147483647,0,0,1,1,3,3,4,4,6,6,10,10],"right_children":[2,4,-1,6,8,-1,10,-1,-1,-1,12,-1,-1],"split_conditions":[2.366432E0,-3.614701E-1,1.8733927E0,-5.8378E-1,1.4666678E-1,-2.4620119E-1,-5.39318E-1,-2.4750434E-1,-1.1507263E-1,-1.1164734E0,-4.2498723E-1,-1.7689036E-1,-5.052351E-1],"split_indices":[0,1,0,1,1,0,1,0,0,0,1,0,0],"split_type":[0,0,0,0,0,0,0,0,0,0,0,0,0],"sum_hessian":[3.3E1,2.8E1,5E0,1.7E1,1.1E1,4E0,1.3E1,8E0,3E0,1E0,1.2E1,6E0,6E0],"tree_param":{"num_deleted":"0","num_feature":"2","num_nodes":"13","size_leaf_vector":"1"}},{"base_weights":[1.5960334E-1,-7.2418675E0,1.795339E0,-8.810167E0,-4.285929E0,-2.3635744E-1,-9.639091E0,-2.3650174E-1,-1.107605E-1,-1.088562E0,-7.0311375E0,-1.6930455E-1,-4.835868E-1],"categories":[],"categories_nodes":[],"categories_segments":[],"categories_sizes":[],"default_left":[0,0,0,0,0,0,0,0,0,0,0,0,0],"id":44,"left_children":[1,3,-1,5,7,-1,9,-1,-1,-1,11,-1,-1],"loss_changes":[9.25581E3,9.6678345E1,0E0,1.5355591E1,5.573883E-1,0E0,2.8988464E2,0E0,0E0,0E0,9.237695E1,0E0,0E0],"parents":[2147483647,0,0,1,1,3,3,4,4,6,6,10,10],"right_children":[2,4,-1,6,8,-1,10,-1,-1,-1,12,-1,-1],"split_conditions":[2.366432E0,-3.614701E-1,1.795339E0,-5.8378E-1,1.4666678E-1,-2.3635744E-1,-5.39318E-1,-2.3650174E-1,-1.107605E-1,-1.088562E0,-4.2498723E-1,-1.6930455E-1,-4.835868E-1],"split_indices":[0,1,0,1,1,0,1,0,0,0,1,0,0],"split_type":[0,0,0,0,0,0,0,0,0,0,0,0,0],"sum_hessian":[3.3E1,2.8E1,5E0,1.7E1,1.1E1,4E0,1.3E1,8E0,3E0,1E0,1.2E1,6E0,6E0],"tree_param":{"num_deleted":"0","num_feature":"2","num_nodes":"13","size_leaf_vector":"1"}},{"base_weights":[1.3604377E-1,-6.9599357E0,1.7205302E0,-8.47956E0,-4.1005044E0,-2.269043E-1,-9.281547E0,-2.2598742E-1,-1.06604E-1,-1.0613464E0,-6.7298303E0,-1.6205357E-1,-4.6285924E-1],"categories":[],"categories_nodes":[],"categories_segments":[],"categories_sizes":[],"default_left":[0,0,0,0,0,0,0,0,0,0,0,0,0],"id":45,"left_children":[1,3,-1,5,7,-1,9,-1,-1,-1,11,-1,-1],"loss_changes":[8.508689E3,9.124219E1,0E0,1.4777588E1,2.6652527E-1,0E0,2.8388342E2,0E0,0E0,0E0,8.462213E1,0E0,0E0],"parents":[2147483647,0,0,1,1,3,3,4,4,6,6,10,10],"right_children":[2,4,-1,6,8,-1,10,-1,-1,-1,12,-1,-1],"split_conditions":[2.366432E0,-3.614701E-1,1.7205302E0,-5.8378E-1,1.4666678E-1,-2.269043E-1,-5.39318E-1,-2.2598742E-1,-1.06604E-1,-1.0613464E0,-4.2498723E-1,-1.6205357E-1,-4.6285924E-1],"split_indices":[0,1,0,1,1,0,1,0,0,0,1,0,0],"split_type":[0,0,0,0,0,0,0,0,0,0,0,0,0],"sum_hessian":[3.3E1,2.8E1,5E0,1.7E1,1.1E1,4E0,1.3E1,8E0,3E0,1E0,1.2E1,6E0,6E0],"tree_param":{"num_deleted":"0","num_feature":"2","num_nodes":"13","size_leaf_vector":"1"}},{"base_weights":[1.1383416E-1,-6.6893435E0,1.6488444E0,-8.161865E0,-3.923116E0,-2.1783204E-1,-8.937883E0,-2.1593967E-1,-1.0260315E-1,-1.0348145E0,-6.4413686E0,-1.5510604E-1,-4.4302106E-1],"categories":[],"categories_nodes":[],"categories_segments":[],"categories_sizes":[],"default_left":[0,0,0,0,0,0,0,0,0,0,0,0,0],"id":46,"left_children":[1,3,-1,5,7,-1,9,-1,-1,-1,11,-1,-1],"loss_changes":[7.822083E3,8.610657E1,0E0,1.4213501E1,2.1560669E-2,0E0,2.776582E2,0E0,0E0,0E0,7.752551E1,0E0,0E0],"parents":[2147483647,0,0,1,1,3,3,4,4,6,6,10,10],"right_children":[2,4,-1,6,8,-1,10,-1,-1,-1,12,-1,-1],"split_conditions":[2.366432E0,-3.614701E-1,1.6488444E0,-5.8378E-1,1.4666678E-1,-2.1783204E-1,-5.39318E-1,-2.1593967E-1,-1.0260315E-1,-1.0348145E0,-4.2498723E-1,-1.5510604E-1,-4.4302106E-1],"split_indices":[0,1,0,1,1,0,1,0,0,0,1,0,0],"split_type":[0,0,0,0,0,0,0,0,0,0,0,0,0],"sum_hessian":[3.3E1,2.8E1,5E0,1.7E1,1.1E1,4E0,1.3E1,8E0,3E0,1E0,1.2E1,6E0,6E0],"tree_param":{"num_deleted":"0","num_feature":"2","num_nodes":"13","size_leaf_vector":"1"}},{"base_weights":[9.27878E-2,-6.4297214E0,1.5801392E0,-7.8565946E0,-1.8768005E-1,-2.091211E-1,-8.607614E0,-1.0089417E0,-6.165302E0,-1.4846192E-1,-4.240304E-1],"categories":[],"categories_nodes":[],"categories_segments":[],"categories_sizes":[],"default_left":[0,0,0,0,0,0,0,0,0,0,0],"id":47,"left_children":[1,3,-1,5,-1,-1,7,-1,9,-1,-1],"loss_changes":[7.1910205E3,8.124548E1,0E0,1.3667969E1,0E0,0E0,2.7123877E2,0E0,7.1017365E1,0E0,0E0],"parents":[2147483647,0,0,1,1,3,3,6,6,8,8],"right_children":[2,4,-1,6,-1,-1,8,-1,10,-1,-1],"split_conditions":[2.366432E0,-3.614701E-1,1.5801392E0,-5.8378E-1,-1.8768005E-1,-2.091211E-1,-5.39318E-1,-1.0089417E0,-4.2498723E-1,-1.4846192E-1,-4.240304E-1],"split_indices":[0,1,0,1,0,0,1,0,1,0,0],"split_type":[0,0,0,0,0,0,0,0,0,0,0],"sum_hessian":[3.3E1,2.8E1,5E0,1.7E1,1.1E1,4E0,1.3E1,1E0,1.2E1,6E0,6E0],"tree_param":{"num_deleted":"0","num_feature":"2","num_nodes":"11","size_leaf_vector":"1"}},{"base_weights":[7.6487824E-2,-6.176404E0,1.5143026E0,-9.903972E0,-4.987162E0,-2.0075195E-1,-9.8371583E-1,-5.350214E0,-9.1717534E-2,-1.4210032E-1,-6.16403E0,-4.058559E-1,-1.9800347E-1],"categories":[],"categories_nodes":[],"categories_segments":[],"categories_sizes":[],"default_left":[0,0,0,0,0,0,0,0,0,0,0,0,0],"id":48,"left_children":[1,3,-1,5,7,-1,-1,9,-1,-1,11,-1,-1],"loss_changes":[6.6095615E3,7.91637E1,0E0,2.662282E2,1.7657043E1,0E0,0E0,2.5347351E1,0E0,0E0,3.2423584E1,0E0,0E0],"parents":[2147483647,0,0,1,1,3,3,4,4,7,7,10,10],"right_children":[2,4,-1,6,8,-1,-1,10,-1,-1,12,-1,-1],"split_conditions":[2.366432E0,-5.39318E-1,1.5143026E0,-5.8378E-1,1.4666678E-1,-2.0075195E-1,-9.8371583E-1,-4.2498723E-1,-9.1717534E-2,-1.4210032E-1,-3.614701E-1,-4.058559E-1,-1.9800347E-1],"split_indices":[0,1,0,1,1,0,0,1,0,0,1,0,0],"split_type":[0,0,0,0,0,0,0,0,0,0,0,0,0],"sum_hessian":[3.3E1,2.8E1,5E0,5E0,2.3E1,4E0,1E0,2E1,3E0,6E0,1.4E1,6E0,8E0],"tree_param":{"num_deleted":"0","num_feature":"2","num_nodes":"13","size_leaf_vector":"1"}},{"base_weights":[5.7688992E-2,-5.9373403E0,1.4512024E0,-9.606242E0,-4.7727256E0,-1.9272462E-1,-9.5912474E-1,-5.118257E0,-8.827515E-2,-1.3601075E-1,-5.8961263E0,-3.884661E-1,-1.8920356E-1],"categories":[],"categories_nodes":[],"categories_segments":[],"categories_sizes":[],"default_left":[0,0,0,0,0,0,0,0,0,0,0,0,0],"id":49,"left_children":[1,3,-1,5,7,-1,-1,9,-1,-1,11,-1,-1],"loss_changes":[6.076567E3,7.806488E1,0E0,2.5654254E2,1.5901855E1,0E0,0E0,2.3133972E1,0E0,0E0,2.9944702E1,0E0,0E0],"parents":[2147483647,0,0,1,1,3,3,4,4,7,7,10,10],"right_children":[2,4,-1,6,8,-1,-1,10,-1,-1,12,-1,-1],"split_conditions":[2.366432E0,-5.39318E-1,1.4512024E0,-5.8378E-1,1.4666678E-1,-1.9272462E-1,-9.5912474E-1,-4.2498723E-1,-8.827515E-2,-1.3601075E-1,-3.614701E-1,-3.884661E-1,-1.8920356E-1],"split_indices":[0,1,0,1,1,0,0,1,0,0,1,0,0],"split_type":[0,0,0,0,0,0,0,0,0,0,0,0,0],"sum_hessian":[3.3E1,2.8E1,5E0,5E0,2.3E1,4E0,1E0,2E1,3E0,6E0,1.4E1,6E0,8E0],"tree_param":{"num_deleted":"0","num_feature":"2","num_nodes":"13","size_leaf_vector":"1"}},{"base_weights":[4.001752E-2,-5.707856E0,1.3907369E0,-9.317952E0,-4.567505E0,-1.8501954E-1,-9.3514407E-1,-4.8963447E0,-8.496094E-2,-1.3018276E-1,-5.639844E0,-3.718192E-1,-1.8079428E-1],"categories":[],"categories_nodes":[],"categories_segments":[],"categories_sizes":[],"default_left":[0,0,0,0,0,0,0,0,0,0,0,0,0],"id":50,"left_children":[1,3,-1,5,7,-1,-1,9,-1,-1,11,-1,-1],"loss_changes":[5.5867124E3,7.682678E1,0E0,2.4711456E2,1.4317017E1,0E0,0E0,2.111267E1,0E0,0E0,2.765268E1,0E0,0E0],"parents":[2147483647,0,0,1,1,3,3,4,4,7,7,10,10],"right_children":[2,4,-1,6,8,-1,-1,10,-1,-1,12,-1,-1],"split_conditions":[2.366432E0,-5.39318E-1,1.3907369E0,-5.8378E-1,1.4666678E-1,-1.8501954E-1,-9.3514407E-1,-4.2498723E-1,-8.496094E-2,-1.3018276E-1,-3.614701E-1,-3.718192E-1,-1.8079428E-1],"split_indices":[0,1,0,1,1,0,0,1,0,0,1,0,0],"split_type":[0,0,0,0,0,0,0,0,0,0,0,0,0],"sum_hessian":[3.3E1,2.8E1,5E0,5E0,2.3E1,4E0,1E0,2E1,3E0,6E0,1.4E1,6E0,8E0],"tree_param":{"num_deleted":"0","num_feature":"2","num_nodes":"13","size_leaf_vector":"1"}},{"base_weights":[2.343032E-2,-5.4875402E0,1.3327942E0,-9.038737E0,-4.3710938E0,-1.7761719E-1,-9.117676E-1,-4.6840124E0,-8.1774905E-2,-1.2460589E-1,-5.394629E0,-3.558838E-1,-1.7275392E-1],"categories":[],"categories_nodes":[],"categories_segments":[],"categories_sizes":[],"default_left":[0,0,0,0,0,0,0,0,0,0,0,0,0],"id":51,"left_children":[1,3,-1,5,7,-1,-1,9,-1,-1,11,-1,-1],"loss_changes":[5.136478E3,7.546777E1,0E0,2.379592E2,1.2883759E1,0E0,0E0,1.9265442E1,0E0,0E0,2.5536926E1,0E0,0E0],"parents":[2147483647,0,0,1,1,3,3,4,4,7,7,10,10],"right_children":[2,4,-1,6,8,-1,-1,10,-1,-1,12,-1,-1],"split_conditions":[2.366432E0,-5.39318E-1,1.3327942E0,-5.8378E-1,1.4666678E-1,-1.7761719E-1,-9.117676E-1,-4.2498723E-1,-8.1774905E-2,-1.2460589E-1,-3.614701E-1,-3.558838E-1,-1.7275392E-1],"split_indices":[0,1,0,1,1,0,0,1,0,0,1,0,0],"split_type":[0,0,0,0,0,0,0,0,0,0,0,0,0],"sum_hessian":[3.3E1,2.8E1,5E0,5E0,2.3E1,4E0,1E0,2E1,3E0,6E0,1.4E1,6E0,8E0],"tree_param":{"num_deleted":"0","num_feature":"2","num_nodes":"13","size_leaf_vector":"1"}},{"base_weights":[7.841222E-3,-5.2760305E0,1.2772624E0,-8.76827E0,-4.183136E0,-1.7050782E-1,-8.88971E-1,-4.4808874E0,-7.870789E-2,-1.1926967E-1,-5.1600585E0,-3.4062847E-1,-1.6507162E-1],"categories":[],"categories_nodes":[],"categories_segments":[],"categories_sizes":[],"default_left":[0,0,0,0,0,0,0,0,0,0,0,0,0],"id":52,"left_children":[1,3,-1,5,7,-1,-1,9,-1,-1,11,-1,-1],"loss_changes":[4.7226147E3,7.400391E1,0E0,2.2906595E2,1.159021E1,0E0,0E0,1.757843E1,0E0,0E0,2.3579773E1,0E0,0E0],"parents":[2147483647,0,0,1,1,3,3,4,4,7,7,10,10],"right_children":[2,4,-1,6,8,-1,-1,10,-1,-1,12,-1,-1],"split_conditions":[2.366432E0,-5.39318E-1,1.2772624E0,-5.8378E-1,1.4666678E-1,-1.7050782E-1,-8.88971E-1,-4.2498723E-1,-7.870789E-2,-1.1926967E-1,-3.614701E-1,-3.4062847E-1,-1.6507162E-1],"split_indices":[0,1,0,1,1,0,0,1,0,0,1,0,0],"split_type":[0,0,0,0,0,0,0,0,0,0,0,0,0],"sum_hessian":[3.3E1,2.8E1,5E0,5E0,2.3E1,4E0,1E0,2E1,3E0,6E0,1.4E1,6E0,8E0],"tree_param":{"num_deleted":"0","num_feature":"2","num_nodes":"13","size_leaf_vector":"1"}},{"base_weights":[-6.8718405E-3,-5.0730486E0,1.2240398E0,-8.506511E0,-4.003306E0,-1.636914E-1,-8.6674803E-1,-4.2865977E0,-7.575989E-2,-1.14153184E-1,-4.935807E0,-3.2603237E-1,-1.5773654E-1],"categories":[],"categories_nodes":[],"categories_segments":[],"categories_sizes":[],"default_left":[0,0,0,0,0,0,0,0,0,0,0,0,0],"id":53,"left_children":[1,3,-1,5,7,-1,-1,9,-1,-1,11,-1,-1],"loss_changes":[4.342193E3,7.246051E1,0E0,2.2042725E2,1.0421631E1,0E0,0E0,1.6046234E1,0E0,0E0,2.1769928E1,0E0,0E0],"parents":[2147483647,0,0,1,1,3,3,4,4,7,7,10,10],"right_children":[2,4,-1,6,8,-1,-1,10,-1,-1,12,-1,-1],"split_conditions":[2.366432E0,-5.39318E-1,1.2240398E0,-5.8378E-1,1.4666678E-1,-1.636914E-1,-8.6674803E-1,-4.2498723E-1,-7.575989E-2,-1.14153184E-1,-3.614701E-1,-3.2603237E-1,-1.5773654E-1],"split_indices":[0,1,0,1,1,0,0,1,0,0,1,0,0],"split_type":[0,0,0,0,0,0,0,0,0,0,0,0,0],"sum_hessian":[3.3E1,2.8E1,5E0,5E0,2.3E1,4E0,1E0,2E1,3E0,6E0,1.4E1,6E0,8E0],"tree_param":{"num_deleted":"0","num_feature":"2","num_nodes":"13","size_leaf_vector":"1"}},{"base_weights":[-2.0687327E-2,-4.8781905E0,1.1730347E0,-8.253011E0,-3.8312275E0,-1.5714844E-1,-8.4508055E-1,-4.1007485E0,-7.292175E-2,-1.09256424E-1,-4.7213216E0,-3.1206402E-1,-1.50727E-1],"categories":[],"categories_nodes":[],"categories_segments":[],"categories_sizes":[],"default_left":[0,0,0,0,0,0,0,0,0,0,0,0,0],"id":54,"left_children":[1,3,-1,5,7,-1,-1,9,-1,-1,11,-1,-1],"loss_changes":[3.9925156E3,7.084686E1,0E0,2.1204703E2,9.367706E0,0E0,0E0,1.4647736E1,0E0,0E0,2.0098999E1,0E0,0E0],"parents":[2147483647,0,0,1,1,3,3,4,4,7,7,10,10],"right_children":[2,4,-1,6,8,-1,-1,10,-1,-1,12,-1,-1],"split_conditions":[2.366432E0,-5.39318E-1,1.1730347E0,-5.8378E-1,1.4666678E-1,-1.5714844E-1,-8.4508055E-1,-4.2498723E-1,-7.292175E-2,-1.09256424E-1,-3.614701E-1,-3.1206402E-1,-1.50727E-1],"split_indices":[0,1,0,1,1,0,0,1,0,0,1,0,0],"split_type":[0,0,0,0,0,0,0,0,0,0,0,0,0],"sum_hessian":[3.3E1,2.8E1,5E0,5E0,2.3E1,4E0,1E0,2E1,3E0,6E0,1.4E1,6E0,8E0],"tree_param":{"num_deleted":"0","num_feature":"2","num_nodes":"13","size_leaf_vector":"1"}},{"base_weights":[-3.360524E-2,-4.6910777E0,1.1241558E0,-8.007365E0,-3.6665447E0,-1.5085939E-1,-8.239563E-1,-3.922968E0,-7.018433E-2,-1.0456892E-1,-4.5161786E0,-2.986921E-1,-1.4403212E-1],"categories":[],"categories_nodes":[],"categories_segments":[],"categories_sizes":[],"default_left":[0,0,0,0,0,0,0,0,0,0,0,0,0],"id":55,"left_children":[1,3,-1,5,7,-1,-1,9,-1,-1,11,-1,-1],"loss_changes":[3.6710842E3,6.917236E1,0E0,2.0393289E2,8.419373E0,0E0,0E0,1.3371857E1,0E0,0E0,1.8552399E1,0E0,0E0],"parents":[2147483647,0,0,1,1,3,3,4,4,7,7,10,10],"right_children":[2,4,-1,6,8,-1,-1,10,-1,-1,12,-1,-1],"split_conditions":[2.366432E0,-5.39318E-1,1.1241558E0,-5.8378E-1,1.4666678E-1,-1.5085939E-1,-8.239563E-1,-4.2498723E-1,-7.018433E-2,-1.0456892E-1,-3.614701E-1,-2.986921E-1,-1.4403212E-1],"split_indices":[0,1,0,1,1,0,0,1,0,0,1,0,0],"split_type":[0,0,0,0,0,0,0,0,0,0,0,0,0],"sum_hessian":[3.3E1,2.8E1,5E0,5E0,2.3E1,4E0,1E0,2E1,3E0,6E0,1.4E1,6E0,8E0],"tree_param":{"num_deleted":"0","num_feature":"2","num_nodes":"13","size_leaf_vector":"1"}},{"base_weights":[-4.5747645E-2,-4.5114746E0,1.0773113E0,-7.7694497E0,-3.5090027E0,-1.4482422E-1,-8.0335695E-1,-3.7529297E0,-6.755676E-2,-1.0009068E-1,-4.319922E0,-2.8589568E-1,-1.3763021E-1],"categories":[],"categories_nodes":[],"categories_segments":[],"categories_sizes":[],"default_left":[0,0,0,0,0,0,0,0,0,0,0,0,0],"id":56,"left_children":[1,3,-1,5,7,-1,-1,9,-1,-1,11,-1,-1],"loss_changes":[3.3756162E3,6.745184E1,0E0,1.960679E2,7.561981E0,0E0,0E0,1.2202576E1,0E0,0E0,1.7127289E1,0E0,0E0],"parents":[2147483647,0,0,1,1,3,3,4,4,7,7,10,10],"right_children":[2,4,-1,6,8,-1,-1,10,-1,-1,12,-1,-1],"split_conditions":[2.366432E0,-5.39318E-1,1.0773113E0,-5.8378E-1,1.4666678E-1,-1.4482422E-1,-8.0335695E-1,-4.2498723E-1,-6.755676E-2,-1.0009068E-1,-3.614701E-1,-2.8589568E-1,-1.3763021E-1],"split_indices":[0,1,0,1,1,0,0,1,0,0,1,0,0],"split_type":[0,0,0,0,0,0,0,0,0,0,0,0,0],"sum_hessian":[3.3E1,2.8E1,5E0,5E0,2.3E1,4E0,1E0,2E1,3E0,6E0,1.4E1,6E0,8E0],"tree_param":{"num_deleted":"0","num_feature":"2","num_nodes":"13","size_leaf_vector":"1"}},{"base_weights":[-5.704274E-2,-4.3389597E0,1.0324199E0,-7.539022E0,-3.3581543E0,-1.390332E-1,-7.832703E-1,-3.5901926E0,-6.5020755E-2,-9.580078E-2,-4.1321287E0,-2.7364329E-1,-1.3151042E-1],"categories":[],"categories_nodes":[],"categories_segments":[],"categories_sizes":[],"default_left":[0,0,0,0,0,0,0,0,0,0,0,0,0],"id":57,"left_children":[1,3,-1,5,7,-1,-1,9,-1,-1,11,-1,-1],"loss_changes":[3.1039978E3,6.570331E1,0E0,1.8844925E2,6.7906494E0,0E0,0E0,1.1136017E1,0E0,0E0,1.5810425E1,0E0,0E0],"parents":[2147483647,0,0,1,1,3,3,4,4,7,7,10,10],"right_children":[2,4,-1,6,8,-1,-1,10,-1,-1,12,-1,-1],"split_conditions":[2.366432E0,-5.39318E-1,1.0324199E0,-5.8378E-1,1.4666678E-1,-1.390332E-1,-7.832703E-1,-4.2498723E-1,-6.5020755E-2,-9.580078E-2,-3.614701E-1,-2.7364329E-1,-1.3151042E-1],"split_indices":[0,1,0,1,1,0,0,1,0,0,1,0,0],"split_type":[0,0,0,0,0,0,0,0,0,0,0,0,0],"sum_hessian":[3.3E1,2.8E1,5E0,5E0,2.3E1,4E0,1E0,2E1,3E0,6E0,1.4E1,6E0,8E0],"tree_param":{"num_deleted":"0","num_feature":"2","num_nodes":"13","size_leaf_vector":"1"}},{"base_weights":[-6.761977E-2,-4.1733484E0,9.894002E-1,-7.3158774E0,-3.2138264E0,-1.3347657E-1,-7.636902E-1,-3.4345238E0,-6.258545E-2,-9.169922E-2,-3.9524739E0,-2.6191407E-1,-1.256619E-1],"categories":[],"categories_nodes":[],"categories_segments":[],"categories_sizes":[],"default_left":[0,0,0,0,0,0,0,0,0,0,0,0,0],"id":58,"left_children":[1,3,-1,5,7,-1,-1,9,-1,-1,11,-1,-1],"loss_changes":[2.8543235E3,6.3932465E1,0E0,1.8107779E2,6.0937805E0,0E0,0E0,1.0160217E1,0E0,0E0,1.4593643E1,0E0,0E0],"parents":[2147483647,0,0,1,1,3,3,4,4,7,7,10,10],"right_children":[2,4,-1,6,8,-1,-1,10,-1,-1,12,-1,-1],"split_conditions":[2.366432E0,-5.39318E-1,9.894002E-1,-5.8378E-1,1.4666678E-1,-1.3347657E-1,-7.636902E-1,-4.2498723E-1,-6.258545E-2,-9.169922E-2,-3.614701E-1,-2.6191407E-1,-1.256619E-1],"split_indices":[0,1,0,1,1,0,0,1,0,0,1,0,0],"split_type":[0,0,0,0,0,0,0,0,0,0,0,0,0],"sum_hessian":[3.3E1,2.8E1,5E0,5E0,2.3E1,4E0,1E0,2E1,3E0,6E0,1.4E1,6E0,8E0],"tree_param":{"num_deleted":"0","num_feature":"2","num_nodes":"13","size_leaf_vector":"1"}},{"base_weights":[-7.7435665E-2,-4.0142527E0,9.4817096E-1,-7.099569E0,-3.0756633E0,-1.2813477E-1,-7.445984E-1,-3.2855515E0,-6.02417E-2,-8.776507E-2,-3.7806315E0,-2.506871E-1,-1.2007379E-1],"categories":[],"categories_nodes":[],"categories_segments":[],"categories_sizes":[],"default_left":[0,0,0,0,0,0,0,0,0,0,0,0,0],"id":59,"left_children":[1,3,-1,5,7,-1,-1,9,-1,-1,11,-1,-1],"loss_changes":[2.6247764E3,6.2143646E1,0E0,1.739552E2,5.4654236E0,0E0,0E0,9.273392E0,0E0,0E0,1.3469376E1,0E0,0E0],"parents":[2147483647,0,0,1,1,3,3,4,4,7,7,10,10],"right_children":[2,4,-1,6,8,-1,-1,10,-1,-1,12,-1,-1],"split_conditions":[2.366432E0,-5.39318E-1,9.4817096E-1,-5.8378E-1,1.4666678E-1,-1.2813477E-1,-7.445984E-1,-4.2498723E-1,-6.02417E-2,-8.776507E-2,-3.614701E-1,-2.506871E-1,-1.2007379E-1],"split_indices":[0,1,0,1,1,0,0,1,0,0,1,0,0],"split_type":[0,0,0,0,0,0,0,0,0,0,0,0,0],"sum_hessian":[3.3E1,2.8E1,5E0,5E0,2.3E1,4E0,1E0,2E1,3E0,6E0,1.4E1,6E0,8E0],"tree_param":{"num_deleted":"0","num_feature":"2","num_nodes":"13","size_leaf_vector":"1"}},{"base_weights":[-8.6605296E-2,-3.8615134E0,9.086609E-1,-6.8900146E0,-2.9434917E0,-1.2300781E-1,-7.2598267E-1,-3.143113E0,-5.7980347E-2,-8.400879E-2,-3.616276E0,-2.399414E-1,-1.14735246E-1],"categories":[],"categories_nodes":[],"categories_segments":[],"categories_sizes":[],"default_left":[0,0,0,0,0,0,0,0,0,0,0,0,0],"id":60,"left_children":[1,3,-1,5,7,-1,-1,9,-1,-1,11,-1,-1],"loss_changes":[2.4137673E3,6.0345978E1,0E0,1.670687E2,4.901642E0,0E0,0E0,8.460403E0,0E0,0E0,1.2430511E1,0E0,0E0],"parents":[2147483647,0,0,1,1,3,3,4,4,7,7,10,10],"right_children":[2,4,-1,6,8,-1,-1,10,-1,-1,12,-1,-1],"split_conditions":[2.366432E0,-5.39318E-1,9.086609E-1,-5.8378E-1,1.4666678E-1,-1.2300781E-1,-7.2598267E-1,-4.2498723E-1,-5.7980347E-2,-8.400879E-2,-3.614701E-1,-2.399414E-1,-1.14735246E-1],"split_indices":[0,1,0,1,1,0,0,1,0,0,1,0,0],"split_type":[0,0,0,0,0,0,0,0,0,0,0,0,0],"sum_hessian":[3.3E1,2.8E1,5E0,5E0,2.3E1,4E0,1E0,2E1,3E0,6E0,1.4E1,6E0,8E0],"tree_param":{"num_deleted":"0","num_feature":"2","num_nodes":"13","size_leaf_vector":"1"}},{"base_weights":[-9.512868E-2,-3.7148354E0,8.7079877E-1,-6.686971E0,-2.8170166E0,-1.18085936E-1,-7.0783085E-1,-3.006836E0,-5.581055E-2,-8.040946E-2,-3.4590821E0,-2.296561E-1,-1.0963541E-1],"categories":[],"categories_nodes":[],"categories_segments":[],"categories_sizes":[],"default_left":[0,0,0,0,0,0,0,0,0,0,0,0,0],"id":61,"left_children":[1,3,-1,5,7,-1,-1,9,-1,-1,11,-1,-1],"loss_changes":[2.2197896E3,5.8547394E1,0E0,1.6041467E2,4.392029E0,0E0,0E0,7.720337E0,0E0,0E0,1.1470398E1,0E0,0E0],"parents":[2147483647,0,0,1,1,3,3,4,4,7,7,10,10],"right_children":[2,4,-1,6,8,-1,-1,10,-1,-1,12,-1,-1],"split_conditions":[2.366432E0,-5.39318E-1,8.7079877E-1,-5.8378E-1,1.4666678E-1,-1.18085936E-1,-7.0783085E-1,-4.2498723E-1,-5.581055E-2,-8.040946E-2,-3.614701E-1,-2.296561E-1,-1.0963541E-1],"split_indices":[0,1,0,1,1,0,0,1,0,0,1,0,0],"split_type":[0,0,0,0,0,0,0,0,0,0,0,0,0],"sum_hessian":[3.3E1,2.8E1,5E0,5E0,2.3E1,4E0,1E0,2E1,3E0,6E0,1.4E1,6E0,8E0],"tree_param":{"num_deleted":"0","num_feature":"2","num_nodes":"13","size_leaf_vector":"1"}},{"base_weights":[-1.03034526E-1,-3.5739577E0,8.3451337E-1,-6.4902344E0,-2.6959736E0,-1.13359384E-1,-6.9013673E-1,-2.8764882E0,-5.371399E-2,-7.696708E-2,-3.308724E0,-2.1981028E-1,-1.0476346E-1],"categories":[],"categories_nodes":[],"categories_segments":[],"categories_sizes":[],"default_left":[0,0,0,0,0,0,0,0,0,0,0,0,0],"id":62,"left_children":[1,3,-1,5,7,-1,-1,9,-1,-1,11,-1,-1],"loss_changes":[2.0414513E3,5.675537E1,0E0,1.5399278E2,3.9355774E0,0E0,0E0,7.0439606E0,0E0,0E0,1.0582901E1,0E0,0E0],"parents":[2147483647,0,0,1,1,3,3,4,4,7,7,10,10],"right_children":[2,4,-1,6,8,-1,-1,10,-1,-1,12,-1,-1],"split_conditions":[2.366432E0,-5.39318E-1,8.3451337E-1,-5.8378E-1,1.4666678E-1,-1.13359384E-1,-6.9013673E-1,-4.2498723E-1,-5.371399E-2,-7.696708E-2,-3.614701E-1,-2.1981028E-1,-1.0476346E-1],"split_indices":[0,1,0,1,1,0,0,1,0,0,1,0,0],"split_type":[0,0,0,0,0,0,0,0,0,0,0,0,0],"sum_hessian":[3.3E1,2.8E1,5E0,5E0,2.3E1,4E0,1E0,2E1,3E0,6E0,1.4E1,6E0,8E0],"tree_param":{"num_deleted":"0","num_feature":"2","num_nodes":"13","size_leaf_vector":"1"}},{"base_weights":[-1.1039465E-1,-3.4387124E0,7.9974365E-1,-6.2996826E0,-2.58019E0,-1.0882813E-1,-6.728821E-1,-2.7518368E0,-5.169983E-2,-7.3671184E-2,-3.164974E0,-2.1039341E-1,-1.00108504E-1],"categories":[],"categories_nodes":[],"categories_segments":[],"categories_sizes":[],"default_left":[0,0,0,0,0,0,0,0,0,0,0,0,0],"id":63,"left_children":[1,3,-1,5,7,-1,-1,9,-1,-1,11,-1,-1],"loss_changes":[1.877519E3,5.4975586E1,0E0,1.4778737E2,3.5242004E0,0E0,0E0,6.428009E0,0E0,0E0,9.76535E0,0E0,0E0],"parents":[2147483647,0,0,1,1,3,3,4,4,7,7,10,10],"right_children":[2,4,-1,6,8,-1,-1,10,-1,-1,12,-1,-1],"split_conditions":[2.366432E0,-5.39318E-1,7.9974365E-1,-5.8378E-1,1.4666678E-1,-1.0882813E-1,-6.728821E-1,-4.2498723E-1,-5.169983E-2,-7.3671184E-2,-3.614701E-1,-2.1039341E-1,-1.00108504E-1],"split_indices":[0,1,0,1,1,0,0,1,0,0,1,0,0],"split_type":[0,0,0,0,0,0,0,0,0,0,0,0,0],"sum_hessian":[3.3E1,2.8E1,5E0,5E0,2.3E1,4E0,1E0,2E1,3E0,6E0,1.4E1,6E0,8E0],"tree_param":{"num_deleted":"0","num_feature":"2","num_nodes":"13","size_leaf_vector":"1"}},{"base_weights":[-1.1714441E-1,-3.3087285E0,7.6641846E-1,-6.1149497E0,-2.4693096E0,-1.0447266E-1,-6.560608E-1,-2.6325102E0,-4.975891E-2,-7.0511304E-2,-3.0274088E0,-2.0137417E-1,-9.5659725E-2],"categories":[],"categories_nodes":[],"categories_segments":[],"categories_sizes":[],"default_left":[0,0,0,0,0,0,0,0,0,0,0,0,0],"id":64,"left_children":[1,3,-1,5,7,-1,-1,9,-1,-1,11,-1,-1],"loss_changes":[1.7267697E3,5.3212555E1,0E0,1.4180603E2,3.1540833E0,0E0,0E0,5.866913E0,0E0,0E0,9.0091095E0,0E0,0E0],"parents":[2147483647,0,0,1,1,3,3,4,4,7,7,10,10],"right_children":[2,4,-1,6,8,-1,-1,10,-1,-1,12,-1,-1],"split_conditions":[2.366432E0,-5.39318E-1,7.6641846E-1,-5.8378E-1,1.4666678E-1,-1.0447266E-1,-6.560608E-1,-4.2498723E-1,-4.975891E-2,-7.0511304E-2,-3.614701E-1,-2.0137417E-1,-9.5659725E-2],"split_indices":[0,1,0,1,1,0,0,1,0,0,1,0,0],"split_type":[0,0,0,0,0,0,0,0,0,0,0,0,0],"sum_hessian":[3.3E1,2.8E1,5E0,5E0,2.3E1,4E0,1E0,2E1,3E0,6E0,1.4E1,6E0,8E0],"tree_param":{"num_deleted":"0","num_feature":"2","num_nodes":"13","size_leaf_vector":"1"}},{"base_weights":[-1.2334846E-1,-3.1838715E0,7.3448694E-1,-5.9359536E0,-2.3631897E0,-1.0029297E-1,-6.3966066E-1,-6.748744E-2,-2.6260173E0,-1.9274205E-1,-8.451843E-2],"categories":[],"categories_nodes":[],"categories_segments":[],"categories_sizes":[],"default_left":[0,0,0,0,0,0,0,0,0,0,0],"id":65,"left_children":[1,3,-1,5,7,-1,-1,-1,9,-1,-1],"loss_changes":[1.5881871E3,5.147116E1,0E0,1.3603667E2,2.8481903E0,0E0,0E0,0E0,1.4179344E1,0E0,0E0],"parents":[2147483647,0,0,1,1,3,3,4,4,8,8],"right_children":[2,4,-1,6,8,-1,-1,-1,10,-1,-1],"split_conditions":[2.366432E0,-5.39318E-1,7.3448694E-1,-5.8378E-1,-4.2498723E-1,-1.0029297E-1,-6.3966066E-1,-6.748744E-2,-3.614701E-1,-1.9274205E-1,-8.451843E-2],"split_indices":[0,1,0,1,1,0,0,0,1,0,0],"split_type":[0,0,0,0,0,0,0,0,0,0,0],"sum_hessian":[3.3E1,2.8E1,5E0,5E0,2.3E1,4E0,1E0,6E0,1.7E1,6E0,1.1E1],"tree_param":{"num_deleted":"0","num_feature":"2","num_nodes":"11","size_leaf_vector":"1"}},{"base_weights":[-1.2751321E-1,-3.062138E0,7.0388794E-1,-5.762451E0,-2.2594707E0,-9.62793E-2,-6.2366945E-1,-2.411877E0,-4.472351E-2,-6.459961E-2,-2.7736979E0,-1.8448661E-1,-8.765191E-2],"categories":[],"categories_nodes":[],"categories_segments":[],"categories_sizes":[],"default_left":[0,0,0,0,0,0,0,0,0,0,0,0,0],"id":66,"left_children":[1,3,-1,5,7,-1,-1,9,-1,-1,11,-1,-1],"loss_changes":[1.4604708E3,4.983606E1,0E0,1.3047517E2,2.8354645E0,0E0,0E0,4.9255676E0,0E0,0E0,7.5561523E0,0E0,0E0],"parents":[2147483647,0,0,1,1,3,3,4,4,7,7,10,10],"right_children":[2,4,-1,6,8,-1,-1,10,-1,-1,12,-1,-1],"split_conditions":[2.366432E0,-5.39318E-1,7.0388794E-1,-5.8378E-1,1.4666678E-1,-9.62793E-2,-6.2366945E-1,-4.2498723E-1,-4.472351E-2,-6.459961E-2,-3.614701E-1,-1.8448661E-1,-8.765191E-2],"split_indices":[0,1,0,1,1,0,0,1,0,0,1,0,0],"split_type":[0,0,0,0,0,0,0,0,0,0,0,0,0],"sum_hessian":[3.3E1,2.8E1,5E0,5E0,2.3E1,4E0,1E0,2E1,3E0,6E0,1.4E1,6E0,8E0],"tree_param":{"num_deleted":"0","num_feature":"2","num_nodes":"13","size_leaf_vector":"1"}},{"base_weights":[-1.3280532E-1,-2.9469879E0,6.7456055E-1,-5.5943604E0,-2.1623535E0,-9.243164E-2,-6.0807496E-1,-2.3072684E0,-4.3048095E-2,-6.1826866E-2,-2.653125E0,-1.7657645E-1,-8.3756514E-2],"categories":[],"categories_nodes":[],"categories_segments":[],"categories_sizes":[],"default_left":[0,0,0,0,0,0,0,0,0,0,0,0,0],"id":67,"left_children":[1,3,-1,5,7,-1,-1,9,-1,-1,11,-1,-1],"loss_changes":[1.3433345E3,4.814238E1,0E0,1.2511012E2,2.539711E0,0E0,0E0,4.4960175E0,0E0,0E0,6.9703445E0,0E0,0E0],"parents":[2147483647,0,0,1,1,3,3,4,4,7,7,10,10],"right_children":[2,4,-1,6,8,-1,-1,10,-1,-1,12,-1,-1],"split_conditions":[2.366432E0,-5.39318E-1,6.7456055E-1,-5.8378E-1,1.4666678E-1,-9.243164E-2,-6.0807496E-1,-4.2498723E-1,-4.3048095E-2,-6.1826866E-2,-3.614701E-1,-1.7657645E-1,-8.3756514E-2],"split_indices":[0,1,0,1,1,0,0,1,0,0,1,0,0],"split_type":[0,0,0,0,0,0,0,0,0,0,0,0,0],"sum_hessian":[3.3E1,2.8E1,5E0,5E0,2.3E1,4E0,1E0,2E1,3E0,6E0,1.4E1,6E0,8E0],"tree_param":{"num_deleted":"0","num_feature":"2","num_nodes":"13","size_leaf_vector":"1"}},{"base_weights":[-1.3768813E-1,-2.8364089E0,6.4645386E-1,-5.431315E0,-2.0694988E0,-8.873047E-2,-5.928711E-1,-2.207287E0,-4.143677E-2,-5.917969E-2,-2.537858E0,-1.6901158E-1,-8.0034725E-2],"categories":[],"categories_nodes":[],"categories_segments":[],"categories_sizes":[],"default_left":[0,0,0,0,0,0,0,0,0,0,0,0,0],"id":68,"left_children":[1,3,-1,5,7,-1,-1,9,-1,-1,11,-1,-1],"loss_changes":[1.2356329E3,4.647165E1,0E0,1.1994798E2,2.2738342E0,0E0,0E0,4.102684E0,0E0,0E0,6.430908E0,0E0,0E0],"parents":[2147483647,0,0,1,1,3,3,4,4,7,7,10,10],"right_children":[2,4,-1,6,8,-1,-1,10,-1,-1,12,-1,-1],"split_conditions":[2.366432E0,-5.39318E-1,6.4645386E-1,-5.8378E-1,1.4666678E-1,-8.873047E-2,-5.928711E-1,-4.2498723E-1,-4.143677E-2,-5.917969E-2,-3.614701E-1,-1.6901158E-1,-8.0034725E-2],"split_indices":[0,1,0,1,1,0,0,1,0,0,1,0,0],"split_type":[0,0,0,0,0,0,0,0,0,0,0,0,0],"sum_hessian":[3.3E1,2.8E1,5E0,5E0,2.3E1,4E0,1E0,2E1,3E0,6E0,1.4E1,6E0,8E0],"tree_param":{"num_deleted":"0","num_feature":"2","num_nodes":"13","size_leaf_vector":"1"}},{"base_weights":[-1.4215447E-1,-2.7301824E0,6.19517E-1,-5.2734375E0,-1.9806112E0,-8.518555E-2,-5.7805175E-1,-2.1116304E0,-3.9880373E-2,-5.66476E-2,-2.4275715E0,-1.6177107E-1,-7.6475695E-2],"categories":[],"categories_nodes":[],"categories_segments":[],"categories_sizes":[],"default_left":[0,0,0,0,0,0,0,0,0,0,0,0,0],"id":69,"left_children":[1,3,-1,5,7,-1,-1,9,-1,-1,11,-1,-1],"loss_changes":[1.1365992E3,4.483957E1,0E0,1.1497336E2,2.0356522E0,0E0,0E0,3.742981E0,0E0,0E0,5.9338074E0,0E0,0E0],"parents":[2147483647,0,0,1,1,3,3,4,4,7,7,10,10],"right_children":[2,4,-1,6,8,-1,-1,10,-1,-1,12,-1,-1],"split_conditions":[2.366432E0,-5.39318E-1,6.19517E-1,-5.8378E-1,1.4666678E-1,-8.518555E-2,-5.7805175E-1,-4.2498723E-1,-3.9880373E-2,-5.66476E-2,-3.614701E-1,-1.6177107E-1,-7.6475695E-2],"split_indices":[0,1,0,1,1,0,0,1,0,0,1,0,0],"split_type":[0,0,0,0,0,0,0,0,0,0,0,0,0],"sum_hessian":[3.3E1,2.8E1,5E0,5E0,2.3E1,4E0,1E0,2E1,3E0,6E0,1.4E1,6E0,8E0],"tree_param":{"num_deleted":"0","num_feature":"2","num_nodes":"13","size_leaf_vector":"1"}},{"base_weights":[-1.4619716E-1,-2.6280897E0,5.9369916E-1,-5.12028E0,-1.8955383E0,-8.177735E-2,-5.6359863E-1,-2.0200894E0,-3.8388062E-2,-5.4220147E-2,-2.3220704E0,-1.5483399E-1,-7.307943E-2],"categories":[],"categories_nodes":[],"categories_segments":[],"categories_sizes":[],"default_left":[0,0,0,0,0,0,0,0,0,0,0,0,0],"id":70,"left_children":[1,3,-1,5,7,-1,-1,9,-1,-1,11,-1,-1],"loss_changes":[1.0455209E3,4.3238373E1,0E0,1.101862E2,1.8202286E0,0E0,0E0,3.4156876E0,0E0,0E0,5.471985E0,0E0,0E0],"parents":[2147483647,0,0,1,1,3,3,4,4,7,7,10,10],"right_children":[2,4,-1,6,8,-1,-1,10,-1,-1,12,-1,-1],"split_conditions":[2.366432E0,-5.39318E-1,5.9369916E-1,-5.8378E-1,1.4666678E-1,-8.177735E-2,-5.6359863E-1,-4.2498723E-1,-3.8388062E-2,-5.4220147E-2,-3.614701E-1,-1.5483399E-1,-7.307943E-2],"split_indices":[0,1,0,1,1,0,0,1,0,0,1,0,0],"split_type":[0,0,0,0,0,0,0,0,0,0,0,0,0],"sum_hessian":[3.3E1,2.8E1,5E0,5E0,2.3E1,4E0,1E0,2E1,3E0,6E0,1.4E1,6E0,8E0],"tree_param":{"num_deleted":"0","num_feature":"2","num_nodes":"13","size_leaf_vector":"1"}},{"base_weights":[-1.498808E-1,-2.5300376E0,5.689596E-1,-4.9718423E0,-1.8141683E0,-7.8505866E-2,-5.4951173E-1,-5.1897325E-2,-2.0152452E0,-1.4820033E-1,-6.46932E-2],"categories":[],"categories_nodes":[],"categories_segments":[],"categories_sizes":[],"default_left":[0,0,0,0,0,0,0,0,0,0,0],"id":71,"left_children":[1,3,-1,5,7,-1,-1,-1,9,-1,-1],"loss_changes":[9.617838E2,4.1672623E1,0E0,1.0558153E2,1.6542053E0,0E0,0E0,0E0,8.48452E0,0E0,0E0],"parents":[2147483647,0,0,1,1,3,3,4,4,8,8],"right_children":[2,4,-1,6,8,-1,-1,-1,10,-1,-1],"split_conditions":[2.366432E0,-5.39318E-1,5.689596E-1,-5.8378E-1,-4.2498723E-1,-7.8505866E-2,-5.4951173E-1,-5.1897325E-2,-3.614701E-1,-1.4820033E-1,-6.46932E-2],"split_indices":[0,1,0,1,1,0,0,0,1,0,0],"split_type":[0,0,0,0,0,0,0,0,0,0,0],"sum_hessian":[3.3E1,2.8E1,5E0,5E0,2.3E1,4E0,1E0,6E0,1.7E1,6E0,1.1E1],"tree_param":{"num_deleted":"0","num_feature":"2","num_nodes":"11","size_leaf_vector":"1"}},{"base_weights":[-1.5186265E-1,-2.434284E0,5.4525757E-1,-4.8278403E0,-1.7344666E0,-7.5361334E-2,-5.3577274E-1,-1.8507254E0,-3.4524538E-2,-4.9668666E-2,-2.1274414E0,-1.418492E-1,-6.695964E-2],"categories":[],"categories_nodes":[],"categories_segments":[],"categories_sizes":[],"default_left":[0,0,0,0,0,0,0,0,0,0,0,0,0],"id":72,"left_children":[1,3,-1,5,7,-1,-1,9,-1,-1,11,-1,-1],"loss_changes":[8.8459625E2,4.0202805E1,0E0,1.0115231E2,1.6350098E0,0E0,0E0,2.8687592E0,0E0,0E0,4.590172E0,0E0,0E0],"parents":[2147483647,0,0,1,1,3,3,4,4,7,7,10,10],"right_children":[2,4,-1,6,8,-1,-1,10,-1,-1,12,-1,-1],"split_conditions":[2.366432E0,-5.39318E-1,5.4525757E-1,-5.8378E-1,1.4666678E-1,-7.5361334E-2,-5.3577274E-1,-4.2498723E-1,-3.4524538E-2,-4.9668666E-2,-3.614701E-1,-1.418492E-1,-6.695964E-2],"split_indices":[0,1,0,1,1,0,0,1,0,0,1,0,0],"split_type":[0,0,0,0,0,0,0,0,0,0,0,0,0],"sum_hessian":[3.3E1,2.8E1,5E0,5E0,2.3E1,4E0,1E0,2E1,3E0,6E0,1.4E1,6E0,8E0],"tree_param":{"num_deleted":"0","num_feature":"2","num_nodes":"13","size_leaf_vector":"1"}},{"base_weights":[-1.548426E-1,-2.3437836E0,5.2254236E-1,-4.6882324E0,-1.6600138E0,-7.234375E-2,-5.223755E-1,-1.7705543E0,-3.3233643E-2,-4.7544643E-2,-2.035026E0,-1.357701E-1,-6.398655E-2],"categories":[],"categories_nodes":[],"categories_segments":[],"categories_sizes":[],"default_left":[0,0,0,0,0,0,0,0,0,0,0,0,0],"id":73,"left_children":[1,3,-1,5,7,-1,-1,9,-1,-1,11,-1,-1],"loss_changes":[8.1381226E2,3.87063E1,0E0,9.689102E1,1.463768E0,0E0,0E0,2.6172333E0,0E0,0E0,4.23328E0,0E0,0E0],"parents":[2147483647,0,0,1,1,3,3,4,4,7,7,10,10],"right_children":[2,4,-1,6,8,-1,-1,10,-1,-1,12,-1,-1],"split_conditions":[2.366432E0,-5.39318E-1,5.2254236E-1,-5.8378E-1,1.4666678E-1,-7.234375E-2,-5.223755E-1,-4.2498723E-1,-3.3233643E-2,-4.7544643E-2,-3.614701E-1,-1.357701E-1,-6.398655E-2],"split_indices":[0,1,0,1,1,0,0,1,0,0,1,0,0],"split_type":[0,0,0,0,0,0,0,0,0,0,0,0,0],"sum_hessian":[3.3E1,2.8E1,5E0,5E0,2.3E1,4E0,1E0,2E1,3E0,6E0,1.4E1,6E0,8E0],"tree_param":{"num_deleted":"0","num_feature":"2","num_nodes":"13","size_leaf_vector":"1"}},{"base_weights":[-1.574707E-1,-2.2567854E0,5.0077313E-1,-4.5529785E0,-1.5887045E0,-6.945313E-2,-5.09314E-1,-1.6938012E0,-3.1988528E-2,-4.5504328E-2,-1.9466146E0,-1.2995256E-1,-6.1143663E-2],"categories":[],"categories_nodes":[],"categories_segments":[],"categories_sizes":[],"default_left":[0,0,0,0,0,0,0,0,0,0,0,0,0],"id":74,"left_children":[1,3,-1,5,7,-1,-1,9,-1,-1,11,-1,-1],"loss_changes":[7.4871313E2,3.7253906E1,0E0,9.279037E1,1.3098755E0,0E0,0E0,2.3892136E0,0E0,0E0,3.9046211E0,0E0,0E0],"parents":[2147483647,0,0,1,1,3,3,4,4,7,7,10,10],"right_children":[2,4,-1,6,8,-1,-1,10,-1,-1,12,-1,-1],"split_conditions":[2.366432E0,-5.39318E-1,5.0077313E-1,-5.8378E-1,1.4666678E-1,-6.945313E-2,-5.09314E-1,-4.2498723E-1,-3.1988528E-2,-4.5504328E-2,-3.614701E-1,-1.2995256E-1,-6.1143663E-2],"split_indices":[0,1,0,1,1,0,0,1,0,0,1,0,0],"split_type":[0,0,0,0,0,0,0,0,0,0,0,0,0],"sum_hessian":[3.3E1,2.8E1,5E0,5E0,2.3E1,4E0,1E0,2E1,3E0,6E0,1.4E1,6E0,8E0],"tree_param":{"num_deleted":"0","num_feature":"2","num_nodes":"13","size_leaf_vector":"1"}},{"base_weights":[-1.5985467E-1,-2.1732473E0,4.7990927E-1,-4.421875E0,-1.5205383E0,-6.667969E-2,-4.9658203E-1,-1.620466E0,-3.0789185E-2,-4.3558177E-2,-1.8621094E0,-1.24386154E-1,-5.843099E-2],"categories":[],"categories_nodes":[],"categories_segments":[],"categories_sizes":[],"default_left":[0,0,0,0,0,0,0,0,0,0,0,0,0],"id":75,"left_children":[1,3,-1,5,7,-1,-1,9,-1,-1,11,-1,-1],"loss_changes":[6.8884924E2,3.5839645E1,0E0,8.884946E1,1.1719856E0,0E0,0E0,2.1801453E0,0E0,0E0,3.600647E0,0E0,0E0],"parents":[2147483647,0,0,1,1,3,3,4,4,7,7,10,10],"right_children":[2,4,-1,6,8,-1,-1,10,-1,-1,12,-1,-1],"split_conditions":[2.366432E0,-5.39318E-1,4.7990927E-1,-5.8378E-1,1.4666678E-1,-6.667969E-2,-4.9658203E-1,-4.2498723E-1,-3.0789185E-2,-4.3558177E-2,-3.614701E-1,-1.24386154E-1,-5.843099E-2],"split_indices":[0,1,0,1,1,0,0,1,0,0,1,0,0],"split_type":[0,0,0,0,0,0,0,0,0,0,0,0,0],"sum_hessian":[3.3E1,2.8E1,5E0,5E0,2.3E1,4E0,1E0,2E1,3E0,6E0,1.4E1,6E0,8E0],"tree_param":{"num_deleted":"0","num_feature":"2","num_nodes":"13","size_leaf_vector":"1"}},{"base_weights":[-1.6195141E-1,-2.0929503E0,4.5991006E-1,-4.2946777E0,-1.4553121E0,-6.4013675E-2,-4.841675E-1,-4.1695733E-2,-1.616116E0,-1.1906041E-1,-5.1756795E-2],"categories":[],"categories_nodes":[],"categories_segments":[],"categories_sizes":[],"default_left":[0,0,0,0,0,0,0,0,0,0,0],"id":76,"left_children":[1,3,-1,5,7,-1,-1,-1,9,-1,-1],"loss_changes":[6.337825E2,3.4463158E1,0E0,8.5064476E1,1.0504532E0,0E0,0E0,0E0,5.53619E0,0E0,0E0],"parents":[2147483647,0,0,1,1,3,3,4,4,8,8],"right_children":[2,4,-1,6,8,-1,-1,-1,10,-1,-1],"split_conditions":[2.366432E0,-5.39318E-1,4.5991006E-1,-5.8378E-1,-4.2498723E-1,-6.4013675E-2,-4.841675E-1,-4.1695733E-2,-3.614701E-1,-1.1906041E-1,-5.1756795E-2],"split_indices":[0,1,0,1,1,0,0,0,1,0,0],"split_type":[0,0,0,0,0,0,0,0,0,0,0],"sum_hessian":[3.3E1,2.8E1,5E0,5E0,2.3E1,4E0,1E0,6E0,1.7E1,6E0,1.1E1],"tree_param":{"num_deleted":"0","num_feature":"2","num_nodes":"11","size_leaf_vector":"1"}},{"base_weights":[-1.62691E-1,-2.0145137E0,4.4074503E-1,-4.171346E0,-1.3913676E0,-6.145508E-2,-4.7206423E-1,-1.4846308E0,-2.7694702E-2,-3.9906528E-2,-1.7060221E0,-1.1395438E-1,-5.3537328E-2],"categories":[],"categories_nodes":[],"categories_segments":[],"categories_sizes":[],"default_left":[0,0,0,0,0,0,0,0,0,0,0,0,0],"id":77,"left_children":[1,3,-1,5,7,-1,-1,9,-1,-1,11,-1,-1],"loss_changes":[5.8300464E2,3.3172752E1,0E0,8.142838E1,1.052208E0,0E0,0E0,1.830059E0,0E0,0E0,3.0204964E0,0E0,0E0],"parents":[2147483647,0,0,1,1,3,3,4,4,7,7,10,10],"right_children":[2,4,-1,6,8,-1,-1,10,-1,-1,12,-1,-1],"split_conditions":[2.366432E0,-5.39318E-1,4.4074503E-1,-5.8378E-1,1.4666678E-1,-6.145508E-2,-4.7206423E-1,-4.2498723E-1,-2.7694702E-2,-3.9906528E-2,-3.614701E-1,-1.1395438E-1,-5.3537328E-2],"split_indices":[0,1,0,1,1,0,0,1,0,0,1,0,0],"split_type":[0,0,0,0,0,0,0,0,0,0,0,0,0],"sum_hessian":[3.3E1,2.8E1,5E0,5E0,2.3E1,4E0,1E0,2E1,3E0,6E0,1.4E1,6E0,8E0],"tree_param":{"num_deleted":"0","num_feature":"2","num_nodes":"13","size_leaf_vector":"1"}},{"base_weights":[-1.642133E-1,-1.9403203E0,4.2238364E-1,-4.0516357E0,-1.3316447E0,-5.899414E-2,-4.6026E-1,-1.4203172E0,-2.6660157E-2,-3.820103E-2,-1.631901E0,-1.0906809E-1,-5.116103E-2],"categories":[],"categories_nodes":[],"categories_segments":[],"categories_sizes":[],"default_left":[0,0,0,0,0,0,0,0,0,0,0,0,0],"id":78,"left_children":[1,3,-1,5,7,-1,-1,9,-1,-1,11,-1,-1],"loss_changes":[5.364426E2,3.1872742E1,0E0,7.793752E1,9.4187546E-1,0E0,0E0,1.6692963E0,0E0,0E0,2.7846718E0,0E0,0E0],"parents":[2147483647,0,0,1,1,3,3,4,4,7,7,10,10],"right_children":[2,4,-1,6,8,-1,-1,10,-1,-1,12,-1,-1],"split_conditions":[2.366432E0,-5.39318E-1,4.2238364E-1,-5.8378E-1,1.4666678E-1,-5.899414E-2,-4.6026E-1,-4.2498723E-1,-2.6660157E-2,-3.820103E-2,-3.614701E-1,-1.0906809E-1,-5.116103E-2],"split_indices":[0,1,0,1,1,0,0,1,0,0,1,0,0],"split_type":[0,0,0,0,0,0,0,0,0,0,0,0,0],"sum_hessian":[3.3E1,2.8E1,5E0,5E0,2.3E1,4E0,1E0,2E1,3E0,6E0,1.4E1,6E0,8E0],"tree_param":{"num_deleted":"0","num_feature":"2","num_nodes":"13","size_leaf_vector":"1"}},{"base_weights":[-1.6544835E-1,-1.868947E0,4.0478516E-1,-3.9355469E0,-1.2744242E0,-5.663086E-2,-4.4875488E-1,-1.358724E0,-2.5662232E-2,-3.656878E-2,-1.560905E0,-1.0439104E-1,-4.8882376E-2],"categories":[],"categories_nodes":[],"categories_segments":[],"categories_sizes":[],"default_left":[0,0,0,0,0,0,0,0,0,0,0,0,0],"id":79,"left_children":[1,3,-1,5,7,-1,-1,9,-1,-1,11,-1,-1],"loss_changes":[4.936077E2,3.0615028E1,0E0,7.4587685E1,8.426552E-1,0E0,0E0,1.5219879E0,0E0,0E0,2.56876E0,0E0,0E0],"parents":[2147483647,0,0,1,1,3,3,4,4,7,7,10,10],"right_children":[2,4,-1,6,8,-1,-1,10,-1,-1,12,-1,-1],"split_conditions":[2.366432E0,-5.39318E-1,4.0478516E-1,-5.8378E-1,1.4666678E-1,-5.663086E-2,-4.4875488E-1,-4.2498723E-1,-2.5662232E-2,-3.656878E-2,-3.614701E-1,-1.0439104E-1,-4.8882376E-2],"split_indices":[0,1,0,1,1,0,0,1,0,0,1,0,0],"split_type":[0,0,0,0,0,0,0,0,0,0,0,0,0],"sum_hessian":[3.3E1,2.8E1,5E0,5E0,2.3E1,4E0,1E0,2E1,3E0,6E0,1.4E1,6E0,8E0],"tree_param":{"num_deleted":"0","num_feature":"2","num_nodes":"13","size_leaf_vector":"1"}},{"base_weights":[-1.6646083E-1,-1.8003435E0,3.8791913E-1,-3.822998E0,-1.2196655E0,-5.4365236E-2,-4.3753663E-1,-1.2998047E0,-2.4700928E-2,-3.4999304E-2,-1.4930664E0,-9.991281E-2,-4.6712242E-2],"categories":[],"categories_nodes":[],"categories_segments":[],"categories_sizes":[],"default_left":[0,0,0,0,0,0,0,0,0,0,0,0,0],"id":80,"left_children":[1,3,-1,5,7,-1,-1,9,-1,-1,11,-1,-1],"loss_changes":[4.542087E2,2.939804E1,0E0,7.136991E1,7.5354385E-1,0E0,0E0,1.3892326E0,0E0,0E0,2.3678017E0,0E0,0E0],"parents":[2147483647,0,0,1,1,3,3,4,4,7,7,10,10],"right_children":[2,4,-1,6,8,-1,-1,10,-1,-1,12,-1,-1],"split_conditions":[2.366432E0,-5.39318E-1,3.8791913E-1,-5.8378E-1,1.4666678E-1,-5.4365236E-2,-4.3753663E-1,-4.2498723E-1,-2.4700928E-2,-3.4999304E-2,-3.614701E-1,-9.991281E-2,-4.6712242E-2],"split_indices":[0,1,0,1,1,0,0,1,0,0,1,0,0],"split_type":[0,0,0,0,0,0,0,0,0,0,0,0,0],"sum_hessian":[3.3E1,2.8E1,5E0,5E0,2.3E1,4E0,1E0,2E1,3E0,6E0,1.4E1,6E0,8E0],"tree_param":{"num_deleted":"0","num_feature":"2","num_nodes":"13","size_leaf_vector":"1"}},{"base_weights":[-1.6730814E-1,-1.7344508E0,3.7175497E-1,-3.713786E0,-1.1673483E0,-5.2187502E-2,-4.2659912E-1,-1.2435361E0,-2.3776246E-2,-3.350307E-2,-1.4282552E0,-9.563337E-2,-4.463976E-2],"categories":[],"categories_nodes":[],"categories_segments":[],"categories_sizes":[],"default_left":[0,0,0,0,0,0,0,0,0,0,0,0,0],"id":81,"left_children":[1,3,-1,5,7,-1,-1,9,-1,-1,11,-1,-1],"loss_changes":[4.1797375E2,2.8216805E1,0E0,6.828329E1,6.736717E-1,0E0,0E0,1.2675476E0,0E0,0E0,2.1831322E0,0E0,0E0],"parents":[2147483647,0,0,1,1,3,3,4,4,7,7,10,10],"right_children":[2,4,-1,6,8,-1,-1,10,-1,-1,12,-1,-1],"split_conditions":[2.366432E0,-5.39318E-1,3.7175497E-1,-5.8378E-1,1.4666678E-1,-5.2187502E-2,-4.2659912E-1,-4.2498723E-1,-2.3776246E-2,-3.350307E-2,-3.614701E-1,-9.563337E-2,-4.463976E-2],"split_indices":[0,1,0,1,1,0,0,1,0,0,1,0,0],"split_type":[0,0,0,0,0,0,0,0,0,0,0,0,0],"sum_hessian":[3.3E1,2.8E1,5E0,5E0,2.3E1,4E0,1E0,2E1,3E0,6E0,1.4E1,6E0,8E0],"tree_param":{"num_deleted":"0","num_feature":"2","num_nodes":"13","size_leaf_vector":"1"}},{"base_weights":[-1.6790412E-1,-1.6710416E0,3.562622E-1,-3.6078694E0,-1.1172079E0,-5.0097656E-2,-4.159363E-1,-1.3310922E0,-3.9619956E-2,-3.2069616E-2,-9.1531806E-2],"categories":[],"categories_nodes":[],"categories_segments":[],"categories_sizes":[],"default_left":[0,0,0,0,0,0,0,0,0,0,0],"id":82,"left_children":[1,3,-1,5,7,-1,-1,9,-1,-1,-1],"loss_changes":[3.846351E2,2.7077003E1,0E0,6.53216E1,6.125603E-1,0E0,0E0,3.3048038E0,0E0,0E0,0E0],"parents":[2147483647,0,0,1,1,3,3,4,4,7,7],"right_children":[2,4,-1,6,8,-1,-1,10,-1,-1,-1],"split_conditions":[2.366432E0,-5.39318E-1,3.562622E-1,-5.8378E-1,-3.614701E-1,-5.0097656E-2,-4.159363E-1,-4.2498723E-1,-3.9619956E-2,-3.2069616E-2,-9.1531806E-2],"split_indices":[0,1,0,1,1,0,0,1,0,0,0],"split_type":[0,0,0,0,0,0,0,0,0,0,0],"sum_hessian":[3.3E1,2.8E1,5E0,5E0,2.3E1,4E0,1E0,1.2E1,1.1E1,6E0,6E0],"tree_param":{"num_deleted":"0","num_feature":"2","num_nodes":"11","size_leaf_vector":"1"}},{"base_weights":[-1.6756664E-1,-1.6092318E0,3.414205E-1,-3.5051677E0,-1.0681967E0,-4.8095703E-2,-4.055359E-1,-1.1392531E0,-2.140503E-2,-3.069894E-2,-1.308431E0,-8.760812E-2,-4.0896267E-2],"categories":[],"categories_nodes":[],"categories_segments":[],"categories_sizes":[],"default_left":[0,0,0,0,0,0,0,0,0,0,0,0,0],"id":83,"left_children":[1,3,-1,5,7,-1,-1,9,-1,-1,11,-1,-1],"loss_changes":[3.539076E2,2.6003067E1,0E0,6.2476677E1,6.03878E-1,0E0,0E0,1.0628109E0,0E0,0E0,1.8316536E0,0E0,0E0],"parents":[2147483647,0,0,1,1,3,3,4,4,7,7,10,10],"right_children":[2,4,-1,6,8,-1,-1,10,-1,-1,12,-1,-1],"split_conditions":[2.366432E0,-5.39318E-1,3.414205E-1,-5.8378E-1,1.4666678E-1,-4.8095703E-2,-4.055359E-1,-4.2498723E-1,-2.140503E-2,-3.069894E-2,-3.614701E-1,-8.760812E-2,-4.0896267E-2],"split_indices":[0,1,0,1,1,0,0,1,0,0,1,0,0],"split_type":[0,0,0,0,0,0,0,0,0,0,0,0,0],"sum_hessian":[3.3E1,2.8E1,5E0,5E0,2.3E1,4E0,1E0,2E1,3E0,6E0,1.4E1,6E0,8E0],"tree_param":{"num_deleted":"0","num_feature":"2","num_nodes":"13","size_leaf_vector":"1"}},{"base_weights":[-1.6773179E-1,-1.5505792E0,3.271993E-1,-3.4055176E0,-1.0222372E0,-4.6171874E-2,-3.9539796E-1,-1.0897973E0,-2.0599365E-2,-2.938058E-2,-1.2514974E0,-8.3851844E-2,-3.907335E-2],"categories":[],"categories_nodes":[],"categories_segments":[],"categories_sizes":[],"default_left":[0,0,0,0,0,0,0,0,0,0,0,0,0],"id":84,"left_children":[1,3,-1,5,7,-1,-1,9,-1,-1,11,-1,-1],"loss_changes":[3.2571057E2,2.493998E1,0E0,5.9750008E1,5.4050064E-1,0E0,0E0,9.6987915E-1,0E0,0E0,1.6896973E0,0E0,0E0],"parents":[2147483647,0,0,1,1,3,3,4,4,7,7,10,10],"right_children":[2,4,-1,6,8,-1,-1,10,-1,-1,12,-1,-1],"split_conditions":[2.366432E0,-5.39318E-1,3.271993E-1,-5.8378E-1,1.4666678E-1,-4.6171874E-2,-3.9539796E-1,-4.2498723E-1,-2.0599365E-2,-2.938058E-2,-3.614701E-1,-8.3851844E-2,-3.907335E-2],"split_indices":[0,1,0,1,1,0,0,1,0,0,1,0,0],"split_type":[0,0,0,0,0,0,0,0,0,0,0,0,0],"sum_hessian":[3.3E1,2.8E1,5E0,5E0,2.3E1,4E0,1E0,2E1,3E0,6E0,1.4E1,6E0,8E0],"tree_param":{"num_deleted":"0","num_feature":"2","num_nodes":"13","size_leaf_vector":"1"}},{"base_weights":[-1.6783231E-1,-1.4942921E0,3.1356812E-1,-3.308838E0,-9.7839355E-1,-4.432617E-2,-3.8551027E-1,-1.1672552E0,-3.461304E-2,-2.8125001E-2,-8.026298E-2],"categories":[],"categories_nodes":[],"categories_segments":[],"categories_sizes":[],"default_left":[0,0,0,0,0,0,0,0,0,0,0],"id":85,"left_children":[1,3,-1,5,7,-1,-1,9,-1,-1,-1],"loss_changes":[2.9977658E2,2.3910187E1,0E0,5.713369E1,4.8890114E-1,0E0,0E0,2.5405521E0,0E0,0E0,0E0],"parents":[2147483647,0,0,1,1,3,3,4,4,7,7],"right_children":[2,4,-1,6,8,-1,-1,10,-1,-1,-1],"split_conditions":[2.366432E0,-5.39318E-1,3.1356812E-1,-5.8378E-1,-3.614701E-1,-4.432617E-2,-3.8551027E-1,-4.2498723E-1,-3.461304E-2,-2.8125001E-2,-8.026298E-2],"split_indices":[0,1,0,1,1,0,0,1,0,0,0],"split_type":[0,0,0,0,0,0,0,0,0,0,0],"sum_hessian":[3.3E1,2.8E1,5E0,5E0,2.3E1,4E0,1E0,1.2E1,1.1E1,6E0,6E0],"tree_param":{"num_deleted":"0","num_feature":"2","num_nodes":"11","size_leaf_vector":"1"}},{"base_weights":[-1.6702092E-1,-1.4392931E0,3.005066E-1,-3.2149658E0,-9.354045E-1,-4.254883E-2,-3.7587282E-1,-9.984422E-1,-1.8530274E-2,-2.6921734E-2,-1.1465495E0,-7.68206E-2,-3.579644E-2],"categories":[],"categories_nodes":[],"categories_segments":[],"categories_sizes":[],"default_left":[0,0,0,0,0,0,0,0,0,0,0,0,0],"id":86,"left_children":[1,3,-1,5,7,-1,-1,9,-1,-1,11,-1,-1],"loss_changes":[2.7585703E2,2.2940205E1,0E0,5.4629063E1,4.8446083E-1,0E0,0E0,8.1339645E-1,0E0,0E0,1.4182816E0,0E0,0E0],"parents":[2147483647,0,0,1,1,3,3,4,4,7,7,10,10],"right_children":[2,4,-1,6,8,-1,-1,10,-1,-1,12,-1,-1],"split_conditions":[2.366432E0,-5.39318E-1,3.005066E-1,-5.8378E-1,1.4666678E-1,-4.254883E-2,-3.7587282E-1,-4.2498723E-1,-1.8530274E-2,-2.6921734E-2,-3.614701E-1,-7.68206E-2,-3.579644E-2],"split_indices":[0,1,0,1,1,0,0,1,0,0,1,0,0],"split_type":[0,0,0,0,0,0,0,0,0,0,0,0,0],"sum_hessian":[3.3E1,2.8E1,5E0,5E0,2.3E1,4E0,1E0,2E1,3E0,6E0,1.4E1,6E0,8E0],"tree_param":{"num_deleted":"0","num_feature":"2","num_nodes":"13","size_leaf_vector":"1"}},{"base_weights":[-1.667696E-1,-1.3871818E0,2.8798422E-1,-3.1239827E0,-8.951823E-1,-4.0849607E-2,-3.664734E-1,-9.551246E-1,-1.7834473E-2,-2.5770787E-2,-1.0966471E0,-7.35247E-2,-3.420139E-2],"categories":[],"categories_nodes":[],"categories_segments":[],"categories_sizes":[],"default_left":[0,0,0,0,0,0,0,0,0,0,0,0,0],"id":87,"left_children":[1,3,-1,5,7,-1,-1,9,-1,-1,11,-1,-1],"loss_changes":[2.5390208E2,2.1984116E1,0E0,5.2223965E1,4.3400192E-1,0E0,0E0,7.4157333E-1,0E0,0E0,1.3079872E0,0E0,0E0],"parents":[2147483647,0,0,1,1,3,3,4,4,7,7,10,10],"right_children":[2,4,-1,6,8,-1,-1,10,-1,-1,12,-1,-1],"split_conditions":[2.366432E0,-5.39318E-1,2.8798422E-1,-5.8378E-1,1.4666678E-1,-4.0849607E-2,-3.664734E-1,-4.2498723E-1,-1.7834473E-2,-2.5770787E-2,-3.614701E-1,-7.35247E-2,-3.420139E-2],"split_indices":[0,1,0,1,1,0,0,1,0,0,1,0,0],"split_type":[0,0,0,0,0,0,0,0,0,0,0,0,0],"sum_hessian":[3.3E1,2.8E1,5E0,5E0,2.3E1,4E0,1E0,2E1,3E0,6E0,1.4E1,6E0,8E0],"tree_param":{"num_deleted":"0","num_feature":"2","num_nodes":"13","size_leaf_vector":"1"}},{"base_weights":[-1.6641057E-1,-1.3370908E0,2.7598065E-1,-3.0357258E0,-8.5672E-1,-3.921875E-2,-3.5731202E-1,-1.023475E0,-3.0233765E-2,-2.4661692E-2,-7.0375286E-2],"categories":[],"categories_nodes":[],"categories_segments":[],"categories_sizes":[],"default_left":[0,0,0,0,0,0,0,0,0,0,0],"id":88,"left_children":[1,3,-1,5,7,-1,-1,9,-1,-1,-1],"loss_changes":[2.3370174E2,2.1062504E1,0E0,4.991992E1,3.898449E-1,0E0,0E0,1.9529438E0,0E0,0E0,0E0],"parents":[2147483647,0,0,1,1,3,3,4,4,7,7],"right_children":[2,4,-1,6,8,-1,-1,10,-1,-1,-1],"split_conditions":[2.366432E0,-5.39318E-1,2.7598065E-1,-5.8378E-1,-3.614701E-1,-3.921875E-2,-3.5731202E-1,-4.2498723E-1,-3.0233765E-2,-2.4661692E-2,-7.0375286E-2],"split_indices":[0,1,0,1,1,0,0,1,0,0,0],"split_type":[0,0,0,0,0,0,0,0,0,0,0],"sum_hessian":[3.3E1,2.8E1,5E0,5E0,2.3E1,4E0,1E0,1.2E1,1.1E1,6E0,6E0],"tree_param":{"num_deleted":"0","num_feature":"2","num_nodes":"11","size_leaf_vector":"1"}},{"base_weights":[-1.6529039E-1,-1.2882122E0,2.644857E-1,-2.9499512E0,-8.19102E-1,-3.7646484E-2,-3.4837648E-1,-8.750465E-1,-1.6030883E-2,-2.360491E-2,-1.0047526E0,-6.7361884E-2,-3.1336807E-2],"categories":[],"categories_nodes":[],"categories_segments":[],"categories_sizes":[],"default_left":[0,0,0,0,0,0,0,0,0,0,0,0,0],"id":89,"left_children":[1,3,-1,5,7,-1,-1,9,-1,-1,11,-1,-1],"loss_changes":[2.1508273E2,2.0190311E1,0E0,4.7714172E1,3.8874245E-1,0E0,0E0,6.2322044E-1,0E0,0E0,1.0976133E0,0E0,0E0],"parents":[2147483647,0,0,1,1,3,3,4,4,7,7,10,10],"right_children":[2,4,-1,6,8,-1,-1,10,-1,-1,12,-1,-1],"split_conditions":[2.366432E0,-5.39318E-1,2.644857E-1,-5.8378E-1,1.4666678E-1,-3.7646484E-2,-3.4837648E-1,-4.2498723E-1,-1.6030883E-2,-2.360491E-2,-3.614701E-1,-6.7361884E-2,-3.1336807E-2],"split_indices":[0,1,0,1,1,0,0,1,0,0,1,0,0],"split_type":[0,0,0,0,0,0,0,0,0,0,0,0,0],"sum_hessian":[3.3E1,2.8E1,5E0,5E0,2.3E1,4E0,1E0,2E1,3E0,6E0,1.4E1,6E0,8E0],"tree_param":{"num_deleted":"0","num_feature":"2","num_nodes":"13","size_leaf_vector":"1"}},{"base_weights":[-1.6465849E-1,-1.2418845E0,2.5346884E-1,-2.8668213E0,-7.83905E-1,-3.614258E-2,-3.3966675E-1,-8.3712333E-1,-1.5426636E-2,-2.2589983E-2,-9.611328E-1,-6.447405E-2,-2.9947916E-2],"categories":[],"categories_nodes":[],"categories_segments":[],"categories_sizes":[],"default_left":[0,0,0,0,0,0,0,0,0,0,0,0,0],"id":90,"left_children":[1,3,-1,5,7,-1,-1,9,-1,-1,11,-1,-1],"loss_changes":[1.9799568E2,1.9334126E1,0E0,4.5599384E1,3.4888554E-1,0E0,0E0,5.692196E-1,0E0,0E0,1.0114441E0,0E0,0E0],"parents":[2147483647,0,0,1,1,3,3,4,4,7,7,10,10],"right_children":[2,4,-1,6,8,-1,-1,10,-1,-1,12,-1,-1],"split_conditions":[2.366432E0,-5.39318E-1,2.5346884E-1,-5.8378E-1,1.4666678E-1,-3.614258E-2,-3.3966675E-1,-4.2498723E-1,-1.5426636E-2,-2.2589983E-2,-3.614701E-1,-6.447405E-2,-2.9947916E-2],"split_indices":[0,1,0,1,1,0,0,1,0,0,1,0,0],"split_type":[0,0,0,0,0,0,0,0,0,0,0,0,0],"sum_hessian":[3.3E1,2.8E1,5E0,5E0,2.3E1,4E0,1E0,2E1,3E0,6E0,1.4E1,6E0,8E0],"tree_param":{"num_deleted":"0","num_feature":"2","num_nodes":"13","size_leaf_vector":"1"}},{"base_weights":[-1.6388299E-1,-1.1972824E0,2.4290974E-1,-2.7861328E0,-7.501831E-1,-3.4697264E-2,-3.3117676E-1,-8.0078125E-1,-1.4849854E-2,-2.161691E-2,-9.1933596E-1,-6.1711777E-2,-2.8613282E-2],"categories":[],"categories_nodes":[],"categories_segments":[],"categories_sizes":[],"default_left":[0,0,0,0,0,0,0,0,0,0,0,0,0],"id":91,"left_children":[1,3,-1,5,7,-1,-1,9,-1,-1,11,-1,-1],"loss_changes":[1.8227026E2,1.851073E1,0E0,4.3575024E1,3.124981E-1,0E0,0E0,5.198307E-1,0E0,0E0,9.33074E-1,0E0,0E0],"parents":[2147483647,0,0,1,1,3,3,4,4,7,7,10,10],"right_children":[2,4,-1,6,8,-1,-1,10,-1,-1,12,-1,-1],"split_conditions":[2.366432E0,-5.39318E-1,2.4290974E-1,-5.8378E-1,1.4666678E-1,-3.4697264E-2,-3.3117676E-1,-4.2498723E-1,-1.4849854E-2,-2.161691E-2,-3.614701E-1,-6.1711777E-2,-2.8613282E-2],"split_indices":[0,1,0,1,1,0,0,1,0,0,1,0,0],"split_type":[0,0,0,0,0,0,0,0,0,0,0,0,0],"sum_hessian":[3.3E1,2.8E1,5E0,5E0,2.3E1,4E0,1E0,2E1,3E0,6E0,1.4E1,6E0,8E0],"tree_param":{"num_deleted":"0","num_feature":"2","num_nodes":"13","size_leaf_vector":"1"}},{"base_weights":[-1.6302131E-1,-1.1543895E0,2.3278809E-1,-2.707845E0,-7.17926E-1,-3.3310547E-2,-3.2290038E-1,-8.5884917E-1,-2.5271608E-2,-2.0685686E-2,-5.9064593E-2],"categories":[],"categories_nodes":[],"categories_segments":[],"categories_sizes":[],"default_left":[0,0,0,0,0,0,0,0,0,0,0],"id":92,"left_children":[1,3,-1,5,7,-1,-1,9,-1,-1,-1],"loss_changes":[1.6779897E2,1.7718739E1,0E0,4.1636364E1,2.845974E-1,0E0,0E0,1.377182E0,0E0,0E0,0E0],"parents":[2147483647,0,0,1,1,3,3,4,4,7,7],"right_children":[2,4,-1,6,8,-1,-1,10,-1,-1,-1],"split_conditions":[2.366432E0,-5.39318E-1,2.3278809E-1,-5.8378E-1,-3.614701E-1,-3.3310547E-2,-3.2290038E-1,-4.2498723E-1,-2.5271608E-2,-2.0685686E-2,-5.9064593E-2],"split_indices":[0,1,0,1,1,0,0,1,0,0,0],"split_type":[0,0,0,0,0,0,0,0,0,0,0],"sum_hessian":[3.3E1,2.8E1,5E0,5E0,2.3E1,4E0,1E0,1.2E1,1.1E1,6E0,6E0],"tree_param":{"num_deleted":"0","num_feature":"2","num_nodes":"11","size_leaf_vector":"1"}},{"base_weights":[-1.6156365E-1,-1.1125236E0,2.230835E-1,-2.6318767E0,-6.8633014E-1,-3.1982422E-2,-3.1482545E-1,-7.335612E-1,-1.3339234E-2,-1.9796317E-2,-8.4222007E-1,-5.653251E-2,-2.621528E-2],"categories":[],"categories_nodes":[],"categories_segments":[],"categories_sizes":[],"default_left":[0,0,0,0,0,0,0,0,0,0,0,0,0],"id":93,"left_children":[1,3,-1,5,7,-1,-1,9,-1,-1,11,-1,-1],"loss_changes":[1.5444505E2,1.6972279E1,0E0,3.977715E1,2.7987003E-1,0E0,0E0,4.369707E-1,0E0,0E0,7.8263474E-1,0E0,0E0],"parents":[2147483647,0,0,1,1,3,3,4,4,7,7,10,10],"right_children":[2,4,-1,6,8,-1,-1,10,-1,-1,12,-1,-1],"split_conditions":[2.366432E0,-5.39318E-1,2.230835E-1,-5.8378E-1,1.4666678E-1,-3.1982422E-2,-3.1482545E-1,-4.2498723E-1,-1.3339234E-2,-1.9796317E-2,-3.614701E-1,-5.653251E-2,-2.621528E-2],"split_indices":[0,1,0,1,1,0,0,1,0,0,1,0,0],"split_type":[0,0,0,0,0,0,0,0,0,0,0,0,0],"sum_hessian":[3.3E1,2.8E1,5E0,5E0,2.3E1,4E0,1E0,2E1,3E0,6E0,1.4E1,6E0,8E0],"tree_param":{"num_deleted":"0","num_feature":"2","num_nodes":"13","size_leaf_vector":"1"}},{"base_weights":[-1.6053683E-1,-1.0728465E0,2.1378581E-1,-2.5580647E0,-6.5684E-1,-3.0703126E-2,-3.069519E-1,-7.017764E-1,-1.2835694E-2,-1.89488E-2,-8.056315E-1,-5.410505E-2,-2.5054252E-2],"categories":[],"categories_nodes":[],"categories_segments":[],"categories_sizes":[],"default_left":[0,0,0,0,0,0,0,0,0,0,0,0,0],"id":94,"left_children":[1,3,-1,5,7,-1,-1,9,-1,-1,11,-1,-1],"loss_changes":[1.4219324E2,1.6237713E1,0E0,3.7998768E1,2.5136948E-1,0E0,0E0,3.986988E-1,0E0,0E0,7.207422E-1,0E0,0E0],"parents":[2147483647,0,0,1,1,3,3,4,4,7,7,10,10],"right_children":[2,4,-1,6,8,-1,-1,10,-1,-1,12,-1,-1],"split_conditions":[2.366432E0,-5.39318E-1,2.1378581E-1,-5.8378E-1,1.4666678E-1,-3.0703126E-2,-3.069519E-1,-4.2498723E-1,-1.2835694E-2,-1.89488E-2,-3.614701E-1,-5.410505E-2,-2.5054252E-2],"split_indices":[0,1,0,1,1,0,0,1,0,0,1,0,0],"split_type":[0,0,0,0,0,0,0,0,0,0,0,0,0],"sum_hessian":[3.3E1,2.8E1,5E0,5E0,2.3E1,4E0,1E0,2E1,3E0,6E0,1.4E1,6E0,8E0],"tree_param":{"num_deleted":"0","num_feature":"2","num_nodes":"13","size_leaf_vector":"1"}},{"base_weights":[-1.593592E-1,-1.0345922E0,2.0487468E-1,-2.4864094E0,-6.2852985E-1,-2.9472655E-2,-2.9927978E-1,-7.529297E-1,-2.2069296E-2,-1.8132674E-2,-5.1782228E-2],"categories":[],"categories_nodes":[],"categories_segments":[],"categories_sizes":[],"default_left":[0,0,0,0,0,0,0,0,0,0,0],"id":95,"left_children":[1,3,-1,5,7,-1,-1,9,-1,-1,-1],"loss_changes":[1.3091432E2,1.5533539E1,0E0,3.6298588E1,2.2640419E-1,0E0,0E0,1.0587988E0,0E0,0E0,0E0],"parents":[2147483647,0,0,1,1,3,3,4,4,7,7],"right_children":[2,4,-1,6,8,-1,-1,10,-1,-1,-1],"split_conditions":[2.366432E0,-5.39318E-1,2.0487468E-1,-5.8378E-1,-3.614701E-1,-2.9472655E-2,-2.9927978E-1,-4.2498723E-1,-2.2069296E-2,-1.8132674E-2,-5.1782228E-2],"split_indices":[0,1,0,1,1,0,0,1,0,0,0],"split_type":[0,0,0,0,0,0,0,0,0,0,0],"sum_hessian":[3.3E1,2.8E1,5E0,5E0,2.3E1,4E0,1E0,1.2E1,1.1E1,6E0,6E0],"tree_param":{"num_deleted":"0","num_feature":"2","num_nodes":"11","size_leaf_vector":"1"}},{"base_weights":[-1.5777229E-1,-9.974155E-1,1.9633994E-1,-2.4168293E0,-6.01003E-1,-2.8291017E-2,-2.917969E-1,-6.429502E-1,-1.152649E-2,-1.7358398E-2,-7.3811847E-1,-4.9564034E-2,-2.296007E-2],"categories":[],"categories_nodes":[],"categories_segments":[],"categories_sizes":[],"default_left":[0,0,0,0,0,0,0,0,0,0,0,0,0],"id":96,"left_children":[1,3,-1,5,7,-1,-1,9,-1,-1,11,-1,-1],"loss_changes":[1.20522446E2,1.48650055E1,0E0,3.4670708E1,2.2474766E-1,0E0,0E0,3.3487988E-1,0E0,0E0,6.0397243E-1,0E0,0E0],"parents":[2147483647,0,0,1,1,3,3,4,4,7,7,10,10],"right_children":[2,4,-1,6,8,-1,-1,10,-1,-1,12,-1,-1],"split_conditions":[2.366432E0,-5.39318E-1,1.9633994E-1,-5.8378E-1,1.4666678E-1,-2.8291017E-2,-2.917969E-1,-4.2498723E-1,-1.152649E-2,-1.7358398E-2,-3.614701E-1,-4.9564034E-2,-2.296007E-2],"split_indices":[0,1,0,1,1,0,0,1,0,0,1,0,0],"split_type":[0,0,0,0,0,0,0,0,0,0,0,0,0],"sum_hessian":[3.3E1,2.8E1,5E0,5E0,2.3E1,4E0,1E0,2E1,3E0,6E0,1.4E1,6E0,8E0],"tree_param":{"num_deleted":"0","num_feature":"2","num_nodes":"13","size_leaf_vector":"1"}},{"base_weights":[-1.565085E-1,-9.6209085E-1,1.8816122E-1,-2.3493245E0,-5.751953E-1,-2.7158204E-2,-2.845032E-1,-6.1509484E-1,-1.1096192E-2,-1.6615514E-2,-7.060547E-1,-4.744001E-2,-2.1940105E-2],"categories":[],"categories_nodes":[],"categories_segments":[],"categories_sizes":[],"default_left":[0,0,0,0,0,0,0,0,0,0,0,0,0],"id":97,"left_children":[1,3,-1,5,7,-1,-1,9,-1,-1,11,-1,-1],"loss_changes":[1.1098126E2,1.4213402E1,0E0,3.3112827E1,2.0178509E-1,0E0,0E0,3.055334E-1,0E0,0E0,5.5677986E-1,0E0,0E0],"parents":[2147483647,0,0,1,1,3,3,4,4,7,7,10,10],"right_children":[2,4,-1,6,8,-1,-1,10,-1,-1,12,-1,-1],"split_conditions":[2.366432E0,-5.39318E-1,1.8816122E-1,-5.8378E-1,1.4666678E-1,-2.7158204E-2,-2.845032E-1,-4.2498723E-1,-1.1096192E-2,-1.6615514E-2,-3.614701E-1,-4.744001E-2,-2.1940105E-2],"split_indices":[0,1,0,1,1,0,0,1,0,0,1,0,0],"split_type":[0,0,0,0,0,0,0,0,0,0,0,0,0],"sum_hessian":[3.3E1,2.8E1,5E0,5E0,2.3E1,4E0,1E0,2E1,3E0,6E0,1.4E1,6E0,8E0],"tree_param":{"num_deleted":"0","num_feature":"2","num_nodes":"13","size_leaf_vector":"1"}},{"base_weights":[-1.5520881E-1,-9.281132E-1,1.803182E-1,-2.2838542E0,-5.505066E-1,-2.607422E-2,-2.773926E-1,-5.8844864E-1,-1.0684204E-2,-1.5904019E-2,-6.753906E-1,-4.5410156E-2,-2.0963542E-2],"categories":[],"categories_nodes":[],"categories_segments":[],"categories_sizes":[],"default_left":[0,0,0,0,0,0,0,0,0,0,0,0,0],"id":98,"left_children":[1,3,-1,5,7,-1,-1,9,-1,-1,11,-1,-1],"loss_changes":[1.0219654E2,1.358889E1,0E0,3.1621103E1,1.8097115E-1,0E0,0E0,2.7880478E-1,0E0,0E0,5.1363564E-1,0E0,0E0],"parents":[2147483647,0,0,1,1,3,3,4,4,7,7,10,10],"right_children":[2,4,-1,6,8,-1,-1,10,-1,-1,12,-1,-1],"split_conditions":[2.366432E0,-5.39318E-1,1.803182E-1,-5.8378E-1,1.4666678E-1,-2.607422E-2,-2.773926E-1,-4.2498723E-1,-1.0684204E-2,-1.5904019E-2,-3.614701E-1,-4.5410156E-2,-2.0963542E-2],"split_indices":[0,1,0,1,1,0,0,1,0,0,1,0,0],"split_type":[0,0,0,0,0,0,0,0,0,0,0,0,0],"sum_hessian":[3.3E1,2.8E1,5E0,5E0,2.3E1,4E0,1E0,2E1,3E0,6E0,1.4E1,6E0,8E0],"tree_param":{"num_deleted":"0","num_feature":"2","num_nodes":"13","size_leaf_vector":"1"}},{"base_weights":[-1.538086E-1,-8.953647E-1,1.728007E-1,-2.2202148E0,-5.268453E-1,-2.5029296E-2,-2.70459E-1,-6.3202375E-1,-1.844991E-2,-1.5223912E-2,-4.346401E-2],"categories":[],"categories_nodes":[],"categories_segments":[],"categories_sizes":[],"default_left":[0,0,0,0,0,0,0,0,0,0,0],"id":99,"left_children":[1,3,-1,5,7,-1,-1,9,-1,-1,-1],"loss_changes":[9.4108505E1,1.298905E1,0E0,3.0195253E1,1.6523552E-1,0E0,0E0,7.455826E-1,0E0,0E0,0E0],"parents":[2147483647,0,0,1,1,3,3,4,4,7,7],"right_children":[2,4,-1,6,8,-1,-1,10,-1,-1,-1],"split_conditions":[2.366432E0,-5.39318E-1,1.728007E-1,-5.8378E-1,-3.614701E-1,-2.5029296E-2,-2.70459E-1,-4.2498723E-1,-1.844991E-2,-1.5223912E-2,-4.346401E-2],"split_indices":[0,1,0,1,1,0,0,1,0,0,0],"split_type":[0,0,0,0,0,0,0,0,0,0,0],"sum_hessian":[3.3E1,2.8E1,5E0,5E0,2.3E1,4E0,1E0,1.2E1,1.1E1,6E0,6E0],"tree_param":{"num_deleted":"0","num_feature":"2","num_nodes":"11","size_leaf_vector":"1"}},{"base_weights":[-1.5197036E-1,-8.6340755E-1,1.6559856E-1,-2.158366E0,-5.036926E-1,-2.4023438E-2,-2.6369628E-1,-5.3913224E-1,-9.5855715E-3,-1.45751955E-2,-6.1875E-1,-4.1601565E-2,-1.920573E-2],"categories":[],"categories_nodes":[],"categories_segments":[],"categories_sizes":[],"default_left":[0,0,0,0,0,0,0,0,0,0,0,0,0],"id":100,"left_children":[1,3,-1,5,7,-1,-1,9,-1,-1,11,-1,-1],"loss_changes":[8.6648384E1,1.2421505E1,0E0,2.8831575E1,1.6199827E-1,0E0,0E0,2.3365927E-1,0E0,0E0,4.310546E-1,0E0,0E0],"parents":[2147483647,0,0,1,1,3,3,4,4,7,7,10,10],"right_children":[2,4,-1,6,8,-1,-1,10,-1,-1,12,-1,-1],"split_conditions":[2.366432E0,-5.39318E-1,1.6559856E-1,-5.8378E-1,1.4666678E-1,-2.4023438E-2,-2.6369628E-1,-4.2498723E-1,-9.5855715E-3,-1.45751955E-2,-3.614701E-1,-4.1601565E-2,-1.920573E-2],"split_indices":[0,1,0,1,1,0,0,1,0,0,1,0,0],"split_type":[0,0,0,0,0,0,0,0,0,0,0,0,0],"sum_hessian":[3.3E1,2.8E1,5E0,5E0,2.3E1,4E0,1E0,2E1,3E0,6E0,1.4E1,6E0,8E0],"tree_param":{"num_deleted":"0","num_feature":"2","num_nodes":"13","size_leaf_vector":"1"}},{"base_weights":[-1.5045525E-1,-8.33092E-1,1.5870158E-1,-2.09847E0,-4.820353E-1,-2.3066407E-2,-2.571045E-1,-5.157412E-1,-9.228515E-3,-1.3947405E-2,-5.9186196E-1,-3.9822824E-2,-1.8348524E-2],"categories":[],"categories_nodes":[],"categories_segments":[],"categories_sizes":[],