{"learner":{"attributes":{"scikit_learn":"{\"_estimator_type\": \"regressor\"}"},"feature_names":[],"feature_types":[],"gradient_booster":{"model":{"cats":{"enc":[],"feature_segments":[],"sorted_idx":[]},"gbtree_model_param":{"num_parallel_tree":"1","num_trees":"300"},"iteration_indptr":[0,1,2,3,4,5,6,7,8,9,10,11,12,13,14,15,16,17,18,19,20,21,22,23,24,25,26,27,28,29,30,31,32,33,34,35,36,37,38,39,40,41,42,43,44,45,46,47,48,49,50,51,52,53,54,55,56,57,58,59,60,61,62,63,64,65,66,67,68,69,70,71,72,73,74,75,76,77,78,79,80,81,82,83,84,85,86,87,88,89,90,91,92,93,94,95,96,97,98,99,100,101,102,103,104,105,106,107,108,109,110,111,112,113,114,115,116,117,118,119,120,121,122,123,124,125,126,127,128,129,130,131,132,133,134,135,136,137,138,139,140,141,142,143,144,145,146,147,148,149,150,151,152,153,154,155,156,157,158,159,160,161,162,163,164,165,166,167,168,169,170,171,172,173,174,175,176,177,178,179,180,181,182,183,184,185,186,187,188,189,190,191,192,193,194,195,196,197,198,199,200,201,202,203,204,205,206,207,208,209,210,211,212,213,214,215,216,217,218,219,220,221,222,223,224,225,226,227,228,229,230,231,232,233,234,235,236,237,238,239,240,241,242,243,244,245,246,247,248,249,250,251,252,253,254,255,256,257,258,259,260,261,262,263,264,265,266,267,268,269,270,271,272,273,274,275,276,277,278,279,280,281,282,283,284,285,286,287,288,289,290,291,292,293,294,295,296,297,298,299,300],"tree_info":[0,0,0,0,0,0,0,0,0,0,0,0,0,0,0,0,0,0,0,0,0,0,0,0,0,0,0,0,0,0,0,0,0,0,0,0,0,0,0,0,0,0,0,0,0,0,0,0,0,0,0,0,0,0,0,0,0,0,0,0,0,0,0,0,0,0,0,0,0,0,0,0,0,0,0,0,0,0,0,0,0,0,0,0,0,0,0,0,0,0,0,0,0,0,0,0,0,0,0,0,0,0,0,0,0,0,0,0,0,0,0,0,0,0,0,0,0,0,0,0,0,0,0,0,0,0,0,0,0,0,0,0,0,0,0,0,0,0,0,0,0,0,0,0,0,0,0,0,0,0,0,0,0,0,0,0,0,0,0,0,0,0,0,0,0,0,0,0,0,0,0,0,0,0,0,0,0,0,0,0,0,0,0,0,0,0,0,0,0,0,0,0,0,0,0,0,0,0,0,0,0,0,0,0,0,0,0,0,0,0,0,0,0,0,0,0,0,0,0,0,0,0,0,0,0,0,0,0,0,0,0,0,0,0,0,0,0,0,0,0,0,0,0,0,0,0,0,0,0,0,0,0,0,0,0,0,0,0,0,0,0,0,0,0,0,0,0,0,0,0,0,0,0,0,0,0,0,0,0,0,0,0,0,0,0,0,0,0,0,0,0,0,0,0,0,0,0,0,0,0],"trees":[{"base_weights":[6.781684E-5,-8.681312E1,1.0259744E1,-1.8126978E2,5.5873046E0,-1.23428545E1,-4.4126954E0],"categories":[],"categories_nodes":[],"categories_segments":[],"categories_sizes":[],"default_left":[0,0,0,0,0,0,0],"id":0,"left_children":[1,3,-1,5,-1,-1,-1],"loss_changes":[6.5910375E5,5.078924E5,0E0,8.802575E4,0E0,0E0,0E0],"parents":[2147483647,0,0,1,1,3,3],"right_children":[2,4,-1,6,-1,-1,-1],"split_conditions":[1.5811388E0,1.8371173E0,1.0259744E1,1.8371173E0,5.5873046E0,-1.23428545E1,-4.4126954E0],"split_indices":[1,2,0,0,0,0,0],"split_type":[0,0,0,0,0,0,0],"sum_hessian":[3.5E1,2.5E1,1E1,1.7E1,8E0,9E0,8E0],"tree_param":{"num_deleted":"0","num_feature":"4","num_nodes":"7","size_leaf_vector":"1"}},{"base_weights":[-2.5241427E-2,-8.29021E1,9.793391E0,-1.7313724E2,5.3389754E0,-1.1787429E1,-4.21658E0],"categories":[],"categories_nodes":[],"categories_segments":[],"categories_sizes":[],"default_left":[0,0,0,0,0,0,0],"id":1,"left_children":[1,3,-1,5,-1,-1,-1],"loss_changes":[6.006979E5,4.6350216E5,0E0,8.020325E4,0E0,0E0,0E0],"parents":[2147483647,0,0,1,1,3,3],"right_children":[2,4,-1,6,-1,-1,-1],"split_conditions":[1.5811388E0,1.8371173E0,9.793391E0,1.8371173E0,5.3389754E0,-1.1787429E1,-4.21658E0],"split_indices":[1,2,0,0,0,0,0],"split_type":[0,0,0,0,0,0,0],"sum_hessian":[3.5E1,2.5E1,1E1,1.7E1,8E0,9E0,8E0],"tree_param":{"num_deleted":"0","num_feature":"4","num_nodes":"7","size_leaf_vector":"1"}},{"base_weights":[-4.8210993E-2,-7.916719E1,9.348233E0,-1.6536954E2,5.1016927E0,-1.1256999E1,-4.0291777E0],"categories":[],"categories_nodes":[],"categories_segments":[],"categories_sizes":[],"default_left":[0,0,0,0,0,0,0],"id":2,"left_children":[1,3,-1,5,-1,-1,-1],"loss_changes":[5.4746706E5,4.2299216E5,0E0,7.307594E4,0E0,0E0,0E0],"parents":[2147483647,0,0,1,1,3,3],"right_children":[2,4,-1,6,-1,-1,-1],"split_conditions":[1.5811388E0,1.8371173E0,9.348233E0,1.8371173E0,5.1016927E0,-1.1256999E1,-4.0291777E0],"split_indices":[1,2,0,0,0,0,0],"split_type":[0,0,0,0,0,0,0],"sum_hessian":[3.5E1,2.5E1,1E1,1.7E1,8E0,9E0,8E0],"tree_param":{"num_deleted":"0","num_feature":"4","num_nodes":"7","size_leaf_vector":"1"}},{"base_weights":[-6.898329E-2,-7.560051E1,8.923318E0,-1.579502E2,4.874946E0,-1.075043E1,-3.8500977E0],"categories":[],"categories_nodes":[],"categories_segments":[],"categories_sizes":[],"default_left":[0,0,0,0,0,0,0],"id":3,"left_children":[1,3,-1,5,-1,-1,-1],"loss_changes":[4.9895384E5,3.8602175E5,0E0,6.658191E4,0E0,0E0,0E0],"parents":[2147483647,0,0,1,1,3,3],"right_children":[2,4,-1,6,-1,-1,-1],"split_conditions":[1.5811388E0,1.8371173E0,8.923318E0,1.8371173E0,4.874946E0,-1.075043E1,-3.8500977E0],"split_indices":[1,2,0,0,0,0,0],"split_type":[0,0,0,0,0,0,0],"sum_hessian":[3.5E1,2.5E1,1E1,1.7E1,8E0,9E0,8E0],"tree_param":{"num_deleted":"0","num_feature":"4","num_nodes":"7","size_leaf_vector":"1"}},{"base_weights":[-8.782281E-2,-7.219454E1,8.517712E0,-1.508638E2,4.658279E0,-1.0266658E1,-3.6789823E0],"categories":[],"categories_nodes":[],"categories_segments":[],"categories_sizes":[],"default_left":[0,0,0,0,0,0,0],"id":4,"left_children":[1,3,-1,5,-1,-1,-1],"loss_changes":[4.5473928E5,3.52283E5,0E0,6.0664812E4,0E0,0E0,0E0],"parents":[2147483647,0,0,1,1,3,3],"right_children":[2,4,-1,6,-1,-1,-1],"split_conditions":[1.5811388E0,1.8371173E0,8.517712E0,1.8371173E0,4.658279E0,-1.0266658E1,-3.6789823E0],"split_indices":[1,2,0,0,0,0,0],"split_type":[0,0,0,0,0,0,0],"sum_hessian":[3.5E1,2.5E1,1E1,1.7E1,8E0,9E0,8E0],"tree_param":{"num_deleted":"0","num_feature":"4","num_nodes":"7","size_leaf_vector":"1"}},{"base_weights":[-1.0484484E-1,-6.8942024E1,8.130538E0,-1.440954E2,4.4512477E0,-9.804661E0,-3.5154731E0],"categories":[],"categories_nodes":[],"categories_segments":[],"categories_sizes":[],"default_left":[0,0,0,0,0,0,0],"id":5,"left_children":[1,3,-1,5,-1,-1,-1],"loss_changes":[4.1444247E5,3.214937E5,0E0,5.52735E4,0E0,0E0,0E0],"parents":[2147483647,0,0,1,1,3,3],"right_children":[2,4,-1,6,-1,-1,-1],"split_conditions":[1.5811388E0,1.8371173E0,8.130538E0,1.8371173E0,4.4512477E0,-9.804661E0,-3.5154731E0],"split_indices":[1,2,0,0,0,0,0],"split_type":[0,0,0,0,0,0,0],"sum_hessian":[3.5E1,2.5E1,1E1,1.7E1,8E0,9E0,8E0],"tree_param":{"num_deleted":"0","num_feature":"4","num_nodes":"7","size_leaf_vector":"1"}},{"base_weights":[-1.2013075E-1,-6.583603E1,7.7609644E0,-1.3763068E2,4.253418E0,-9.36345E0,-3.3592339E0],"categories":[],"categories_nodes":[],"categories_segments":[],"categories_sizes":[],"default_left":[0,0,0,0,0,0,0],"id":6,"left_children":[1,3,-1,5,-1,-1,-1],"loss_changes":[3.7771672E5,2.9339528E5,0E0,5.0361156E4,0E0,0E0,0E0],"parents":[2147483647,0,0,1,1,3,3],"right_children":[2,4,-1,6,-1,-1,-1],"split_conditions":[1.5811388E0,1.8371173E0,7.7609644E0,1.8371173E0,4.253418E0,-9.36345E0,-3.3592339E0],"split_indices":[1,2,0,0,0,0,0],"split_type":[0,0,0,0,0,0,0],"sum_hessian":[3.5E1,2.5E1,1E1,1.7E1,8E0,9E0,8E0],"tree_param":{"num_deleted":"0","num_feature":"4","num_nodes":"7","size_leaf_vector":"1"}},{"base_weights":[-1.338094E-1,-6.2869976E1,7.4081917E0,-1.3145596E2,4.0643773E0,-8.942092E0,-3.2099392E0],"categories":[],"categories_nodes":[],"categories_segments":[],"categories_sizes":[],"default_left":[0,0,0,0,0,0,0],"id":7,"left_children":[1,3,-1,5,-1,-1,-1],"loss_changes":[3.442456E5,2.6775256E5,0E0,4.588525E4,0E0,0E0,0E0],"parents":[2147483647,0,0,1,1,3,3],"right_children":[2,4,-1,6,-1,-1,-1],"split_conditions":[1.5811388E0,1.8371173E0,7.4081917E0,1.8371173E0,4.0643773E0,-8.942092E0,-3.2099392E0],"split_indices":[1,2,0,0,0,0,0],"split_type":[0,0,0,0,0,0,0],"sum_hessian":[3.5E1,2.5E1,1E1,1.7E1,8E0,9E0,8E0],"tree_param":{"num_deleted":"0","num_feature":"4","num_nodes":"7","size_leaf_vector":"1"}},{"base_weights":[-1.459961E-1,-6.003754E1,7.0714555E0,-1.2555824E2,3.883735E0,-8.539695E0,-3.0672743E0],"categories":[],"categories_nodes":[],"categories_segments":[],"categories_sizes":[],"default_left":[0,0,0,0,0,0,0],"id":8,"left_children":[1,3,-1,5,-1,-1,-1],"loss_changes":[3.1374053E5,2.4435075E5,0E0,4.180728E4,0E0,0E0,0E0],"parents":[2147483647,0,0,1,1,3,3],"right_children":[2,4,-1,6,-1,-1,-1],"split_conditions":[1.5811388E0,1.8371173E0,7.0714555E0,1.8371173E0,3.883735E0,-8.539695E0,-3.0672743E0],"split_indices":[1,2,0,0,0,0,0],"split_type":[0,0,0,0,0,0,0],"sum_hessian":[3.5E1,2.5E1,1E1,1.7E1,8E0,9E0,8E0],"tree_param":{"num_deleted":"0","num_feature":"4","num_nodes":"7","size_leaf_vector":"1"}},{"base_weights":[-1.5678576E-1,-5.733266E1,6.7500224E0,-1.19925064E2,3.7111223E0,-8.155404E0,-2.930946E0],"categories":[],"categories_nodes":[],"categories_segments":[],"categories_sizes":[],"default_left":[0,0,0,0,0,0,0],"id":9,"left_children":[1,3,-1,5,-1,-1,-1],"loss_changes":[2.859383E5,2.2299422E5,0E0,3.809167E4,0E0,0E0,0E0],"parents":[2147483647,0,0,1,1,3,3],"right_children":[2,4,-1,6,-1,-1,-1],"split_conditions":[1.5811388E0,1.8371173E0,6.7500224E0,1.8371173E0,3.7111223E0,-8.155404E0,-2.930946E0],"split_indices":[1,2,0,0,0,0,0],"split_type":[0,0,0,0,0,0,0],"sum_hessian":[3.5E1,2.5E1,1E1,1.7E1,8E0,9E0,8E0],"tree_param":{"num_deleted":"0","num_feature":"4","num_nodes":"7","size_leaf_vector":"1"}},{"base_weights":[-1.6630046E-1,-5.474968E1,6.443204E0,-1.1454468E2,3.5461807E0,-7.788406E0,-2.8006837E0],"categories":[],"categories_nodes":[],"categories_segments":[],"categories_sizes":[],"default_left":[0,0,0,0,0,0,0],"id":10,"left_children":[1,3,-1,5,-1,-1,-1],"loss_changes":[2.6060019E5,2.035044E5,0E0,3.4706156E4,0E0,0E0,0E0],"parents":[2147483647,0,0,1,1,3,3],"right_children":[2,4,-1,6,-1,-1,-1],"split_conditions":[1.5811388E0,1.8371173E0,6.443204E0,1.8371173E0,3.5461807E0,-7.788406E0,-2.8006837E0],"split_indices":[1,2,0,0,0,0,0],"split_type":[0,0,0,0,0,0,0],"sum_hessian":[3.5E1,2.5E1,1E1,1.7E1,8E0,9E0,8E0],"tree_param":{"num_deleted":"0","num_feature":"4","num_nodes":"7","size_leaf_vector":"1"}},{"base_weights":[-1.7460802E-1,-5.2283062E1,6.1503353E0,-1.0940572E2,3.3885744E0,-7.437931E0,-2.6762044E0],"categories":[],"categories_nodes":[],"categories_segments":[],"categories_sizes":[],"default_left":[0,0,0,0,0,0,0],"id":11,"left_children":[1,3,-1,5,-1,-1,-1],"loss_changes":[2.3750753E5,1.857183E5,0E0,3.1621719E4,0E0,0E0,0E0],"parents":[2147483647,0,0,1,1,3,3],"right_children":[2,4,-1,6,-1,-1,-1],"split_conditions":[1.5811388E0,1.8371173E0,6.1503353E0,1.8371173E0,3.3885744E0,-7.437931E0,-2.6762044E0],"split_indices":[1,2,0,0,0,0,0],"split_type":[0,0,0,0,0,0,0],"sum_hessian":[3.5E1,2.5E1,1E1,1.7E1,8E0,9E0,8E0],"tree_param":{"num_deleted":"0","num_feature":"4","num_nodes":"7","size_leaf_vector":"1"}},{"base_weights":[-1.8186443E-1,-4.9927574E1,5.870772E0,-1.0449728E2,3.2379665E0,-7.1032214E0,-2.5572593E0],"categories":[],"categories_nodes":[],"categories_segments":[],"categories_sizes":[],"default_left":[0,0,0,0,0,0,0],"id":12,"left_children":[1,3,-1,5,-1,-1,-1],"loss_changes":[2.1646088E5,1.6948636E5,0E0,2.881125E4,0E0,0E0,0E0],"parents":[2147483647,0,0,1,1,3,3],"right_children":[2,4,-1,6,-1,-1,-1],"split_conditions":[1.5811388E0,1.8371173E0,5.870772E0,1.8371173E0,3.2379665E0,-7.1032214E0,-2.5572593E0],"split_indices":[1,2,0,0,0,0,0],"split_type":[0,0,0,0,0,0,0],"sum_hessian":[3.5E1,2.5E1,1E1,1.7E1,8E0,9E0,8E0],"tree_param":{"num_deleted":"0","num_feature":"4","num_nodes":"7","size_leaf_vector":"1"}},{"base_weights":[-1.8809679E-1,-4.7678185E1,5.603915E0,-9.980903E1,3.094054E0,-6.783574E0,-2.4435983E0],"categories":[],"categories_nodes":[],"categories_segments":[],"categories_sizes":[],"default_left":[0,0,0,0,0,0,0],"id":13,"left_children":[1,3,-1,5,-1,-1,-1],"loss_changes":[1.9727916E5,1.5467312E5,0E0,2.6250578E4,0E0,0E0,0E0],"parents":[2147483647,0,0,1,1,3,3],"right_children":[2,4,-1,6,-1,-1,-1],"split_conditions":[1.5811388E0,1.8371173E0,5.603915E0,1.8371173E0,3.094054E0,-6.783574E0,-2.4435983E0],"split_indices":[1,2,0,0,0,0,0],"split_type":[0,0,0,0,0,0,0],"sum_hessian":[3.5E1,2.5E1,1E1,1.7E1,8E0,9E0,8E0],"tree_param":{"num_deleted":"0","num_feature":"4","num_nodes":"7","size_leaf_vector":"1"}},{"base_weights":[-1.9337294E-1,-4.5530106E1,5.349188E0,-9.533114E1,2.956543E0,-6.478308E0,-2.3349936E0],"categories":[],"categories_nodes":[],"categories_segments":[],"categories_sizes":[],"default_left":[0,0,0,0,0,0,0],"id":14,"left_children":[1,3,-1,5,-1,-1,-1],"loss_changes":[1.7979716E5,1.4115483E5,0E0,2.391736E4,0E0,0E0,0E0],"parents":[2147483647,0,0,1,1,3,3],"right_children":[2,4,-1,6,-1,-1,-1],"split_conditions":[1.5811388E0,1.8371173E0,5.349188E0,1.8371173E0,2.956543E0,-6.478308E0,-2.3349936E0],"split_indices":[1,2,0,0,0,0,0],"split_type":[0,0,0,0,0,0,0],"sum_hessian":[3.5E1,2.5E1,1E1,1.7E1,8E0,9E0,8E0],"tree_param":{"num_deleted":"0","num_feature":"4","num_nodes":"7","size_leaf_vector":"1"}},{"base_weights":[-1.9780138E-1,-4.347888E1,5.106046E0,-9.105424E1,2.8251412E0,-6.186786E0,-2.2312174E0],"categories":[],"categories_nodes":[],"categories_segments":[],"categories_sizes":[],"default_left":[0,0,0,0,0,0,0],"id":15,"left_children":[1,3,-1,5,-1,-1,-1],"loss_changes":[1.6386484E5,1.2881812E5,0E0,2.1791547E4,0E0,0E0,0E0],"parents":[2147483647,0,0,1,1,3,3],"right_children":[2,4,-1,6,-1,-1,-1],"split_conditions":[1.5811388E0,1.8371173E0,5.106046E0,1.8371173E0,2.8251412E0,-6.186786E0,-2.2312174E0],"split_indices":[1,2,0,0,0,0,0],"split_type":[0,0,0,0,0,0,0],"sum_hessian":[3.5E1,2.5E1,1E1,1.7E1,8E0,9E0,8E0],"tree_param":{"num_deleted":"0","num_feature":"4","num_nodes":"7","size_leaf_vector":"1"}},{"base_weights":[-2.0142958E-1,-4.1520077E1,4.8739567E0,-8.696921E1,2.6995769E0,-5.9083815E0,-2.1320531E0],"categories":[],"categories_nodes":[],"categories_segments":[],"categories_sizes":[],"default_left":[0,0,0,0,0,0,0],"id":16,"left_children":[1,3,-1,5,-1,-1,-1],"loss_changes":[1.4934439E5,1.1755951E5,0E0,1.985464E4,0E0,0E0,0E0],"parents":[2147483647,0,0,1,1,3,3],"right_children":[2,4,-1,6,-1,-1,-1],"split_conditions":[1.5811388E0,1.8371173E0,4.8739567E0,1.8371173E0,2.6995769E0,-5.9083815E0,-2.1320531E0],"split_indices":[1,2,0,0,0,0,0],"split_type":[0,0,0,0,0,0,0],"sum_hessian":[3.5E1,2.5E1,1E1,1.7E1,8E0,9E0,8E0],"tree_param":{"num_deleted":"0","num_feature":"4","num_nodes":"7","size_leaf_vector":"1"}},{"base_weights":[-2.0429823E-1,-3.964942E1,4.6524105E0,-8.30674E1,2.5796008E0,-5.6425014E0,-2.037294E0],"categories":[],"categories_nodes":[],"categories_segments":[],"categories_sizes":[],"default_left":[0,0,0,0,0,0,0],"id":17,"left_children":[1,3,-1,5,-1,-1,-1],"loss_changes":[1.3611016E5,1.0728508E5,0E0,1.8089852E4,0E0,0E0,0E0],"parents":[2147483647,0,0,1,1,3,3],"right_children":[2,4,-1,6,-1,-1,-1],"split_conditions":[1.5811388E0,1.8371173E0,4.6524105E0,1.8371173E0,2.5796008E0,-5.6425014E0,-2.037294E0],"split_indices":[1,2,0,0,0,0,0],"split_type":[0,0,0,0,0,0,0],"sum_hessian":[3.5E1,2.5E1,1E1,1.7E1,8E0,9E0,8E0],"tree_param":{"num_deleted":"0","num_feature":"4","num_nodes":"7","size_leaf_vector":"1"}},{"base_weights":[-2.0646837E-1,-3.7863064E1,4.4409404E0,-7.9340614E1,2.4649522E0,-5.3885856E0,-1.9467448E0],"categories":[],"categories_nodes":[],"categories_segments":[],"categories_sizes":[],"default_left":[0,0,0,0,0,0,0],"id":18,"left_children":[1,3,-1,5,-1,-1,-1],"loss_changes":[1.2404895E5,9.790847E4,0E0,1.648193E4,0E0,0E0,0E0],"parents":[2147483647,0,0,1,1,3,3],"right_children":[2,4,-1,6,-1,-1,-1],"split_conditions":[1.5811388E0,1.8371173E0,4.4409404E0,1.8371173E0,2.4649522E0,-5.3885856E0,-1.9467448E0],"split_indices":[1,2,0,0,0,0,0],"split_type":[0,0,0,0,0,0,0],"sum_hessian":[3.5E1,2.5E1,1E1,1.7E1,8E0,9E0,8E0],"tree_param":{"num_deleted":"0","num_feature":"4","num_nodes":"7","size_leaf_vector":"1"}},{"base_weights":[-2.0801459E-1,-3.615716E1,4.2390804E0,-7.5781044E1,2.3554037E0,-5.146095E0,-1.8602213E0],"categories":[],"categories_nodes":[],"categories_segments":[],"categories_sizes":[],"default_left":[0,0,0,0,0,0,0],"id":19,"left_children":[1,3,-1,5,-1,-1,-1],"loss_changes":[1.13056414E5,8.93515E4,0E0,1.5016891E4,0E0,0E0,0E0],"parents":[2147483647,0,0,1,1,3,3],"right_children":[2,4,-1,6,-1,-1,-1],"split_conditions":[1.5811388E0,1.8371173E0,4.2390804E0,1.8371173E0,2.3554037E0,-5.146095E0,-1.8602213E0],"split_indices":[1,2,0,0,0,0,0],"split_type":[0,0,0,0,0,0,0],"sum_hessian":[3.5E1,2.5E1,1E1,1.7E1,8E0,9E0,8E0],"tree_param":{"num_deleted":"0","num_feature":"4","num_nodes":"7","size_leaf_vector":"1"}},{"base_weights":[-2.0909967E-1,-3.4528275E1,4.0463977E0,-7.238133E1,2.2507162E0,-4.9145255E0,-1.77755E0],"categories":[],"categories_nodes":[],"categories_segments":[],"categories_sizes":[],"default_left":[0,0,0,0,0,0,0],"id":20,"left_children":[1,3,-1,5,-1,-1,-1],"loss_changes":[1.0303835E5,8.154239E4,0E0,1.36820625E4,0E0,0E0,0E0],"parents":[2147483647,0,0,1,1,3,3],"right_children":[2,4,-1,6,-1,-1,-1],"split_conditions":[1.5811388E0,1.8371173E0,4.0463977E0,1.8371173E0,2.2507162E0,-4.9145255E0,-1.77755E0],"split_indices":[1,2,0,0,0,0,0],"split_type":[0,0,0,0,0,0,0],"sum_hessian":[3.5E1,2.5E1,1E1,1.7E1,8E0,9E0,8E0],"tree_param":{"num_deleted":"0","num_feature":"4","num_nodes":"7","size_leaf_vector":"1"}},{"base_weights":[-2.096015E-1,-3.2972664E1,3.862471E0,-6.913402E1,2.1506836E0,-4.6933703E0,-1.698546E0],"categories":[],"categories_nodes":[],"categories_segments":[],"categories_sizes":[],"default_left":[0,0,0,0,0,0,0],"id":21,"left_children":[1,3,-1,5,-1,-1,-1],"loss_changes":[9.3907734E4,7.44157E4,0E0,1.2465883E4,0E0,0E0,0E0],"parents":[2147483647,0,0,1,1,3,3],"right_children":[2,4,-1,6,-1,-1,-1],"split_conditions":[1.5811388E0,1.8371173E0,3.862471E0,1.8371173E0,2.1506836E0,-4.6933703E0,-1.698546E0],"split_indices":[1,2,0,0,0,0,0],"split_type":[0,0,0,0,0,0,0],"sum_hessian":[3.5E1,2.5E1,1E1,1.7E1,8E0,9E0,8E0],"tree_param":{"num_deleted":"0","num_feature":"4","num_nodes":"7","size_leaf_vector":"1"}},{"base_weights":[-2.0966932E-1,-3.1487164E1,3.6869009E0,-6.6032455E1,2.0551E0,-4.4821696E0,-1.6230577E0],"categories":[],"categories_nodes":[],"categories_segments":[],"categories_sizes":[],"default_left":[0,0,0,0,0,0,0],"id":22,"left_children":[1,3,-1,5,-1,-1,-1],"loss_changes":[8.558614E4,6.791203E4,0E0,1.1357758E4,0E0,0E0,0E0],"parents":[2147483647,0,0,1,1,3,3],"right_children":[2,4,-1,6,-1,-1,-1],"split_conditions":[1.5811388E0,1.8371173E0,3.6869009E0,1.8371173E0,2.0551E0,-4.4821696E0,-1.6230577E0],"split_indices":[1,2,0,0,0,0,0],"split_type":[0,0,0,0,0,0,0],"sum_hessian":[3.5E1,2.5E1,1E1,1.7E1,8E0,9E0,8E0],"tree_param":{"num_deleted":"0","num_feature":"4","num_nodes":"7","size_leaf_vector":"1"}},{"base_weights":[-2.0932347E-1,-3.0068604E1,3.5193093E0,-6.3070015E1,1.9637587E0,-4.2804713E0,-1.5509223E0],"categories":[],"categories_nodes":[],"categories_segments":[],"categories_sizes":[],"default_left":[0,0,0,0,0,0,0],"id":23,"left_children":[1,3,-1,5,-1,-1,-1],"loss_changes":[7.800194E4,6.197659E4,0E0,1.0348148E4,0E0,0E0,0E0],"parents":[2147483647,0,0,1,1,3,3],"right_children":[2,4,-1,6,-1,-1,-1],"split_conditions":[1.5811388E0,1.8371173E0,3.5193093E0,1.8371173E0,1.9637587E0,-4.2804713E0,-1.5509223E0],"split_indices":[1,2,0,0,0,0,0],"split_type":[0,0,0,0,0,0,0],"sum_hessian":[3.5E1,2.5E1,1E1,1.7E1,8E0,9E0,8E0],"tree_param":{"num_deleted":"0","num_feature":"4","num_nodes":"7","size_leaf_vector":"1"}},{"base_weights":[-2.0851643E-1,-2.8713915E1,3.3593419E0,-6.024041E1,1.8764757E0,-4.087848E0,-1.4819878E0],"categories":[],"categories_nodes":[],"categories_segments":[],"categories_sizes":[],"default_left":[0,0,0,0,0,0,0],"id":24,"left_children":[1,3,-1,5,-1,-1,-1],"loss_changes":[7.108992E4,5.6559797E4,0E0,9.4283125E3,0E0,0E0,0E0],"parents":[2147483647,0,0,1,1,3,3],"right_children":[2,4,-1,6,-1,-1,-1],"split_conditions":[1.5811388E0,1.8371173E0,3.3593419E0,1.8371173E0,1.8764757E0,-4.087848E0,-1.4819878E0],"split_indices":[1,2,0,0,0,0,0],"split_type":[0,0,0,0,0,0,0],"sum_hessian":[3.5E1,2.5E1,1E1,1.7E1,8E0,9E0,8E0],"tree_param":{"num_deleted":"0","num_feature":"4","num_nodes":"7","size_leaf_vector":"1"}},{"base_weights":[-2.0737712E-1,-2.7420269E1,3.2066429E0,-5.7537827E1,1.7930773E0,-3.903893E0,-1.4161242E0],"categories":[],"categories_nodes":[],"categories_segments":[],"categories_sizes":[],"default_left":[0,0,0,0,0,0,0],"id":25,"left_children":[1,3,-1,5,-1,-1,-1],"loss_changes":[6.479036E4,5.161664E4,0E0,8.590152E3,0E0,0E0,0E0],"parents":[2147483647,0,0,1,1,3,3],"right_children":[2,4,-1,6,-1,-1,-1],"split_conditions":[1.5811388E0,1.8371173E0,3.2066429E0,1.8371173E0,1.7930773E0,-3.903893E0,-1.4161242E0],"split_indices":[1,2,0,0,0,0,0],"split_type":[0,0,0,0,0,0,0],"sum_hessian":[3.5E1,2.5E1,1E1,1.7E1,8E0,9E0,8E0],"tree_param":{"num_deleted":"0","num_feature":"4","num_nodes":"7","size_leaf_vector":"1"}},{"base_weights":[-2.058987E-1,-2.6184937E1,3.060891E0,-5.4956585E1,1.7133898E0,-3.7282217E0,-1.3531902E0],"categories":[],"categories_nodes":[],"categories_segments":[],"categories_sizes":[],"default_left":[0,0,0,0,0,0,0],"id":26,"left_children":[1,3,-1,5,-1,-1,-1],"loss_changes":[5.904923E4,4.710568E4,0E0,7.8265117E3,0E0,0E0,0E0],"parents":[2147483647,0,0,1,1,3,3],"right_children":[2,4,-1,6,-1,-1,-1],"split_conditions":[1.5811388E0,1.8371173E0,3.060891E0,1.8371173E0,1.7133898E0,-3.7282217E0,-1.3531902E0],"split_indices":[1,2,0,0,0,0,0],"split_type":[0,0,0,0,0,0,0],"sum_hessian":[3.5E1,2.5E1,1E1,1.7E1,8E0,9E0,8E0],"tree_param":{"num_deleted":"0","num_feature":"4","num_nodes":"7","size_leaf_vector":"1"}},{"base_weights":[-2.0407444E-1,-2.5005184E1,2.9217641E0,-5.2490993E1,1.6372397E0,-3.5604494E0,-1.2930447E0],"categories":[],"categories_nodes":[],"categories_segments":[],"categories_sizes":[],"default_left":[0,0,0,0,0,0,0],"id":27,"left_children":[1,3,-1,5,-1,-1,-1],"loss_changes":[5.3816742E4,4.2988734E4,0E0,7.130785E3,0E0,0E0,0E0],"parents":[2147483647,0,0,1,1,3,3],"right_children":[2,4,-1,6,-1,-1,-1],"split_conditions":[1.5811388E0,1.8371173E0,2.9217641E0,1.8371173E0,1.6372397E0,-3.5604494E0,-1.2930447E0],"split_indices":[1,2,0,0,0,0,0],"split_type":[0,0,0,0,0,0,0],"sum_hessian":[3.5E1,2.5E1,1E1,1.7E1,8E0,9E0,8E0],"tree_param":{"num_deleted":"0","num_feature":"4","num_nodes":"7","size_leaf_vector":"1"}},{"base_weights":[-2.0206706E-1,-2.3878605E1,2.7889516E0,-5.0136066E1,1.5644749E0,-3.4002247E0,-1.2355794E0],"categories":[],"categories_nodes":[],"categories_segments":[],"categories_sizes":[],"default_left":[0,0,0,0,0,0,0],"id":28,"left_children":[1,3,-1,5,-1,-1,-1],"loss_changes":[4.904772E4,3.9231664E4,0E0,6.4968203E3,0E0,0E0,0E0],"parents":[2147483647,0,0,1,1,3,3],"right_children":[2,4,-1,6,-1,-1,-1],"split_conditions":[1.5811388E0,1.8371173E0,2.7889516E0,1.8371173E0,1.5644749E0,-3.4002247E0,-1.2355794E0],"split_indices":[1,2,0,0,0,0,0],"split_type":[0,0,0,0,0,0,0],"sum_hessian":[3.5E1,2.5E1,1E1,1.7E1,8E0,9E0,8E0],"tree_param":{"num_deleted":"0","num_feature":"4","num_nodes":"7","size_leaf_vector":"1"}},{"base_weights":[-1.9984944E-1,-2.2802818E1,2.662176E0,-4.788684E1,1.4949436E0,-3.247218E0,-1.1806641E0],"categories":[],"categories_nodes":[],"categories_segments":[],"categories_sizes":[],"default_left":[0,0,0,0,0,0,0],"id":29,"left_children":[1,3,-1,5,-1,-1,-1],"loss_changes":[4.470134E4,3.580299E4,0E0,5.919293E3,0E0,0E0,0E0],"parents":[2147483647,0,0,1,1,3,3],"right_children":[2,4,-1,6,-1,-1,-1],"split_conditions":[1.5811388E0,1.8371173E0,2.662176E0,1.8371173E0,1.4949436E0,-3.247218E0,-1.1806641E0],"split_indices":[1,2,0,0,0,0,0],"split_type":[0,0,0,0,0,0,0],"sum_hessian":[3.5E1,2.5E1,1E1,1.7E1,8E0,9E0,8E0],"tree_param":{"num_deleted":"0","num_feature":"4","num_nodes":"7","size_leaf_vector":"1"}},{"base_weights":[-1.9731988E-1,-2.1775429E1,2.541171E0,-4.5738445E1,1.4285048E0,-3.101089E0,-1.1281902E0],"categories":[],"categories_nodes":[],"categories_segments":[],"categories_sizes":[],"default_left":[0,0,0,0,0,0,0],"id":30,"left_children":[1,3,-1,5,-1,-1,-1],"loss_changes":[4.074022E4,3.2673945E4,0E0,5.393039E3,0E0,0E0,0E0],"parents":[2147483647,0,0,1,1,3,3],"right_children":[2,4,-1,6,-1,-1,-1],"split_conditions":[1.5811388E0,1.8371173E0,2.541171E0,1.8371173E0,1.4285048E0,-3.101089E0,-1.1281902E0],"split_indices":[1,2,0,0,0,0,0],"split_type":[0,0,0,0,0,0,0],"sum_hessian":[3.5E1,2.5E1,1E1,1.7E1,8E0,9E0,8E0],"tree_param":{"num_deleted":"0","num_feature":"4","num_nodes":"7","size_leaf_vector":"1"}},{"base_weights":[-1.9468859E-1,-2.0794376E1,2.4256592E0,-4.3686497E1,1.3650173E0,-2.9615407E0,-1.0780491E0],"categories":[],"categories_nodes":[],"categories_segments":[],"categories_sizes":[],"default_left":[0,0,0,0,0,0,0],"id":31,"left_children":[1,3,-1,5,-1,-1,-1],"loss_changes":[3.713001E4,2.9818402E4,0E0,4.9135938E3,0E0,0E0,0E0],"parents":[2147483647,0,0,1,1,3,3],"right_children":[2,4,-1,6,-1,-1,-1],"split_conditions":[1.5811388E0,1.8371173E0,2.4256592E0,1.8371173E0,1.3650173E0,-2.9615407E0,-1.0780491E0],"split_indices":[1,2,0,0,0,0,0],"split_type":[0,0,0,0,0,0,0],"sum_hessian":[3.5E1,2.5E1,1E1,1.7E1,8E0,9E0,8E0],"tree_param":{"num_deleted":"0","num_feature":"4","num_nodes":"7","size_leaf_vector":"1"}},{"base_weights":[-1.9184028E-1,-1.9857534E1,2.3154075E0,-4.1726616E1,1.3043512E0,-2.8282764E0,-1.0301324E0],"categories":[],"categories_nodes":[],"categories_segments":[],"categories_sizes":[],"default_left":[0,0,0,0,0,0,0],"id":32,"left_children":[1,3,-1,5,-1,-1,-1],"loss_changes":[3.3839934E4,2.7212422E4,0E0,4.4768184E3,0E0,0E0,0E0],"parents":[2147483647,0,0,1,1,3,3],"right_children":[2,4,-1,6,-1,-1,-1],"split_conditions":[1.5811388E0,1.8371173E0,2.3154075E0,1.8371173E0,1.3043512E0,-2.8282764E0,-1.0301324E0],"split_indices":[1,2,0,0,0,0,0],"split_type":[0,0,0,0,0,0,0],"sum_hessian":[3.5E1,2.5E1,1E1,1.7E1,8E0,9E0,8E0],"tree_param":{"num_deleted":"0","num_feature":"4","num_nodes":"7","size_leaf_vector":"1"}},{"base_weights":[-1.8890381E-1,-1.896292E1,2.2101607E0,-3.985464E1,1.2463759E0,-2.701E0,-9.8435324E-1],"categories":[],"categories_nodes":[],"categories_segments":[],"categories_sizes":[],"default_left":[0,0,0,0,0,0,0],"id":33,"left_children":[1,3,-1,5,-1,-1,-1],"loss_changes":[3.0841277E4,2.4834098E4,0E0,4.0787598E3,0E0,0E0,0E0],"parents":[2147483647,0,0,1,1,3,3],"right_children":[2,4,-1,6,-1,-1,-1],"split_conditions":[1.5811388E0,1.8371173E0,2.2101607E0,1.8371173E0,1.2463759E0,-2.701E0,-9.8435324E-1],"split_indices":[1,2,0,0,0,0,0],"split_type":[0,0,0,0,0,0,0],"sum_hessian":[3.5E1,2.5E1,1E1,1.7E1,8E0,9E0,8E0],"tree_param":{"num_deleted":"0","num_feature":"4","num_nodes":"7","size_leaf_vector":"1"}},{"base_weights":[-1.8583171E-1,-1.8108585E1,2.1096969E0,-3.8066677E1,1.1909832E0,-2.579458E0,-9.4060326E-1],"categories":[],"categories_nodes":[],"categories_segments":[],"categories_sizes":[],"default_left":[0,0,0,0,0,0,0],"id":34,"left_children":[1,3,-1,5,-1,-1,-1],"loss_changes":[2.810831E4,2.2663738E4,0E0,3.716166E3,0E0,0E0,0E0],"parents":[2147483647,0,0,1,1,3,3],"right_children":[2,4,-1,6,-1,-1,-1],"split_conditions":[1.5811388E0,1.8371173E0,2.1096969E0,1.8371173E0,1.1909832E0,-2.579458E0,-9.4060326E-1],"split_indices":[1,2,0,0,0,0,0],"split_type":[0,0,0,0,0,0,0],"sum_hessian":[3.5E1,2.5E1,1E1,1.7E1,8E0,9E0,8E0],"tree_param":{"num_deleted":"0","num_feature":"4","num_nodes":"7","size_leaf_vector":"1"}},{"base_weights":[-1.8261041E-1,-1.7292734E1,2.0138052E0,-3.635893E1,1.1380534E0,-2.4633875E0,-8.987956E-1],"categories":[],"categories_nodes":[],"categories_segments":[],"categories_sizes":[],"default_left":[0,0,0,0,0,0,0],"id":35,"left_children":[1,3,-1,5,-1,-1,-1],"loss_changes":[2.5617611E4,2.0683082E4,0E0,3.3858223E3,0E0,0E0,0E0],"parents":[2147483647,0,0,1,1,3,3],"right_children":[2,4,-1,6,-1,-1,-1],"split_conditions":[1.5811388E0,1.8371173E0,2.0138052E0,1.8371173E0,1.1380534E0,-2.4633875E0,-8.987956E-1],"split_indices":[1,2,0,0,0,0,0],"split_type":[0,0,0,0,0,0,0],"sum_hessian":[3.5E1,2.5E1,1E1,1.7E1,8E0,9E0,8E0],"tree_param":{"num_deleted":"0","num_feature":"4","num_nodes":"7","size_leaf_vector":"1"}},{"base_weights":[-1.793552E-1,-1.6513643E1,1.9222634E0,-3.4727825E1,1.0874783E0,-2.3525355E0,-8.5885423E-1],"categories":[],"categories_nodes":[],"categories_segments":[],"categories_sizes":[],"default_left":[0,0,0,0,0,0,0],"id":36,"left_children":[1,3,-1,5,-1,-1,-1],"loss_changes":[2.3347479E4,1.8875574E4,0E0,3.0847676E3,0E0,0E0,0E0],"parents":[2147483647,0,0,1,1,3,3],"right_children":[2,4,-1,6,-1,-1,-1],"split_conditions":[1.5811388E0,1.8371173E0,1.9222634E0,1.8371173E0,1.0874783E0,-2.3525355E0,-8.5885423E-1],"split_indices":[1,2,0,0,0,0,0],"split_type":[0,0,0,0,0,0,0],"sum_hessian":[3.5E1,2.5E1,1E1,1.7E1,8E0,9E0,8E0],"tree_param":{"num_deleted":"0","num_feature":"4","num_nodes":"7","size_leaf_vector":"1"}},{"base_weights":[-1.7599148E-1,-1.5769616E1,1.8348833E0,-3.3169827E1,1.0391493E0,-2.2466712E0,-8.206814E-1],"categories":[],"categories_nodes":[],"categories_segments":[],"categories_sizes":[],"default_left":[0,0,0,0,0,0,0],"id":37,"left_children":[1,3,-1,5,-1,-1,-1],"loss_changes":[2.127849E4,1.7225965E4,0E0,2.8105156E3,0E0,0E0,0E0],"parents":[2147483647,0,0,1,1,3,3],"right_children":[2,4,-1,6,-1,-1,-1],"split_conditions":[1.5811388E0,1.8371173E0,1.8348833E0,1.8371173E0,1.0391493E0,-2.2466712E0,-8.206814E-1],"split_indices":[1,2,0,0,0,0,0],"split_type":[0,0,0,0,0,0,0],"sum_hessian":[3.5E1,2.5E1,1E1,1.7E1,8E0,9E0,8E0],"tree_param":{"num_deleted":"0","num_feature":"4","num_nodes":"7","size_leaf_vector":"1"}},{"base_weights":[-1.7255995E-1,-1.5059111E1,1.7514759E0,-3.1681736E1,9.9296874E-1,-2.145575E0,-7.842014E-1],"categories":[],"categories_nodes":[],"categories_segments":[],"categories_sizes":[],"default_left":[0,0,0,0,0,0,0],"id":38,"left_children":[1,3,-1,5,-1,-1,-1],"loss_changes":[1.9392861E4,1.5720538E4,0E0,2.5606836E3,0E0,0E0,0E0],"parents":[2147483647,0,0,1,1,3,3],"right_children":[2,4,-1,6,-1,-1,-1],"split_conditions":[1.5811388E0,1.8371173E0,1.7514759E0,1.8371173E0,9.9296874E-1,-2.145575E0,-7.842014E-1],"split_indices":[1,2,0,0,0,0,0],"split_type":[0,0,0,0,0,0,0],"sum_hessian":[3.5E1,2.5E1,1E1,1.7E1,8E0,9E0,8E0],"tree_param":{"num_deleted":"0","num_feature":"4","num_nodes":"7","size_leaf_vector":"1"}},{"base_weights":[-1.6908772E-1,-1.4380662E1,1.6718639E0,-3.0260458E1,9.48839E-1,-2.0490272E0,-7.49349E-1],"categories":[],"categories_nodes":[],"categories_segments":[],"categories_sizes":[],"default_left":[0,0,0,0,0,0,0],"id":39,"left_children":[1,3,-1,5,-1,-1,-1],"loss_changes":[1.7674428E4,1.4346688E4,0E0,2.3330195E3,0E0,0E0,0E0],"parents":[2147483647,0,0,1,1,3,3],"right_children":[2,4,-1,6,-1,-1,-1],"split_conditions":[1.5811388E0,1.8371173E0,1.6718639E0,1.8371173E0,9.48839E-1,-2.0490272E0,-7.49349E-1],"split_indices":[1,2,0,0,0,0,0],"split_type":[0,0,0,0,0,0,0],"sum_hessian":[3.5E1,2.5E1,1E1,1.7E1,8E0,9E0,8E0],"tree_param":{"num_deleted":"0","num_feature":"4","num_nodes":"7","size_leaf_vector":"1"}},{"base_weights":[-1.6555446E-1,-1.3732741E1,1.5958695E0,-2.8902914E1,9.0667313E-1,-1.9568188E0,-7.160482E-1],"categories":[],"categories_nodes":[],"categories_segments":[],"categories_sizes":[],"default_left":[0,0,0,0,0,0,0],"id":40,"left_children":[1,3,-1,5,-1,-1,-1],"loss_changes":[1.6108225E4,1.309292E4,0E0,2.1255586E3,0E0,0E0,0E0],"parents":[2147483647,0,0,1,1,3,3],"right_children":[2,4,-1,6,-1,-1,-1],"split_conditions":[1.5811388E0,1.8371173E0,1.5958695E0,1.8371173E0,9.0667313E-1,-1.9568188E0,-7.160482E-1],"split_indices":[1,2,0,0,0,0,0],"split_type":[0,0,0,0,0,0,0],"sum_hessian":[3.5E1,2.5E1,1E1,1.7E1,8E0,9E0,8E0],"tree_param":{"num_deleted":"0","num_feature":"4","num_nodes":"7","size_leaf_vector":"1"}},{"base_weights":[-1.6204834E-1,-1.311406E1,1.5233265E0,-2.760627E1,8.663737E-1,-1.8687633E0,-6.842231E-1],"categories":[],"categories_nodes":[],"categories_segments":[],"categories_sizes":[],"default_left":[0,0,0,0,0,0,0],"id":41,"left_children":[1,3,-1,5,-1,-1,-1],"loss_changes":[1.4680802E4,1.1948639E4,0E0,1.9365762E3,0E0,0E0,0E0],"parents":[2147483647,0,0,1,1,3,3],"right_children":[2,4,-1,6,-1,-1,-1],"split_conditions":[1.5811388E0,1.8371173E0,1.5233265E0,1.8371173E0,8.663737E-1,-1.8687633E0,-6.842231E-1],"split_indices":[1,2,0,0,0,0,0],"split_type":[0,0,0,0,0,0,0],"sum_hessian":[3.5E1,2.5E1,1E1,1.7E1,8E0,9E0,8E0],"tree_param":{"num_deleted":"0","num_feature":"4","num_nodes":"7","size_leaf_vector":"1"}},{"base_weights":[-1.5853542E-1,-1.2523259E1,1.4540794E0,-2.6367798E1,8.278646E-1,-1.784674E0,-6.538086E-1],"categories":[],"categories_nodes":[],"categories_segments":[],"categories_sizes":[],"default_left":[0,0,0,0,0,0,0],"id":42,"left_children":[1,3,-1,5,-1,-1,-1],"loss_changes":[1.3379854E4,1.0904355E4,0E0,1.7644297E3,0E0,0E0,0E0],"parents":[2147483647,0,0,1,1,3,3],"right_children":[2,4,-1,6,-1,-1,-1],"split_conditions":[1.5811388E0,1.8371173E0,1.4540794E0,1.8371173E0,8.278646E-1,-1.784674E0,-6.538086E-1],"split_indices":[1,2,0,0,0,0,0],"split_type":[0,0,0,0,0,0,0],"sum_hessian":[3.5E1,2.5E1,1E1,1.7E1,8E0,9E0,8E0],"tree_param":{"num_deleted":"0","num_feature":"4","num_nodes":"7","size_leaf_vector":"1"}},{"base_weights":[-1.5496826E-1,-1.195905E1,1.3879838E0,-2.5184883E1,7.910699E-1,-1.7043641E0,-6.2475044E-1],"categories":[],"categories_nodes":[],"categories_segments":[],"categories_sizes":[],"default_left":[0,0,0,0,0,0,0],"id":43,"left_children":[1,3,-1,5,-1,-1,-1],"loss_changes":[1.2194224E4,9.951368E3,0E0,1.607544E3,0E0,0E0,0E0],"parents":[2147483647,0,0,1,1,3,3],"right_children":[2,4,-1,6,-1,-1,-1],"split_conditions":[1.5811388E0,1.8371173E0,1.3879838E0,1.8371173E0,7.910699E-1,-1.7043641E0,-6.2475044E-1],"split_indices":[1,2,0,0,0,0,0],"split_type":[0,0,0,0,0,0,0],"sum_hessian":[3.5E1,2.5E1,1E1,1.7E1,8E0,9E0,8E0],"tree_param":{"num_deleted":"0","num_feature":"4","num_nodes":"7","size_leaf_vector":"1"}},{"base_weights":[-1.5136719E-1,-1.1420241E1,1.3248957E0,-2.405504E1,7.559137E-1,-1.6276684E0,-5.9698355E-1],"categories":[],"categories_nodes":[],"categories_segments":[],"categories_sizes":[],"default_left":[0,0,0,0,0,0,0],"id":44,"left_children":[1,3,-1,5,-1,-1,-1],"loss_changes":[1.1113679E4,9.081699E3,0E0,1.4646113E3,0E0,0E0,0E0],"parents":[2147483647,0,0,1,1,3,3],"right_children":[2,4,-1,6,-1,-1,-1],"split_conditions":[1.5811388E0,1.8371173E0,1.3248957E0,1.8371173E0,7.559137E-1,-1.6276684E0,-5.9698355E-1],"split_indices":[1,2,0,0,0,0,0],"split_type":[0,0,0,0,0,0,0],"sum_hessian":[3.5E1,2.5E1,1E1,1.7E1,8E0,9E0,8E0],"tree_param":{"num_deleted":"0","num_feature":"4","num_nodes":"7","size_leaf_vector":"1"}},{"base_weights":[-1.4780681E-1,-1.0905715E1,1.2646707E0,-2.2975899E1,7.223199E-1,-1.5544226E0,-5.704536E-1],"categories":[],"categories_nodes":[],"categories_segments":[],"categories_sizes":[],"default_left":[0,0,0,0,0,0,0],"id":45,"left_children":[1,3,-1,5,-1,-1,-1],"loss_changes":[1.0128837E4,8.28804E3,0E0,1.3343672E3,0E0,0E0,0E0],"parents":[2147483647,0,0,1,1,3,3],"right_children":[2,4,-1,6,-1,-1,-1],"split_conditions":[1.5811388E0,1.8371173E0,1.2646707E0,1.8371173E0,7.223199E-1,-1.5544226E0,-5.704536E-1],"split_indices":[1,2,0,0,0,0,0],"split_type":[0,0,0,0,0,0,0],"sum_hessian":[3.5E1,2.5E1,1E1,1.7E1,8E0,9E0,8E0],"tree_param":{"num_deleted":"0","num_feature":"4","num_nodes":"7","size_leaf_vector":"1"}},{"base_weights":[-1.4423285E-1,-1.0414363E1,1.2071866E0,-2.1945095E1,6.9021267E-1,-1.4844726E0,-5.450955E-1],"categories":[],"categories_nodes":[],"categories_segments":[],"categories_sizes":[],"default_left":[0,0,0,0,0,0,0],"id":46,"left_children":[1,3,-1,5,-1,-1,-1],"loss_changes":[9.231302E3,7.563654E3,0E0,1.2157305E3,0E0,0E0,0E0],"parents":[2147483647,0,0,1,1,3,3],"right_children":[2,4,-1,6,-1,-1,-1],"split_conditions":[1.5811388E0,1.8371173E0,1.2071866E0,1.8371173E0,6.9021267E-1,-1.4844726E0,-5.450955E-1],"split_indices":[1,2,0,0,0,0,0],"split_type":[0,0,0,0,0,0,0],"sum_hessian":[3.5E1,2.5E1,1E1,1.7E1,8E0,9E0,8E0],"tree_param":{"num_deleted":"0","num_feature":"4","num_nodes":"7","size_leaf_vector":"1"}},{"base_weights":[-1.4071995E-1,-9.945162E0,1.1523105E0,-2.0960611E1,6.5953773E-1,-1.4176759E0,-5.2086586E-1],"categories":[],"categories_nodes":[],"categories_segments":[],"categories_sizes":[],"default_left":[0,0,0,0,0,0,0],"id":47,"left_children":[1,3,-1,5,-1,-1,-1],"loss_changes":[8.413255E3,6.9026523E3,0E0,1.1076523E3,0E0,0E0,0E0],"parents":[2147483647,0,0,1,1,3,3],"right_children":[2,4,-1,6,-1,-1,-1],"split_conditions":[1.5811388E0,1.8371173E0,1.1523105E0,1.8371173E0,6.5953773E-1,-1.4176759E0,-5.2086586E-1],"split_indices":[1,2,0,0,0,0,0],"split_type":[0,0,0,0,0,0,0],"sum_hessian":[3.5E1,2.5E1,1E1,1.7E1,8E0,9E0,8E0],"tree_param":{"num_deleted":"0","num_feature":"4","num_nodes":"7","size_leaf_vector":"1"}},{"base_weights":[-1.3720025E-1,-9.49708E0,1.0999312E0,-2.0020304E1,6.3023007E-1,-1.3538783E0,-4.9772134E-1],"categories":[],"categories_nodes":[],"categories_segments":[],"categories_sizes":[],"default_left":[0,0,0,0,0,0,0],"id":48,"left_children":[1,3,-1,5,-1,-1,-1],"loss_changes":[7.667714E3,6.299453E3,0E0,1.0091328E3,0E0,0E0,0E0],"parents":[2147483647,0,0,1,1,3,3],"right_children":[2,4,-1,6,-1,-1,-1],"split_conditions":[1.5811388E0,1.8371173E0,1.0999312E0,1.8371173E0,6.3023007E-1,-1.3538783E0,-4.9772134E-1],"split_indices":[1,2,0,0,0,0,0],"split_type":[0,0,0,0,0,0,0],"sum_hessian":[3.5E1,2.5E1,1E1,1.7E1,8E0,9E0,8E0],"tree_param":{"num_deleted":"0","num_feature":"4","num_nodes":"7","size_leaf_vector":"1"}},{"base_weights":[-1.3368055E-1,-9.069185E0,1.0499378E0,-1.9122179E1,6.022244E-1,-1.2929591E0,-4.7559682E-1],"categories":[],"categories_nodes":[],"categories_segments":[],"categories_sizes":[],"default_left":[0,0,0,0,0,0,0],"id":49,"left_children":[1,3,-1,5,-1,-1,-1],"loss_changes":[6.9882856E3,5.7489624E3,0E0,9.194253E2,0E0,0E0,0E0],"parents":[2147483647,0,0,1,1,3,3],"right_children":[2,4,-1,6,-1,-1,-1],"split_conditions":[1.5811388E0,1.8371173E0,1.0499378E0,1.8371173E0,6.022244E-1,-1.2929591E0,-4.7559682E-1],"split_indices":[1,2,0,0,0,0,0],"split_type":[0,0,0,0,0,0,0],"sum_hessian":[3.5E1,2.5E1,1E1,1.7E1,8E0,9E0,8E0],"tree_param":{"num_deleted":"0","num_feature":"4","num_nodes":"7","size_leaf_vector":"1"}},{"base_weights":[-1.3027614E-1,-8.660607E0,1.0022084E0,-1.8264322E1,5.754557E-1,-1.2347754E0,-4.5445964E-1],"categories":[],"categories_nodes":[],"categories_segments":[],"categories_sizes":[],"default_left":[0,0,0,0,0,0,0],"id":50,"left_children":[1,3,-1,5,-1,-1,-1],"loss_changes":[6.3690034E3,5.2465176E3,0E0,8.376631E2,0E0,0E0,0E0],"parents":[2147483647,0,0,1,1,3,3],"right_children":[2,4,-1,6,-1,-1,-1],"split_conditions":[1.5811388E0,1.8371173E0,1.0022084E0,1.8371173E0,5.754557E-1,-1.2347754E0,-4.5445964E-1],"split_indices":[1,2,0,0,0,0,0],"split_type":[0,0,0,0,0,0,0],"sum_hessian":[3.5E1,2.5E1,1E1,1.7E1,8E0,9E0,8E0],"tree_param":{"num_deleted":"0","num_feature":"4","num_nodes":"7","size_leaf_vector":"1"}},{"base_weights":[-1.2685817E-1,-8.270414E0,9.56654E-1,-1.744496E1,5.498807E-1,-1.1792066E0,-4.3426648E-1],"categories":[],"categories_nodes":[],"categories_segments":[],"categories_sizes":[],"default_left":[0,0,0,0,0,0,0],"id":51,"left_children":[1,3,-1,5,-1,-1,-1],"loss_changes":[5.8046353E3,4.7880137E3,0E0,7.6314746E2,0E0,0E0,0E0],"parents":[2147483647,0,0,1,1,3,3],"right_children":[2,4,-1,6,-1,-1,-1],"split_conditions":[1.5811388E0,1.8371173E0,9.56654E-1,1.8371173E0,5.498807E-1,-1.1792066E0,-4.3426648E-1],"split_indices":[1,2,0,0,0,0,0],"split_type":[0,0,0,0,0,0,0],"sum_hessian":[3.5E1,2.5E1,1E1,1.7E1,8E0,9E0,8E0],"tree_param":{"num_deleted":"0","num_feature":"4","num_nodes":"7","size_leaf_vector":"1"}},{"base_weights":[-1.23426646E-1,-7.8977613E0,9.1317475E-1,-1.6662327E1,5.254449E-1,-1.1261426E0,-4.149631E-1],"categories":[],"categories_nodes":[],"categories_segments":[],"categories_sizes":[],"default_left":[0,0,0,0,0,0,0],"id":52,"left_children":[1,3,-1,5,-1,-1,-1],"loss_changes":[5.2903E3,4.369589E3,0E0,6.952915E2,0E0,0E0,0E0],"parents":[2147483647,0,0,1,1,3,3],"right_children":[2,4,-1,6,-1,-1,-1],"split_conditions":[1.5811388E0,1.8371173E0,9.1317475E-1,1.8371173E0,5.254449E-1,-1.1261426E0,-4.149631E-1],"split_indices":[1,2,0,0,0,0,0],"split_type":[0,0,0,0,0,0,0],"sum_hessian":[3.5E1,2.5E1,1E1,1.7E1,8E0,9E0,8E0],"tree_param":{"num_deleted":"0","num_feature":"4","num_nodes":"7","size_leaf_vector":"1"}},{"base_weights":[-1.20029025E-1,-7.54187E0,8.7167084E-1,-1.5914754E1,5.020942E-1,-1.0754627E0,-3.9651692E-1],"categories":[],"categories_nodes":[],"categories_segments":[],"categories_sizes":[],"default_left":[0,0,0,0,0,0,0],"id":53,"left_children":[1,3,-1,5,-1,-1,-1],"loss_changes":[4.8215205E3,3.987709E3,0E0,6.334629E2,0E0,0E0,0E0],"parents":[2147483647,0,0,1,1,3,3],"right_children":[2,4,-1,6,-1,-1,-1],"split_conditions":[1.5811388E0,1.8371173E0,8.7167084E-1,1.8371173E0,5.020942E-1,-1.0754627E0,-3.9651692E-1],"split_indices":[1,2,0,0,0,0,0],"split_type":[0,0,0,0,0,0,0],"sum_hessian":[3.5E1,2.5E1,1E1,1.7E1,8E0,9E0,8E0],"tree_param":{"num_deleted":"0","num_feature":"4","num_nodes":"7","size_leaf_vector":"1"}},{"base_weights":[-1.16767034E-1,-7.20213E0,8.320535E-1,-1.5200819E1,4.797743E-1,-1.0270679E0,-3.788954E-1],"categories":[],"categories_nodes":[],"categories_segments":[],"categories_sizes":[],"default_left":[0,0,0,0,0,0,0],"id":54,"left_children":[1,3,-1,5,-1,-1,-1],"loss_changes":[4.3943237E3,3.6391912E3,0E0,5.7712744E2,0E0,0E0,0E0],"parents":[2147483647,0,0,1,1,3,3],"right_children":[2,4,-1,6,-1,-1,-1],"split_conditions":[1.5811388E0,1.8371173E0,8.320535E-1,1.8371173E0,4.797743E-1,-1.0270679E0,-3.788954E-1],"split_indices":[1,2,0,0,0,0,0],"split_type":[0,0,0,0,0,0,0],"sum_hessian":[3.5E1,2.5E1,1E1,1.7E1,8E0,9E0,8E0],"tree_param":{"num_deleted":"0","num_feature":"4","num_nodes":"7","size_leaf_vector":"1"}},{"base_weights":[-1.1351861E-1,-6.8776197E0,7.9423386E-1,-1.4518867E1,4.584527E-1,-9.8084843E-1,-3.6205512E-1],"categories":[],"categories_nodes":[],"categories_segments":[],"categories_sizes":[],"default_left":[0,0,0,0,0,0,0],"id":55,"left_children":[1,3,-1,5,-1,-1,-1],"loss_changes":[4.0049316E3,3.3211555E3,0E0,5.2580176E2,0E0,0E0,0E0],"parents":[2147483647,0,0,1,1,3,3],"right_children":[2,4,-1,6,-1,-1,-1],"split_conditions":[1.5811388E0,1.8371173E0,7.9423386E-1,1.8371173E0,4.584527E-1,-9.8084843E-1,-3.6205512E-1],"split_indices":[1,2,0,0,0,0,0],"split_type":[0,0,0,0,0,0,0],"sum_hessian":[3.5E1,2.5E1,1E1,1.7E1,8E0,9E0,8E0],"tree_param":{"num_deleted":"0","num_feature":"4","num_nodes":"7","size_leaf_vector":"1"}},{"base_weights":[-1.10317655E-1,-6.5677304E0,7.581343E-1,-1.3867473E1,4.3807507E-1,-9.367053E-1,-3.4596357E-1],"categories":[],"categories_nodes":[],"categories_segments":[],"categories_sizes":[],"default_left":[0,0,0,0,0,0,0],"id":56,"left_children":[1,3,-1,5,-1,-1,-1],"loss_changes":[3.6500515E3,3.0308853E3,0E0,4.7903198E2,0E0,0E0,0E0],"parents":[2147483647,0,0,1,1,3,3],"right_children":[2,4,-1,6,-1,-1,-1],"split_conditions":[1.5811388E0,1.8371173E0,7.581343E-1,1.8371173E0,4.3807507E-1,-9.367053E-1,-3.4596357E-1],"split_indices":[1,2,0,0,0,0,0],"split_type":[0,0,0,0,0,0,0],"sum_hessian":[3.5E1,2.5E1,1E1,1.7E1,8E0,9E0,8E0],"tree_param":{"num_deleted":"0","num_feature":"4","num_nodes":"7","size_leaf_vector":"1"}},{"base_weights":[-1.0715061E-1,-6.271785E0,7.236772E-1,-1.3245335E1,4.1860896E-1,-8.945508E-1,-3.305881E-1],"categories":[],"categories_nodes":[],"categories_segments":[],"categories_sizes":[],"default_left":[0,0,0,0,0,0,0],"id":57,"left_children":[1,3,-1,5,-1,-1,-1],"loss_changes":[3.3266223E3,2.7660225E3,0E0,4.364231E2,0E0,0E0,0E0],"parents":[2147483647,0,0,1,1,3,3],"right_children":[2,4,-1,6,-1,-1,-1],"split_conditions":[1.5811388E0,1.8371173E0,7.236772E-1,1.8371173E0,4.1860896E-1,-8.945508E-1,-3.305881E-1],"split_indices":[1,2,0,0,0,0,0],"split_type":[0,0,0,0,0,0,0],"sum_hessian":[3.5E1,2.5E1,1E1,1.7E1,8E0,9E0,8E0],"tree_param":{"num_deleted":"0","num_feature":"4","num_nodes":"7","size_leaf_vector":"1"}},{"base_weights":[-1.0411242E-1,-5.989258E0,6.907848E-1,-1.265115E1,4E-1,-8.5429686E-1,-3.1589627E-1],"categories":[],"categories_nodes":[],"categories_segments":[],"categories_sizes":[],"default_left":[0,0,0,0,0,0,0],"id":58,"left_children":[1,3,-1,5,-1,-1,-1],"loss_changes":[3.0318691E3,2.5242773E3,0E0,3.9760938E2,0E0,0E0,0E0],"parents":[2147483647,0,0,1,1,3,3],"right_children":[2,4,-1,6,-1,-1,-1],"split_conditions":[1.5811388E0,1.8371173E0,6.907848E-1,1.8371173E0,4E-1,-8.5429686E-1,-3.1589627E-1],"split_indices":[1,2,0,0,0,0,0],"split_type":[0,0,0,0,0,0,0],"sum_hessian":[3.5E1,2.5E1,1E1,1.7E1,8E0,9E0,8E0],"tree_param":{"num_deleted":"0","num_feature":"4","num_nodes":"7","size_leaf_vector":"1"}},{"base_weights":[-1.0106744E-1,-5.719398E0,6.5939057E-1,-1.2083618E1,3.8222656E-1,-8.158557E-1,-3.0185547E-1],"categories":[],"categories_nodes":[],"categories_segments":[],"categories_sizes":[],"default_left":[0,0,0,0,0,0,0],"id":59,"left_children":[1,3,-1,5,-1,-1,-1],"loss_changes":[2.7632336E3,2.3036995E3,0E0,3.6225342E2,0E0,0E0,0E0],"parents":[2147483647,0,0,1,1,3,3],"right_children":[2,4,-1,6,-1,-1,-1],"split_conditions":[1.5811388E0,1.8371173E0,6.5939057E-1,1.8371173E0,3.8222656E-1,-8.158557E-1,-3.0185547E-1],"split_indices":[1,2,0,0,0,0,0],"split_type":[0,0,0,0,0,0,0],"sum_hessian":[3.5E1,2.5E1,1E1,1.7E1,8E0,9E0,8E0],"tree_param":{"num_deleted":"0","num_feature":"4","num_nodes":"7","size_leaf_vector":"1"}},{"base_weights":[-9.816488E-2,-5.4617543E0,6.294167E-1,-1.1541545E1,3.6523438E-1,-7.7913946E-1,-2.88444E-1],"categories":[],"categories_nodes":[],"categories_segments":[],"categories_sizes":[],"default_left":[0,0,0,0,0,0,0],"id":60,"left_children":[1,3,-1,5,-1,-1,-1],"loss_changes":[2.5183806E3,2.1023567E3,0E0,3.3002222E2,0E0,0E0,0E0],"parents":[2147483647,0,0,1,1,3,3],"right_children":[2,4,-1,6,-1,-1,-1],"split_conditions":[1.5811388E0,1.8371173E0,6.294167E-1,1.8371173E0,3.6523438E-1,-7.7913946E-1,-2.88444E-1],"split_indices":[1,2,0,0,0,0,0],"split_type":[0,0,0,0,0,0,0],"sum_hessian":[3.5E1,2.5E1,1E1,1.7E1,8E0,9E0,8E0],"tree_param":{"num_deleted":"0","num_feature":"4","num_nodes":"7","size_leaf_vector":"1"}},{"base_weights":[-9.5323354E-2,-5.215745E0,6.008079E-1,-1.1023871E1,3.4900174E-1,-7.4408203E-1,-2.7562934E-1],"categories":[],"categories_nodes":[],"categories_segments":[],"categories_sizes":[],"default_left":[0,0,0,0,0,0,0],"id":61,"left_children":[1,3,-1,5,-1,-1,-1],"loss_changes":[2.295245E3,1.9186475E3,0E0,3.006665E2,0E0,0E0,0E0],"parents":[2147483647,0,0,1,1,3,3],"right_children":[2,4,-1,6,-1,-1,-1],"split_conditions":[1.5811388E0,1.8371173E0,6.008079E-1,1.8371173E0,3.4900174E-1,-7.4408203E-1,-2.7562934E-1],"split_indices":[1,2,0,0,0,0,0],"split_type":[0,0,0,0,0,0,0],"sum_hessian":[3.5E1,2.5E1,1E1,1.7E1,8E0,9E0,8E0],"tree_param":{"num_deleted":"0","num_feature":"4","num_nodes":"7","size_leaf_vector":"1"}},{"base_weights":[-9.251574E-2,-4.980769E0,5.734975E-1,-1.0529297E1,3.3348525E-1,-7.105957E-1,-2.6337892E-1],"categories":[],"categories_nodes":[],"categories_segments":[],"categories_sizes":[],"default_left":[0,0,0,0,0,0,0],"id":62,"left_children":[1,3,-1,5,-1,-1,-1],"loss_changes":[2.0918584E3,1.7509447E3,0E0,2.7392163E2,0E0,0E0,0E0],"parents":[2147483647,0,0,1,1,3,3],"right_children":[2,4,-1,6,-1,-1,-1],"split_conditions":[1.5811388E0,1.8371173E0,5.734975E-1,1.8371173E0,3.3348525E-1,-7.105957E-1,-2.6337892E-1],"split_indices":[1,2,0,0,0,0,0],"split_type":[0,0,0,0,0,0,0],"sum_hessian":[3.5E1,2.5E1,1E1,1.7E1,8E0,9E0,8E0],"tree_param":{"num_deleted":"0","num_feature":"4","num_nodes":"7","size_leaf_vector":"1"}},{"base_weights":[-8.97149E-2,-4.7563195E0,5.4742986E-1,-1.0056871E1,3.186632E-1,-6.7861456E-1,-2.5167102E-1],"categories":[],"categories_nodes":[],"categories_segments":[],"categories_sizes":[],"default_left":[0,0,0,0,0,0,0],"id":63,"left_children":[1,3,-1,5,-1,-1,-1],"loss_changes":[1.9064868E3,1.5979114E3,0E0,2.4955652E2,0E0,0E0,0E0],"parents":[2147483647,0,0,1,1,3,3],"right_children":[2,4,-1,6,-1,-1,-1],"split_conditions":[1.5811388E0,1.8371173E0,5.4742986E-1,1.8371173E0,3.186632E-1,-6.7861456E-1,-2.5167102E-1],"split_indices":[1,2,0,0,0,0,0],"split_type":[0,0,0,0,0,0,0],"sum_hessian":[3.5E1,2.5E1,1E1,1.7E1,8E0,9E0,8E0],"tree_param":{"num_deleted":"0","num_feature":"4","num_nodes":"7","size_leaf_vector":"1"}},{"base_weights":[-8.694797E-2,-4.541964E0,5.2254975E-1,-9.605645E0,3.0450305E-1,-6.4807254E-1,-2.4048395E-1],"categories":[],"categories_nodes":[],"categories_segments":[],"categories_sizes":[],"default_left":[0,0,0,0,0,0,0],"id":64,"left_children":[1,3,-1,5,-1,-1,-1],"loss_changes":[1.7375493E3,1.4582657E3,0E0,2.2735742E2,0E0,0E0,0E0],"parents":[2147483647,0,0,1,1,3,3],"right_children":[2,4,-1,6,-1,-1,-1],"split_conditions":[1.5811388E0,1.8371173E0,5.2254975E-1,1.8371173E0,3.0450305E-1,-6.4807254E-1,-2.4048395E-1],"split_indices":[1,2,0,0,0,0,0],"split_type":[0,0,0,0,0,0,0],"sum_hessian":[3.5E1,2.5E1,1E1,1.7E1,8E0,9E0,8E0],"tree_param":{"num_deleted":"0","num_feature":"4","num_nodes":"7","size_leaf_vector":"1"}},{"base_weights":[-8.4242076E-2,-4.3372707E0,4.9880147E-1,-9.174669E0,2.9097223E-1,-6.189038E-1,-2.29796E-1],"categories":[],"categories_nodes":[],"categories_segments":[],"categories_sizes":[],"default_left":[0,0,0,0,0,0,0],"id":65,"left_children":[1,3,-1,5,-1,-1,-1],"loss_changes":[1.5835873E3,1.3308254E3,0E0,2.0712805E2,0E0,0E0,0E0],"parents":[2147483647,0,0,1,1,3,3],"right_children":[2,4,-1,6,-1,-1,-1],"split_conditions":[1.5811388E0,1.8371173E0,4.9880147E-1,1.8371173E0,2.9097223E-1,-6.189038E-1,-2.29796E-1],"split_indices":[1,2,0,0,0,0,0],"split_type":[0,0,0,0,0,0,0],"sum_hessian":[3.5E1,2.5E1,1E1,1.7E1,8E0,9E0,8E0],"tree_param":{"num_deleted":"0","num_feature":"4","num_nodes":"7","size_leaf_vector":"1"}},{"base_weights":[-8.168539E-2,-4.1418924E0,4.7612974E-1,-8.763116E0,2.780382E-1,-5.910535E-1,-2.1958552E-1],"categories":[],"categories_nodes":[],"categories_segments":[],"categories_sizes":[],"default_left":[0,0,0,0,0,0,0],"id":66,"left_children":[1,3,-1,5,-1,-1,-1],"loss_changes":[1.4432747E3,1.2145212E3,0E0,1.8870117E2,0E0,0E0,0E0],"parents":[2147483647,0,0,1,1,3,3],"right_children":[2,4,-1,6,-1,-1,-1],"split_conditions":[1.5811388E0,1.8371173E0,4.7612974E-1,1.8371173E0,2.780382E-1,-5.910535E-1,-2.1958552E-1],"split_indices":[1,2,0,0,0,0,0],"split_type":[0,0,0,0,0,0,0],"sum_hessian":[3.5E1,2.5E1,1E1,1.7E1,8E0,9E0,8E0],"tree_param":{"num_deleted":"0","num_feature":"4","num_nodes":"7","size_leaf_vector":"1"}},{"base_weights":[-7.9182945E-2,-3.9553223E0,4.5448995E-1,-8.370036E0,2.6567927E-1,-5.6445557E-1,-2.0983075E-1],"categories":[],"categories_nodes":[],"categories_segments":[],"categories_sizes":[],"default_left":[0,0,0,0,0,0,0],"id":67,"left_children":[1,3,-1,5,-1,-1,-1],"loss_changes":[1.3154022E3,1.1083837E3,0E0,1.7190955E2,0E0,0E0,0E0],"parents":[2147483647,0,0,1,1,3,3],"right_children":[2,4,-1,6,-1,-1,-1],"split_conditions":[1.5811388E0,1.8371173E0,4.5448995E-1,1.8371173E0,2.6567927E-1,-5.6445557E-1,-2.0983075E-1],"split_indices":[1,2,0,0,0,0,0],"split_type":[0,0,0,0,0,0,0],"sum_hessian":[3.5E1,2.5E1,1E1,1.7E1,8E0,9E0,8E0],"tree_param":{"num_deleted":"0","num_feature":"4","num_nodes":"7","size_leaf_vector":"1"}},{"base_weights":[-7.676867E-2,-3.7771373E0,4.3382677E-1,-7.9946017E0,2.538737E-1,-5.3905517E-1,-2.0050998E-1],"categories":[],"categories_nodes":[],"categories_segments":[],"categories_sizes":[],"default_left":[0,0,0,0,0,0,0],"id":68,"left_children":[1,3,-1,5,-1,-1,-1],"loss_changes":[1.1988287E3,1.0115365E3,0E0,1.5661157E2,0E0,0E0,0E0],"parents":[2147483647,0,0,1,1,3,3],"right_children":[2,4,-1,6,-1,-1,-1],"split_conditions":[1.5811388E0,1.8371173E0,4.3382677E-1,1.8371173E0,2.538737E-1,-5.3905517E-1,-2.0050998E-1],"split_indices":[1,2,0,0,0,0,0],"split_type":[0,0,0,0,0,0,0],"sum_hessian":[3.5E1,2.5E1,1E1,1.7E1,8E0,9E0,8E0],"tree_param":{"num_deleted":"0","num_feature":"4","num_nodes":"7","size_leaf_vector":"1"}},{"base_weights":[-7.4395075E-2,-3.6069899E0,4.141069E-1,-7.6359863E0,2.4258898E-1,-5.147974E-1,-1.9160156E-1],"categories":[],"categories_nodes":[],"categories_segments":[],"categories_sizes":[],"default_left":[0,0,0,0,0,0,0],"id":69,"left_children":[1,3,-1,5,-1,-1,-1],"loss_changes":[1.0926024E3,9.231373E2,0E0,1.4267627E2,0E0,0E0,0E0],"parents":[2147483647,0,0,1,1,3,3],"right_children":[2,4,-1,6,-1,-1,-1],"split_conditions":[1.5811388E0,1.8371173E0,4.141069E-1,1.8371173E0,2.4258898E-1,-5.147974E-1,-1.9160156E-1],"split_indices":[1,2,0,0,0,0,0],"split_type":[0,0,0,0,0,0,0],"sum_hessian":[3.5E1,2.5E1,1E1,1.7E1,8E0,9E0,8E0],"tree_param":{"num_deleted":"0","num_feature":"4","num_nodes":"7","size_leaf_vector":"1"}},{"base_weights":[-7.2028264E-2,-3.444458E0,3.9528587E-1,-7.293362E0,2.318034E-1,-4.9162722E-1,-1.8308377E-1],"categories":[],"categories_nodes":[],"categories_segments":[],"categories_sizes":[],"default_left":[0,0,0,0,0,0,0],"id":70,"left_children":[1,3,-1,5,-1,-1,-1],"loss_changes":[9.957888E2,8.424429E2,0E0,1.2998364E2,0E0,0E0,0E0],"parents":[2147483647,0,0,1,1,3,3],"right_children":[2,4,-1,6,-1,-1,-1],"split_conditions":[1.5811388E0,1.8371173E0,3.9528587E-1,1.8371173E0,2.318034E-1,-4.9162722E-1,-1.8308377E-1],"split_indices":[1,2,0,0,0,0,0],"split_type":[0,0,0,0,0,0,0],"sum_hessian":[3.5E1,2.5E1,1E1,1.7E1,8E0,9E0,8E0],"tree_param":{"num_deleted":"0","num_feature":"4","num_nodes":"7","size_leaf_vector":"1"}},{"base_weights":[-6.969537E-2,-3.2892034E0,3.7731934E-1,-6.966132E0,2.2150607E-1,-4.6950075E-1,-1.7494576E-1],"categories":[],"categories_nodes":[],"categories_segments":[],"categories_sizes":[],"default_left":[0,0,0,0,0,0,0],"id":71,"left_children":[1,3,-1,5,-1,-1,-1],"loss_changes":[9.075429E2,7.688296E2,0E0,1.1841937E2,0E0,0E0,0E0],"parents":[2147483647,0,0,1,1,3,3],"right_children":[2,4,-1,6,-1,-1,-1],"split_conditions":[1.5811388E0,1.8371173E0,3.7731934E-1,1.8371173E0,2.2150607E-1,-4.6950075E-1,-1.7494576E-1],"split_indices":[1,2,0,0,0,0,0],"split_type":[0,0,0,0,0,0,0],"sum_hessian":[3.5E1,2.5E1,1E1,1.7E1,8E0,9E0,8E0],"tree_param":{"num_deleted":"0","num_feature":"4","num_nodes":"7","size_leaf_vector":"1"}},{"base_weights":[-6.740994E-2,-3.140963E0,3.6017403E-1,-6.6535916E0,2.1166448E-1,-4.4837403E-1,-1.671658E-1],"categories":[],"categories_nodes":[],"categories_segments":[],"categories_sizes":[],"default_left":[0,0,0,0,0,0,0],"id":72,"left_children":[1,3,-1,5,-1,-1,-1],"loss_changes":[8.2713464E2,7.016449E2,0E0,1.0789191E2,0E0,0E0,0E0],"parents":[2147483647,0,0,1,1,3,3],"right_children":[2,4,-1,6,-1,-1,-1],"split_conditions":[1.5811388E0,1.8371173E0,3.6017403E-1,1.8371173E0,2.1166448E-1,-4.4837403E-1,-1.671658E-1],"split_indices":[1,2,0,0,0,0,0],"split_type":[0,0,0,0,0,0,0],"sum_hessian":[3.5E1,2.5E1,1E1,1.7E1,8E0,9E0,8E0],"tree_param":{"num_deleted":"0","num_feature":"4","num_nodes":"7","size_leaf_vector":"1"}},{"base_weights":[-6.519233E-2,-2.9993896E0,3.438055E-1,-6.355021E0,2.0225695E-1,-4.2819214E-1,-1.5973307E-1],"categories":[],"categories_nodes":[],"categories_segments":[],"categories_sizes":[],"default_left":[0,0,0,0,0,0,0],"id":73,"left_children":[1,3,-1,5,-1,-1,-1],"loss_changes":[7.5384155E2,6.403169E2,0E0,9.829352E1,0E0,0E0,0E0],"parents":[2147483647,0,0,1,1,3,3],"right_children":[2,4,-1,6,-1,-1,-1],"split_conditions":[1.5811388E0,1.8371173E0,3.438055E-1,1.8371173E0,2.0225695E-1,-4.2819214E-1,-1.5973307E-1],"split_indices":[1,2,0,0,0,0,0],"split_type":[0,0,0,0,0,0,0],"sum_hessian":[3.5E1,2.5E1,1E1,1.7E1,8E0,9E0,8E0],"tree_param":{"num_deleted":"0","num_feature":"4","num_nodes":"7","size_leaf_vector":"1"}},{"base_weights":[-6.306288E-2,-2.8642297E0,3.281805E-1,-6.0699463E0,1.9327258E-1,-4.089221E-1,-1.5263672E-1],"categories":[],"categories_nodes":[],"categories_segments":[],"categories_sizes":[],"default_left":[0,0,0,0,0,0,0],"id":74,"left_children":[1,3,-1,5,-1,-1,-1],"loss_changes":[6.8704663E2,5.843728E2,0E0,8.954541E1,0E0,0E0,0E0],"parents":[2147483647,0,0,1,1,3,3],"right_children":[2,4,-1,6,-1,-1,-1],"split_conditions":[1.5811388E0,1.8371173E0,3.281805E-1,1.8371173E0,1.9327258E-1,-4.089221E-1,-1.5263672E-1],"split_indices":[1,2,0,0,0,0,0],"split_type":[0,0,0,0,0,0,0],"sum_hessian":[3.5E1,2.5E1,1E1,1.7E1,8E0,9E0,8E0],"tree_param":{"num_deleted":"0","num_feature":"4","num_nodes":"7","size_leaf_vector":"1"}},{"base_weights":[-6.1035156E-2,-2.7352202E0,3.132657E-1,-5.797662E0,1.8467882E-1,-3.9052004E-1,-1.4585504E-1],"categories":[],"categories_nodes":[],"categories_segments":[],"categories_sizes":[],"default_left":[0,0,0,0,0,0,0],"id":75,"left_children":[1,3,-1,5,-1,-1,-1],"loss_changes":[6.261789E2,5.3329724E2,0E0,8.1576965E1,0E0,0E0,0E0],"parents":[2147483647,0,0,1,1,3,3],"right_children":[2,4,-1,6,-1,-1,-1],"split_conditions":[1.5811388E0,1.8371173E0,3.132657E-1,1.8371173E0,1.8467882E-1,-3.9052004E-1,-1.4585504E-1],"split_indices":[1,2,0,0,0,0,0],"split_type":[0,0,0,0,0,0,0],"sum_hessian":[3.5E1,2.5E1,1E1,1.7E1,8E0,9E0,8E0],"tree_param":{"num_deleted":"0","num_feature":"4","num_nodes":"7","size_leaf_vector":"1"}},{"base_weights":[-5.9014216E-2,-2.6119478E0,2.990279E-1,-5.5375705E0,1.7647569E-1,-3.729419E-1,-1.3937716E-1],"categories":[],"categories_nodes":[],"categories_segments":[],"categories_sizes":[],"default_left":[0,0,0,0,0,0,0],"id":76,"left_children":[1,3,-1,5,-1,-1,-1],"loss_changes":[5.7069147E2,4.8670248E2,0E0,7.431189E1,0E0,0E0,0E0],"parents":[2147483647,0,0,1,1,3,3],"right_children":[2,4,-1,6,-1,-1,-1],"split_conditions":[1.5811388E0,1.8371173E0,2.990279E-1,1.8371173E0,1.7647569E-1,-3.729419E-1,-1.3937716E-1],"split_indices":[1,2,0,0,0,0,0],"split_type":[0,0,0,0,0,0,0],"sum_hessian":[3.5E1,2.5E1,1E1,1.7E1,8E0,9E0,8E0],"tree_param":{"num_deleted":"0","num_feature":"4","num_nodes":"7","size_leaf_vector":"1"}},{"base_weights":[-5.707465E-2,-2.4942346E0,2.8543368E-1,-5.2890897E0,1.6863064E-1,-3.5615477E-1,-1.3318144E-1],"categories":[],"categories_nodes":[],"categories_segments":[],"categories_sizes":[],"default_left":[0,0,0,0,0,0,0],"id":77,"left_children":[1,3,-1,5,-1,-1,-1],"loss_changes":[5.201126E2,4.4415973E2,0E0,6.769873E1,0E0,0E0,0E0],"parents":[2147483647,0,0,1,1,3,3],"right_children":[2,4,-1,6,-1,-1,-1],"split_conditions":[1.5811388E0,1.8371173E0,2.8543368E-1,1.8371173E0,1.6863064E-1,-3.5615477E-1,-1.3318144E-1],"split_indices":[1,2,0,0,0,0,0],"split_type":[0,0,0,0,0,0,0],"sum_hessian":[3.5E1,2.5E1,1E1,1.7E1,8E0,9E0,8E0],"tree_param":{"num_deleted":"0","num_feature":"4","num_nodes":"7","size_leaf_vector":"1"}},{"base_weights":[-5.5169E-2,-2.3818266E0,2.7246094E-1,-5.0517445E0,1.6113281E-1,-3.4012574E-1,-1.2725694E-1],"categories":[],"categories_nodes":[],"categories_segments":[],"categories_sizes":[],"default_left":[0,0,0,0,0,0,0],"id":78,"left_children":[1,3,-1,5,-1,-1,-1],"loss_changes":[4.740248E2,4.0533124E2,0E0,6.1679474E1,0E0,0E0,0E0],"parents":[2147483647,0,0,1,1,3,3],"right_children":[2,4,-1,6,-1,-1,-1],"split_conditions":[1.5811388E0,1.8371173E0,2.7246094E-1,1.8371173E0,1.6113281E-1,-3.4012574E-1,-1.2725694E-1],"split_indices":[1,2,0,0,0,0,0],"split_type":[0,0,0,0,0,0,0],"sum_hessian":[3.5E1,2.5E1,1E1,1.7E1,8E0,9E0,8E0],"tree_param":{"num_deleted":"0","num_feature":"4","num_nodes":"7","size_leaf_vector":"1"}},{"base_weights":[-5.3371854E-2,-2.2745454E0,2.6007637E-1,-4.825168E0,1.5397136E-1,-3.248218E-1,-1.2160373E-1],"categories":[],"categories_nodes":[],"categories_segments":[],"categories_sizes":[],"default_left":[0,0,0,0,0,0,0],"id":79,"left_children":[1,3,-1,5,-1,-1,-1],"loss_changes":[4.3202466E2,3.699138E2,0E0,5.6191223E1,0E0,0E0,0E0],"parents":[2147483647,0,0,1,1,3,3],"right_children":[2,4,-1,6,-1,-1,-1],"split_conditions":[1.5811388E0,1.8371173E0,2.6007637E-1,1.8371173E0,1.5397136E-1,-3.248218E-1,-1.2160373E-1],"split_indices":[1,2,0,0,0,0,0],"split_type":[0,0,0,0,0,0,0],"sum_hessian":[3.5E1,2.5E1,1E1,1.7E1,8E0,9E0,8E0],"tree_param":{"num_deleted":"0","num_feature":"4","num_nodes":"7","size_leaf_vector":"1"}},{"base_weights":[-5.1635742E-2,-2.172138E0,2.4825774E-1,-4.608778E0,1.4712457E-1,-3.1020996E-1,-1.1620009E-1],"categories":[],"categories_nodes":[],"categories_segments":[],"categories_sizes":[],"default_left":[0,0,0,0,0,0,0],"id":80,"left_children":[1,3,-1,5,-1,-1,-1],"loss_changes":[3.9375714E2,3.375866E2,0E0,5.119464E1,0E0,0E0,0E0],"parents":[2147483647,0,0,1,1,3,3],"right_children":[2,4,-1,6,-1,-1,-1],"split_conditions":[1.5811388E0,1.8371173E0,2.4825774E-1,1.8371173E0,1.4712457E-1,-3.1020996E-1,-1.1620009E-1],"split_indices":[1,2,0,0,0,0,0],"split_type":[0,0,0,0,0,0,0],"sum_hessian":[3.5E1,2.5E1,1E1,1.7E1,8E0,9E0,8E0],"tree_param":{"num_deleted":"0","num_feature":"4","num_nodes":"7","size_leaf_vector":"1"}},{"base_weights":[-4.9919978E-2,-2.0742657E0,2.3697177E-1,-4.4019775E0,1.405816E-1,-2.9624635E-1,-1.1103516E-1],"categories":[],"categories_nodes":[],"categories_segments":[],"categories_sizes":[],"default_left":[0,0,0,0,0,0,0],"id":81,"left_children":[1,3,-1,5,-1,-1,-1],"loss_changes":[3.5886203E2,3.0807376E2,0E0,4.663794E1,0E0,0E0,0E0],"parents":[2147483647,0,0,1,1,3,3],"right_children":[2,4,-1,6,-1,-1,-1],"split_conditions":[1.5811388E0,1.8371173E0,2.3697177E-1,1.8371173E0,1.405816E-1,-2.9624635E-1,-1.1103516E-1],"split_indices":[1,2,0,0,0,0,0],"split_type":[0,0,0,0,0,0,0],"sum_hessian":[3.5E1,2.5E1,1E1,1.7E1,8E0,9E0,8E0],"tree_param":{"num_deleted":"0","num_feature":"4","num_nodes":"7","size_leaf_vector":"1"}},{"base_weights":[-4.8299152E-2,-1.9808444E0,2.2619629E-1,-4.2045355E0,1.343316E-1,-2.8291994E-1,-1.0609809E-1],"categories":[],"categories_nodes":[],"categories_segments":[],"categories_sizes":[],"default_left":[0,0,0,0,0,0,0],"id":82,"left_children":[1,3,-1,5,-1,-1,-1],"loss_changes":[3.2705832E2,2.8115076E2,0E0,4.2493073E1,0E0,0E0,0E0],"parents":[2147483647,0,0,1,1,3,3],"right_children":[2,4,-1,6,-1,-1,-1],"split_conditions":[1.5811388E0,1.8371173E0,2.2619629E-1,1.8371173E0,1.343316E-1,-2.8291994E-1,-1.0609809E-1],"split_indices":[1,2,0,0,0,0,0],"split_type":[0,0,0,0,0,0,0],"sum_hessian":[3.5E1,2.5E1,1E1,1.7E1,8E0,9E0,8E0],"tree_param":{"num_deleted":"0","num_feature":"4","num_nodes":"7","size_leaf_vector":"1"}},{"base_weights":[-4.6664767E-2,-1.8915359E0,2.1590911E-1,-4.015856E0,1.2836371E-1,-2.7018675E-1,-1.0137804E-1],"categories":[],"categories_nodes":[],"categories_segments":[],"categories_sizes":[],"default_left":[0,0,0,0,0,0,0],"id":83,"left_children":[1,3,-1,5,-1,-1,-1],"loss_changes":[2.9806082E2,2.565802E2,0E0,3.8714874E1,0E0,0E0,0E0],"parents":[2147483647,0,0,1,1,3,3],"right_children":[2,4,-1,6,-1,-1,-1],"split_conditions":[1.5811388E0,1.8371173E0,2.1590911E-1,1.8371173E0,1.2836371E-1,-2.7018675E-1,-1.0137804E-1],"split_indices":[1,2,0,0,0,0,0],"split_type":[0,0,0,0,0,0,0],"sum_hessian":[3.5E1,2.5E1,1E1,1.7E1,8E0,9E0,8E0],"tree_param":{"num_deleted":"0","num_feature":"4","num_nodes":"7","size_leaf_vector":"1"}},{"base_weights":[-4.5071073E-2,-1.8063214E0,2.0609908E-1,-3.8356934E0,1.2265625E-1,-2.580249E-1,-9.6875004E-2],"categories":[],"categories_nodes":[],"categories_segments":[],"categories_sizes":[],"default_left":[0,0,0,0,0,0,0],"id":84,"left_children":[1,3,-1,5,-1,-1,-1],"loss_changes":[2.7165765E2,2.3415349E2,0E0,3.5266754E1,0E0,0E0,0E0],"parents":[2147483647,0,0,1,1,3,3],"right_children":[2,4,-1,6,-1,-1,-1],"split_conditions":[1.5811388E0,1.8371173E0,2.0609908E-1,1.8371173E0,1.2265625E-1,-2.580249E-1,-9.6875004E-2],"split_indices":[1,2,0,0,0,0,0],"split_type":[0,0,0,0,0,0,0],"sum_hessian":[3.5E1,2.5E1,1E1,1.7E1,8E0,9E0,8E0],"tree_param":{"num_deleted":"0","num_feature":"4","num_nodes":"7","size_leaf_vector":"1"}},{"base_weights":[-4.349094E-2,-1.7248816E0,1.9673295E-1,-3.6635878E0,1.17209196E-1,-2.4641235E-1,-9.256728E-2],"categories":[],"categories_nodes":[],"categories_segments":[],"categories_sizes":[],"default_left":[0,0,0,0,0,0,0],"id":85,"left_children":[1,3,-1,5,-1,-1,-1],"loss_changes":[2.475845E2,2.136949E2,0E0,3.212976E1,0E0,0E0,0E0],"parents":[2147483647,0,0,1,1,3,3],"right_children":[2,4,-1,6,-1,-1,-1],"split_conditions":[1.5811388E0,1.8371173E0,1.9673295E-1,1.8371173E0,1.17209196E-1,-2.4641235E-1,-9.256728E-2],"split_indices":[1,2,0,0,0,0,0],"split_type":[0,0,0,0,0,0,0],"sum_hessian":[3.5E1,2.5E1,1E1,1.7E1,8E0,9E0,8E0],"tree_param":{"num_deleted":"0","num_feature":"4","num_nodes":"7","size_leaf_vector":"1"}},{"base_weights":[-4.2046443E-2,-1.647198E0,1.8778853E-1,-3.4992948E0,1.12000875E-1,-2.3532715E-1,-8.8454865E-2],"categories":[],"categories_nodes":[],"categories_segments":[],"categories_sizes":[],"default_left":[0,0,0,0,0,0,0],"id":86,"left_children":[1,3,-1,5,-1,-1,-1],"loss_changes":[2.256451E2,1.9502545E2,0E0,2.9271667E1,0E0,0E0,0E0],"parents":[2147483647,0,0,1,1,3,3],"right_children":[2,4,-1,6,-1,-1,-1],"split_conditions":[1.5811388E0,1.8371173E0,1.8778853E-1,1.8371173E0,1.12000875E-1,-2.3532715E-1,-8.8454865E-2],"split_indices":[1,2,0,0,0,0,0],"split_type":[0,0,0,0,0,0,0],"sum_hessian":[3.5E1,2.5E1,1E1,1.7E1,8E0,9E0,8E0],"tree_param":{"num_deleted":"0","num_feature":"4","num_nodes":"7","size_leaf_vector":"1"}},{"base_weights":[-4.0622286E-2,-1.5730169E0,1.7925471E-1,-3.3423395E0,1.070204E-1,-2.2473633E-1,-8.452691E-2],"categories":[],"categories_nodes":[],"categories_segments":[],"categories_sizes":[],"default_left":[0,0,0,0,0,0,0],"id":87,"left_children":[1,3,-1,5,-1,-1,-1],"loss_changes":[2.0565642E2,1.7798038E2,0E0,2.666475E1,0E0,0E0,0E0],"parents":[2147483647,0,0,1,1,3,3],"right_children":[2,4,-1,6,-1,-1,-1],"split_conditions":[1.5811388E0,1.8371173E0,1.7925471E-1,1.8371173E0,1.070204E-1,-2.2473633E-1,-8.452691E-2],"split_indices":[1,2,0,0,0,0,0],"split_type":[0,0,0,0,0,0,0],"sum_hessian":[3.5E1,2.5E1,1E1,1.7E1,8E0,9E0,8E0],"tree_param":{"num_deleted":"0","num_feature":"4","num_nodes":"7","size_leaf_vector":"1"}},{"base_weights":[-3.917779E-2,-1.502094E0,1.7110929E-1,-3.1923692E0,1.02267794E-1,-2.1461792E-1,-8.077257E-2],"categories":[],"categories_nodes":[],"categories_segments":[],"categories_sizes":[],"default_left":[0,0,0,0,0,0,0],"id":88,"left_children":[1,3,-1,5,-1,-1,-1],"loss_changes":[1.8743309E2,1.6242987E2,0E0,2.4288574E1,0E0,0E0,0E0],"parents":[2147483647,0,0,1,1,3,3],"right_children":[2,4,-1,6,-1,-1,-1],"split_conditions":[1.5811388E0,1.8371173E0,1.7110929E-1,1.8371173E0,1.02267794E-1,-2.1461792E-1,-8.077257E-2],"split_indices":[1,2,0,0,0,0,0],"split_type":[0,0,0,0,0,0,0],"sum_hessian":[3.5E1,2.5E1,1E1,1.7E1,8E0,9E0,8E0],"tree_param":{"num_deleted":"0","num_feature":"4","num_nodes":"7","size_leaf_vector":"1"}},{"base_weights":[-3.7841797E-2,-1.4344201E0,1.6333008E-1,-3.0491536E0,9.772136E-2,-2.0496094E-1,-7.718099E-2],"categories":[],"categories_nodes":[],"categories_segments":[],"categories_sizes":[],"default_left":[0,0,0,0,0,0,0],"id":89,"left_children":[1,3,-1,5,-1,-1,-1],"loss_changes":[1.7082257E2,1.4823357E2,0E0,2.2128708E1,0E0,0E0,0E0],"parents":[2147483647,0,0,1,1,3,3],"right_children":[2,4,-1,6,-1,-1,-1],"split_conditions":[1.5811388E0,1.8371173E0,1.6333008E-1,1.8371173E0,9.772136E-2,-2.0496094E-1,-7.718099E-2],"split_indices":[1,2,0,0,0,0,0],"split_type":[0,0,0,0,0,0,0],"sum_hessian":[3.5E1,2.5E1,1E1,1.7E1,8E0,9E0,8E0],"tree_param":{"num_deleted":"0","num_feature":"4","num_nodes":"7","size_leaf_vector":"1"}},{"base_weights":[-3.6499023E-2,-1.3697416E0,1.5590599E-1,-2.9123263E0,9.338108E-2,-1.9573243E-1,-7.375217E-2],"categories":[],"categories_nodes":[],"categories_segments":[],"categories_sizes":[],"default_left":[0,0,0,0,0,0,0],"id":90,"left_children":[1,3,-1,5,-1,-1,-1],"loss_changes":[1.556824E2,1.3528072E2,0E0,2.0156876E1,0E0,0E0,0E0],"parents":[2147483647,0,0,1,1,3,3],"right_children":[2,4,-1,6,-1,-1,-1],"split_conditions":[1.5811388E0,1.8371173E0,1.5590599E-1,1.8371173E0,9.338108E-2,-1.9573243E-1,-7.375217E-2],"split_indices":[1,2,0,0,0,0,0],"split_type":[0,0,0,0,0,0,0],"sum_hessian":[3.5E1,2.5E1,1E1,1.7E1,8E0,9E0,8E0],"tree_param":{"num_deleted":"0","num_feature":"4","num_nodes":"7","size_leaf_vector":"1"}},{"base_weights":[-3.5224065E-2,-1.307974E0,1.4881481E-1,-2.781657E0,8.923611E-2,-1.8692139E-1,-7.0475265E-2],"categories":[],"categories_nodes":[],"categories_segments":[],"categories_sizes":[],"default_left":[0,0,0,0,0,0,0],"id":91,"left_children":[1,3,-1,5,-1,-1,-1],"loss_changes":[1.4187776E2,1.2346347E2,0E0,1.8361694E1,0E0,0E0,0E0],"parents":[2147483647,0,0,1,1,3,3],"right_children":[2,4,-1,6,-1,-1,-1],"split_conditions":[1.5811388E0,1.8371173E0,1.4881481E-1,1.8371173E0,8.923611E-2,-1.8692139E-1,-7.0475265E-2],"split_indices":[1,2,0,0,0,0,0],"split_type":[0,0,0,0,0,0,0],"sum_hessian":[3.5E1,2.5E1,1E1,1.7E1,8E0,9E0,8E0],"tree_param":{"num_deleted":"0","num_feature":"4","num_nodes":"7","size_leaf_vector":"1"}},{"base_weights":[-3.4016926E-2,-1.2490234E0,1.4204545E-1,-2.6567926E0,8.526476E-2,-1.7850587E-1,-6.733941E-2],"categories":[],"categories_nodes":[],"categories_segments":[],"categories_sizes":[],"default_left":[0,0,0,0,0,0,0],"id":92,"left_children":[1,3,-1,5,-1,-1,-1],"loss_changes":[1.2929831E2,1.1266457E2,0E0,1.6728088E1,0E0,0E0,0E0],"parents":[2147483647,0,0,1,1,3,3],"right_children":[2,4,-1,6,-1,-1,-1],"split_conditions":[1.5811388E0,1.8371173E0,1.4204545E-1,1.8371173E0,8.526476E-2,-1.7850587E-1,-6.733941E-2],"split_indices":[1,2,0,0,0,0,0],"split_type":[0,0,0,0,0,0,0],"sum_hessian":[3.5E1,2.5E1,1E1,1.7E1,8E0,9E0,8E0],"tree_param":{"num_deleted":"0","num_feature":"4","num_nodes":"7","size_leaf_vector":"1"}},{"base_weights":[-3.2830134E-2,-1.1927302E0,1.3558683E-1,-2.5376112E0,8.1477866E-2,-1.7047486E-1,-6.434462E-2],"categories":[],"categories_nodes":[],"categories_segments":[],"categories_sizes":[],"default_left":[0,0,0,0,0,0,0],"id":93,"left_children":[1,3,-1,5,-1,-1,-1],"loss_changes":[1.178376E2,1.02821846E2,0E0,1.5241066E1,0E0,0E0,0E0],"parents":[2147483647,0,0,1,1,3,3],"right_children":[2,4,-1,6,-1,-1,-1],"split_conditions":[1.5811388E0,1.8371173E0,1.3558683E-1,1.8371173E0,8.1477866E-2,-1.7047486E-1,-6.434462E-2],"split_indices":[1,2,0,0,0,0,0],"split_type":[0,0,0,0,0,0,0],"sum_hessian":[3.5E1,2.5E1,1E1,1.7E1,8E0,9E0,8E0],"tree_param":{"num_deleted":"0","num_feature":"4","num_nodes":"7","size_leaf_vector":"1"}},{"base_weights":[-3.1663682E-2,-1.1390005E0,1.2942784E-1,-2.4237604E0,7.785373E-2,-1.6280639E-1,-6.1480034E-2],"categories":[],"categories_nodes":[],"categories_segments":[],"categories_sizes":[],"default_left":[0,0,0,0,0,0,0],"id":94,"left_children":[1,3,-1,5,-1,-1,-1],"loss_changes":[1.0740115E2,9.3833015E1,0E0,1.3887901E1,0E0,0E0,0E0],"parents":[2147483647,0,0,1,1,3,3],"right_children":[2,4,-1,6,-1,-1,-1],"split_conditions":[1.5811388E0,1.8371173E0,1.2942784E-1,1.8371173E0,7.785373E-2,-1.6280639E-1,-6.1480034E-2],"split_indices":[1,2,0,0,0,0,0],"split_type":[0,0,0,0,0,0,0],"sum_hessian":[3.5E1,2.5E1,1E1,1.7E1,8E0,9E0,8E0],"tree_param":{"num_deleted":"0","num_feature":"4","num_nodes":"7","size_leaf_vector":"1"}},{"base_weights":[-3.0531142E-2,-1.0876653E0,1.2354626E-1,-2.3149958E0,7.439236E-2,-1.5547852E-1,-5.874566E-2],"categories":[],"categories_nodes":[],"categories_segments":[],"categories_sizes":[],"default_left":[0,0,0,0,0,0,0],"id":95,"left_children":[1,3,-1,5,-1,-1,-1],"loss_changes":[9.788503E1,8.5630486E1,0E0,1.2652374E1,0E0,0E0,0E0],"parents":[2147483647,0,0,1,1,3,3],"right_children":[2,4,-1,6,-1,-1,-1],"split_conditions":[1.5811388E0,1.8371173E0,1.2354626E-1,1.8371173E0,7.439236E-2,-1.5547852E-1,-5.874566E-2],"split_indices":[1,2,0,0,0,0,0],"split_type":[0,0,0,0,0,0,0],"sum_hessian":[3.5E1,2.5E1,1E1,1.7E1,8E0,9E0,8E0],"tree_param":{"num_deleted":"0","num_feature":"4","num_nodes":"7","size_leaf_vector":"1"}},{"base_weights":[-2.9439291E-2,-1.0386399E0,1.1793102E-1,-2.2110868E0,7.1082905E-2,-1.4848022E-1,-5.6130644E-2],"categories":[],"categories_nodes":[],"categories_segments":[],"categories_sizes":[],"default_left":[0,0,0,0,0,0,0],"id":96,"left_children":[1,3,-1,5,-1,-1,-1],"loss_changes":[8.921089E1,7.814218E1,0E0,1.1527573E1,0E0,0E0,0E0],"parents":[2147483647,0,0,1,1,3,3],"right_children":[2,4,-1,6,-1,-1,-1],"split_conditions":[1.5811388E0,1.8371173E0,1.1793102E-1,1.8371173E0,7.1082905E-2,-1.4848022E-1,-5.6130644E-2],"split_indices":[1,2,0,0,0,0,0],"split_type":[0,0,0,0,0,0,0],"sum_hessian":[3.5E1,2.5E1,1E1,1.7E1,8E0,9E0,8E0],"tree_param":{"num_deleted":"0","num_feature":"4","num_nodes":"7","size_leaf_vector":"1"}},{"base_weights":[-2.8394911E-2,-9.9184006E-1,1.1257102E-1,-2.1119113E0,6.792535E-2,-1.4180054E-1,-5.3634983E-2],"categories":[],"categories_nodes":[],"categories_segments":[],"categories_sizes":[],"default_left":[0,0,0,0,0,0,0],"id":97,"left_children":[1,3,-1,5,-1,-1,-1],"loss_changes":[8.130623E1,7.1315506E1,0E0,1.0502686E1,0E0,0E0,0E0],"parents":[2147483647,0,0,1,1,3,3],"right_children":[2,4,-1,6,-1,-1,-1],"split_conditions":[1.5811388E0,1.8371173E0,1.1257102E-1,1.8371173E0,6.792535E-2,-1.4180054E-1,-5.3634983E-2],"split_indices":[1,2,0,0,0,0,0],"split_type":[0,0,0,0,0,0,0],"sum_hessian":[3.5E1,2.5E1,1E1,1.7E1,8E0,9E0,8E0],"tree_param":{"num_deleted":"0","num_feature":"4","num_nodes":"7","size_leaf_vector":"1"}},{"base_weights":[-2.734375E-2,-9.470966E-1,1.0745517E-1,-2.017117E0,6.4908855E-2,-1.3541749E-1,-5.124783E-2],"categories":[],"categories_nodes":[],"categories_segments":[],"categories_sizes":[],"default_left":[0,0,0,0,0,0,0],"id":98,"left_children":[1,3,-1,5,-1,-1,-1],"loss_changes":[7.4099976E1,6.508328E1,0E0,9.568703E0,0E0,0E0,0E0],"parents":[2147483647,0,0,1,1,3,3],"right_children":[2,4,-1,6,-1,-1,-1],"split_conditions":[1.5811388E0,1.8371173E0,1.0745517E-1,1.8371173E0,6.4908855E-2,-1.3541749E-1,-5.124783E-2],"split_indices":[1,2,0,0,0,0,0],"split_type":[0,0,0,0,0,0,0],"sum_hessian":[3.5E1,2.5E1,1E1,1.7E1,8E0,9E0,8E0],"tree_param":{"num_deleted":"0","num_feature":"4","num_nodes":"7","size_leaf_vector":"1"}},{"base_weights":[-2.6346842E-2,-9.0440017E-1,1.0257236E-1,-1.9265815E0,6.2022567E-2,-1.2932007E-1,-4.8969187E-2],"categories":[],"categories_nodes":[],"categories_segments":[],"categories_sizes":[],"default_left":[0,0,0,0,0,0,0],"id":99,"left_children":[1,3,-1,5,-1,-1,-1],"loss_changes":[6.753423E1,5.9392933E1,0E0,8.71656E0,0E0,0E0,0E0],"parents":[2147483647,0,0,1,1,3,3],"right_children":[2,4,-1,6,-1,-1,-1],"split_conditions":[1.5811388E0,1.8371173E0,1.0257236E-1,1.8371173E0,6.2022567E-2,-1.2932007E-1,-4.8969187E-2],"split_indices":[1,2,0,0,0,0,0],"split_type":[0,0,0,0,0,0,0],"sum_hessian":[3.5E1,2.5E1,1E1,1.7E1,8E0,9E0,8E0],"tree_param":{"num_deleted":"0","num_feature":"4","num_nodes":"7","size_leaf_vector":"1"}},{"base_weights":[-2.5356717E-2,-8.6359113E-1,9.791149E-2,-1.8400743E0,5.9266496E-2,-1.2349732E-1,-4.6788197E-2],"categories":[],"categories_nodes":[],"categories_segments":[],"categories_sizes":[],"default_left":[0,0,0,0,0,0,0],"id":100,"left_children":[1,3,-1,5,-1,-1,-1],"loss_changes":[6.1548683E1,5.420026E1,0E0,7.941513E0,0E0,0E0,0E0],"parents":[2147483647,0,0,1,1,3,3],"right_children":[2,4,-1,6,-1,-1,-1],"split_conditions":[1.5811388E0,1.8371173E0,9.791149E-2,1.8371173E0,5.9266496E-2,-1.2349732E-1,-4.6788197E-2],"split_indices":[1,2,0,0,0,0,0],"split_type":[0,0,0,0,0,0,0],"sum_hessian":[3.5E1,2.5E1,1E1,1.7E1,8E0,9E0,8E0],"tree_param":{"num_deleted":"0","num_feature":"4","num_nodes":"7","size_leaf_vector":"1"}},{"base_weights":[-2.4434408E-2,-8.2466006E-1,9.3461476E-2,-1.7574735E0,5.6629777E-2,-1.17938235E-1,-4.4704862E-2],"categories":[],"categories_nodes":[],"categories_segments":[],"categories_sizes":[],"default_left":[0,0,0,0,0,0,0],"id":101,"left_children":[1,3,-1,5,-1,-1,-1],"loss_changes":[5.6094383E1,4.9460114E1,0E0,7.235569E0,0E0,0E0,0E0],"parents":[2147483647,0,0,1,1,3,3],"right_children":[2,4,-1,6,-1,-1,-1],"split_conditions":[1.5811388E0,1.8371173E0,9.3461476E-2,1.8371173E0,5.6629777E-2,-1.17938235E-1,-4.4704862E-2],"split_indices":[1,2,0,0,0,0,0],"split_type":[0,0,0,0,0,0,0],"sum_hessian":[3.5E1,2.5E1,1E1,1.7E1,8E0,9E0,8E0],"tree_param":{"num_deleted":"0","num_feature":"4","num_nodes":"7","size_leaf_vector":"1"}},{"base_weights":[-2.3586698E-2,-7.8752255E-1,8.92112E-2,-1.6786567E0,5.4112412E-2,-1.12631835E-1,-4.2719185E-2],"categories":[],"categories_nodes":[],"categories_segments":[],"categories_sizes":[],"default_left":[0,0,0,0,0,0,0],"id":102,"left_children":[1,3,-1,5,-1,-1,-1],"loss_changes":[5.112297E1,4.513835E1,0E0,6.5914764E0,0E0,0E0,0E0],"parents":[2147483647,0,0,1,1,3,3],"right_children":[2,4,-1,6,-1,-1,-1],"split_conditions":[1.5811388E0,1.8371173E0,8.92112E-2,1.8371173E0,5.4112412E-2,-1.12631835E-1,-4.2719185E-2],"split_indices":[1,2,0,0,0,0,0],"split_type":[0,0,0,0,0,0,0],"sum_hessian":[3.5E1,2.5E1,1E1,1.7E1,8E0,9E0,8E0],"tree_param":{"num_deleted":"0","num_feature":"4","num_nodes":"7","size_leaf_vector":"1"}},{"base_weights":[-2.275255E-2,-7.52094E-1,8.5160695E-2,-1.6033936E0,5.170356E-2,-1.0756715E-1,-4.082031E-2],"categories":[],"categories_nodes":[],"categories_segments":[],"categories_sizes":[],"default_left":[0,0,0,0,0,0,0],"id":103,"left_children":[1,3,-1,5,-1,-1,-1],"loss_changes":[4.6598454E1,4.1192627E1,0E0,6.0057526E0,0E0,0E0,0E0],"parents":[2147483647,0,0,1,1,3,3],"right_children":[2,4,-1,6,-1,-1,-1],"split_conditions":[1.5811388E0,1.8371173E0,8.5160695E-2,1.8371173E0,5.170356E-2,-1.0756715E-1,-4.082031E-2],"split_indices":[1,2,0,0,0,0,0],"split_type":[0,0,0,0,0,0,0],"sum_hessian":[3.5E1,2.5E1,1E1,1.7E1,8E0,9E0,8E0],"tree_param":{"num_deleted":"0","num_feature":"4","num_nodes":"7","size_leaf_vector":"1"}},{"base_weights":[-2.1945529E-2,-7.182054E-1,8.1287734E-2,-1.5314399E0,4.9403213E-2,-1.0272217E-1,-3.900825E-2],"categories":[],"categories_nodes":[],"categories_segments":[],"categories_sizes":[],"default_left":[0,0,0,0,0,0,0],"id":104,"left_children":[1,3,-1,5,-1,-1,-1],"loss_changes":[4.2467815E1,3.759069E1,0E0,5.4697456E0,0E0,0E0,0E0],"parents":[2147483647,0,0,1,1,3,3],"right_children":[2,4,-1,6,-1,-1,-1],"split_conditions":[1.5811388E0,1.8371173E0,8.1287734E-2,1.8371173E0,4.9403213E-2,-1.0272217E-1,-3.900825E-2],"split_indices":[1,2,0,0,0,0,0],"split_type":[0,0,0,0,0,0,0],"sum_hessian":[3.5E1,2.5E1,1E1,1.7E1,8E0,9E0,8E0],"tree_param":{"num_deleted":"0","num_feature":"4","num_nodes":"7","size_leaf_vector":"1"}},{"base_weights":[-2.1111382E-2,-6.857816E-1,7.7592336E-2,-1.4626871E0,4.7211375E-2,-9.809693E-2,-3.7272137E-2],"categories":[],"categories_nodes":[],"categories_segments":[],"categories_sizes":[],"default_left":[0,0,0,0,0,0,0],"id":105,"left_children":[1,3,-1,5,-1,-1,-1],"loss_changes":[3.870217E1,3.4306553E1,0E0,4.983021E0,0E0,0E0,0E0],"parents":[2147483647,0,0,1,1,3,3],"right_children":[2,4,-1,6,-1,-1,-1],"split_conditions":[1.5811388E0,1.8371173E0,7.7592336E-2,1.8371173E0,4.7211375E-2,-9.809693E-2,-3.7272137E-2],"split_indices":[1,2,0,0,0,0,0],"split_type":[0,0,0,0,0,0,0],"sum_hessian":[3.5E1,2.5E1,1E1,1.7E1,8E0,9E0,8E0],"tree_param":{"num_deleted":"0","num_feature":"4","num_nodes":"7","size_leaf_vector":"1"}},{"base_weights":[-2.0311143E-2,-6.5481335E-1,7.406339E-2,-1.3970133E0,4.511719E-2,-9.368042E-2,-3.561198E-2],"categories":[],"categories_nodes":[],"categories_segments":[],"categories_sizes":[],"default_left":[0,0,0,0,0,0,0],"id":106,"left_children":[1,3,-1,5,-1,-1,-1],"loss_changes":[3.526914E1,3.1309357E1,0E0,4.54002E0,0E0,0E0,0E0],"parents":[2147483647,0,0,1,1,3,3],"right_children":[2,4,-1,6,-1,-1,-1],"split_conditions":[1.5811388E0,1.8371173E0,7.406339E-2,1.8371173E0,4.511719E-2,-9.368042E-2,-3.561198E-2],"split_indices":[1,2,0,0,0,0,0],"split_type":[0,0,0,0,0,0,0],"sum_hessian":[3.5E1,2.5E1,1E1,1.7E1,8E0,9E0,8E0],"tree_param":{"num_deleted":"0","num_feature":"4","num_nodes":"7","size_leaf_vector":"1"}},{"base_weights":[-1.9538032E-2,-6.252911E-1,7.0700906E-2,-1.3342963E0,4.310981E-2,-8.946168E-2,-3.402778E-2],"categories":[],"categories_nodes":[],"categories_segments":[],"categories_sizes":[],"default_left":[0,0,0,0,0,0,0],"id":107,"left_children":[1,3,-1,5,-1,-1,-1],"loss_changes":[3.2145885E1,2.857097E1,0E0,4.135723E0,0E0,0E0,0E0],"parents":[2147483647,0,0,1,1,3,3],"right_children":[2,4,-1,6,-1,-1,-1],"split_conditions":[1.5811388E0,1.8371173E0,7.0700906E-2,1.8371173E0,4.310981E-2,-8.946168E-2,-3.402778E-2],"split_indices":[1,2,0,0,0,0,0],"split_type":[0,0,0,0,0,0,0],"sum_hessian":[3.5E1,2.5E1,1E1,1.7E1,8E0,9E0,8E0],"tree_param":{"num_deleted":"0","num_feature":"4","num_nodes":"7","size_leaf_vector":"1"}},{"base_weights":[-1.892768E-2,-5.9721494E-1,6.748269E-2,-1.2745361E0,4.1189235E-2,-8.544067E-2,-3.251953E-2],"categories":[],"categories_nodes":[],"categories_segments":[],"categories_sizes":[],"default_left":[0,0,0,0,0,0,0],"id":108,"left_children":[1,3,-1,5,-1,-1,-1],"loss_changes":[2.9297626E1,2.607425E1,0E0,3.7675438E0,0E0,0E0,0E0],"parents":[2147483647,0,0,1,1,3,3],"right_children":[2,4,-1,6,-1,-1,-1],"split_conditions":[1.5811388E0,1.8371173E0,6.748269E-2,1.8371173E0,4.1189235E-2,-8.544067E-2,-3.251953E-2],"split_indices":[1,2,0,0,0,0,0],"split_type":[0,0,0,0,0,0,0],"sum_hessian":[3.5E1,2.5E1,1E1,1.7E1,8E0,9E0,8E0],"tree_param":{"num_deleted":"0","num_feature":"4","num_nodes":"7","size_leaf_vector":"1"}},{"base_weights":[-1.8235948E-2,-5.703407E-1,6.4419836E-2,-1.21738E0,3.9355468E-2,-8.159546E-2,-3.107639E-2],"categories":[],"categories_nodes":[],"categories_segments":[],"categories_sizes":[],"default_left":[0,0,0,0,0,0,0],"id":109,"left_children":[1,3,-1,5,-1,-1,-1],"loss_changes":[2.6705154E1,2.3794628E1,0E0,3.4316883E0,0E0,0E0,0E0],"parents":[2147483647,0,0,1,1,3,3],"right_children":[2,4,-1,6,-1,-1,-1],"split_conditions":[1.5811388E0,1.8371173E0,6.4419836E-2,1.8371173E0,3.9355468E-2,-8.159546E-2,-3.107639E-2],"split_indices":[1,2,0,0,0,0,0],"split_type":[0,0,0,0,0,0,0],"sum_hessian":[3.5E1,2.5E1,1E1,1.7E1,8E0,9E0,8E0],"tree_param":{"num_deleted":"0","num_feature":"4","num_nodes":"7","size_leaf_vector":"1"}},{"base_weights":[-1.759847E-2,-5.446683E-1,6.149015E-2,-1.1628282E0,3.7608508E-2,-7.792603E-2,-2.9698351E-2],"categories":[],"categories_nodes":[],"categories_segments":[],"categories_sizes":[],"default_left":[0,0,0,0,0,0,0],"id":110,"left_children":[1,3,-1,5,-1,-1,-1],"loss_changes":[2.4338673E1,2.1717636E1,0E0,3.1259823E0,0E0,0E0,0E0],"parents":[2147483647,0,0,1,1,3,3],"right_children":[2,4,-1,6,-1,-1,-1],"split_conditions":[1.5811388E0,1.8371173E0,6.149015E-2,1.8371173E0,3.7608508E-2,-7.792603E-2,-2.9698351E-2],"split_indices":[1,2,0,0,0,0,0],"split_type":[0,0,0,0,0,0,0],"sum_hessian":[3.5E1,2.5E1,1E1,1.7E1,8E0,9E0,8E0],"tree_param":{"num_deleted":"0","num_feature":"4","num_nodes":"7","size_leaf_vector":"1"}},{"base_weights":[-1.695421E-2,-5.201134E-1,5.8693625E-2,-1.11065E0,3.59375E-2,-7.442139E-2,-2.8374566E-2],"categories":[],"categories_nodes":[],"categories_segments":[],"categories_sizes":[],"default_left":[0,0,0,0,0,0,0],"id":111,"left_children":[1,3,-1,5,-1,-1,-1],"loss_changes":[2.2180864E1,1.9819725E1,0E0,2.8488102E0,0E0,0E0,0E0],"parents":[2147483647,0,0,1,1,3,3],"right_children":[2,4,-1,6,-1,-1,-1],"split_conditions":[1.5811388E0,1.8371173E0,5.8693625E-2,1.8371173E0,3.59375E-2,-7.442139E-2,-2.8374566E-2],"split_indices":[1,2,0,0,0,0,0],"split_type":[0,0,0,0,0,0,0],"sum_hessian":[3.5E1,2.5E1,1E1,1.7E1,8E0,9E0,8E0],"tree_param":{"num_deleted":"0","num_feature":"4","num_nodes":"7","size_leaf_vector":"1"}},{"base_weights":[-1.6296387E-2,-4.9666655E-1,5.6030273E-2,-1.0608317E0,3.434245E-2,-7.107056E-2,-2.7115885E-2],"categories":[],"categories_nodes":[],"categories_segments":[],"categories_sizes":[],"default_left":[0,0,0,0,0,0,0],"id":112,"left_children":[1,3,-1,5,-1,-1,-1],"loss_changes":[2.021738E1,1.8088787E1,0E0,2.5945206E0,0E0,0E0,0E0],"parents":[2147483647,0,0,1,1,3,3],"right_children":[2,4,-1,6,-1,-1,-1],"split_conditions":[1.5811388E0,1.8371173E0,5.6030273E-2,1.8371173E0,3.434245E-2,-7.107056E-2,-2.7115885E-2],"split_indices":[1,2,0,0,0,0,0],"split_type":[0,0,0,0,0,0,0],"sum_hessian":[3.5E1,2.5E1,1E1,1.7E1,8E0,9E0,8E0],"tree_param":{"num_deleted":"0","num_feature":"4","num_nodes":"7","size_leaf_vector":"1"}},{"base_weights":[-1.5692817E-2,-4.7432768E-1,5.3488996E-2,-1.013265E0,3.2812502E-2,-6.787354E-2,-2.591146E-2],"categories":[],"categories_nodes":[],"categories_segments":[],"categories_sizes":[],"default_left":[0,0,0,0,0,0,0],"id":113,"left_children":[1,3,-1,5,-1,-1,-1],"loss_changes":[1.8429508E1,1.6507027E1,0E0,2.363615E0,0E0,0E0,0E0],"parents":[2147483647,0,0,1,1,3,3],"right_children":[2,4,-1,6,-1,-1,-1],"split_conditions":[1.5811388E0,1.8371173E0,5.3488996E-2,1.8371173E0,3.2812502E-2,-6.787354E-2,-2.591146E-2],"split_indices":[1,2,0,0,0,0,0],"split_type":[0,0,0,0,0,0,0],"sum_hessian":[3.5E1,2.5E1,1E1,1.7E1,8E0,9E0,8E0],"tree_param":{"num_deleted":"0","num_feature":"4","num_nodes":"7","size_leaf_vector":"1"}},{"base_weights":[-1.5096028E-2,-4.529372E-1,5.105868E-2,-9.678277E-1,3.1358507E-2,-6.4819336E-2,-2.4761286E-2],"categories":[],"categories_nodes":[],"categories_segments":[],"categories_sizes":[],"default_left":[0,0,0,0,0,0,0],"id":114,"left_children":[1,3,-1,5,-1,-1,-1],"loss_changes":[1.6796503E1,1.5066554E1,0E0,2.152996E0,0E0,0E0,0E0],"parents":[2147483647,0,0,1,1,3,3],"right_children":[2,4,-1,6,-1,-1,-1],"split_conditions":[1.5811388E0,1.8371173E0,5.105868E-2,1.8371173E0,3.1358507E-2,-6.4819336E-2,-2.4761286E-2],"split_indices":[1,2,0,0,0,0,0],"split_type":[0,0,0,0,0,0,0],"sum_hessian":[3.5E1,2.5E1,1E1,1.7E1,8E0,9E0,8E0],"tree_param":{"num_deleted":"0","num_feature":"4","num_nodes":"7","size_leaf_vector":"1"}},{"base_weights":[-1.4499241E-2,-4.3248573E-1,4.8739348E-2,-9.2439777E-1,2.9969618E-2,-6.1896976E-2,-2.3665365E-2],"categories":[],"categories_nodes":[],"categories_segments":[],"categories_sizes":[],"default_left":[0,0,0,0,0,0,0],"id":115,"left_children":[1,3,-1,5,-1,-1,-1],"loss_changes":[1.53078785E1,1.3751503E1,0E0,1.9599142E0,0E0,0E0,0E0],"parents":[2147483647,0,0,1,1,3,3],"right_children":[2,4,-1,6,-1,-1,-1],"split_conditions":[1.5811388E0,1.8371173E0,4.8739348E-2,1.8371173E0,2.9969618E-2,-6.1896976E-2,-2.3665365E-2],"split_indices":[1,2,0,0,0,0,0],"split_type":[0,0,0,0,0,0,0],"sum_hessian":[3.5E1,2.5E1,1E1,1.7E1,8E0,9E0,8E0],"tree_param":{"num_deleted":"0","num_feature":"4","num_nodes":"7","size_leaf_vector":"1"}},{"base_weights":[-1.3970269E-2,-4.1297325E-1,4.6519887E-2,-8.8286674E-1,2.8634984E-2,-5.9106447E-2,-2.2612847E-2],"categories":[],"categories_nodes":[],"categories_segments":[],"categories_sizes":[],"default_left":[0,0,0,0,0,0,0],"id":116,"left_children":[1,3,-1,5,-1,-1,-1],"loss_changes":[1.3949233E1,1.25478115E1,0E0,1.7849474E0,0E0,0E0,0E0],"parents":[2147483647,0,0,1,1,3,3],"right_children":[2,4,-1,6,-1,-1,-1],"split_conditions":[1.5811388E0,1.8371173E0,4.6519887E-2,1.8371173E0,2.8634984E-2,-5.9106447E-2,-2.2612847E-2],"split_indices":[1,2,0,0,0,0,0],"split_type":[0,0,0,0,0,0,0],"sum_hessian":[3.5E1,2.5E1,1E1,1.7E1,8E0,9E0,8E0],"tree_param":{"num_deleted":"0","num_feature":"4","num_nodes":"7","size_leaf_vector":"1"}},{"base_weights":[-1.3454861E-2,-3.9432466E-1,4.44003E-2,-8.432346E-1,2.7365452E-2,-5.6447756E-2,-2.1603733E-2],"categories":[],"categories_nodes":[],"categories_segments":[],"categories_sizes":[],"default_left":[0,0,0,0,0,0,0],"id":117,"left_children":[1,3,-1,5,-1,-1,-1],"loss_changes":[1.2710375E1,1.1451937E1,0E0,1.62679E0,0E0,0E0,0E0],"parents":[2147483647,0,0,1,1,3,3],"right_children":[2,4,-1,6,-1,-1,-1],"split_conditions":[1.5811388E0,1.8371173E0,4.44003E-2,1.8371173E0,2.7365452E-2,-5.6447756E-2,-2.1603733E-2],"split_indices":[1,2,0,0,0,0,0],"split_type":[0,0,0,0,0,0,0],"sum_hessian":[3.5E1,2.5E1,1E1,1.7E1,8E0,9E0,8E0],"tree_param":{"num_deleted":"0","num_feature":"4","num_nodes":"7","size_leaf_vector":"1"}},{"base_weights":[-1.3000488E-2,-3.766057E-1,4.2380594E-2,-8.0548775E-1,2.6150173E-2,-5.390991E-2,-2.0648872E-2],"categories":[],"categories_nodes":[],"categories_segments":[],"categories_sizes":[],"default_left":[0,0,0,0,0,0,0],"id":118,"left_children":[1,3,-1,5,-1,-1,-1],"loss_changes":[1.1584449E1,1.0452755E1,0E0,1.4814787E0,0E0,0E0,0E0],"parents":[2147483647,0,0,1,1,3,3],"right_children":[2,4,-1,6,-1,-1,-1],"split_conditions":[1.5811388E0,1.8371173E0,4.2380594E-2,1.8371173E0,2.6150173E-2,-5.390991E-2,-2.0648872E-2],"split_indices":[1,2,0,0,0,0,0],"split_type":[0,0,0,0,0,0,0],"sum_hessian":[3.5E1,2.5E1,1E1,1.7E1,8E0,9E0,8E0],"tree_param":{"num_deleted":"0","num_feature":"4","num_nodes":"7","size_leaf_vector":"1"}},{"base_weights":[-1.2505425E-2,-3.595816E-1,4.0449664E-2,-7.692871E-1,2.4989149E-2,-5.1481932E-2,-1.9726563E-2],"categories":[],"categories_nodes":[],"categories_segments":[],"categories_sizes":[],"default_left":[0,0,0,0,0,0,0],"id":119,"left_children":[1,3,-1,5,-1,-1,-1],"loss_changes":[1.0555313E1,9.538724E0,0E0,1.3500042E0,0E0,0E0,0E0],"parents":[2147483647,0,0,1,1,3,3],"right_children":[2,4,-1,6,-1,-1,-1],"split_conditions":[1.5811388E0,1.8371173E0,4.0449664E-2,1.8371173E0,2.4989149E-2,-5.1481932E-2,-1.9726563E-2],"split_indices":[1,2,0,0,0,0,0],"split_type":[0,0,0,0,0,0,0],"sum_hessian":[3.5E1,2.5E1,1E1,1.7E1,8E0,9E0,8E0],"tree_param":{"num_deleted":"0","num_feature":"4","num_nodes":"7","size_leaf_vector":"1"}},{"base_weights":[-1.2023926E-2,-3.4332746E-1,3.860751E-2,-7.347412E-1,2.388238E-2,-4.916382E-2,-1.8847657E-2],"categories":[],"categories_nodes":[],"categories_segments":[],"categories_sizes":[],"default_left":[0,0,0,0,0,0,0],"id":120,"left_children":[1,3,-1,5,-1,-1,-1],"loss_changes":[9.6178875E0,8.7058115E0,0E0,1.2299633E0,0E0,0E0,0E0],"parents":[2147483647,0,0,1,1,3,3],"right_children":[2,4,-1,6,-1,-1,-1],"split_conditions":[1.5811388E0,1.8371173E0,3.860751E-2,1.8371173E0,2.388238E-2,-4.916382E-2,-1.8847657E-2],"split_indices":[1,2,0,0,0,0,0],"split_type":[0,0,0,0,0,0,0],"sum_hessian":[3.5E1,2.5E1,1E1,1.7E1,8E0,9E0,8E0],"tree_param":{"num_deleted":"0","num_feature":"4","num_nodes":"7","size_leaf_vector":"1"}},{"base_weights":[-1.16102435E-2,-3.279184E-1,3.6854137E-2,-7.0185006E-1,2.281901E-2,-4.6955567E-2,-1.8012153E-2],"categories":[],"categories_nodes":[],"categories_segments":[],"categories_sizes":[],"default_left":[0,0,0,0,0,0,0],"id":121,"left_children":[1,3,-1,5,-1,-1,-1],"loss_changes":[8.767141E0,7.9454365E0,0E0,1.1205931E0,0E0,0E0,0E0],"parents":[2147483647,0,0,1,1,3,3],"right_children":[2,4,-1,6,-1,-1,-1],"split_conditions":[1.5811388E0,1.8371173E0,3.6854137E-2,1.8371173E0,2.281901E-2,-4.6955567E-2,-1.8012153E-2],"split_indices":[1,2,0,0,0,0,0],"split_type":[0,0,0,0,0,0,0],"sum_hessian":[3.5E1,2.5E1,1E1,1.7E1,8E0,9E0,8E0],"tree_param":{"num_deleted":"0","num_feature":"4","num_nodes":"7","size_leaf_vector":"1"}},{"base_weights":[-1.1162652E-2,-3.1311974E-1,3.5178445E-2,-6.7038304E-1,2.1809896E-2,-4.4846192E-2,-1.7209202E-2],"categories":[],"categories_nodes":[],"categories_segments":[],"categories_sizes":[],"default_left":[0,0,0,0,0,0,0],"id":122,"left_children":[1,3,-1,5,-1,-1,-1],"loss_changes":[7.9897585E0,7.2527156E0,0E0,1.0214462E0,0E0,0E0,0E0],"parents":[2147483647,0,0,1,1,3,3],"right_children":[2,4,-1,6,-1,-1,-1],"split_conditions":[1.5811388E0,1.8371173E0,3.5178445E-2,1.8371173E0,2.1809896E-2,-4.4846192E-2,-1.7209202E-2],"split_indices":[1,2,0,0,0,0,0],"split_type":[0,0,0,0,0,0,0],"sum_hessian":[3.5E1,2.5E1,1E1,1.7E1,8E0,9E0,8E0],"tree_param":{"num_deleted":"0","num_feature":"4","num_nodes":"7","size_leaf_vector":"1"}},{"base_weights":[-1.0728624E-2,-2.9899713E-1,3.3580434E-2,-6.403266E-1,2.0844184E-2,-4.2824708E-2,-1.6449653E-2],"categories":[],"categories_nodes":[],"categories_segments":[],"categories_sizes":[],"default_left":[0,0,0,0,0,0,0],"id":123,"left_children":[1,3,-1,5,-1,-1,-1],"loss_changes":[7.2818775E0,6.6200733E0,0E0,9.2962265E-1,0E0,0E0,0E0],"parents":[2147483647,0,0,1,1,3,3],"right_children":[2,4,-1,6,-1,-1,-1],"split_conditions":[1.5811388E0,1.8371173E0,3.3580434E-2,1.8371173E0,2.0844184E-2,-4.2824708E-2,-1.6449653E-2],"split_indices":[1,2,0,0,0,0,0],"split_type":[0,0,0,0,0,0,0],"sum_hessian":[3.5E1,2.5E1,1E1,1.7E1,8E0,9E0,8E0],"tree_param":{"num_deleted":"0","num_feature":"4","num_nodes":"7","size_leaf_vector":"1"}},{"base_weights":[-1.0382758E-2,-2.8556E-1,3.2049008E-2,-6.1169434E-1,1.9921875E-2,-4.09021E-2,-1.5722657E-2],"categories":[],"categories_nodes":[],"categories_segments":[],"categories_sizes":[],"default_left":[0,0,0,0,0,0,0],"id":124,"left_children":[1,3,-1,5,-1,-1,-1],"loss_changes":[6.6356874E0,6.043674E0,0E0,8.467951E-1,0E0,0E0,0E0],"parents":[2147483647,0,0,1,1,3,3],"right_children":[2,4,-1,6,-1,-1,-1],"split_conditions":[1.5811388E0,1.8371173E0,3.2049008E-2,1.8371173E0,1.9921875E-2,-4.09021E-2,-1.5722657E-2],"split_indices":[1,2,0,0,0,0,0],"split_type":[0,0,0,0,0,0,0],"sum_hessian":[3.5E1,2.5E1,1E1,1.7E1,8E0,9E0,8E0],"tree_param":{"num_deleted":"0","num_feature":"4","num_nodes":"7","size_leaf_vector":"1"}},{"base_weights":[-9.989421E-3,-2.7271447E-1,3.0595258E-2,-5.842421E-1,1.9032119E-2,-3.9056398E-2,-1.5028211E-2],"categories":[],"categories_nodes":[],"categories_segments":[],"categories_sizes":[],"default_left":[0,0,0,0,0,0,0],"id":125,"left_children":[1,3,-1,5,-1,-1,-1],"loss_changes":[6.0488176E0,5.514393E0,0E0,7.705598E-1,0E0,0E0,0E0],"parents":[2147483647,0,0,1,1,3,3],"right_children":[2,4,-1,6,-1,-1,-1],"split_conditions":[1.5811388E0,1.8371173E0,3.0595258E-2,1.8371173E0,1.9032119E-2,-3.9056398E-2,-1.5028211E-2],"split_indices":[1,2,0,0,0,0,0],"split_type":[0,0,0,0,0,0,0],"sum_hessian":[3.5E1,2.5E1,1E1,1.7E1,8E0,9E0,8E0],"tree_param":{"num_deleted":"0","num_feature":"4","num_nodes":"7","size_leaf_vector":"1"}},{"base_weights":[-9.568956E-3,-2.6039475E-1,2.9208098E-2,-5.579834E-1,1.8185765E-2,-3.7298586E-2,-1.4355469E-2],"categories":[],"categories_nodes":[],"categories_segments":[],"categories_sizes":[],"default_left":[0,0,0,0,0,0,0],"id":126,"left_children":[1,3,-1,5,-1,-1,-1],"loss_changes":[5.5133414E0,5.0318766E0,0E0,7.02405E-1,0E0,0E0,0E0],"parents":[2147483647,0,0,1,1,3,3],"right_children":[2,4,-1,6,-1,-1,-1],"split_conditions":[1.5811388E0,1.8371173E0,2.9208098E-2,1.8371173E0,1.8185765E-2,-3.7298586E-2,-1.4355469E-2],"split_indices":[1,2,0,0,0,0,0],"split_type":[0,0,0,0,0,0,0],"sum_hessian":[3.5E1,2.5E1,1E1,1.7E1,8E0,9E0,8E0],"tree_param":{"num_deleted":"0","num_feature":"4","num_nodes":"7","size_leaf_vector":"1"}},{"base_weights":[-9.1824E-3,-2.485915E-1,2.7876422E-2,-5.3290474E-1,1.7382814E-2,-3.5617676E-2,-1.3715277E-2],"categories":[],"categories_nodes":[],"categories_segments":[],"categories_sizes":[],"default_left":[0,0,0,0,0,0,0],"id":127,"left_children":[1,3,-1,5,-1,-1,-1],"loss_changes":[5.0229225E0,4.592817E0,0E0,6.3989305E-1,0E0,0E0,0E0],"parents":[2147483647,0,0,1,1,3,3],"right_children":[2,4,-1,6,-1,-1,-1],"split_conditions":[1.5811388E0,1.8371173E0,2.7876422E-2,1.8371173E0,1.7382814E-2,-3.5617676E-2,-1.3715277E-2],"split_indices":[1,2,0,0,0,0,0],"split_type":[0,0,0,0,0,0,0],"sum_hessian":[3.5E1,2.5E1,1E1,1.7E1,8E0,9E0,8E0],"tree_param":{"num_deleted":"0","num_feature":"4","num_nodes":"7","size_leaf_vector":"1"}},{"base_weights":[-8.816189E-3,-2.373798E-1,2.6611328E-2,-5.090061E-1,1.6612414E-2,-3.401367E-2,-1.310764E-2],"categories":[],"categories_nodes":[],"categories_segments":[],"categories_sizes":[],"default_left":[0,0,0,0,0,0,0],"id":128,"left_children":[1,3,-1,5,-1,-1,-1],"loss_changes":[4.5781965E0,4.191991E0,0E0,5.826669E-1,0E0,0E0,0E0],"parents":[2147483647,0,0,1,1,3,3],"right_children":[2,4,-1,6,-1,-1,-1],"split_conditions":[1.5811388E0,1.8371173E0,2.6611328E-2,1.8371173E0,1.6612414E-2,-3.401367E-2,-1.310764E-2],"split_indices":[1,2,0,0,0,0,0],"split_type":[0,0,0,0,0,0,0],"sum_hessian":[3.5E1,2.5E1,1E1,1.7E1,8E0,9E0,8E0],"tree_param":{"num_deleted":"0","num_feature":"4","num_nodes":"7","size_leaf_vector":"1"}},{"base_weights":[-8.483887E-3,-2.2668457E-1,2.5401725E-2,-4.8617893E-1,1.5874567E-2,-3.2486573E-2,-1.2521702E-2],"categories":[],"categories_nodes":[],"categories_segments":[],"categories_sizes":[],"default_left":[0,0,0,0,0,0,0],"id":129,"left_children":[1,3,-1,5,-1,-1,-1],"loss_changes":[4.172531E0,3.8258324E0,0E0,5.3130484E-1,0E0,0E0,0E0],"parents":[2147483647,0,0,1,1,3,3],"right_children":[2,4,-1,6,-1,-1,-1],"split_conditions":[1.5811388E0,1.8371173E0,2.5401725E-2,1.8371173E0,1.5874567E-2,-3.2486573E-2,-1.2521702E-2],"split_indices":[1,2,0,0,0,0,0],"split_type":[0,0,0,0,0,0,0],"sum_hessian":[3.5E1,2.5E1,1E1,1.7E1,8E0,9E0,8E0],"tree_param":{"num_deleted":"0","num_feature":"4","num_nodes":"7","size_leaf_vector":"1"}},{"base_weights":[-8.178711E-3,-2.164964E-1,2.4247603E-2,-4.644097E-1,1.516927E-2,-3.1025393E-2,-1.19683165E-2],"categories":[],"categories_nodes":[],"categories_segments":[],"categories_sizes":[],"default_left":[0,0,0,0,0,0,0],"id":130,"left_children":[1,3,-1,5,-1,-1,-1],"loss_changes":[3.8031933E0,3.4919214E0,0E0,4.837904E-1,0E0,0E0,0E0],"parents":[2147483647,0,0,1,1,3,3],"right_children":[2,4,-1,6,-1,-1,-1],"split_conditions":[1.5811388E0,1.8371173E0,2.4247603E-2,1.8371173E0,1.516927E-2,-3.1025393E-2,-1.19683165E-2],"split_indices":[1,2,0,0,0,0,0],"split_type":[0,0,0,0,0,0,0],"sum_hessian":[3.5E1,2.5E1,1E1,1.7E1,8E0,9E0,8E0],"tree_param":{"num_deleted":"0","num_feature":"4","num_nodes":"7","size_leaf_vector":"1"}},{"base_weights":[-7.8464085E-3,-2.0674016E-1,2.314897E-2,-4.4358996E-1,1.4496528E-2,-2.9630128E-2,-1.1436633E-2],"categories":[],"categories_nodes":[],"categories_segments":[],"categories_sizes":[],"default_left":[0,0,0,0,0,0,0],"id":131,"left_children":[1,3,-1,5,-1,-1,-1],"loss_changes":[3.4669116E0,3.1871555E0,0E0,4.407487E-1,0E0,0E0,0E0],"parents":[2147483647,0,0,1,1,3,3],"right_children":[2,4,-1,6,-1,-1,-1],"split_conditions":[1.5811388E0,1.8371173E0,2.314897E-2,1.8371173E0,1.4496528E-2,-2.9630128E-2,-1.1436633E-2],"split_indices":[1,2,0,0,0,0,0],"split_type":[0,0,0,0,0,0,0],"sum_hessian":[3.5E1,2.5E1,1E1,1.7E1,8E0,9E0,8E0],"tree_param":{"num_deleted":"0","num_feature":"4","num_nodes":"7","size_leaf_vector":"1"}},{"base_weights":[-7.554796E-3,-1.9741586E-1,2.2094727E-2,-4.237196E-1,1.38563365E-2,-2.830078E-2,-1.0926649E-2],"categories":[],"categories_nodes":[],"categories_segments":[],"categories_sizes":[],"default_left":[0,0,0,0,0,0,0],"id":132,"left_children":[1,3,-1,5,-1,-1,-1],"loss_changes":[3.1592226E0,2.909584E0,0E0,4.0185714E-1,0E0,0E0,0E0],"parents":[2147483647,0,0,1,1,3,3],"right_children":[2,4,-1,6,-1,-1,-1],"split_conditions":[1.5811388E0,1.8371173E0,2.2094727E-2,1.8371173E0,1.38563365E-2,-2.830078E-2,-1.0926649E-2],"split_indices":[1,2,0,0,0,0,0],"split_type":[0,0,0,0,0,0,0],"sum_hessian":[3.5E1,2.5E1,1E1,1.7E1,8E0,9E0,8E0],"tree_param":{"num_deleted":"0","num_feature":"4","num_nodes":"7","size_leaf_vector":"1"}},{"base_weights":[-7.297092E-3,-1.8851413E-1,2.1084873E-2,-4.0467665E-1,1.3237848E-2,-2.7026368E-2,-1.0438368E-2],"categories":[],"categories_nodes":[],"categories_segments":[],"categories_sizes":[],"default_left":[0,0,0,0,0,0,0],"id":133,"left_children":[1,3,-1,5,-1,-1,-1],"loss_changes":[2.8781762E0,2.6546268E0,0E0,3.66215E-1,0E0,0E0,0E0],"parents":[2147483647,0,0,1,1,3,3],"right_children":[2,4,-1,6,-1,-1,-1],"split_conditions":[1.5811388E0,1.8371173E0,2.1084873E-2,1.8371173E0,1.3237848E-2,-2.7026368E-2,-1.0438368E-2],"split_indices":[1,2,0,0,0,0,0],"split_type":[0,0,0,0,0,0,0],"sum_hessian":[3.5E1,2.5E1,1E1,1.7E1,8E0,9E0,8E0],"tree_param":{"num_deleted":"0","num_feature":"4","num_nodes":"7","size_leaf_vector":"1"}},{"base_weights":[-6.951226E-3,-1.799598E-1,2.0130506E-2,-3.8646105E-1,1.265191E-2,-2.5806887E-2,-9.971789E-3],"categories":[],"categories_nodes":[],"categories_segments":[],"categories_sizes":[],"default_left":[0,0,0,0,0,0,0],"id":134,"left_children":[1,3,-1,5,-1,-1,-1],"loss_changes":[2.623328E0,2.4225698E0,0E0,3.3361435E-1,0E0,0E0,0E0],"parents":[2147483647,0,0,1,1,3,3],"right_children":[2,4,-1,6,-1,-1,-1],"split_conditions":[1.5811388E0,1.8371173E0,2.0130506E-2,1.8371173E0,1.265191E-2,-2.5806887E-2,-9.971789E-3],"split_indices":[1,2,0,0,0,0,0],"split_type":[0,0,0,0,0,0,0],"sum_hessian":[3.5E1,2.5E1,1E1,1.7E1,8E0,9E0,8E0],"tree_param":{"num_deleted":"0","num_feature":"4","num_nodes":"7","size_leaf_vector":"1"}},{"base_weights":[-6.6392687E-3,-1.7182805E-1,1.9220525E-2,-3.690728E-1,1.2087674E-2,-2.4642333E-2,-9.52691E-3],"categories":[],"categories_nodes":[],"categories_segments":[],"categories_sizes":[],"default_left":[0,0,0,0,0,0,0],"id":135,"left_children":[1,3,-1,5,-1,-1,-1],"loss_changes":[2.3915458E0,2.210221E0,0E0,3.0385637E-1,0E0,0E0,0E0],"parents":[2147483647,0,0,1,1,3,3],"right_children":[2,4,-1,6,-1,-1,-1],"split_conditions":[1.5811388E0,1.8371173E0,1.9220525E-2,1.8371173E0,1.2087674E-2,-2.4642333E-2,-9.52691E-3],"split_indices":[1,2,0,0,0,0,0],"split_type":[0,0,0,0,0,0,0],"sum_hessian":[3.5E1,2.5E1,1E1,1.7E1,8E0,9E0,8E0],"tree_param":{"num_deleted":"0","num_feature":"4","num_nodes":"7","size_leaf_vector":"1"}},{"base_weights":[-6.4290366E-3,-1.6411884E-1,1.834384E-2,-3.5251194E-1,1.1545139E-2,-2.3532717E-2,-9.103733E-3],"categories":[],"categories_nodes":[],