{"learner":{"attributes":{"scikit_learn":"{\"_estimator_type\": \"regressor\"}"},"feature_names":[],"feature_types":[],"gradient_booster":{"model":{"cats":{"enc":[],"feature_segments":[],"sorted_idx":[]},"gbtree_model_param":{"num_parallel_tree":"1","num_trees":"300"},"iteration_indptr":[0,1,2,3,4,5,6,7,8,9,10,11,12,13,14,15,16,17,18,19,20,21,22,23,24,25,26,27,28,29,30,31,32,33,34,35,36,37,38,39,40,41,42,43,44,45,46,47,48,49,50,51,52,53,54,55,56,57,58,59,60,61,62,63,64,65,66,67,68,69,70,71,72,73,74,75,76,77,78,79,80,81,82,83,84,85,86,87,88,89,90,91,92,93,94,95,96,97,98,99,100,101,102,103,104,105,106,107,108,109,110,111,112,113,114,115,116,117,118,119,120,121,122,123,124,125,126,127,128,129,130,131,132,133,134,135,136,137,138,139,140,141,142,143,144,145,146,147,148,149,150,151,152,153,154,155,156,157,158,159,160,161,162,163,164,165,166,167,168,169,170,171,172,173,174,175,176,177,178,179,180,181,182,183,184,185,186,187,188,189,190,191,192,193,194,195,196,197,198,199,200,201,202,203,204,205,206,207,208,209,210,211,212,213,214,215,216,217,218,219,220,221,222,223,224,225,226,227,228,229,230,231,232,233,234,235,236,237,238,239,240,241,242,243,244,245,246,247,248,249,250,251,252,253,254,255,256,257,258,259,260,261,262,263,264,265,266,267,268,269,270,271,272,273,274,275,276,277,278,279,280,281,282,283,284,285,286,287,288,289,290,291,292,293,294,295,296,297,298,299,300],"tree_info":[0,0,0,0,0,0,0,0,0,0,0,0,0,0,0,0,0,0,0,0,0,0,0,0,0,0,0,0,0,0,0,0,0,0,0,0,0,0,0,0,0,0,0,0,0,0,0,0,0,0,0,0,0,0,0,0,0,0,0,0,0,0,0,0,0,0,0,0,0,0,0,0,0,0,0,0,0,0,0,0,0,0,0,0,0,0,0,0,0,0,0,0,0,0,0,0,0,0,0,0,0,0,0,0,0,0,0,0,0,0,0,0,0,0,0,0,0,0,0,0,0,0,0,0,0,0,0,0,0,0,0,0,0,0,0,0,0,0,0,0,0,0,0,0,0,0,0,0,0,0,0,0,0,0,0,0,0,0,0,0,0,0,0,0,0,0,0,0,0,0,0,0,0,0,0,0,0,0,0,0,0,0,0,0,0,0,0,0,0,0,0,0,0,0,0,0,0,0,0,0,0,0,0,0,0,0,0,0,0,0,0,0,0,0,0,0,0,0,0,0,0,0,0,0,0,0,0,0,0,0,0,0,0,0,0,0,0,0,0,0,0,0,0,0,0,0,0,0,0,0,0,0,0,0,0,0,0,0,0,0,0,0,0,0,0,0,0,0,0,0,0,0,0,0,0,0,0,0,0,0,0,0,0,0,0,0,0,0,0,0,0,0,0,0,0,0,0,0,0,0],"trees":[{"base_weights":[-2.154182E-5,-1.0022728E1,8.018179E1,1.0624999E1,-3.896106E1,-8.522736E-1,-4.338845E1,-2.5568192E0,-1.7045471E1,6.8181765E-1,-1.5909098E0],"categories":[],"categories_nodes":[],"categories_segments":[],"categories_sizes":[],"default_left":[0,0,0,0,0,0,0,0,0,0,0],"id":0,"left_children":[1,-1,3,-1,5,-1,7,-1,9,-1,-1],"loss_changes":[5.625483E5,0E0,4.0239844E5,0E0,6.188262E2,0E0,1.3734961E3,0E0,2.246901E3,0E0,0E0],"parents":[2147483647,0,0,2,2,4,4,6,6,8,8],"right_children":[2,-1,4,-1,6,-1,8,-1,10,-1,-1],"split_conditions":[-4.547525E-1,-1.0022728E1,1.2403474E0,1.0624999E1,-3.36297E-1,-8.522736E-1,-2.721336E-1,-2.5568192E0,-2.6719794E-1,6.8181765E-1,-1.5909098E0],"split_indices":[3,0,0,0,3,0,3,0,3,0,0],"split_type":[0,0,0,0,0,0,0,0,0,0,0],"sum_hessian":[3.3E1,9E0,2.4E1,1.1E1,1.3E1,3E0,1E1,7E0,3E0,1E0,2E0],"tree_param":{"num_deleted":"0","num_feature":"4","num_nodes":"11","size_leaf_vector":"1"}},{"base_weights":[-1.0931037E-1,-9.571707E0,7.642499E1,1.013802E1,-3.732143E1,-8.203125E-1,-4.1534092E1,-2.4449556E0,-1.6420532E1,6.6477054E-1,-1.5378826E0],"categories":[],"categories_nodes":[],"categories_segments":[],"categories_sizes":[],"default_left":[0,0,0,0,0,0,0,0,0,0,0],"id":1,"left_children":[1,-1,3,-1,5,-1,7,-1,9,-1,-1],"loss_changes":[5.1248934E5,0E0,3.668223E5,0E0,5.5210156E2,0E0,1.2316289E3,0E0,2.113099E3,0E0,0E0],"parents":[2147483647,0,0,2,2,4,4,6,6,8,8],"right_children":[2,-1,4,-1,6,-1,8,-1,10,-1,-1],"split_conditions":[-4.547525E-1,-9.571707E0,1.2403474E0,1.013802E1,-3.36297E-1,-8.203125E-1,-2.721336E-1,-2.4449556E0,-2.6719794E-1,6.6477054E-1,-1.5378826E0],"split_indices":[3,0,0,0,3,0,3,0,3,0,0],"split_type":[0,0,0,0,0,0,0,0,0,0,0],"sum_hessian":[3.3E1,9E0,2.4E1,1.1E1,1.3E1,3E0,1E1,7E0,3E0,1E0,2E0],"tree_param":{"num_deleted":"0","num_feature":"4","num_nodes":"11","size_leaf_vector":"1"}},{"base_weights":[-2.0884076E-1,-9.140977E0,7.284379E1,9.673365E0,-3.5750908E1,-7.895508E-1,-3.975897E1,-2.3379838E0,-1.581781E1,6.481506E-1,-1.4866211E0],"categories":[],"categories_nodes":[],"categories_segments":[],"categories_sizes":[],"default_left":[0,0,0,0,0,0,0,0,0,0,0],"id":2,"left_children":[1,-1,3,-1,5,-1,7,-1,9,-1,-1],"loss_changes":[4.6688378E5,0E0,3.3439344E5,0E0,4.9216992E2,0E0,1.1040195E3,0E0,1.9873176E3,0E0,0E0],"parents":[2147483647,0,0,2,2,4,4,6,6,8,8],"right_children":[2,-1,4,-1,6,-1,8,-1,10,-1,-1],"split_conditions":[-4.547525E-1,-9.140977E0,1.2403474E0,9.673365E0,-3.36297E-1,-7.895508E-1,-2.721336E-1,-2.3379838E0,-2.6719794E-1,6.481506E-1,-1.4866211E0],"split_indices":[3,0,0,0,3,0,3,0,3,0,0],"split_type":[0,0,0,0,0,0,0,0,0,0,0],"sum_hessian":[3.3E1,9E0,2.4E1,1.1E1,1.3E1,3E0,1E1,7E0,3E0,1E0,2E0],"tree_param":{"num_deleted":"0","num_feature":"4","num_nodes":"11","size_leaf_vector":"1"}},{"base_weights":[-2.994313E-1,-8.729637E0,6.942987E1,9.230002E0,-3.4246704E1,-7.5994265E-1,-3.805986E1,-2.235701E0,-1.5236572E1,6.319458E-1,-1.4370687E0],"categories":[],"categories_nodes":[],"categories_segments":[],"categories_sizes":[],"default_left":[0,0,0,0,0,0,0,0,0,0,0],"id":3,"left_children":[1,-1,3,-1,5,-1,7,-1,9,-1,-1],"loss_changes":[4.253359E5,0E0,3.048332E5,0E0,4.3838672E2,0E0,9.892803E2,0E0,1.8690715E3,0E0,0E0],"parents":[2147483647,0,0,2,2,4,4,6,6,8,8],"right_children":[2,-1,4,-1,6,-1,8,-1,10,-1,-1],"split_conditions":[-4.547525E-1,-8.729637E0,1.2403474E0,9.230002E0,-3.36297E-1,-7.5994265E-1,-2.721336E-1,-2.235701E0,-2.6719794E-1,6.319458E-1,-1.4370687E0],"split_indices":[3,0,0,0,3,0,3,0,3,0,0],"split_type":[0,0,0,0,0,0,0,0,0,0,0],"sum_hessian":[3.3E1,9E0,2.4E1,1.1E1,1.3E1,3E0,1E1,7E0,3E0,1E0,2E0],"tree_param":{"num_deleted":"0","num_feature":"4","num_nodes":"11","size_leaf_vector":"1"}},{"base_weights":[-3.8151282E-1,-8.3368E0,6.617554E1,8.806962E0,-3.280589E1,-7.314423E-1,-3.6433372E1,-2.1378937E0,-1.4676025E1,6.161499E-1,-1.3891683E0],"categories":[],"categories_nodes":[],"categories_segments":[],"categories_sizes":[],"default_left":[0,0,0,0,0,0,0,0,0,0,0],"id":4,"left_children":[1,-1,3,-1,5,-1,7,-1,9,-1,-1],"loss_changes":[3.87484E5,0E0,2.778875E5,0E0,3.9013867E2,0E0,8.8613184E2,0E0,1.757916E3,0E0,0E0],"parents":[2147483647,0,0,2,2,4,4,6,6,8,8],"right_children":[2,-1,4,-1,6,-1,8,-1,10,-1,-1],"split_conditions":[-4.547525E-1,-8.3368E0,1.2403474E0,8.806962E0,-3.36297E-1,-7.314423E-1,-2.721336E-1,-2.1378937E0,-2.6719794E-1,6.161499E-1,-1.3891683E0],"split_indices":[3,0,0,0,3,0,3,0,3,0,0],"split_type":[0,0,0,0,0,0,0,0,0,0,0],"sum_hessian":[3.3E1,9E0,2.4E1,1.1E1,1.3E1,3E0,1E1,7E0,3E0,1E0,2E0],"tree_param":{"num_deleted":"0","num_feature":"4","num_nodes":"11","size_leaf_vector":"1"}},{"base_weights":[-4.556741E-1,-7.961638E0,6.3073387E1,8.403314E0,-3.1425747E1,-7.0401305E-1,-3.487631E1,-2.044359E0,-1.4135498E1,6.0074466E-1,-1.342863E0],"categories":[],"categories_nodes":[],"categories_segments":[],"categories_sizes":[],"default_left":[0,0,0,0,0,0,0,0,0,0,0],"id":5,"left_children":[1,-1,3,-1,5,-1,7,-1,9,-1,-1],"loss_changes":[3.5299997E5,0E0,2.53325E5,0E0,3.468545E2,0E0,7.934131E2,0E0,1.6534033E3,0E0,0E0],"parents":[2147483647,0,0,2,2,4,4,6,6,8,8],"right_children":[2,-1,4,-1,6,-1,8,-1,10,-1,-1],"split_conditions":[-4.547525E-1,-7.961638E0,1.2403474E0,8.403314E0,-3.36297E-1,-7.0401305E-1,-2.721336E-1,-2.044359E0,-2.6719794E-1,6.0074466E-1,-1.342863E0],"split_indices":[3,0,0,0,3,0,3,0,3,0,0],"split_type":[0,0,0,0,0,0,0,0,0,0,0],"sum_hessian":[3.3E1,9E0,2.4E1,1.1E1,1.3E1,3E0,1E1,7E0,3E0,1E0,2E0],"tree_param":{"num_deleted":"0","num_feature":"4","num_nodes":"11","size_leaf_vector":"1"}},{"base_weights":[-5.225399E-1,-7.603363E0,6.011625E1,1.6036322E2,-3.0103743E1,5.01651E0,9.445553E0,-6.7760926E-1,-3.3385788E1,-1.9549149E0,-1.3614319E1,5.857239E-1,-1.2981038E0],"categories":[],"categories_nodes":[],"categories_segments":[],"categories_sizes":[],"default_left":[0,0,0,0,0,0,0,0,0,0,0,0,0],"id":6,"left_children":[1,-1,3,5,7,-1,-1,-1,9,-1,11,-1,-1],"loss_changes":[3.2158434E5,0E0,2.3093453E5,1.6122812E3,3.080703E2,0E0,0E0,0E0,7.100947E2,0E0,1.5551477E3,0E0,0E0],"parents":[2147483647,0,0,2,2,3,3,4,4,8,8,10,10],"right_children":[2,-1,4,6,8,-1,-1,-1,10,-1,12,-1,-1],"split_conditions":[-4.547525E-1,-7.603363E0,1.2403474E0,2.1213202E0,-3.36297E-1,5.01651E0,9.445553E0,-6.7760926E-1,-2.721336E-1,-1.9549149E0,-2.6719794E-1,5.857239E-1,-1.2981038E0],"split_indices":[3,0,0,1,3,0,0,0,3,0,3,0,0],"split_type":[0,0,0,0,0,0,0,0,0,0,0,0,0],"sum_hessian":[3.3E1,9E0,2.4E1,1.1E1,1.3E1,5E0,6E0,3E0,1E1,7E0,3E0,1E0,2E0],"tree_param":{"num_deleted":"0","num_feature":"4","num_nodes":"13","size_leaf_vector":"1"}},{"base_weights":[-3.9313102E-1,-7.261216E0,5.755507E1,1.5355019E2,-2.8837542E1,4.807485E0,9.040744E0,-6.522034E-1,-3.1959028E1,-1.8693908E0,-1.3111694E1,5.710816E-1,-1.254834E0],"categories":[],"categories_nodes":[],"categories_segments":[],"categories_sizes":[],"default_left":[0,0,0,0,0,0,0,0,0,0,0,0,0],"id":7,"left_children":[1,-1,3,5,7,-1,-1,-1,9,-1,11,-1,-1],"loss_changes":[2.9371044E5,0E0,2.1175972E5,1.3947812E3,2.733125E2,0E0,0E0,0E0,6.352822E2,0E0,1.4627711E3,0E0,0E0],"parents":[2147483647,0,0,2,2,3,3,4,4,8,8,10,10],"right_children":[2,-1,4,6,8,-1,-1,-1,10,-1,12,-1,-1],"split_conditions":[-4.547525E-1,-7.261216E0,1.2403474E0,2.1213202E0,-3.36297E-1,4.807485E0,9.040744E0,-6.522034E-1,-2.721336E-1,-1.8693908E0,-2.6719794E-1,5.710816E-1,-1.254834E0],"split_indices":[3,0,0,1,3,0,0,0,3,0,3,0,0],"split_type":[0,0,0,0,0,0,0,0,0,0,0,0,0],"sum_hessian":[3.3E1,9E0,2.4E1,1.1E1,1.3E1,5E0,6E0,3E0,1E1,7E0,3E0,1E0,2E0],"tree_param":{"num_deleted":"0","num_feature":"4","num_nodes":"13","size_leaf_vector":"1"}},{"base_weights":[-2.7400476E-1,-6.9344606E0,5.510304E1,1.4702673E2,-2.7624634E1,4.6071777E0,8.653282E0,-6.277496E-1,-3.0593172E1,-2.6286316E0,-1.1568983E0],"categories":[],"categories_nodes":[],"categories_segments":[],"categories_sizes":[],"default_left":[0,0,0,0,0,0,0,0,0,0,0],"id":8,"left_children":[1,-1,3,5,7,-1,-1,-1,9,-1,-1],"loss_changes":[2.6825303E5,0E0,1.9417738E5,1.2022812E3,2.4219043E2,0E0,0E0,0E0,5.8605273E2,0E0,0E0],"parents":[2147483647,0,0,2,2,3,3,4,4,8,8],"right_children":[2,-1,4,6,8,-1,-1,-1,10,-1,-1],"split_conditions":[-4.547525E-1,-6.9344606E0,1.2403474E0,2.1213202E0,-3.36297E-1,4.6071777E0,8.653282E0,-6.277496E-1,-3.2889354E-1,-2.6286316E0,-1.1568983E0],"split_indices":[3,0,0,1,3,0,0,0,3,0,0],"split_type":[0,0,0,0,0,0,0,0,0,0,0],"sum_hessian":[3.3E1,9E0,2.4E1,1.1E1,1.3E1,5E0,6E0,3E0,1E1,1E0,9E0],"tree_param":{"num_deleted":"0","num_feature":"4","num_nodes":"11","size_leaf_vector":"1"}},{"base_weights":[-2.0400822E-1,-6.6224046E0,5.2701786E1,1.4078041E2,-2.6558594E1,4.415212E0,8.282426E0,-2.9525745E1,-1.1759277E1,-6.0421145E-1,-3.4555786E1,5.8573E-1,-1.1744385E0,-2.562915E0,-1.2423549E0],"categories":[],"categories_nodes":[],"categories_segments":[],"categories_sizes":[],"default_left":[0,0,0,0,0,0,0,0,0,0,0,0,0,0,0],"id":9,"left_children":[1,-1,3,5,7,-1,-1,9,11,-1,13,-1,-1,-1,-1],"loss_changes":[2.4486052E5,0E0,1.7826756E5,1.0323281E3,2.6756445E2,0E0,0E0,5.474658E2,1.3765082E3,0E0,2.365625E1,0E0,0E0,0E0,0E0],"parents":[2147483647,0,0,2,2,3,3,4,4,7,7,8,8,10,10],"right_children":[2,-1,4,6,8,-1,-1,10,12,-1,14,-1,-1,-1,-1],"split_conditions":[-4.547525E-1,-6.6224046E0,1.2403474E0,2.1213202E0,-2.721336E-1,4.415212E0,8.282426E0,-3.36297E-1,-2.6719794E-1,-6.0421145E-1,-3.2889354E-1,5.8573E-1,-1.1744385E0,-2.562915E0,-1.2423549E0],"split_indices":[3,0,0,1,3,0,0,3,3,0,3,0,0,0,0],"split_type":[0,0,0,0,0,0,0,0,0,0,0,0,0,0,0],"sum_hessian":[3.3E1,9E0,2.4E1,1.1E1,1.3E1,5E0,6E0,1E1,3E0,3E0,7E0,1E0,2E0,1E0,6E0],"tree_param":{"num_deleted":"0","num_feature":"4","num_nodes":"15","size_leaf_vector":"1"}},{"base_weights":[-1.6214527E-1,-6.324401E0,5.0374687E1,1.3479948E2,-2.5587612E1,4.231242E0,7.927462E0,-2.8450262E1,-1.131842E1,-5.8155215E-1,-3.330359E1,5.7108766E-1,-1.1352865E0,-2.4988403E0,-1.1891078E0],"categories":[],"categories_nodes":[],"categories_segments":[],"categories_sizes":[],"default_left":[0,0,0,0,0,0,0,0,0,0,0,0,0,0,0],"id":10,"left_children":[1,-1,3,5,7,-1,-1,9,11,-1,13,-1,-1,-1,-1],"loss_changes":[2.2343152E5,0E0,1.6377672E5,8.824219E2,2.4985645E2,0E0,0E0,5.1056543E2,1.2951367E3,0E0,8.14668E1,0E0,0E0,0E0,0E0],"parents":[2147483647,0,0,2,2,3,3,4,4,7,7,8,8,10,10],"right_children":[2,-1,4,6,8,-1,-1,10,12,-1,14,-1,-1,-1,-1],"split_conditions":[-4.547525E-1,-6.324401E0,1.2403474E0,2.1213202E0,-2.721336E-1,4.231242E0,7.927462E0,-3.36297E-1,-2.6719794E-1,-5.8155215E-1,-3.2889354E-1,5.7108766E-1,-1.1352865E0,-2.4988403E0,-1.1891078E0],"split_indices":[3,0,0,1,3,0,0,3,3,0,3,0,0,0,0],"split_type":[0,0,0,0,0,0,0,0,0,0,0,0,0,0,0],"sum_hessian":[3.3E1,9E0,2.4E1,1.1E1,1.3E1,5E0,6E0,1E1,3E0,3E0,7E0,1E0,2E0,1E0,6E0],"tree_param":{"num_deleted":"0","num_feature":"4","num_nodes":"15","size_leaf_vector":"1"}},{"base_weights":[-1.24576345E-1,-6.0398E0,4.8148975E1,1.2907274E2,-2.465346E1,4.054942E0,7.587713E0,-2.7415838E1,-1.0893555E1,-5.597443E-1,-3.2099335E1,5.568115E-1,-1.0974447E0,-2.4363708E0,-1.1381418E0],"categories":[],"categories_nodes":[],"categories_segments":[],"categories_sizes":[],"default_left":[0,0,0,0,0,0,0,0,0,0,0,0,0,0,0],"id":11,"left_children":[1,-1,3,5,7,-1,-1,9,11,-1,13,-1,-1,-1,-1],"loss_changes":[2.0387428E5,0E0,1.5046827E5,7.503594E2,2.3348438E2,0E0,0E0,4.7633008E2,1.2186149E3,0E0,1.3281055E2,0E0,0E0,0E0,0E0],"parents":[2147483647,0,0,2,2,3,3,4,4,7,7,8,8,10,10],"right_children":[2,-1,4,6,8,-1,-1,10,12,-1,14,-1,-1,-1,-1],"split_conditions":[-4.547525E-1,-6.0398E0,1.2403474E0,2.1213202E0,-2.721336E-1,4.054942E0,7.587713E0,-3.36297E-1,-2.6719794E-1,-5.597443E-1,-3.2889354E-1,5.568115E-1,-1.0974447E0,-2.4363708E0,-1.1381418E0],"split_indices":[3,0,0,1,3,0,0,3,3,0,3,0,0,0,0],"split_type":[0,0,0,0,0,0,0,0,0,0,0,0,0,0,0],"sum_hessian":[3.3E1,9E0,2.4E1,1.1E1,1.3E1,5E0,6E0,1E1,3E0,3E0,7E0,1E0,2E0,1E0,6E0],"tree_param":{"num_deleted":"0","num_feature":"4","num_nodes":"15","size_leaf_vector":"1"}},{"base_weights":[-9.103573E-2,-5.768009E0,4.6020264E1,1.23589355E2,-2.375469E1,3.8859863E0,7.2625284E0,-2.6420855E1,-1.048407E1,-5.3875124E-1,-3.0941162E1,5.428894E-1,-1.0608643E0,-2.375464E0,-1.0893625E0],"categories":[],"categories_nodes":[],"categories_segments":[],"categories_sizes":[],"default_left":[0,0,0,0,0,0,0,0,0,0,0,0,0,0,0],"id":12,"left_children":[1,-1,3,5,7,-1,-1,9,11,-1,13,-1,-1,-1,-1],"loss_changes":[1.8602605E5,0E0,1.3824533E5,6.3428125E2,2.1834473E2,0E0,0E0,4.4457227E2,1.1466398E3,0E0,1.7820801E2,0E0,0E0,0E0,0E0],"parents":[2147483647,0,0,2,2,3,3,4,4,7,7,8,8,10,10],"right_children":[2,-1,4,6,8,-1,-1,10,12,-1,14,-1,-1,-1,-1],"split_conditions":[-4.547525E-1,-5.768009E0,1.2403474E0,2.1213202E0,-2.721336E-1,3.8859863E0,7.2625284E0,-3.36297E-1,-2.6719794E-1,-5.3875124E-1,-3.2889354E-1,5.428894E-1,-1.0608643E0,-2.375464E0,-1.0893625E0],"split_indices":[3,0,0,1,3,0,0,3,3,0,3,0,0,0,0],"split_type":[0,0,0,0,0,0,0,0,0,0,0,0,0,0,0],"sum_hessian":[3.3E1,9E0,2.4E1,1.1E1,1.3E1,5E0,6E0,1E1,3E0,3E0,7E0,1E0,2E0,1E0,6E0],"tree_param":{"num_deleted":"0","num_feature":"4","num_nodes":"15","size_leaf_vector":"1"}},{"base_weights":[-6.119313E-2,-5.508446E0,4.3984344E1,1.1833897E2,-2.2889927E1,3.7240703E0,6.95128E0,-2.5463757E1,-1.00894165E1,-5.1854557E-1,-2.982721E1,5.293152E-1,-1.0255046E0,-2.3160768E0,-1.0426759E0],"categories":[],"categories_nodes":[],"categories_segments":[],"categories_sizes":[],"default_left":[0,0,0,0,0,0,0,0,0,0,0,0,0,0,0],"id":13,"left_children":[1,-1,3,5,7,-1,-1,9,11,-1,13,-1,-1,-1,-1],"loss_changes":[1.6973736E5,0E0,1.2701906E5,5.323594E2,2.0433447E2,0E0,0E0,4.1509082E2,1.0789459E3,0E0,2.1815283E2,0E0,0E0,0E0,0E0],"parents":[2147483647,0,0,2,2,3,3,4,4,7,7,8,8,10,10],"right_children":[2,-1,4,6,8,-1,-1,10,12,-1,14,-1,-1,-1,-1],"split_conditions":[-4.547525E-1,-5.508446E0,1.2403474E0,2.1213202E0,-2.721336E-1,3.7240703E0,6.95128E0,-3.36297E-1,-2.6719794E-1,-5.1854557E-1,-3.2889354E-1,5.293152E-1,-1.0255046E0,-2.3160768E0,-1.0426759E0],"split_indices":[3,0,0,1,3,0,0,3,3,0,3,0,0,0,0],"split_type":[0,0,0,0,0,0,0,0,0,0,0,0,0,0,0],"sum_hessian":[3.3E1,9E0,2.4E1,1.1E1,1.3E1,5E0,6E0,1E1,3E0,3E0,7E0,1E0,2E0,1E0,6E0],"tree_param":{"num_deleted":"0","num_feature":"4","num_nodes":"15","size_leaf_vector":"1"}},{"base_weights":[-3.4754135E-2,-3.3309063E1,6.6533732E0,-5.2605615E0,6.287289E0,3.5688984E0,-2.205781E1,-2.4543013E1,-9.709045E0,-4.9909973E-1,-2.8755646E1,5.1608276E-1,-9.913249E-1,-2.2581728E0,-9.9798757E-1],"categories":[],"categories_nodes":[],"categories_segments":[],"categories_sizes":[],"default_left":[0,0,0,0,0,0,0,0,0,0,0,0,0,0,0],"id":14,"left_children":[1,3,-1,-1,5,-1,7,9,11,-1,13,-1,-1,-1,-1],"loss_changes":[1.550144E5,8.0379266E4,0E0,0E0,3.6629477E4,0E0,1.9135938E2,3.877036E2,1.0152809E3,0E0,2.5311963E2,0E0,0E0,0E0,0E0],"parents":[2147483647,0,0,1,1,4,4,6,6,7,7,8,8,10,10],"right_children":[2,4,-1,-1,6,-1,8,10,12,-1,14,-1,-1,-1,-1],"split_conditions":[2.1213202E0,-4.547525E-1,6.6533732E0,-5.2605615E0,1.2403474E0,3.5688984E0,-2.721336E-1,-3.36297E-1,-2.6719794E-1,-4.9909973E-1,-3.2889354E-1,5.1608276E-1,-9.913249E-1,-2.2581728E0,-9.9798757E-1],"split_indices":[1,3,0,0,0,0,3,3,3,0,3,0,0,0,0],"split_type":[0,0,0,0,0,0,0,0,0,0,0,0,0,0,0],"sum_hessian":[3.3E1,2.7E1,6E0,9E0,1.8E1,5E0,1.3E1,1E1,3E0,3E0,7E0,1E0,2E0,1E0,6E0],"tree_param":{"num_deleted":"0","num_feature":"4","num_nodes":"15","size_leaf_vector":"1"}},{"base_weights":[-1.1517693E-2,-3.1855137E1,6.3682303E0,-5.6624672E1,3.4201965E0,-5.0238395E0,-2.1257114E1,-2.365725E1,-9.342468E0,-4.8038635E-1,-2.7724854E1,5.0317997E-1,-9.582845E-1,-2.2017212E0,-9.5521414E-1],"categories":[],"categories_nodes":[],"categories_segments":[],"categories_sizes":[],"default_left":[0,0,0,0,0,0,0,0,0,0,0,0,0,0,0],"id":15,"left_children":[1,3,-1,5,-1,-1,7,9,11,-1,13,-1,-1,-1,-1],"loss_changes":[1.419652E5,7.340772E4,0E0,3.353582E4,0E0,0E0,1.793374E2,3.622539E2,9.5539624E2,0E0,2.8353613E2,0E0,0E0,0E0,0E0],"parents":[2147483647,0,0,1,1,3,3,6,6,7,7,8,8,10,10],"right_children":[2,4,-1,6,-1,-1,8,10,12,-1,14,-1,-1,-1,-1],"split_conditions":[2.1213202E0,2.366432E0,6.3682303E0,1.2403474E0,3.4201965E0,-5.0238395E0,-2.721336E-1,-3.36297E-1,-2.6719794E-1,-4.8038635E-1,-3.2889354E-1,5.0317997E-1,-9.582845E-1,-2.2017212E0,-9.5521414E-1],"split_indices":[1,2,0,0,0,0,3,3,3,0,3,0,0,0,0],"split_type":[0,0,0,0,0,0,0,0,0,0,0,0,0,0,0],"sum_hessian":[3.3E1,2.7E1,6E0,2.2E1,5E0,9E0,1.3E1,1E1,3E0,3E0,7E0,1E0,2E0,1E0,6E0],"tree_param":{"num_deleted":"0","num_feature":"4","num_nodes":"15","size_leaf_vector":"1"}},{"base_weights":[8.889591E-3,-3.046575E1,6.0953093E0,-5.4189728E1,3.2776897E0,-4.7977624E0,-2.048652E1,-2.2804976E1,-8.989136E0,-4.623688E-1,-2.6733154E1,4.906006E-1,-9.263428E-1,-2.1466796E0,-9.142718E-1],"categories":[],"categories_nodes":[],"categories_segments":[],"categories_sizes":[],"default_left":[0,0,0,0,0,0,0,0,0,0,0,0,0,0,0],"id":16,"left_children":[1,3,-1,5,-1,-1,7,9,11,-1,13,-1,-1,-1,-1],"loss_changes":[1.3001636E5,6.7335375E4,0E0,3.040975E4,0E0,0E0,1.6818945E2,3.3861182E2,8.9906604E2,0E0,3.0979443E2,0E0,0E0,0E0,0E0],"parents":[2147483647,0,0,1,1,3,3,6,6,7,7,8,8,10,10],"right_children":[2,4,-1,6,-1,-1,8,10,12,-1,14,-1,-1,-1,-1],"split_conditions":[2.1213202E0,2.366432E0,6.0953093E0,1.2403474E0,3.2776897E0,-4.7977624E0,-2.721336E-1,-3.36297E-1,-2.6719794E-1,-4.623688E-1,-3.2889354E-1,4.906006E-1,-9.263428E-1,-2.1466796E0,-9.142718E-1],"split_indices":[1,2,0,0,0,0,3,3,3,0,3,0,0,0,0],"split_type":[0,0,0,0,0,0,0,0,0,0,0,0,0,0,0],"sum_hessian":[3.3E1,2.7E1,6E0,2.2E1,5E0,9E0,1.3E1,1E1,3E0,3E0,7E0,1E0,2E0,1E0,6E0],"tree_param":{"num_deleted":"0","num_feature":"4","num_nodes":"15","size_leaf_vector":"1"}},{"base_weights":[2.662569E-2,-2.9138096E1,5.8340855E0,-5.1860935E1,3.1411235E0,-4.581859E0,-1.9744978E1,-2.1984997E1,-8.648682E0,-4.450287E-1,-2.5779083E1,4.7833252E-1,-8.954671E-1,-2.0930116E0,-8.750872E-1],"categories":[],"categories_nodes":[],"categories_segments":[],"categories_sizes":[],"default_left":[0,0,0,0,0,0,0,0,0,0,0,0,0,0,0],"id":17,"left_children":[1,3,-1,5,-1,-1,7,9,11,-1,13,-1,-1,-1,-1],"loss_changes":[1.1907513E5,6.1766977E4,0E0,2.7572031E4,0E0,0E0,1.5784131E2,3.166294E2,8.460765E2,0E0,3.322456E2,0E0,0E0,0E0,0E0],"parents":[2147483647,0,0,1,1,3,3,6,6,7,7,8,8,10,10],"right_children":[2,4,-1,6,-1,-1,8,10,12,-1,14,-1,-1,-1,-1],"split_conditions":[2.1213202E0,2.366432E0,5.8340855E0,1.2403474E0,3.1411235E0,-4.581859E0,-2.721336E-1,-3.36297E-1,-2.6719794E-1,-4.450287E-1,-3.2889354E-1,4.7833252E-1,-8.954671E-1,-2.0930116E0,-8.750872E-1],"split_indices":[1,2,0,0,0,0,3,3,3,0,3,0,0,0,0],"split_type":[0,0,0,0,0,0,0,0,0,0,0,0,0,0,0],"sum_hessian":[3.3E1,2.7E1,6E0,2.2E1,5E0,9E0,1.3E1,1E1,3E0,3E0,7E0,1E0,2E0,1E0,6E0],"tree_param":{"num_deleted":"0","num_feature":"4","num_nodes":"15","size_leaf_vector":"1"}},{"base_weights":[4.1848574E-2,-2.7869473E1,5.584058E0,-4.963367E1,3.010244E0,-4.3756785E0,-1.9031338E1,-2.1196068E1,-8.320496E0,-4.2833862E-1,-2.4861206E1,4.6637574E-1,-8.656169E-1,-2.0406861E0,-8.375872E-1],"categories":[],"categories_nodes":[],"categories_segments":[],"categories_sizes":[],"default_left":[0,0,0,0,0,0,0,0,0,0,0,0,0,0,0],"id":18,"left_children":[1,3,-1,5,-1,-1,7,9,11,-1,13,-1,-1,-1,-1],"loss_changes":[1.090565E5,5.666049E4,0E0,2.4996414E4,0E0,0E0,1.4824316E2,2.9618945E2,7.962335E2,0E0,3.512295E2,0E0,0E0,0E0,0E0],"parents":[2147483647,0,0,1,1,3,3,6,6,7,7,8,8,10,10],"right_children":[2,4,-1,6,-1,-1,8,10,12,-1,14,-1,-1,-1,-1],"split_conditions":[2.1213202E0,2.366432E0,5.584058E0,1.2403474E0,3.010244E0,-4.3756785E0,-2.721336E-1,-3.36297E-1,-2.6719794E-1,-4.2833862E-1,-3.2889354E-1,4.6637574E-1,-8.656169E-1,-2.0406861E0,-8.375872E-1],"split_indices":[1,2,0,0,0,0,3,3,3,0,3,0,0,0,0],"split_type":[0,0,0,0,0,0,0,0,0,0,0,0,0,0,0],"sum_hessian":[3.3E1,2.7E1,6E0,2.2E1,5E0,9E0,1.3E1,1E1,3E0,3E0,7E0,1E0,2E0,1E0,6E0],"tree_param":{"num_deleted":"0","num_feature":"4","num_nodes":"15","size_leaf_vector":"1"}},{"base_weights":[5.4874197E-2,-2.6657087E1,5.344744E0,-4.7503323E1,2.8848166E0,-4.178771E0,-1.8344448E1,-2.0436857E1,-8.004211E0,-4.122803E-1,-2.3977875E1,4.5471802E-1,-8.367595E-1,-1.9896668E0,-8.0168813E-1],"categories":[],"categories_nodes":[],"categories_segments":[],"categories_sizes":[],"default_left":[0,0,0,0,0,0,0,0,0,0,0,0,0,0,0],"id":19,"left_children":[1,3,-1,5,-1,-1,7,9,11,-1,13,-1,-1,-1,-1],"loss_changes":[9.988232E4,5.1977402E4,0E0,2.2658754E4,0E0,0E0,1.3932275E2,2.7715186E2,7.4934485E2,0E0,3.6708154E2,0E0,0E0,0E0,0E0],"parents":[2147483647,0,0,1,1,3,3,6,6,7,7,8,8,10,10],"right_children":[2,4,-1,6,-1,-1,8,10,12,-1,14,-1,-1,-1,-1],"split_conditions":[2.1213202E0,2.366432E0,5.344744E0,1.2403474E0,2.8848166E0,-4.178771E0,-2.721336E-1,-3.36297E-1,-2.6719794E-1,-4.122803E-1,-3.2889354E-1,4.5471802E-1,-8.367595E-1,-1.9896668E0,-8.0168813E-1],"split_indices":[1,2,0,0,0,0,3,3,3,0,3,0,0,0,0],"split_type":[0,0,0,0,0,0,0,0,0,0,0,0,0,0,0],"sum_hessian":[3.3E1,2.7E1,6E0,2.2E1,5E0,9E0,1.3E1,1E1,3E0,3E0,7E0,1E0,2E0,1E0,6E0],"tree_param":{"num_deleted":"0","num_feature":"4","num_nodes":"15","size_leaf_vector":"1"}},{"base_weights":[6.581744E-2,-2.54985E1,5.115684E0,-4.5465748E1,2.764618E0,-3.9907289E0,-1.7683315E1,-1.9706188E1,-7.699585E0,-3.9681703E-1,-2.3127838E1,4.433472E-1,-8.0887043E-1,-1.9399232E0,-7.67327E-1],"categories":[],"categories_nodes":[],"categories_segments":[],"categories_sizes":[],"default_left":[0,0,0,0,0,0,0,0,0,0,0,0,0,0,0],"id":20,"left_children":[1,3,-1,5,-1,-1,7,9,11,-1,13,-1,-1,-1,-1],"loss_changes":[9.148134E4,4.7682688E4,0E0,2.0537379E4,0E0,0E0,1.310122E2,2.5944482E2,7.052366E2,0E0,3.8008008E2,0E0,0E0,0E0,0E0],"parents":[2147483647,0,0,1,1,3,3,6,6,7,7,8,8,10,10],"right_children":[2,4,-1,6,-1,-1,8,10,12,-1,14,-1,-1,-1,-1],"split_conditions":[2.1213202E0,2.366432E0,5.115684E0,1.2403474E0,2.764618E0,-3.9907289E0,-2.721336E-1,-3.36297E-1,-2.6719794E-1,-3.9681703E-1,-3.2889354E-1,4.433472E-1,-8.0887043E-1,-1.9399232E0,-7.67327E-1],"split_indices":[1,2,0,0,0,0,3,3,3,0,3,0,0,0,0],"split_type":[0,0,0,0,0,0,0,0,0,0,0,0,0,0,0],"sum_hessian":[3.3E1,2.7E1,6E0,2.2E1,5E0,9E0,1.3E1,1E1,3E0,3E0,7E0,1E0,2E0,1E0,6E0],"tree_param":{"num_deleted":"0","num_feature":"4","num_nodes":"15","size_leaf_vector":"1"}},{"base_weights":[7.485782E-2,-2.4391296E1,4.896439E0,-4.3516834E1,2.6494243E0,-3.8111463E0,-1.7046997E1,-1.9003084E1,-7.406006E0,-3.819397E-1,-2.2309845E1,4.322632E-1,-7.8190917E-1,-1.8914245E0,-7.344413E-1],"categories":[],"categories_nodes":[],"categories_segments":[],"categories_sizes":[],"default_left":[0,0,0,0,0,0,0,0,0,0,0,0,0,0,0],"id":21,"left_children":[1,3,-1,5,-1,-1,7,9,11,-1,13,-1,-1,-1,-1],"loss_changes":[8.378832E4,4.374393E4,0E0,1.8612305E4,0E0,0E0,1.23283936E2,2.4294849E2,6.6374384E2,0E0,3.904873E2,0E0,0E0,0E0,0E0],"parents":[2147483647,0,0,1,1,3,3,6,6,7,7,8,8,10,10],"right_children":[2,4,-1,6,-1,-1,8,10,12,-1,14,-1,-1,-1,-1],"split_conditions":[2.1213202E0,2.366432E0,4.896439E0,1.2403474E0,2.6494243E0,-3.8111463E0,-2.721336E-1,-3.36297E-1,-2.6719794E-1,-3.819397E-1,-3.2889354E-1,4.322632E-1,-7.8190917E-1,-1.8914245E0,-7.344413E-1],"split_indices":[1,2,0,0,0,0,3,3,3,0,3,0,0,0,0],"split_type":[0,0,0,0,0,0,0,0,0,0,0,0,0,0,0],"sum_hessian":[3.3E1,2.7E1,6E0,2.2E1,5E0,9E0,1.3E1,1E1,3E0,3E0,7E0,1E0,2E0,1E0,6E0],"tree_param":{"num_deleted":"0","num_feature":"4","num_nodes":"15","size_leaf_vector":"1"}},{"base_weights":[8.215332E-2,-2.333319E1,4.6865897E0,-4.165275E1,2.539032E0,-3.6396496E0,-1.6434519E1,-1.8326439E1,-7.123108E0,-3.6762086E-1,-2.1522644E1,4.2145386E-1,-7.558431E-1,-1.8441406E0,-7.0296806E-1],"categories":[],"categories_nodes":[],"categories_segments":[],"categories_sizes":[],"default_left":[0,0,0,0,0,0,0,0,0,0,0,0,0,0,0],"id":22,"left_children":[1,3,-1,5,-1,-1,7,9,11,-1,13,-1,-1,-1,-1],"loss_changes":[7.674357E4,4.013166E4,0E0,1.6865629E4,0E0,0E0,1.1608887E2,2.2758423E2,6.247026E2,0E0,3.9854907E2,0E0,0E0,0E0,0E0],"parents":[2147483647,0,0,1,1,3,3,6,6,7,7,8,8,10,10],"right_children":[2,4,-1,6,-1,-1,8,10,12,-1,14,-1,-1,-1,-1],"split_conditions":[2.1213202E0,2.366432E0,4.6865897E0,1.2403474E0,2.539032E0,-3.6396496E0,-2.721336E-1,-3.36297E-1,-2.6719794E-1,-3.6762086E-1,-3.2889354E-1,4.2145386E-1,-7.558431E-1,-1.8441406E0,-7.0296806E-1],"split_indices":[1,2,0,0,0,0,3,3,3,0,3,0,0,0,0],"split_type":[0,0,0,0,0,0,0,0,0,0,0,0,0,0,0],"sum_hessian":[3.3E1,2.7E1,6E0,2.2E1,5E0,9E0,1.3E1,1E1,3E0,3E0,7E0,1E0,2E0,1E0,6E0],"tree_param":{"num_deleted":"0","num_feature":"4","num_nodes":"15","size_leaf_vector":"1"}},{"base_weights":[8.795525E-2,-2.232189E1,4.4857388E0,-3.986963E1,2.4332378E0,-3.4758656E0,-1.5844884E1,-1.7675116E1,-6.850525E0,-3.5383302E-1,-2.0764954E1,4.109192E-1,-7.306478E-1,-1.7980347E0,-6.728446E-1],"categories":[],"categories_nodes":[],"categories_segments":[],"categories_sizes":[],"default_left":[0,0,0,0,0,0,0,0,0,0,0,0,0,0,0],"id":23,"left_children":[1,3,-1,5,-1,-1,7,9,11,-1,13,-1,-1,-1,-1],"loss_changes":[7.029239E4,3.6818586E4,0E0,1.5280898E4,0E0,0E0,1.093811E2,2.1327588E2,5.8798035E2,0E0,4.044922E2,0E0,0E0,0E0,0E0],"parents":[2147483647,0,0,1,1,3,3,6,6,7,7,8,8,10,10],"right_children":[2,4,-1,6,-1,-1,8,10,12,-1,14,-1,-1,-1,-1],"split_conditions":[2.1213202E0,2.366432E0,4.4857388E0,1.2403474E0,2.4332378E0,-3.4758656E0,-2.721336E-1,-3.36297E-1,-2.6719794E-1,-3.5383302E-1,-3.2889354E-1,4.109192E-1,-7.306478E-1,-1.7980347E0,-6.728446E-1],"split_indices":[1,2,0,0,0,0,3,3,3,0,3,0,0,0,0],"split_type":[0,0,0,0,0,0,0,0,0,0,0,0,0,0,0],"sum_hessian":[3.3E1,2.7E1,6E0,2.2E1,5E0,9E0,1.3E1,1E1,3E0,3E0,7E0,1E0,2E0,1E0,6E0],"tree_param":{"num_deleted":"0","num_feature":"4","num_nodes":"15","size_leaf_vector":"1"}},{"base_weights":[9.229952E-2,-2.1355364E1,4.2934885E0,-3.8163998E1,2.3318481E0,-3.319453E0,-1.5277239E1,-1.7048162E1,-6.5878906E0,-3.4056702E-1,-2.0035553E1,4.0064698E-1,-7.0629066E-1,-1.7530823E0,-6.440081E-1],"categories":[],"categories_nodes":[],"categories_segments":[],"categories_sizes":[],"default_left":[0,0,0,0,0,0,0,0,0,0,0,0,0,0,0],"id":24,"left_children":[1,3,-1,5,-1,-1,7,9,11,-1,13,-1,-1,-1,-1],"loss_changes":[6.4384477E4,3.3779883E4,0E0,1.3843301E4,0E0,0E0,1.0312329E2,1.9992603E2,5.534291E2,0E0,4.0854077E2,0E0,0E0,0E0,0E0],"parents":[2147483647,0,0,1,1,3,3,6,6,7,7,8,8,10,10],"right_children":[2,4,-1,6,-1,-1,8,10,12,-1,14,-1,-1,-1,-1],"split_conditions":[2.1213202E0,2.366432E0,4.2934885E0,1.2403474E0,2.3318481E0,-3.319453E0,-2.721336E-1,-3.36297E-1,-2.6719794E-1,-3.4056702E-1,-3.2889354E-1,4.0064698E-1,-7.0629066E-1,-1.7530823E0,-6.440081E-1],"split_indices":[1,2,0,0,0,0,3,3,3,0,3,0,0,0,0],"split_type":[0,0,0,0,0,0,0,0,0,0,0,0,0,0,0],"sum_hessian":[3.3E1,2.7E1,6E0,2.2E1,5E0,9E0,1.3E1,1E1,3E0,3E0,7E0,1E0,2E0,1E0,6E0],"tree_param":{"num_deleted":"0","num_feature":"4","num_nodes":"15","size_leaf_vector":"1"}},{"base_weights":[9.540154E-2,-2.043157E1,4.1094832E0,-3.653247E1,2.2346904E0,-3.170083E0,-1.473073E1,-1.6444603E1,-6.3349E0,-3.2779542E-1,-1.9333374E1,3.906311E-1,-6.827474E-1,-1.709253E0,-6.1640626E-1],"categories":[],"categories_nodes":[],"categories_segments":[],"categories_sizes":[],"default_left":[0,0,0,0,0,0,0,0,0,0,0,0,0,0,0],"id":25,"left_children":[1,3,-1,5,-1,-1,7,9,11,-1,13,-1,-1,-1,-1],"loss_changes":[5.8974246E4,3.0992938E4,0E0,1.2539336E4,0E0,0E0,9.727637E1,1.8748022E2,5.209231E2,0E0,4.1088037E2,0E0,0E0,0E0,0E0],"parents":[2147483647,0,0,1,1,3,3,6,6,7,7,8,8,10,10],"right_children":[2,4,-1,6,-1,-1,8,10,12,-1,14,-1,-1,-1,-1],"split_conditions":[2.1213202E0,2.366432E0,4.1094832E0,1.2403474E0,2.2346904E0,-3.170083E0,-2.721336E-1,-3.36297E-1,-2.6719794E-1,-3.2779542E-1,-3.2889354E-1,3.906311E-1,-6.827474E-1,-1.709253E0,-6.1640626E-1],"split_indices":[1,2,0,0,0,0,3,3,3,0,3,0,0,0,0],"split_type":[0,0,0,0,0,0,0,0,0,0,0,0,0,0,0],"sum_hessian":[3.3E1,2.7E1,6E0,2.2E1,5E0,9E0,1.3E1,1E1,3E0,3E0,7E0,1E0,2E0,1E0,6E0],"tree_param":{"num_deleted":"0","num_feature":"4","num_nodes":"15","size_leaf_vector":"1"}},{"base_weights":[9.7426474E-2,-1.9548532E1,3.9333673E0,-3.497168E1,2.1415813E0,-3.0274255E0,-1.4204537E1,-1.5863547E1,-6.0911255E0,-3.1549987E-1,-1.865738E1,3.8086548E-1,-6.5998536E-1,-1.6665223E0,-5.8998674E-1],"categories":[],"categories_nodes":[],"categories_segments":[],"categories_sizes":[],"default_left":[0,0,0,0,0,0,0,0,0,0,0,0,0,0,0],"id":26,"left_children":[1,3,-1,5,-1,-1,7,9,11,-1,13,-1,-1,-1,-1],"loss_changes":[5.401959E4,2.8436648E4,0E0,1.1356564E4,0E0,0E0,9.181641E1,1.7587329E2,4.9033636E2,0E0,4.1169092E2,0E0,0E0,0E0,0E0],"parents":[2147483647,0,0,1,1,3,3,6,6,7,7,8,8,10,10],"right_children":[2,4,-1,6,-1,-1,8,10,12,-1,14,-1,-1,-1,-1],"split_conditions":[2.1213202E0,2.366432E0,3.9333673E0,1.2403474E0,2.1415813E0,-3.0274255E0,-2.721336E-1,-3.36297E-1,-2.6719794E-1,-3.1549987E-1,-3.2889354E-1,3.8086548E-1,-6.5998536E-1,-1.6665223E0,-5.8998674E-1],"split_indices":[1,2,0,0,0,0,3,3,3,0,3,0,0,0,0],"split_type":[0,0,0,0,0,0,0,0,0,0,0,0,0,0,0],"sum_hessian":[3.3E1,2.7E1,6E0,2.2E1,5E0,9E0,1.3E1,1E1,3E0,3E0,7E0,1E0,2E0,1E0,6E0],"tree_param":{"num_deleted":"0","num_feature":"4","num_nodes":"15","size_leaf_vector":"1"}},{"base_weights":[9.831686E-2,-1.870459E1,3.764795E0,-3.3478706E1,2.052348E0,-2.891195E0,-1.3697946E1,-1.5304154E1,-5.8563843E0,-3.0367127E-1,-1.80065E1,3.71344E-1,-6.3798827E-1,-1.6248597E0,-5.6469727E-1],"categories":[],"categories_nodes":[],"categories_segments":[],"categories_sizes":[],"default_left":[0,0,0,0,0,0,0,0,0,0,0,0,0,0,0],"id":27,"left_children":[1,3,-1,5,-1,-1,7,9,11,-1,13,-1,-1,-1,-1],"loss_changes":[4.948211E4,2.609194E4,0E0,1.0283957E4,0E0,0E0,8.670581E1,1.6502954E2,4.61563E2,0E0,4.11135E2,0E0,0E0,0E0,0E0],"parents":[2147483647,0,0,1,1,3,3,6,6,7,7,8,8,10,10],"right_children":[2,4,-1,6,-1,-1,8,10,12,-1,14,-1,-1,-1,-1],"split_conditions":[2.1213202E0,2.366432E0,3.764795E0,1.2403474E0,2.052348E0,-2.891195E0,-2.721336E-1,-3.36297E-1,-2.6719794E-1,-3.0367127E-1,-3.2889354E-1,3.71344E-1,-6.3798827E-1,-1.6248597E0,-5.6469727E-1],"split_indices":[1,2,0,0,0,0,3,3,3,0,3,0,0,0,0],"split_type":[0,0,0,0,0,0,0,0,0,0,0,0,0,0,0],"sum_hessian":[3.3E1,2.7E1,6E0,2.2E1,5E0,9E0,1.3E1,1E1,3E0,3E0,7E0,1E0,2E0,1E0,6E0],"tree_param":{"num_deleted":"0","num_feature":"4","num_nodes":"15","size_leaf_vector":"1"}},{"base_weights":[9.825942E-2,-1.7897898E1,3.6034424E0,-3.2050507E1,1.9668375E0,-2.761095E0,-1.3210188E1,-1.4765603E1,-5.630249E0,-2.922821E-1,-1.7379883E1,3.6206055E-1,-6.1672366E-1,-1.5842408E0,-5.40496E-1],"categories":[],"categories_nodes":[],"categories_segments":[],"categories_sizes":[],"default_left":[0,0,0,0,0,0,0,0,0,0,0,0,0,0,0],"id":28,"left_children":[1,3,-1,5,-1,-1,7,9,11,-1,13,-1,-1,-1,-1],"loss_changes":[4.5326473E4,2.3941312E4,0E0,9.311305E3,0E0,0E0,8.192554E1,1.5491528E2,4.3448907E2,0E0,4.0935278E2,0E0,0E0,0E0,0E0],"parents":[2147483647,0,0,1,1,3,3,6,6,7,7,8,8,10,10],"right_children":[2,4,-1,6,-1,-1,8,10,12,-1,14,-1,-1,-1,-1],"split_conditions":[2.1213202E0,2.366432E0,3.6034424E0,1.2403474E0,1.9668375E0,-2.761095E0,-2.721336E-1,-3.36297E-1,-2.6719794E-1,-2.922821E-1,-3.2889354E-1,3.6206055E-1,-6.1672366E-1,-1.5842408E0,-5.40496E-1],"split_indices":[1,2,0,0,0,0,3,3,3,0,3,0,0,0,0],"split_type":[0,0,0,0,0,0,0,0,0,0,0,0,0,0,0],"sum_hessian":[3.3E1,2.7E1,6E0,2.2E1,5E0,9E0,1.3E1,1E1,3E0,3E0,7E0,1E0,2E0,1E0,6E0],"tree_param":{"num_deleted":"0","num_feature":"4","num_nodes":"15","size_leaf_vector":"1"}},{"base_weights":[9.7354665E-2,-1.7126814E1,3.4490058E0,-3.068423E1,1.8848877E0,-2.6368506E0,-1.2740514E1,-1.4247048E1,-5.4124146E0,-2.8132325E-1,-1.6776459E1,3.5300905E-1,-5.96167E-1,-1.544635E0,-5.173305E-1],"categories":[],"categories_nodes":[],"categories_segments":[],"categories_sizes":[],"default_left":[0,0,0,0,0,0,0,0,0,0,0,0,0,0,0],"id":29,"left_children":[1,3,-1,5,-1,-1,7,9,11,-1,13,-1,-1,-1,-1],"loss_changes":[4.1520656E4,2.1968555E4,0E0,8.42941E3,0E0,0E0,7.744971E1,1.4546265E2,4.0901343E2,0E0,4.064878E2,0E0,0E0,0E0,0E0],"parents":[2147483647,0,0,1,1,3,3,6,6,7,7,8,8,10,10],"right_children":[2,4,-1,6,-1,-1,8,10,12,-1,14,-1,-1,-1,-1],"split_conditions":[2.1213202E0,2.366432E0,3.4490058E0,1.2403474E0,1.8848877E0,-2.6368506E0,-2.721336E-1,-3.36297E-1,-2.6719794E-1,-2.8132325E-1,-3.2889354E-1,3.5300905E-1,-5.96167E-1,-1.544635E0,-5.173305E-1],"split_indices":[1,2,0,0,0,0,3,3,3,0,3,0,0,0,0],"split_type":[0,0,0,0,0,0,0,0,0,0,0,0,0,0,0],"sum_hessian":[3.3E1,2.7E1,6E0,2.2E1,5E0,9E0,1.3E1,1E1,3E0,3E0,7E0,1E0,2E0,1E0,6E0],"tree_param":{"num_deleted":"0","num_feature":"4","num_nodes":"15","size_leaf_vector":"1"}},{"base_weights":[9.578929E-2,-1.6389648E1,3.301193E0,-2.937708E1,1.8063558E0,-2.5181873E0,-1.2288243E1,-1.3747736E1,-5.2025757E0,-2.7077636E-1,-1.6195374E1,3.4418336E-1,-5.7629395E-1,-1.506018E0,-4.9515906E-1],"categories":[],"categories_nodes":[],"categories_segments":[],"categories_sizes":[],"default_left":[0,0,0,0,0,0,0,0,0,0,0,0,0,0,0],"id":30,"left_children":[1,3,-1,5,-1,-1,7,9,11,-1,13,-1,-1,-1,-1],"loss_changes":[3.803511E4,2.0158934E4,0E0,7.629785E3,0E0,0E0,7.3256836E1,1.3663013E2,3.850402E2,0E0,4.026621E2,0E0,0E0,0E0,0E0],"parents":[2147483647,0,0,1,1,3,3,6,6,7,7,8,8,10,10],"right_children":[2,4,-1,6,-1,-1,8,10,12,-1,14,-1,-1,-1,-1],"split_conditions":[2.1213202E0,2.366432E0,3.301193E0,1.2403474E0,1.8063558E0,-2.5181873E0,-2.721336E-1,-3.36297E-1,-2.6719794E-1,-2.7077636E-1,-3.2889354E-1,3.4418336E-1,-5.7629395E-1,-1.506018E0,-4.9515906E-1],"split_indices":[1,2,0,0,0,0,3,3,3,0,3,0,0,0,0],"split_type":[0,0,0,0,0,0,0,0,0,0,0,0,0,0,0],"sum_hessian":[3.3E1,2.7E1,6E0,2.2E1,5E0,9E0,1.3E1,1E1,3E0,3E0,7E0,1E0,2E0,1E0,6E0],"tree_param":{"num_deleted":"0","num_feature":"4","num_nodes":"15","size_leaf_vector":"1"}},{"base_weights":[9.34556E-2,-1.5685067E1,3.1597097E0,-2.8126635E1,1.7310892E0,-2.4048743E0,-1.1852696E1,-1.3266912E1,-5.0004272E0,-2.606232E-1,-1.5635773E1,3.355774E-1,-5.570801E-1,-1.4683656E0,-4.7393975E-1],"categories":[],"categories_nodes":[],"categories_segments":[],"categories_sizes":[],"default_left":[0,0,0,0,0,0,0,0,0,0,0,0,0,0,0],"id":31,"left_children":[1,3,-1,5,-1,-1,7,9,11,-1,13,-1,-1,-1,-1],"loss_changes":[3.4842844E4,1.8498885E4,0E0,6.9050176E3,0E0,0E0,6.9328125E1,1.2837769E2,3.6247852E2,0E0,3.9799146E2,0E0,0E0,0E0,0E0],"parents":[2147483647,0,0,1,1,3,3,6,6,7,7,8,8,10,10],"right_children":[2,4,-1,6,-1,-1,8,10,12,-1,14,-1,-1,-1,-1],"split_conditions":[2.1213202E0,2.366432E0,3.1597097E0,1.2403474E0,1.7310892E0,-2.4048743E0,-2.721336E-1,-3.36297E-1,-2.6719794E-1,-2.606232E-1,-3.2889354E-1,3.355774E-1,-5.570801E-1,-1.4683656E0,-4.7393975E-1],"split_indices":[1,2,0,0,0,0,3,3,3,0,3,0,0,0,0],"split_type":[0,0,0,0,0,0,0,0,0,0,0,0,0,0,0],"sum_hessian":[3.3E1,2.7E1,6E0,2.2E1,5E0,9E0,1.3E1,1E1,3E0,3E0,7E0,1E0,2E0,1E0,6E0],"tree_param":{"num_deleted":"0","num_feature":"4","num_nodes":"15","size_leaf_vector":"1"}},{"base_weights":[9.055463E-2,-1.50115185E1,3.0242956E0,-2.6930313E1,1.6589559E0,-2.296659E0,-1.1433245E1,-1.2803844E1,-4.805786E0,-2.5084534E-1,-1.5096832E1,3.2718506E-1,-5.3850913E-1,-1.431659E0,-4.5363075E-1],"categories":[],"categories_nodes":[],"categories_segments":[],"categories_sizes":[],"default_left":[0,0,0,0,0,0,0,0,0,0,0,0,0,0,0],"id":32,"left_children":[1,3,-1,5,-1,-1,7,9,11,-1,13,-1,-1,-1,-1],"loss_changes":[3.1919217E4,1.6976004E4,0E0,6.248074E3,0E0,0E0,6.5637695E1,1.2066943E2,3.412482E2,0E0,3.925896E2,0E0,0E0,0E0,0E0],"parents":[2147483647,0,0,1,1,3,3,6,6,7,7,8,8,10,10],"right_children":[2,4,-1,6,-1,-1,8,10,12,-1,14,-1,-1,-1,-1],"split_conditions":[2.1213202E0,2.366432E0,3.0242956E0,1.2403474E0,1.6589559E0,-2.296659E0,-2.721336E-1,-3.36297E-1,-2.6719794E-1,-2.5084534E-1,-3.2889354E-1,3.2718506E-1,-5.3850913E-1,-1.431659E0,-4.5363075E-1],"split_indices":[1,2,0,0,0,0,3,3,3,0,3,0,0,0,0],"split_type":[0,0,0,0,0,0,0,0,0,0,0,0,0,0,0],"sum_hessian":[3.3E1,2.7E1,6E0,2.2E1,5E0,9E0,1.3E1,1E1,3E0,3E0,7E0,1E0,2E0,1E0,6E0],"tree_param":{"num_deleted":"0","num_feature":"4","num_nodes":"15","size_leaf_vector":"1"}},{"base_weights":[8.714384E-2,-1.4367571E1,2.8946779E0,-2.578574E1,1.5898336E0,-2.1933105E0,-1.102928E1,-1.2357888E1,-4.618286E0,-2.4144287E-1,-1.4577667E1,3.1900635E-1,-5.205566E-1,-1.395868E0,-4.3419012E-1],"categories":[],"categories_nodes":[],"categories_segments":[],"categories_sizes":[],"default_left":[0,0,0,0,0,0,0,0,0,0,0,0,0,0,0],"id":33,"left_children":[1,3,-1,5,-1,-1,7,9,11,-1,13,-1,-1,-1,-1],"loss_changes":[2.9241346E4,1.5579014E4,0E0,5.652673E3,0E0,0E0,6.2175415E1,1.1344714E2,3.2127286E2,0E0,3.8654968E2,0E0,0E0,0E0,0E0],"parents":[2147483647,0,0,1,1,3,3,6,6,7,7,8,8,10,10],"right_children":[2,4,-1,6,-1,-1,8,10,12,-1,14,-1,-1,-1,-1],"split_conditions":[2.1213202E0,2.366432E0,2.8946779E0,1.2403474E0,1.5898336E0,-2.1933105E0,-2.721336E-1,-3.36297E-1,-2.6719794E-1,-2.4144287E-1,-3.2889354E-1,3.1900635E-1,-5.205566E-1,-1.395868E0,-4.3419012E-1],"split_indices":[1,2,0,0,0,0,3,3,3,0,3,0,0,0,0],"split_type":[0,0,0,0,0,0,0,0,0,0,0,0,0,0,0],"sum_hessian":[3.3E1,2.7E1,6E0,2.2E1,5E0,9E0,1.3E1,1E1,3E0,3E0,7E0,1E0,2E0,1E0,6E0],"tree_param":{"num_deleted":"0","num_feature":"4","num_nodes":"15","size_leaf_vector":"1"}},{"base_weights":[8.328786E-2,-1.3751945E1,2.770616E0,-2.4690662E1,1.5235901E0,-2.0946095E0,-1.0640242E1,-1.1928378E1,-4.437805E0,-2.323883E-1,-1.4077637E1,3.1102905E-1,-5.0320643E-1,-1.3609742E0,-4.1558662E-1],"categories":[],"categories_nodes":[],"categories_segments":[],"categories_sizes":[],"default_left":[0,0,0,0,0,0,0,0,0,0,0,0,0,0,0],"id":34,"left_children":[1,3,-1,5,-1,-1,7,9,11,-1,13,-1,-1,-1,-1],"loss_changes":[2.6788686E4,1.4297399E4,0E0,5.1130957E3,0E0,0E0,5.891858E1,1.0669739E2,3.024748E2,0E0,3.7995593E2,0E0,0E0,0E0,0E0],"parents":[2147483647,0,0,1,1,3,3,6,6,7,7,8,8,10,10],"right_children":[2,4,-1,6,-1,-1,8,10,12,-1,14,-1,-1,-1,-1],"split_conditions":[2.1213202E0,2.366432E0,2.770616E0,1.2403474E0,1.5235901E0,-2.0946095E0,-2.721336E-1,-3.36297E-1,-2.6719794E-1,-2.323883E-1,-3.2889354E-1,3.1102905E-1,-5.0320643E-1,-1.3609742E0,-4.1558662E-1],"split_indices":[1,2,0,0,0,0,3,3,3,0,3,0,0,0,0],"split_type":[0,0,0,0,0,0,0,0,0,0,0,0,0,0,0],"sum_hessian":[3.3E1,2.7E1,6E0,2.2E1,5E0,9E0,1.3E1,1E1,3E0,3E0,7E0,1E0,2E0,1E0,6E0],"tree_param":{"num_deleted":"0","num_feature":"4","num_nodes":"15","size_leaf_vector":"1"}},{"base_weights":[7.9108745E-2,-1.3163339E1,2.65188E0,-2.3642864E1,1.4601034E0,-2.000347E0,-1.0265468E1,-1.4194336E1,-3.6372438E-1,-2.236725E-1,-1.3269471E0],"categories":[],"categories_nodes":[],"categories_segments":[],"categories_sizes":[],"default_left":[0,0,0,0,0,0,0,0,0,0,0],"id":35,"left_children":[1,3,-1,5,-1,-1,7,9,-1,-1,-1],"loss_changes":[2.4542352E4,1.31215625E4,0E0,4.624209E3,0E0,0E0,6.1259888E1,4.8128186E2,0E0,0E0,0E0],"parents":[2147483647,0,0,1,1,3,3,6,6,7,7],"right_children":[2,4,-1,6,-1,-1,8,10,-1,-1,-1],"split_conditions":[2.1213202E0,2.366432E0,2.65188E0,1.2403474E0,1.4601034E0,-2.000347E0,-3.2889354E-1,-3.36297E-1,-3.6372438E-1,-2.236725E-1,-1.3269471E0],"split_indices":[1,2,0,0,0,0,3,3,0,0,0],"split_type":[0,0,0,0,0,0,0,0,0,0,0],"sum_hessian":[3.3E1,2.7E1,6E0,2.2E1,5E0,9E0,1.3E1,4E0,9E0,3E0,1E0],"tree_param":{"num_deleted":"0","num_feature":"4","num_nodes":"11","size_leaf_vector":"1"}},{"base_weights":[8.0925435E-2,-1.2592878E1,2.538229E0,-2.2630955E1,1.3992615E0,-1.9103358E0,-9.888916E0,-1.3794775E1,-3.4735474E-1,-2.1528625E-1,-1.2937745E0],"categories":[],"categories_nodes":[],"categories_segments":[],"categories_sizes":[],"default_left":[0,0,0,0,0,0,0,0,0,0,0],"id":36,"left_children":[1,3,-1,5,-1,-1,7,9,-1,-1,-1],"loss_changes":[2.247933E4,1.2038467E4,0E0,4.186915E3,0E0,0E0,6.503113E1,4.6175977E2,0E0,0E0,0E0],"parents":[2147483647,0,0,1,1,3,3,6,6,7,7],"right_children":[2,4,-1,6,-1,-1,8,10,-1,-1,-1],"split_conditions":[2.1213202E0,2.366432E0,2.538229E0,1.2403474E0,1.3992615E0,-1.9103358E0,-3.2889354E-1,-3.36297E-1,-3.4735474E-1,-2.1528625E-1,-1.2937745E0],"split_indices":[1,2,0,0,0,0,3,3,0,0,0],"split_type":[0,0,0,0,0,0,0,0,0,0,0],"sum_hessian":[3.3E1,2.7E1,6E0,2.2E1,5E0,9E0,1.3E1,4E0,9E0,3E0,1E0],"tree_param":{"num_deleted":"0","num_feature":"4","num_nodes":"11","size_leaf_vector":"1"}},{"base_weights":[8.193072E-2,-1.20477295E1,2.4294434E0,-2.1663128E1,1.3409628E0,-1.8243678E0,-9.52703E0,-1.3406836E1,-6.6344237E0,-2.072113E-1,-1.2614319E0,-4.822571E0,-4.6272787E-1,-3.672991E-1,3.2103273E-1],"categories":[],"categories_nodes":[],"categories_segments":[],"categories_sizes":[],"default_left":[0,0,0,0,0,0,0,0,0,0,0,0,0,0,0],"id":37,"left_children":[1,3,-1,5,-1,-1,7,9,11,-1,-1,13,-1,-1,-1],"loss_changes":[2.0590057E4,1.1045191E4,0E0,3.7902744E3,0E0,0E0,6.8171875E1,4.4295056E2,2.842163E0,0E0,0E0,2.741363E2,0E0,0E0,0E0],"parents":[2147483647,0,0,1,1,3,3,6,6,7,7,8,8,11,11],"right_children":[2,4,-1,6,-1,-1,8,10,12,-1,-1,14,-1,-1,-1],"split_conditions":[2.1213202E0,2.366432E0,2.4294434E0,1.2403474E0,1.3409628E0,-1.8243678E0,-3.2889354E-1,-3.36297E-1,-2.6719794E-1,-2.072113E-1,-1.2614319E0,-2.721336E-1,-4.6272787E-1,-3.672991E-1,3.2103273E-1],"split_indices":[1,2,0,0,0,0,3,3,3,0,0,3,0,0,0],"split_type":[0,0,0,0,0,0,0,0,0,0,0,0,0,0,0],"sum_hessian":[3.3E1,2.7E1,6E0,2.2E1,5E0,9E0,1.3E1,4E0,9E0,3E0,1E0,7E0,2E0,6E0,1E0],"tree_param":{"num_deleted":"0","num_feature":"4","num_nodes":"15","size_leaf_vector":"1"}},{"base_weights":[7.6897115E-2,-1.1533247E1,2.3253245E0,-2.0745266E1,1.2850851E0,-1.7422669E0,-9.191981E0,-1.3030176E1,-6.3536863E0,-1.9943848E-1,-1.229895E0,-4.587311E0,-4.473063E-1,-3.515625E-1,3.130066E-1],"categories":[],"categories_nodes":[],"categories_segments":[],"categories_sizes":[],"default_left":[0,0,0,0,0,0,0,0,0,0,0,0,0,0,0],"id":38,"left_children":[1,3,-1,5,-1,-1,7,9,11,-1,-1,13,-1,-1,-1],"loss_changes":[1.8864215E4,1.0137441E4,0E0,3.4264512E3,0E0,0E0,6.972534E1,4.248271E2,4.7535706E0,0E0,0E0,2.5610046E2,0E0,0E0,0E0],"parents":[2147483647,0,0,1,1,3,3,6,6,7,7,8,8,11,11],"right_children":[2,4,-1,6,-1,-1,8,10,12,-1,-1,14,-1,-1,-1],"split_conditions":[2.1213202E0,2.366432E0,2.3253245E0,1.2403474E0,1.2850851E0,-1.7422669E0,-3.2889354E-1,-3.36297E-1,-2.6719794E-1,-1.9943848E-1,-1.229895E0,-2.721336E-1,-4.473063E-1,-3.515625E-1,3.130066E-1],"split_indices":[1,2,0,0,0,0,3,3,3,0,0,3,0,0,0],"split_type":[0,0,0,0,0,0,0,0,0,0,0,0,0,0,0],"sum_hessian":[3.3E1,2.7E1,6E0,2.2E1,5E0,9E0,1.3E1,4E0,9E0,3E0,1E0,7E0,2E0,6E0,1E0],"tree_param":{"num_deleted":"0","num_feature":"4","num_nodes":"15","size_leaf_vector":"1"}},{"base_weights":[7.161937E-2,-1.1041347E1,2.2256627E0,-1.986705E1,1.2315369E0,-1.6638683E0,-8.869176E0,-1.2664502E1,-6.0845947E0,-1.9195862E-1,-1.1991456E0,-4.3627625E0,-4.3239745E-1,-3.3649555E-1,3.051819E-1],"categories":[],"categories_nodes":[],"categories_segments":[],"categories_sizes":[],"default_left":[0,0,0,0,0,0,0,0,0,0,0,0,0,0,0],"id":39,"left_children":[1,3,-1,5,-1,-1,7,9,11,-1,-1,13,-1,-1,-1],"loss_changes":[1.7283352E4,9.304614E3,0E0,3.0970107E3,0E0,0E0,7.089917E1,4.0736896E2,6.4077454E0,0E0,0E0,2.3928111E2,0E0,0E0,0E0],"parents":[2147483647,0,0,1,1,3,3,6,6,7,7,8,8,11,11],"right_children":[2,4,-1,6,-1,-1,8,10,12,-1,-1,14,-1,-1,-1],"split_conditions":[2.1213202E0,2.366432E0,2.2256627E0,1.2403474E0,1.2315369E0,-1.6638683E0,-3.2889354E-1,-3.36297E-1,-2.6719794E-1,-1.9195862E-1,-1.1991456E0,-2.721336E-1,-4.3239745E-1,-3.3649555E-1,3.051819E-1],"split_indices":[1,2,0,0,0,0,3,3,3,0,0,3,0,0,0],"split_type":[0,0,0,0,0,0,0,0,0,0,0,0,0,0,0],"sum_hessian":[3.3E1,2.7E1,6E0,2.2E1,5E0,9E0,1.3E1,4E0,9E0,3E0,1E0,7E0,2E0,6E0,1E0],"tree_param":{"num_deleted":"0","num_feature":"4","num_nodes":"15","size_leaf_vector":"1"}},{"base_weights":[6.6226736E-2,-1.0570984E1,2.1302805E0,-1.9026728E1,1.1802267E0,-1.5889966E0,-8.558245E0,-1.2309522E1,-5.826782E0,-1.8476258E-1,-1.169165E0,-4.14859E0,-4.1798502E-1,-3.220773E-1,2.975525E-1],"categories":[],"categories_nodes":[],"categories_segments":[],"categories_sizes":[],"default_left":[0,0,0,0,0,0,0,0,0,0,0,0,0,0,0],"id":40,"left_children":[1,3,-1,5,-1,-1,7,9,11,-1,-1,13,-1,-1,-1],"loss_changes":[1.58353955E4,8.540541E3,0E0,2.7986738E3,0E0,0E0,7.172571E1,3.9055542E2,7.826294E0,0E0,0E0,2.2359818E2,0E0,0E0,0E0],"parents":[2147483647,0,0,1,1,3,3,6,6,7,7,8,8,11,11],"right_children":[2,4,-1,6,-1,-1,8,10,12,-1,-1,14,-1,-1,-1],"split_conditions":[2.1213202E0,2.366432E0,2.1302805E0,1.2403474E0,1.1802267E0,-1.5889966E0,-3.2889354E-1,-3.36297E-1,-2.6719794E-1,-1.8476258E-1,-1.169165E0,-2.721336E-1,-4.1798502E-1,-3.220773E-1,2.975525E-1],"split_indices":[1,2,0,0,0,0,3,3,3,0,0,3,0,0,0],"split_type":[0,0,0,0,0,0,0,0,0,0,0,0,0,0,0],"sum_hessian":[3.3E1,2.7E1,6E0,2.2E1,5E0,9E0,1.3E1,4E0,9E0,3E0,1E0,7E0,2E0,6E0,1E0],"tree_param":{"num_deleted":"0","num_feature":"4","num_nodes":"15","size_leaf_vector":"1"}},{"base_weights":[6.072639E-2,-1.0121155E1,2.0389788E0,-1.822255E1,1.1310527E0,-1.5174866E0,-8.258667E0,-1.1964795E1,-5.579736E0,-1.7783204E-1,-1.1399354E0,-3.944275E0,-4.0405273E-1,-3.0827639E-1,2.9011232E-1],"categories":[],"categories_nodes":[],"categories_segments":[],"categories_sizes":[],"default_left":[0,0,0,0,0,0,0,0,0,0,0,0,0,0,0],"id":41,"left_children":[1,3,-1,5,-1,-1,7,9,11,-1,-1,13,-1,-1,-1],"loss_changes":[1.450895E4,7.839425E3,0E0,2.5285293E3,0E0,0E0,7.22381E1,3.7437915E2,9.03421E0,0E0,0E0,2.0896979E2,0E0,0E0,0E0],"parents":[2147483647,0,0,1,1,3,3,6,6,7,7,8,8,11,11],"right_children":[2,4,-1,6,-1,-1,8,10,12,-1,-1,14,-1,-1,-1],"split_conditions":[2.1213202E0,2.366432E0,2.0389788E0,1.2403474E0,1.1310527E0,-1.5174866E0,-3.2889354E-1,-3.36297E-1,-2.6719794E-1,-1.7783204E-1,-1.1399354E0,-2.721336E-1,-4.0405273E-1,-3.0827639E-1,2.9011232E-1],"split_indices":[1,2,0,0,0,0,3,3,3,0,0,3,0,0,0],"split_type":[0,0,0,0,0,0,0,0,0,0,0,0,0,0,0],"sum_hessian":[3.3E1,2.7E1,6E0,2.2E1,5E0,9E0,1.3E1,4E0,9E0,3E0,1E0,7E0,2E0,6E0,1E0],"tree_param":{"num_deleted":"0","num_feature":"4","num_nodes":"15","size_leaf_vector":"1"}},{"base_weights":[5.5125516E-2,-9.691014E0,1.9515904E0,-1.7453009E1,1.0839233E0,-1.4491956E0,-7.9700055E0,-1.1630176E1,-5.34292E0,-1.71167E-1,-1.111438E0,-3.7492676E0,-3.9058432E-1,-2.9506138E-1,2.8286132E-1],"categories":[],"categories_nodes":[],"categories_segments":[],"categories_sizes":[],"default_left":[0,0,0,0,0,0,0,0,0,0,0,0,0,0,0],"id":42,"left_children":[1,3,-1,5,-1,-1,7,9,11,-1,-1,13,-1,-1,-1],"loss_changes":[1.3293911E4,7.1960674E3,0E0,2.2839927E3,0E0,0E0,7.2479004E1,3.5880762E2,1.005542E1,0E0,0E0,1.9532379E2,0E0,0E0,0E0],"parents":[2147483647,0,0,1,1,3,3,6,6,7,7,8,8,11,11],"right_children":[2,4,-1,6,-1,-1,8,10,12,-1,-1,14,-1,-1,-1],"split_conditions":[2.1213202E0,2.366432E0,1.9515904E0,1.2403474E0,1.0839233E0,-1.4491956E0,-3.2889354E-1,-3.36297E-1,-2.6719794E-1,-1.71167E-1,-1.111438E0,-2.721336E-1,-3.9058432E-1,-2.9506138E-1,2.8286132E-1],"split_indices":[1,2,0,0,0,0,3,3,3,0,0,3,0,0,0],"split_type":[0,0,0,0,0,0,0,0,0,0,0,0,0,0,0],"sum_hessian":[3.3E1,2.7E1,6E0,2.2E1,5E0,9E0,1.3E1,4E0,9E0,3E0,1E0,7E0,2E0,6E0,1E0],"tree_param":{"num_deleted":"0","num_feature":"4","num_nodes":"15","size_leaf_vector":"1"}},{"base_weights":[4.9452838E-2,-9.279689E0,1.8679478E0,-1.6716616E1,1.0387573E0,-1.3839808E0,-7.6918597E0,-1.1305224E1,-5.115991E0,-1.6474915E-1,-1.0836548E0,-3.563263E0,-3.7756348E-1,-2.8241143E-1,2.7578735E-1],"categories":[],"categories_nodes":[],"categories_segments":[],"categories_sizes":[],"default_left":[0,0,0,0,0,0,0,0,0,0,0,0,0,0,0],"id":43,"left_children":[1,3,-1,5,-1,-1,7,9,11,-1,-1,13,-1,-1,-1],"loss_changes":[1.2180913E4,6.605728E3,0E0,2.0626748E3,0E0,0E0,7.246832E1,3.438333E2,1.0906097E1,0E0,0E0,1.8258957E2,0E0,0E0,0E0],"parents":[2147483647,0,0,1,1,3,3,6,6,7,7,8,8,11,11],"right_children":[2,4,-1,6,-1,-1,8,10,12,-1,-1,14,-1,-1,-1],"split_conditions":[2.1213202E0,2.366432E0,1.8679478E0,1.2403474E0,1.0387573E0,-1.3839808E0,-3.2889354E-1,-3.36297E-1,-2.6719794E-1,-1.6474915E-1,-1.0836548E0,-2.721336E-1,-3.7756348E-1,-2.8241143E-1,2.7578735E-1],"split_indices":[1,2,0,0,0,0,3,3,3,0,0,3,0,0,0],"split_type":[0,0,0,0,0,0,0,0,0,0,0,0,0,0,0],"sum_hessian":[3.3E1,2.7E1,6E0,2.2E1,5E0,9E0,1.3E1,4E0,9E0,3E0,1E0,7E0,2E0,6E0,1E0],"tree_param":{"num_deleted":"0","num_feature":"4","num_nodes":"15","size_leaf_vector":"1"}},{"base_weights":[4.378016E-2,-8.886309E0,1.7878941E0,-1.6011889E1,9.954732E-1,-1.3216993E0,-7.423828E0,-1.0989599E1,-4.8985596E0,-1.5856934E-1,-1.0565614E0,-3.3858948E0,-3.6497396E-1,-2.703055E-1,2.6889038E-1],"categories":[],"categories_nodes":[],"categories_segments":[],"categories_sizes":[],"default_left":[0,0,0,0,0,0,0,0,0,0,0,0,0,0,0],"id":44,"left_children":[1,3,-1,5,-1,-1,7,9,11,-1,-1,13,-1,-1,-1],"loss_changes":[1.1161379E4,6.0640127E3,0E0,1.8623872E3,0E0,0E0,7.2230225E1,3.2943164E2,1.1602585E1,0E0,0E0,1.707096E2,0E0,0E0,0E0],"parents":[2147483647,0,0,1,1,3,3,6,6,7,7,8,8,11,11],"right_children":[2,4,-1,6,-1,-1,8,10,12,-1,-1,14,-1,-1,-1],"split_conditions":[2.1213202E0,2.366432E0,1.7878941E0,1.2403474E0,9.954732E-1,-1.3216993E0,-3.2889354E-1,-3.36297E-1,-2.6719794E-1,-1.5856934E-1,-1.0565614E0,-2.721336E-1,-3.6497396E-1,-2.703055E-1,2.6889038E-1],"split_indices":[1,2,0,0,0,0,3,3,3,0,0,3,0,0,0],"split_type":[0,0,0,0,0,0,0,0,0,0,0,0,0,0,0],"sum_hessian":[3.3E1,2.7E1,6E0,2.2E1,5E0,9E0,1.3E1,4E0,9E0,3E0,1E0,7E0,2E0,6E0,1E0],"tree_param":{"num_deleted":"0","num_feature":"4","num_nodes":"15","size_leaf_vector":"1"}},{"base_weights":[3.812184E-2,-8.510071E0,1.7112722E0,-1.5337477E1,9.539998E-1,-1.2622193E0,-7.16558E0,-1.0683057E1,-4.6902833E0,-1.5261841E-1,-1.0301453E0,-3.2167969E0,-3.528076E-1,-2.587228E-1,2.621704E-1],"categories":[],"categories_nodes":[],"categories_segments":[],"categories_sizes":[],"default_left":[0,0,0,0,0,0,0,0,0,0,0,0,0,0,0],"id":45,"left_children":[1,3,-1,5,-1,-1,7,9,11,-1,-1,13,-1,-1,-1],"loss_changes":[1.0227416E4,5.566959E3,0E0,1.6811489E3,0E0,0E0,7.1788635E1,3.1558875E2,1.2162537E1,0E0,0E0,1.5962936E2,0E0,0E0,0E0],"parents":[2147483647,0,0,1,1,3,3,6,6,7,7,8,8,11,11],"right_children":[2,4,-1,6,-1,-1,8,10,12,-1,-1,14,-1,-1,-1],"split_conditions":[2.1213202E0,2.366432E0,1.7112722E0,1.2403474E0,9.539998E-1,-1.2622193E0,-3.2889354E-1,-3.36297E-1,-2.6719794E-1,-1.5261841E-1,-1.0301453E0,-2.721336E-1,-3.528076E-1,-2.587228E-1,2.621704E-1],"split_indices":[1,2,0,0,0,0,3,3,3,0,0,3,0,0,0],"split_type":[0,0,0,0,0,0,0,0,0,0,0,0,0,0,0],"sum_hessian":[3.3E1,2.7E1,6E0,2.2E1,5E0,9E0,1.3E1,4E0,9E0,3E0,1E0,7E0,2E0,6E0,1E0],"tree_param":{"num_deleted":"0","num_feature":"4","num_nodes":"15","size_leaf_vector":"1"}},{"base_weights":[3.2420438E-2,-8.150312E0,1.637936E0,-1.4692096E1,9.142456E-1,-1.2054199E0,-6.9167304E0,-1.0385498E1,-4.490674E0,-1.4689636E-1,-1.0043945E0,-3.055481E0,-3.4104818E-1,-2.4763183E-1,2.5561523E-1],"categories":[],"categories_nodes":[],"categories_segments":[],"categories_sizes":[],"default_left":[0,0,0,0,0,0,0,0,0,0,0,0,0,0,0],"id":46,"left_children":[1,3,-1,5,-1,-1,7,9,11,-1,-1,13,-1,-1,-1],"loss_changes":[9.371872E3,5.110782E3,0E0,1.5171982E3,0E0,0E0,7.117804E1,3.0227954E2,1.2602829E1,0E0,0E0,1.4928387E2,0E0,0E0,0E0],"parents":[2147483647,0,0,1,1,3,3,6,6,7,7,8,8,11,11],"right_children":[2,4,-1,6,-1,-1,8,10,12,-1,-1,14,-1,-1,-1],"split_conditions":[2.1213202E0,2.366432E0,1.637936E0,1.2403474E0,9.142456E-1,-1.2054199E0,-3.2889354E-1,-3.36297E-1,-2.6719794E-1,-1.4689636E-1,-1.0043945E0,-2.721336E-1,-3.4104818E-1,-2.4763183E-1,2.5561523E-1],"split_indices":[1,2,0,0,0,0,3,3,3,0,0,3,0,0,0],"split_type":[0,0,0,0,0,0,0,0,0,0,0,0,0,0,0],"sum_hessian":[3.3E1,2.7E1,6E0,2.2E1,5E0,9E0,1.3E1,4E0,9E0,3E0,1E0,7E0,2E0,6E0,1E0],"tree_param":{"num_deleted":"0","num_feature":"4","num_nodes":"15","size_leaf_vector":"1"}},{"base_weights":[2.6711857E-2,-7.806257E0,1.5677385E0,-1.4074484E1,8.761495E-1,-1.1511805E0,-6.6769323E0,-1.0096436E1,-4.299487E0,-1.4138488E-1,-9.792847E-1,-2.901764E0,-3.2967937E-1,-2.3702219E-1,2.4922486E-1],"categories":[],"categories_nodes":[],"categories_segments":[],"categories_sizes":[],"default_left":[0,0,0,0,0,0,0,0,0,0,0,0,0,0,0],"id":47,"left_children":[1,3,-1,5,-1,-1,7,9,11,-1,-1,13,-1,-1,-1],"loss_changes":[8.588081E3,4.692172E3,0E0,1.3689106E3,0E0,0E0,7.0406006E1,2.8949228E2,1.2932144E1,0E0,0E0,1.396312E2,0E0,0E0,0E0],"parents":[2147483647,0,0,1,1,3,3,6,6,7,7,8,8,11,11],"right_children":[2,4,-1,6,-1,-1,8,10,12,-1,-1,14,-1,-1,-1],"split_conditions":[2.1213202E0,2.366432E0,1.5677385E0,1.2403474E0,8.761495E-1,-1.1511805E0,-3.2889354E-1,-3.36297E-1,-2.6719794E-1,-1.4138488E-1,-9.792847E-1,-2.721336E-1,-3.2967937E-1,-2.3702219E-1,2.4922486E-1],"split_indices":[1,2,0,0,0,0,3,3,3,0,0,3,0,0,0],"split_type":[0,0,0,0,0,0,0,0,0,0,0,0,0,0,0],"sum_hessian":[3.3E1,2.7E1,6E0,2.2E1,5E0,9E0,1.3E1,4E0,9E0,3E0,1E0,7E0,2E0,6E0,1E0],"tree_param":{"num_deleted":"0","num_feature":"4","num_nodes":"15","size_leaf_vector":"1"}},{"base_weights":[2.1089442E-2,-7.4771643E0,1.5005546E0,-1.3483367E1,8.396403E-1,-1.0993799E0,-6.4458184E0,-9.815771E0,-4.1162596E0,-1.3608399E-1,-9.5480347E-1,-2.755127E0,-3.1869304E-1,-2.2686246E-1,2.4299316E-1],"categories":[],"categories_nodes":[],"categories_segments":[],"categories_sizes":[],"default_left":[0,0,0,0,0,0,0,0,0,0,0,0,0,0,0],"id":48,"left_children":[1,3,-1,5,-1,-1,7,9,11,-1,-1,13,-1,-1,-1],"loss_changes":[7.870068E3,4.307993E3,0E0,1.2347979E3,0E0,0E0,6.950275E1,2.7720306E2,1.3168152E1,0E0,0E0,1.3061714E2,0E0,0E0,0E0],"parents":[2147483647,0,0,1,1,3,3,6,6,7,7,8,8,11,11],"right_children":[2,4,-1,6,-1,-1,8,10,12,-1,-1,14,-1,-1,-1],"split_conditions":[2.1213202E0,2.366432E0,1.5005546E0,1.2403474E0,8.396403E-1,-1.0993799E0,-3.2889354E-1,-3.36297E-1,-2.6719794E-1,-1.3608399E-1,-9.5480347E-1,-2.721336E-1,-3.1869304E-1,-2.2686246E-1,2.4299316E-1],"split_indices":[1,2,0,0,0,0,3,3,3,0,0,3,0,0,0],"split_type":[0,0,0,0,0,0,0,0,0,0,0,0,0,0,0],"sum_hessian":[3.3E1,2.7E1,6E0,2.2E1,5E0,9E0,1.3E1,4E0,9E0,3E0,1E0,7E0,2E0,6E0,1E0],"tree_param":{"num_deleted":"0","num_feature":"4","num_nodes":"15","size_leaf_vector":"1"}},{"base_weights":[1.5538833E-2,-7.162371E0,1.436248E0,-1.2917619E1,8.04657E-1,-1.0499085E0,-6.2231097E0,-9.543213E0,-3.940747E0,-1.309845E-1,-9.3093264E-1,-2.615387E0,-3.0807292E-1,-2.1714215E-1,2.3692016E-1],"categories":[],"categories_nodes":[],"categories_segments":[],"categories_sizes":[],"default_left":[0,0,0,0,0,0,0,0,0,0,0,0,0,0,0],"id":49,"left_children":[1,3,-1,5,-1,-1,7,9,11,-1,-1,13,-1,-1,-1],"loss_changes":[7.212242E3,3.9554395E3,0E0,1.1135181E3,0E0,0E0,6.84801E1,2.6539496E2,1.3317825E1,0E0,0E0,1.2220495E2,0E0,0E0,0E0],"parents":[2147483647,0,0,1,1,3,3,6,6,7,7,8,8,11,11],"right_children":[2,4,-1,6,-1,-1,8,10,12,-1,-1,14,-1,-1,-1],"split_conditions":[2.1213202E0,2.366432E0,1.436248E0,1.2403474E0,8.04657E-1,-1.0499085E0,-3.2889354E-1,-3.36297E-1,-2.6719794E-1,-1.309845E-1,-9.3093264E-1,-2.721336E-1,-3.0807292E-1,-2.1714215E-1,2.3692016E-1],"split_indices":[1,2,0,0,0,0,3,3,3,0,0,3,0,0,0],"split_type":[0,0,0,0,0,0,0,0,0,0,0,0,0,0,0],"sum_hessian":[3.3E1,2.7E1,6E0,2.2E1,5E0,9E0,1.3E1,4E0,9E0,3E0,1E0,7E0,2E0,6E0,1E0],"tree_param":{"num_deleted":"0","num_feature":"4","num_nodes":"15","size_leaf_vector":"1"}},{"base_weights":[1.0038488E-2,-6.8612757E0,1.3746932E0,-1.2376136E1,7.7112836E-1,-1.0026673E0,-6.008405E0,-9.278369E0,-3.772583E0,-1.2606812E-1,-9.0765995E-1,-2.4822083E0,-2.9780275E-1,-2.078404E-1,2.3099975E-1],"categories":[],"categories_nodes":[],"categories_segments":[],"categories_sizes":[],"default_left":[0,0,0,0,0,0,0,0,0,0,0,0,0,0,0],"id":50,"left_children":[1,3,-1,5,-1,-1,7,9,11,-1,-1,13,-1,-1,-1],"loss_changes":[6.6095425E3,3.6318557E3,0E0,1.0038982E3,0E0,0E0,6.735144E1,2.5406561E2,1.3390808E1,0E0,0E0,1.1435121E2,0E0,0E0,0E0],"parents":[2147483647,0,0,1,1,3,3,6,6,7,7,8,8,11,11],"right_children":[2,4,-1,6,-1,-1,8,10,12,-1,-1,14,-1,-1,-1],"split_conditions":[2.1213202E0,2.366432E0,1.3746932E0,1.2403474E0,7.7112836E-1,-1.0026673E0,-3.2889354E-1,-3.36297E-1,-2.6719794E-1,-1.2606812E-1,-9.0765995E-1,-2.721336E-1,-2.9780275E-1,-2.078404E-1,2.3099975E-1],"split_indices":[1,2,0,0,0,0,3,3,3,0,0,3,0,0,0],"split_type":[0,0,0,0,0,0,0,0,0,0,0,0,0,0,0],"sum_hessian":[3.3E1,2.7E1,6E0,2.2E1,5E0,9E0,1.3E1,4E0,9E0,3E0,1E0,7E0,2E0,6E0,1E0],"tree_param":{"num_deleted":"0","num_feature":"4","num_nodes":"15","size_leaf_vector":"1"}},{"base_weights":[4.638672E-3,-6.573242E0,1.315775E0,-1.1857825E1,7.3899335E-1,-9.575464E-1,-5.801479E0,-9.02124E0,-3.6114502E0,-1.2134399E-1,-8.84967E-1,-2.3552551E0,-2.8787434E-1,-1.9893625E-1,2.2522584E-1],"categories":[],"categories_nodes":[],"categories_segments":[],"categories_sizes":[],"default_left":[0,0,0,0,0,0,0,0,0,0,0,0,0,0,0],"id":51,"left_children":[1,3,-1,5,-1,-1,7,9,11,-1,-1,13,-1,-1,-1],"loss_changes":[6.0573486E3,3.3348408E3,0E0,9.047964E2,0E0,0E0,6.6139404E1,2.431784E2,1.3398071E1,0E0,0E0,1.0701528E2,0E0,0E0,0E0],"parents":[2147483647,0,0,1,1,3,3,6,6,7,7,8,8,11,11],"right_children":[2,4,-1,6,-1,-1,8,10,12,-1,-1,14,-1,-1,-1],"split_conditions":[2.1213202E0,2.366432E0,1.315775E0,1.2403474E0,7.3899335E-1,-9.575464E-1,-3.2889354E-1,-3.36297E-1,-2.6719794E-1,-1.2134399E-1,-8.84967E-1,-2.721336E-1,-2.8787434E-1,-1.9893625E-1,2.2522584E-1],"split_indices":[1,2,0,0,0,0,3,3,3,0,0,3,0,0,0],"split_type":[0,0,0,0,0,0,0,0,0,0,0,0,0,0,0],"sum_hessian":[3.3E1,2.7E1,6E0,2.2E1,5E0,9E0,1.3E1,4E0,9E0,3E0,1E0,7E0,2E0,6E0,1E0],"tree_param":{"num_deleted":"0","num_feature":"4","num_nodes":"15","size_leaf_vector":"1"}},{"base_weights":[-6.0317095E-4,-6.297677E0,1.2593889E0,-1.13617E1,7.082011E-1,-1.619634E1,-3.4570312E0,-9.14458E-1,-8.771436E0,-2.234192E0,-2.7827963E-1,-1.16793826E-1,-8.628418E-1,-1.9040877E-1,2.1959229E-1],"categories":[],"categories_nodes":[],"categories_segments":[],"categories_sizes":[],"default_left":[0,0,0,0,0,0,0,0,0,0,0,0,0,0,0],"id":52,"left_children":[1,3,-1,5,-1,7,9,-1,11,13,-1,-1,-1,-1,-1],"loss_changes":[5.55147E3,3.0622456E3,0E0,8.229824E2,0E0,5.7124023E1,1.3349724E1,0E0,2.3273166E2,1.001591E2,0E0,0E0,0E0,0E0,0E0],"parents":[2147483647,0,0,1,1,3,3,5,5,6,6,8,8,9,9],"right_children":[2,4,-1,6,-1,8,10,-1,12,14,-1,-1,-1,-1,-1],"split_conditions":[2.1213202E0,2.366432E0,1.2593889E0,-3.2889354E-1,7.082011E-1,1.2403474E0,-2.6719794E-1,-9.14458E-1,-3.36297E-1,-2.721336E-1,-2.7827963E-1,-1.16793826E-1,-8.628418E-1,-1.9040877E-1,2.1959229E-1],"split_indices":[1,2,0,3,0,0,3,0,3,3,0,0,0,0,0],"split_type":[0,0,0,0,0,0,0,0,0,0,0,0,0,0,0],"sum_hessian":[3.3E1,2.7E1,6E0,2.2E1,5E0,1.3E1,9E0,9E0,4E0,7E0,2E0,3E0,1E0,6E0,1E0],"tree_param":{"num_deleted":"0","num_feature":"4","num_nodes":"15","size_leaf_vector":"1"}},{"base_weights":[-5.7014017E-3,-6.034023E0,1.2054199E0,-1.0886762E1,6.786906E-1,-1.5521781E1,-3.3090577E0,-8.7330323E-1,-8.528857E0,-2.118805E0,-2.690023E-1,-1.124176E-1,-8.41272E-1,-1.8224749E-1,2.1410523E-1],"categories":[],"categories_nodes":[],"categories_segments":[],"categories_sizes":[],"default_left":[0,0,0,0,0,0,0,0,0,0,0,0,0,0,0],"id":53,"left_children":[1,3,-1,5,-1,7,9,-1,11,13,-1,-1,-1,-1,-1],"loss_changes":[5.0879673E3,2.8120222E3,0E0,7.564619E2,0E0,4.138159E1,1.3250732E1,0E0,2.2270407E2,9.375778E1,0E0,0E0,0E0,0E0,0E0],"parents":[2147483647,0,0,1,1,3,3,5,5,6,6,8,8,9,9],"right_children":[2,4,-1,6,-1,8,10,-1,12,14,-1,-1,-1,-1,-1],"split_conditions":[2.1213202E0,2.366432E0,1.2054199E0,-3.2889354E-1,6.786906E-1,1.2403474E0,-2.6719794E-1,-8.7330323E-1,-3.36297E-1,-2.721336E-1,-2.690023E-1,-1.124176E-1,-8.41272E-1,-1.8224749E-1,2.1410523E-1],"split_indices":[1,2,0,3,0,0,3,0,3,3,0,0,0,0,0],"split_type":[0,0,0,0,0,0,0,0,0,0,0,0,0,0,0],"sum_hessian":[3.3E1,2.7E1,6E0,2.2E1,5E0,1.3E1,9E0,9E0,4E0,7E0,2E0,3E0,1E0,6E0,1E0],"tree_param":{"num_deleted":"0","num_feature":"4","num_nodes":"15","size_leaf_vector":"1"}},{"base_weights":[-1.07278265E-2,-5.7818427E0,1.1537633E0,-1.0432214E1,6.50411E-1,-1.4876221E1,-3.1673827E0,-8.340052E-1,-8.293213E0,-2.0089722E0,-2.6003417E-1,-1.08206175E-1,-8.2023925E-1,-1.7444198E-1,2.0875244E-1],"categories":[],"categories_nodes":[],"categories_segments":[],"categories_sizes":[],"default_left":[0,0,0,0,0,0,0,0,0,0,0,0,0,0,0],"id":54,"left_children":[1,3,-1,5,-1,7,9,-1,11,13,-1,-1,-1,-1,-1],"loss_changes":[4.663303E3,2.582366E3,0E0,6.954353E2,0E0,2.7918213E1,1.3105957E1,0E0,2.1308075E2,8.7778305E1,0E0,0E0,0E0,0E0,0E0],"parents":[2147483647,0,0,1,1,3,3,5,5,6,6,8,8,9,9],"right_children":[2,4,-1,6,-1,8,10,-1,12,14,-1,-1,-1,-1,-1],"split_conditions":[2.1213202E0,2.366432E0,1.1537633E0,-3.2889354E-1,6.50411E-1,1.2403474E0,-2.6719794E-1,-8.340052E-1,-3.36297E-1,-2.721336E-1,-2.6003417E-1,-1.08206175E-1,-8.2023925E-1,-1.7444198E-1,2.0875244E-1],"split_indices":[1,2,0,3,0,0,3,0,3,3,0,0,0,0,0],"split_type":[0,0,0,0,0,0,0,0,0,0,0,0,0,0,0],"sum_hessian":[3.3E1,2.7E1,6E0,2.2E1,5E0,1.3E1,9E0,9E0,4E0,7E0,2E0,3E0,1E0,6E0,1E0],"tree_param":{"num_deleted":"0","num_feature":"4","num_nodes":"15","size_leaf_vector":"1"}},{"base_weights":[-1.5596278E-2,-5.5405097E0,1.1043143E0,-9.997027E0,6.233114E-1,-1.4258318E1,-3.0315185E0,-7.964758E-1,-8.064258E0,-1.9041443E0,-2.5136718E-1,-1.0415039E-1,-7.9973143E-1,-1.669608E-1,2.0353393E-1],"categories":[],"categories_nodes":[],"categories_segments":[],"categories_sizes":[],"default_left":[0,0,0,0,0,0,0,0,0,0,0,0,0,0,0],"id":55,"left_children":[1,3,-1,5,-1,7,9,-1,11,13,-1,-1,-1,-1,-1],"loss_changes":[4.274143E3,2.371551E3,0E0,6.3946313E2,0E0,1.6461182E1,1.2927635E1,0E0,2.0385074E2,8.218726E1,0E0,0E0,0E0,0E0,0E0],"parents":[2147483647,0,0,1,1,3,3,5,5,6,6,8,8,9,9],"right_children":[2,4,-1,6,-1,8,10,-1,12,14,-1,-1,-1,-1,-1],"split_conditions":[2.1213202E0,2.366432E0,1.1043143E0,-3.2889354E-1,6.233114E-1,1.2403474E0,-2.6719794E-1,-7.964758E-1,-3.36297E-1,-2.721336E-1,-2.5136718E-1,-1.0415039E-1,-7.9973143E-1,-1.669608E-1,2.0353393E-1],"split_indices":[1,2,0,3,0,0,3,0,3,3,0,0,0,0,0],"split_type":[0,0,0,0,0,0,0,0,0,0,0,0,0,0,0],"sum_hessian":[3.3E1,2.7E1,6E0,2.2E1,5E0,1.3E1,9E0,9E0,4E0,7E0,2E0,3E0,1E0,6E0,1E0],"tree_param":{"num_deleted":"0","num_feature":"4","num_nodes":"15","size_leaf_vector":"1"}},{"base_weights":[-2.0321116E-2,-5.309623E0,1.0569894E0,-9.58045E0,5.9734094E-1,-1.3666887E1,-2.9013915E0,-7.606384E-1,-7.841748E0,-1.8043518E0,-2.4298504E-1,-1.0024109E-1,-7.7973634E-1,-1.5980399E-1,1.984436E-1],"categories":[],"categories_nodes":[],"categories_segments":[],"categories_sizes":[],"default_left":[0,0,0,0,0,0,0,0,0,0,0,0,0,0,0],"id":56,"left_children":[1,3,-1,5,-1,7,9,-1,11,13,-1,-1,-1,-1,-1],"loss_changes":[3.9175986E3,2.1780356E3,0E0,5.8809863E2,0E0,6.7749023E0,1.2714821E1,0E0,1.9500317E2,7.696289E1,0E0,0E0,0E0,0E0,0E0],"parents":[2147483647,0,0,1,1,3,3,5,5,6,6,8,8,9,9],"right_children":[2,4,-1,6,-1,8,10,-1,12,14,-1,-1,-1,-1,-1],"split_conditions":[2.1213202E0,2.366432E0,1.0569894E0,-3.2889354E-1,5.9734094E-1,1.2403474E0,-2.6719794E-1,-7.606384E-1,-3.36297E-1,-2.721336E-1,-2.4298504E-1,-1.0024109E-1,-7.7973634E-1,-1.5980399E-1,1.984436E-1],"split_indices":[1,2,0,3,0,0,3,0,3,3,0,0,0,0,0],"split_type":[0,0,0,0,0,0,0,0,0,0,0,0,0,0,0],"sum_hessian":[3.3E1,2.7E1,6E0,2.2E1,5E0,1.3E1,9E0,9E0,4E0,7E0,2E0,3E0,1E0,6E0,1E0],"tree_param":{"num_deleted":"0","num_feature":"4","num_nodes":"15","size_leaf_vector":"1"}},{"base_weights":[-2.485208E-2,-5.0886493E0,1.0116943E0,-9.181566E0,5.7244873E-1,-6.550319E-1,-2.776709E0,-1.7092285E0,-2.348877E-1,-1.5295061E-1,1.9348145E-1],"categories":[],"categories_nodes":[],"categories_segments":[],"categories_sizes":[],"default_left":[0,0,0,0,0,0,0,0,0,0,0],"id":57,"left_children":[1,3,-1,5,-1,-1,7,9,-1,-1,-1],"loss_changes":[3.590892E3,2.000359E3,0E0,5.4094836E2,0E0,0E0,1.24772415E1,7.207925E1,0E0,0E0,0E0],"parents":[2147483647,0,0,1,1,3,3,6,6,7,7],"right_children":[2,4,-1,6,-1,-1,8,10,-1,-1,-1],"split_conditions":[2.1213202E0,2.366432E0,1.0116943E0,-3.2889354E-1,5.7244873E-1,-6.550319E-1,-2.6719794E-1,-2.721336E-1,-2.348877E-1,-1.5295061E-1,1.9348145E-1],"split_indices":[1,2,0,3,0,0,3,3,0,0,0],"split_type":[0,0,0,0,0,0,0,0,0,0,0],"sum_hessian":[3.3E1,2.7E1,6E0,2.2E1,5E0,1.3E1,9E0,7E0,2E0,6E0,1E0],"tree_param":{"num_deleted":"0","num_feature":"4","num_nodes":"11","size_leaf_vector":"1"}},{"base_weights":[-2.0321116E-3,-4.8441424E0,9.68335E-1,-8.759447E0,5.485942E-1,-1.2492396E1,-2.657373E0,-6.969287E-1,-7.1015625E0,-1.6187744E0,-2.2705892E-1,-7.191467E-2,-7.4386597E-1,-1.4640068E-1,1.8864746E-1],"categories":[],"categories_nodes":[],"categories_segments":[],"categories_sizes":[],"default_left":[0,0,0,0,0,0,0,0,0,0,0,0,0,0,0],"id":58,"left_children":[1,3,-1,5,-1,7,9,-1,11,13,-1,-1,-1,-1,-1],"loss_changes":[3.282523E3,1.8299954E3,0E0,4.9071375E2,0E0,1.0159912E1,1.2214027E1,0E0,1.9878307E2,6.751968E1,0E0,0E0,0E0,0E0,0E0],"parents":[2147483647,0,0,1,1,3,3,5,5,6,6,8,8,9,9],"right_children":[2,4,-1,6,-1,8,10,-1,12,14,-1,-1,-1,-1,-1],"split_conditions":[2.1213202E0,2.366432E0,9.68335E-1,-3.2889354E-1,5.485942E-1,1.2403474E0,-2.6719794E-1,-6.969287E-1,-3.36297E-1,-2.721336E-1,-2.2705892E-1,-7.191467E-2,-7.4386597E-1,-1.4640068E-1,1.8864746E-1],"split_indices":[1,2,0,3,0,0,3,0,3,3,0,0,0,0,0],"split_type":[0,0,0,0,0,0,0,0,0,0,0,0,0,0,0],"sum_hessian":[3.3E1,2.7E1,6E0,2.2E1,5E0,1.3E1,9E0,9E0,4E0,7E0,2E0,3E0,1E0,6E0,1E0],"tree_param":{"num_deleted":"0","num_feature":"4","num_nodes":"15","size_leaf_vector":"1"}},{"base_weights":[-7.1806065E-3,-4.6429095E0,9.2683804E-1,-8.39521E0,5.257365E-1,-1.1975743E1,-2.5429444E0,-6.6556275E-1,-6.90957E0,-1.5325012E0,-2.1949056E-1,-6.921387E-2,-7.2526854E-1,-1.4012277E-1,1.8392944E-1],"categories":[],"categories_nodes":[],"categories_segments":[],"categories_sizes":[],"default_left":[0,0,0,0,0,0,0,0,0,0,0,0,0,0,0],"id":59,"left_children":[1,3,-1,5,-1,7,9,-1,11,13,-1,-1,-1,-1,-1],"loss_changes":[3.0088638E3,1.6808022E3,0E0,4.5149353E2,0E0,2.748169E0,1.1934143E1,0E0,1.8976566E2,6.325184E1,0E0,0E0,0E0,0E0,0E0],"parents":[2147483647,0,0,1,1,3,3,5,5,6,6,8,8,9,9],"right_children":[2,4,-1,6,-1,8,10,-1,12,14,-1,-1,-1,-1,-1],"split_conditions":[2.1213202E0,2.366432E0,9.2683804E-1,-3.2889354E-1,5.257365E-1,1.2403474E0,-2.6719794E-1,-6.6556275E-1,-3.36297E-1,-2.721336E-1,-2.1949056E-1,-6.921387E-2,-7.2526854E-1,-1.4012277E-1,1.8392944E-1],"split_indices":[1,2,0,3,0,0,3,0,3,3,0,0,0,0,0],"split_type":[0,0,0,0,0,0,0,0,0,0,0,0,0,0,0],"sum_hessian":[3.3E1,2.7E1,6E0,2.2E1,5E0,1.3E1,9E0,9E0,4E0,7E0,2E0,3E0,1E0,6E0,1E0],"tree_param":{"num_deleted":"0","num_feature":"4","num_nodes":"15","size_leaf_vector":"1"}},{"base_weights":[-1.2171128E-2,-4.4503784E0,8.871199E-1,-8.046556E0,5.038351E-1,-5.740618E-1,-2.4333496E0,-1.4503784E0,-2.1217449E-1,-1.3411692E-1,1.793335E-1],"categories":[],"categories_nodes":[],"categories_segments":[],"categories_sizes":[],"default_left":[0,0,0,0,0,0,0,0,0,0,0],"id":60,"left_children":[1,3,-1,5,-1,-1,7,9,-1,-1,-1],"loss_changes":[2.7581077E3,1.5438578E3,0E0,4.1549207E2,0E0,0E0,1.1638485E1,5.926419E1,0E0,0E0,0E0],"parents":[2147483647,0,0,1,1,3,3,6,6,7,7],"right_children":[2,4,-1,6,-1,-1,8,10,-1,-1,-1],"split_conditions":[2.1213202E0,2.366432E0,8.871199E-1,-3.2889354E-1,5.038351E-1,-5.740618E-1,-2.6719794E-1,-2.721336E-1,-2.1217449E-1,-1.3411692E-1,1.793335E-1],"split_indices":[1,2,0,3,0,0,3,3,0,0,0],"split_type":[0,0,0,0,0,0,0,0,0,0,0],"sum_hessian":[3.3E1,2.7E1,6E0,2.2E1,5E0,1.3E1,9E0,7E0,2E0,6E0,1E0],"tree_param":{"num_deleted":"0","num_feature":"4","num_nodes":"11","size_leaf_vector":"1"}},{"base_weights":[7.4750115E-3,-4.236407E0,8.490967E-1,-7.676524E0,4.8283896E-1,-1.0948259E1,-2.3284423E0,-6.097852E-1,-6.2637205E0,-1.3722839E0,-2.0510255E-1,-4.508972E-2,-6.927857E-1,-1.2837264E-1,1.7484741E-1],"categories":[],"categories_nodes":[],"categories_segments":[],"categories_sizes":[],"default_left":[0,0,0,0,0,0,0,0,0,0,0,0,0,0,0],"id":61,"left_children":[1,3,-1,5,-1,7,9,-1,11,13,-1,-1,-1,-1,-1],"loss_changes":[2.5212205E3,1.4123679E3,0E0,3.7695032E2,0E0,5.4213867E0,1.132933E1,0E0,1.9104349E2,5.5534676E1,0E0,0E0,0E0,0E0,0E0],"parents":[2147483647,0,0,1,1,3,3,5,5,6,6,8,8,9,9],"right_children":[2,4,-1,6,-1,8,10,-1,12,14,-1,-1,-1,-1,-1],"split_conditions":[2.1213202E0,2.366432E0,8.490967E-1,-3.2889354E-1,4.8283896E-1,1.2403474E0,-2.6719794E-1,-6.097852E-1,-3.36297E-1,-2.721336E-1,-2.0510255E-1,-4.508972E-2,-6.927857E-1,-1.2837264E-1,1.7484741E-1],"split_indices":[1,2,0,3,0,0,3,0,3,3,0,0,0,0,0],"split_type":[0,0,0,0,0,0,0,0,0,0,0,0,0,0,0],"sum_hessian":[3.3E1,2.7E1,6E0,2.2E1,5E0,1.3E1,9E0,9E0,4E0,7E0,2E0,3E0,1E0,6E0,1E0],"tree_param":{"num_deleted":"0","num_feature":"4","num_nodes":"15","size_leaf_vector":"1"}},{"base_weights":[1.9962087E-3,-4.061105E0,8.127058E-1,-7.358133E0,4.6271768E-1,-5.2485174E-1,-2.2278564E0,-1.297821E0,-1.9826661E-1,-1.2286901E-1,1.704773E-1],"categories":[],"categories_nodes":[],"categories_segments":[],"categories_sizes":[],"default_left":[0,0,0,0,0,0,0,0,0,0,0],"id":62,"left_children":[1,3,-1,5,-1,-1,7,9,-1,-1,-1],"loss_changes":[2.3111658E3,1.2973352E3,0E0,3.4699316E2,0E0,0E0,1.1012844E1,5.204631E1,0E0,0E0,0E0],"parents":[2147483647,0,0,1,1,3,3,6,6,7,7],"right_children":[2,4,-1,6,-1,-1,8,10,-1,-1,-1],"split_conditions":[2.1213202E0,2.366432E0,8.127058E-1,-3.2889354E-1,4.6271768E-1,-5.2485174E-1,-2.6719794E-1,-2.721336E-1,-1.9826661E-1,-1.2286901E-1,1.704773E-1],"split_indices":[1,2,0,3,0,0,3,3,0,0,0],"split_type":[0,0,0,0,0,0,0,0,0,0,0],"sum_hessian":[3.3E1,2.7E1,6E0,2.2E1,5E0,1.3E1,9E0,7E0,2E0,6E0,1E0],"tree_param":{"num_deleted":"0","num_feature":"4","num_nodes":"11","size_leaf_vector":"1"}},{"base_weights":[1.9552791E-2,-3.8656268E0,7.7787393E-1,-7.019584E0,4.4344077E-1,-1.0009626E1,-2.1315675E0,-5.587207E-1,-5.678125E0,-1.2270203E0,-1.9165854E-1,-2.3712158E-2,-6.623413E-1,-1.1760604E-1,1.6621704E-1],"categories":[],"categories_nodes":[],"categories_segments":[],"categories_sizes":[],"default_left":[0,0,0,0,0,0,0,0,0,0,0,0,0,0,0],"id":63,"left_children":[1,3,-1,5,-1,7,9,-1,11,13,-1,-1,-1,-1,-1],"loss_changes":[2.112639E3,1.1868442E3,0E0,3.1481738E2,0E0,7.184326E0,1.0688427E1,0E0,1.9065092E2,4.878515E1,0E0,0E0,0E0,0E0,0E0],"parents":[2147483647,0,0,1,1,3,3,5,5,6,6,8,8,9,9],"right_children":[2,4,-1,6,-1,8,10,-1,12,14,-1,-1,-1,-1,-1],"split_conditions":[2.1213202E0,2.366432E0,7.7787393E-1,-3.2889354E-1,4.4344077E-1,1.2403474E0,-2.6719794E-1,-5.587207E-1,-3.36297E-1,-2.721336E-1,-1.9165854E-1,-2.3712158E-2,-6.623413E-1,-1.1760604E-1,1.6621704E-1],"split_indices":[1,2,0,3,0,0,3,0,3,3,0,0,0,0,0],"split_type":[0,0,0,0,0,0,0,0,0,0,0,0,0,0,0],"sum_hessian":[3.3E1,2.7E1,6E0,2.2E1,5E0,1.3E1,9E0,9E0,4E0,7E0,2E0,3E0,1E0,6E0,1E0],"tree_param":{"num_deleted":"0","num_feature":"4","num_nodes":"15","size_leaf_vector":"1"}},{"base_weights":[1.37365E-2,-3.706011E0,7.4453825E-1,-6.728887E0,4.2496744E-1,-9.597987E0,-2.0392578E0,-5.3357303E-1,-5.5314455E0,-1.1595459E0,-1.8527018E-1,-2.2824097E-2,-6.457825E-1,-1.12562776E-1,1.6206054E-1],"categories":[],"categories_nodes":[],"categories_segments":[],"categories_sizes":[],"default_left":[0,0,0,0,0,0,0,0,0,0,0,0,0,0,0],"id":64,"left_children":[1,3,-1,5,-1,7,9,-1,11,13,-1,-1,-1,-1,-1],"loss_changes":[1.9367042E3,1.0902593E3,0E0,2.8989258E2,0E0,2.0858154E0,1.0360699E1,0E0,1.8147705E2,4.5731586E1,0E0,0E0,0E0,0E0,0E0],"parents":[2147483647,0,0,1,1,3,3,5,5,6,6,8,8,9,9],"right_children":[2,4,-1,6,-1,8,10,-1,12,14,-1,-1,-1,-1,-1],"split_conditions":[2.1213202E0,2.366432E0,7.4453825E-1,-3.2889354E-1,4.2496744E-1,1.2403474E0,-2.6719794E-1,-5.3357303E-1,-3.36297E-1,-2.721336E-1,-1.8527018E-1,-2.2824097E-2,-6.457825E-1,-1.12562776E-1,1.6206054E-1],"split_indices":[1,2,0,3,0,0,3,0,3,3,0,0,0,0,0],"split_type":[0,0,0,0,0,0,0,0,0,0,0,0,0,0,0],"sum_hessian":[3.3E1,2.7E1,6E0,2.2E1,5E0,1.3E1,9E0,9E0,4E0,7E0,2E0,3E0,1E0,6E0,1E0],"tree_param":{"num_deleted":"0","num_feature":"4","num_nodes":"15","size_leaf_vector":"1"}},{"base_weights":[8.085363E-3,-3.55331E0,7.1262556E-1,-6.450588E0,4.0725708E-1,-4.601955E-1,-1.9508789E0,-1.095398E0,-1.7909342E-1,-1.0773926E-1,1.5800782E-1],"categories":[],"categories_nodes":[],"categories_segments":[],"categories_sizes":[],"default_left":[0,0,0,0,0,0,0,0,0,0,0],"id":65,"left_children":[1,3,-1,5,-1,-1,7,9,-1,-1,-1],"loss_changes":[1.7754646E3,1.0015637E3,0E0,2.669947E2,0E0,0E0,1.0029232E1,4.2875694E1,0E0,0E0,0E0],"parents":[2147483647,0,0,1,1,3,3,6,6,7,7],"right_children":[2,4,-1,6,-1,-1,8,10,-1,-1,-1],"split_conditions":[2.1213202E0,2.366432E0,7.1262556E-1,-3.2889354E-1,4.0725708E-1,-4.601955E-1,-2.6719794E-1,-2.721336E-1,-1.7909342E-1,-1.0773926E-1,1.5800782E-1],"split_indices":[1,2,0,3,0,0,3,3,0,0,0],"split_type":[0,0,0,0,0,0,0,0,0,0,0],"sum_hessian":[3.3E1,2.7E1,6E0,2.2E1,5E0,1.3E1,9E0,7E0,2E0,6E0,1E0],"tree_param":{"num_deleted":"0","num_feature":"4","num_nodes":"11","size_leaf_vector":"1"}},{"base_weights":[2.3293888E-2,-3.3821323E0,6.8208355E-1,-6.153671E0,3.902893E-1,-8.776576E0,-1.8662354E0,-4.8884764E-1,-5.020508E0,-1.0343933E0,-1.7312013E-1,-4.714966E-3,-6.1813354E-1,-1.03125E-1,1.5405884E-1],"categories":[],"categories_nodes":[],"categories_segments":[],"categories_sizes":[],"default_left":[0,0,0,0,0,0,0,0,0,0,0,0,0,0,0],"id":66,"left_children":[1,3,-1,5,-1,7,9,-1,11,13,-1,-1,-1,-1,-1],"loss_changes":[1.6229349E3,9.1625104E2,0E0,2.4226831E2,0E0,3.5194092E0,9.696102E0,0E0,1.7967935E2,4.0204887E1,0E0,0E0,0E0,0E0,0E0],"parents":[2147483647,0,0,1,1,3,3,5,5,6,6,8,8,9,9],"right_children":[2,4,-1,6,-1,8,10,-1,12,14,-1,-1,-1,-1,-1],"split_conditions":[2.1213202E0,2.366432E0,6.8208355E-1,-3.2889354E-1,3.902893E-1,1.2403474E0,-2.6719794E-1,-4.8884764E-1,-3.36297E-1,-2.721336E-1,-1.7312013E-1,-4.714966E-3,-6.1813354E-1,-1.03125E-1,1.5405884E-1],"split_indices":[1,2,0,3,0,0,3,0,3,3,0,0,0,0,0],"split_type":[0,0,0,0,0,0,0,0,0,0,0,0,0,0,0],"sum_hessian":[3.3E1,2.7E1,6E0,2.2E1,5E0,1.3E1,9E0,9E0,4E0,7E0,2E0,3E0,1E0,6E0,1E0],"tree_param":{"num_deleted":"0","num_feature":"4","num_nodes":"15","size_leaf_vector":"1"}},{"base_weights":[1.7312443E-2,-3.243225E0,6.528495E-1,-5.8997006E0,3.7402344E-1,-4.2086098E-1,-1.7852051E0,-9.763794E-1,-1.6735026E-1,-9.8709546E-2,1.5020752E-1],"categories":[],"categories_nodes":[],"categories_segments":[],"categories_sizes":[],"default_left":[0,0,0,0,0,0,0,0,0,0,0],"id":67,"left_children":[1,3,-1,5,-1,-1,7,9,-1,-1,-1],"loss_changes":[1.487903E3,8.4177496E2,0E0,2.2321484E2,0E0,0E0,9.364292E0,3.7705315E1,0E0,0E0,0E0],"parents":[2147483647,0,0,1,1,3,3,6,6,7,7],"right_children":[2,4,-1,6,-1,-1,8,10,-1,-1,-1],"split_conditions":[2.1213202E0,2.366432E0,6.528495E-1,-3.2889354E-1,3.7402344E-1,-4.2086098E-1,-2.6719794E-1,-2.721336E-1,-1.6735026E-1,-9.8709546E-2,1.5020752E-1],"split_indices":[1,2,0,3,0,0,3,3,0,0,0],"split_type":[0,0,0,0,0,0,0,0,0,0,0],"sum_hessian":[3.3E1,2.7E1,6E0,2.2E1,5E0,1.3E1,9E0,7E0,2E0,6E0,1E0],"tree_param":{"num_deleted":"0","num_feature":"4","num_nodes":"11","size_leaf_vector":"1"}},{"base_weights":[3.0862248E-2,-3.0868793E0,6.2487096E-1,-5.628057E0,3.5843915E-1,-8.026384E0,-1.7075927E0,-4.479126E-1,-4.557373E0,-9.211731E-1,-1.6177572E-1,1.1242676E-2,-5.92157E-1,-9.448242E-2,1.4645386E-1],"categories":[],"categories_nodes":[],"categories_segments":[],"categories_sizes":[],"default_left":[0,0,0,0,0,0,0,0,0,0,0,0,0,0,0],"id":68,"left_children":[1,3,-1,5,-1,7,9,-1,11,13,-1,-1,-1,-1,-1],"loss_changes":[1.3600731E3,7.7006726E2,0E0,2.0255304E2,0E0,4.4311523E0,9.035406E0,0E0,1.7687393E2,3.5365902E1,0E0,0E0,0E0,0E0,0E0],"parents":[2147483647,0,0,1,1,3,3,5,5,6,6,8,8,9,9],"right_children":[2,4,-1,6,-1,8,10,-1,12,14,-1,-1,-1,-1,-1],"split_conditions":[2.1213202E0,2.366432E0,6.2487096E-1,-3.2889354E-1,3.5843915E-1,1.2403474E0,-2.6719794E-1,-4.479126E-1,-3.36297E-1,-2.721336E-1,-1.6177572E-1,1.1242676E-2,-5.92157E-1,-9.448242E-2,1.4645386E-1],"split_indices":[1,2,0,3,0,0,3,0,3,3,0,0,0,0,0],"split_type":[0,0,0,0,0,0,0,0,0,0,0,0,0,0,0],"sum_hessian":[3.3E1,2.7E1,6E0,2.2E1,5E0,1.3E1,9E0,9E0,4E0,7E0,2E0,3E0,1E0,6E0,1E0],"tree_param":{"num_deleted":"0","num_feature":"4","num_nodes":"15","size_leaf_vector":"1"}},{"base_weights":[2.4801815E-2,-2.960362E0,5.980957E-1,-5.3961234E0,3.4350586E-1,-7.698504E0,-1.6331787E0,-4.277527E-1,-4.445703E0,-8.686218E-1,-1.5638022E-1,1.0821533E-2,-5.77356E-1,-9.043317E-2,1.4279175E-1],"categories":[],"categories_nodes":[],"categories_segments":[],"categories_sizes":[],"default_left":[0,0,0,0,0,0,0,0,0,0,0,0,0,0,0],"id":69,"left_children":[1,3,-1,5,-1,7,9,-1,11,13,-1,-1,-1,-1,-1],"loss_changes":[1.2469757E3,7.075236E2,0E0,1.8669275E2,0E0,9.733887E-1,8.70903E0,0E0,1.6803793E2,3.3174404E1,0E0,0E0,0E0,0E0,0E0],"parents":[2147483647,0,0,1,1,3,3,5,5,6,6,8,8,9,9],"right_children":[2,4,-1,6,-1,8,10,-1,12,14,-1,-1,-1,-1,-1],"split_conditions":[2.1213202E0,2.366432E0,5.980957E-1,-3.2889354E-1,3.4350586E-1,1.2403474E0,-2.6719794E-1,-4.277527E-1,-3.36297E-1,-2.721336E-1,-1.5638022E-1,1.0821533E-2,-5.77356E-1,-9.043317E-2,1.4279175E-1],"split_indices":[1,2,0,3,0,0,3,0,3,3,0,0,0,0,0],"split_type":[0,0,0,0,0,0,0,0,0,0,0,0,0,0,0],"sum_hessian":[3.3E1,2.7E1,6E0,2.2E1,5E0,1.3E1,9E0,9E0,4E0,7E0,2E0,3E0,1E0,6E0,1E0],"tree_param":{"num_deleted":"0","num_feature":"4","num_nodes":"15","size_leaf_vector":"1"}},{"base_weights":[1.893526E-2,-2.8393118E0,5.7246095E-1,-5.1740828E0,3.2919312E-1,-3.6922956E-1,-1.5619628E0,-8.187256E-1,-1.5116374E-1,-8.656181E-2,1.3922119E-1],"categories":[],"categories_nodes":[],"categories_segments":[],"categories_sizes":[],"default_left":[0,0,0,0,0,0,0,0,0,0,0],"id":70,"left_children":[1,3,-1,5,-1,-1,7,9,-1,-1,-1],"loss_changes":[1.1433075E3,6.5009216E2,0E0,1.7211182E2,0E0,0E0,8.38578E0,3.112379E1,0E0,0E0,0E0],"parents":[2147483647,0,0,1,1,3,3,6,6,7,7],"right_children":[2,4,-1,6,-1,-1,8,10,-1,-1,-1],"split_conditions":[2.1213202E0,2.366432E0,5.7246095E-1,-3.2889354E-1,3.2919312E-1,-3.6922956E-1,-2.6719794E-1,-2.721336E-1,-1.5116374E-1,-8.656181E-2,1.3922119E-1],"split_indices":[1,2,0,3,0,0,3,3,0,0,0],"split_type":[0,0,0,0,0,0,0,0,0,0,0],"sum_hessian":[3.3E1,2.7E1,6E0,2.2E1,5E0,1.3E1,9E0,7E0,2E0,6E0,1E0],"tree_param":{"num_deleted":"0","num_feature":"4","num_nodes":"11","size_leaf_vector":"1"}},{"base_weights":[3.0740177E-2,-2.7022967E0,5.479248E-1,-4.935738E0,3.1548056E-1,-7.0418177E0,-1.4936523E0,-3.9189333E-1,-4.0413575E0,-7.7111816E-1,-1.4612631E-1,2.4261475E-2,-5.5369264E-1,-8.284738E-2,1.3574219E-1],"categories":[],"categories_nodes":[],"categories_segments":[],"categories_sizes":[],"default_left":[0,0,0,0,0,0,0,0,0,0,0,0,0,0,0],"id":71,"left_children":[1,3,-1,5,-1,7,9,-1,11,13,-1,-1,-1,-1,-1],"loss_changes":[1.0450558E3,5.947144E2,0E0,1.5621606E2,0E0,1.7635498E0,8.070486E0,0E0,1.6453937E2,2.9202095E1,0E0,0E0,0E0,0E0,0E0],"parents":[2147483647,0,0,1,1,3,3,5,5,6,6,8,8,9,9],"right_children":[2,4,-1,6,-1,8,10,-1,12,14,-1,-1,-1,-1,-1],"split_conditions":[2.1213202E0,2.366432E0,5.479248E-1,-3.2889354E-1,3.1548056E-1,1.2403474E0,-2.6719794E-1,-3.9189333E-1,-3.36297E-1,-2.721336E-1,-1.4612631E-1,2.4261475E-2,-5.5369264E-1,-8.284738E-2,1.3574219E-1],"split_indices":[1,2,0,3,0,0,3,0,3,3,0,0,0,0,0],"split_type":[0,0,0,0,0,0,0,0,0,0,0,0,0,0,0],"sum_hessian":[3.3E1,2.7E1,6E0,2.2E1,5E0,1.3E1,9E0,9E0,4E0,7E0,2E0,3E0,1E0,6E0,1E0],"tree_param":{"num_deleted":"0","num_feature":"4","num_nodes":"15","size_leaf_vector":"1"}},{"base_weights":[2.4765912E-2,-2.5921543E0,5.244455E-1,-4.73308E0,3.0233765E-1,-6.7555456E0,-1.4283203E0,-5.614126E0,-5.398499E-1,-7.260132E-1,-1.4125162E-1,-3.7426028E-1,2.3355102E-2,-7.930037E-2,1.3234864E-1],"categories":[],"categories_nodes":[],"categories_segments":[],"categories_sizes":[],"default_left":[0,0,0,0,0,0,0,0,0,0,0,0,0,0,0],"id":72,"left_children":[1,3,-1,5,-1,7,9,11,-1,13,-1,-1,-1,-1,-1],"loss_changes":[9.58239E2,5.46487E2,0E0,1.4407745E2,0E0,3.9661865E0,7.758198E0,1.5141629E2,0E0,2.74041E1,0E0,0E0,0E0,0E0,0E0],"parents":[2147483647,0,0,1,1,3,3,5,5,6,6,7,7,9,9],"right_children":[2,4,-1,6,-1,8,10,12,-1,14,-1,-1,-1,-1,-1],"split_conditions":[2.1213202E0,2.366432E0,5.244455E-1,-3.2889354E-1,3.0233765E-1,-3.36297E-1,-2.6719794E-1,1.2403474E0,-5.398499E-1,-2.721336E-1,-1.4125162E-1,-3.7426028E-1,2.3355102E-2,-7.930037E-2,1.3234864E-1],"split_indices":[1,2,0,3,0,3,3,0,0,3,0,0,0,0,0],"split_type":[0,0,0,0,0,0,0,0,0,0,0,0,0,0,0],"sum_hessian":[3.3E1,2.7E1,6E0,2.2E1,5E0,1.3E1,9E0,1.2E1,1E0,7E0,2E0,9E0,3E0,6E0,1E0],"tree_param":{"num_deleted":"0","num_feature":"4","num_nodes":"15","size_leaf_vector":"1"}},{"base_weights":[1.9078871E-2,-2.4866855E0,5.019706E-1,-4.5389776E0,2.8974408E-1,-6.4814105E0,-1.3656738E0,-5.360427E0,-5.2635497E-1,-6.8304443E-1,-1.3653971E-1,-3.574182E-1,2.2476196E-2,-7.589983E-2,1.2904052E-1],"categories":[],"categories_nodes":[],"categories_segments":[],"categories_sizes":[],"default_left":[0,0,0,0,0,0,0,0,0,0,0,0,0,0,0],"id":73,"left_children":[1,3,-1,5,-1,7,9,11,-1,13,-1,-1,-1,-1,-1],"loss_changes":[8.7865704E2,5.021962E2,0E0,1.3291885E2,0E0,7.062439E0,7.453459E0,1.3825513E2,0E0,2.5718966E1,0E0,0E0,0E0,0E0,0E0],"parents":[2147483647,0,0,1,1,3,3,5,5,6,6,7,7,9,9],"right_children":[2,4,-1,6,-1,8,10,12,-1,14,-1,-1,-1,-1,-1],"split_conditions":[2.1213202E0,2.366432E0,5.019706E-1,-3.2889354E-1,2.8974408E-1,-3.36297E-1,-2.6719794E-1,1.2403474E0,-5.2635497E-1,-2.721336E-1,-1.3653971E-1,-3.574182E-1,2.2476196E-2,-7.589983E-2,1.2904052E-1],"split_indices":[1,2,0,3,0,3,3,0,0,3,0,0,0,0,0],"split_type":[0,0,0,0,0,0,0,0,0,0,0,0,0,0,0],"sum_hessian":[3.3E1,2.7E1,6E0,2.2E1,5E0,1.3E1,9E0,1.2E1,1E0,7E0,2E0,9E0,3E0,6E0,1E0],"tree_param":{"num_deleted":"0","num_feature":"4","num_nodes":"15","size_leaf_vector":"1"}},{"base_weights":[1.3621611E-2,-2.385751E0,4.8045832E-1,-4.3531017E0,2.7766928E-1,-6.2188544E0,-1.3057373E0,-5.118164E0,-5.131958E-1,-6.4224243E-1,-1.3199057E-1,-3.4133422E-1,2.1633912E-2,-7.264579E-2,1.2581177E-1],"categories":[],"categories_nodes":[],"categories_segments":[],"categories_sizes":[],"default_left":[0,0,0,0,0,0,0,0,0,0,0,0,0,0,0],"id":74,"left_children":[1,3,-1,5,-1,7,9,11,-1,13,-1,-1,-1,-1,-1],"loss_changes":[8.057168E2,4.615083E2,0E0,1.2264926E2,0E0,9.800659E0,7.1561127E0,1.2624222E2,0E0,2.4139826E1,0E0,0E0,0E0,0E0,0E0],"parents":[2147483647,0,0,1,1,3,3,5,5,6,6,7,7,9,9],"right_children":[2,4,-1,6,-1,8,10,12,-1,14,-1,-1,-1,-1,-1],"split_conditions":[2.1213202E0,2.366432E0,4.8045832E-1,-3.2889354E-1,2.7766928E-1,-3.36297E-1,-2.6719794E-1,1.2403474E0,-5.131958E-1,-2.721336E-1,-1.3199057E-1,-3.4133422E-1,2.1633912E-2,-7.264579E-2,1.2581177E-1],"split_indices":[1,2,0,3,0,3,3,0,0,3,0,0,0,0,0],"split_type":[0,0,0,0,0,0,0,0,0,0,0,0,0,0,0],"sum_hessian":[3.3E1,2.7E1,6E0,2.2E1,5E0,1.3E1,9E0,1.2E1,1E0,7E0,2E0,9E0,3E0,6E0,1E0],"tree_param":{"num_deleted":"0","num_feature":"4","num_nodes":"15","size_leaf_vector":"1"}},{"base_weights":[8.444393E-3,-2.28908E0,4.5986676E-1,-4.1750703E0,2.6610312E-1,-5.967442E0,-1.2482421E0,-4.8868876E0,-5.003662E-1,-6.0339355E-1,-1.275879E-1,-3.2597536E-1,2.0819092E-2,-6.952777E-2,1.2266846E-1],"categories":[],"categories_nodes":[],"categories_segments":[],"categories_sizes":[],"default_left":[0,0,0,0,0,0,0,0,0,0,0,0,0,0,0],"id":75,"left_children":[1,3,-1,5,-1,7,9,11,-1,13,-1,-1,-1,-1,-1],"loss_changes":[7.388512E2,4.2414706E2,0E0,1.13208374E2,0E0,1.2209717E1,6.865988E0,1.15271454E2,0E0,2.2660877E1,0E0,0E0,0E0,0E0,0E0],"parents":[2147483647,0,0,1,1,3,3,5,5,6,6,7,7,9,9],"right_children":[2,4,-1,6,-1,8,10,12,-1,14,-1,-1,-1,-1,-1],"split_conditions":[2.1213202E0,2.366432E0,4.5986676E-1,-3.2889354E-1,2.6610312E-1,-3.36297E-1,-2.6719794E-1,1.2403474E0,-5.003662E-1,-2.721336E-1,-1.275879E-1,-3.2597536E-1,2.0819092E-2,-6.952777E-2,1.2266846E-1],"split_indices":[1,2,0,3,0,3,3,0,0,3,0,0,0,0,0],"split_type":[0,0,0,0,0,0,0,0,0,0,0,0,0,0,0],"sum_hessian":[3.3E1,2.7E1,6E0,2.2E1,5E0,1.3E1,9E0,1.2E1,1E0,7E0,2E0,9E0,3E0,6E0,1E0],"tree_param":{"num_deleted":"0","num_feature":"4","num_nodes":"15","size_leaf_vector":"1"}},{"base_weights":[3.489775E-3,-2.1965332E0,4.4015417E-1,-4.004554E0,2.5501508E-1,-5.726615E0,-1.1932129E0,-4.666034E0,-4.87854E-1,-5.665283E-1,-1.233317E-1,-3.113086E-1,2.0040894E-2,-6.654576E-2,1.1960449E-1],"categories":[],"categories_nodes":[],"categories_segments":[],"categories_sizes":[],"default_left":[0,0,0,0,0,0,0,0,0,0,0,0,0,0,0],"id":76,"left_children":[1,3,-1,5,-1,7,9,11,-1,13,-1,-1,-1,-1,-1],"loss_changes":[6.775527E2,3.8982352E2,0E0,1.0451688E2,0E0,1.4317963E1,6.5829163E0,1.05260376E2,0E0,2.1275898E1,0E0,0E0,0E0,0E0,0E0],"parents":[2147483647,0,0,1,1,3,3,5,5,6,6,7,7,9,9],"right_children":[2,4,-1,6,-1,8,10,12,-1,14,-1,-1,-1,-1,-1],"split_conditions":[2.1213202E0,2.366432E0,4.4015417E-1,-3.2889354E-1,2.5501508E-1,-3.36297E-1,-2.6719794E-1,1.2403474E0,-4.87854E-1,-2.721336E-1,-1.233317E-1,-3.113086E-1,2.0040894E-2,-6.654576E-2,1.1960449E-1],"split_indices":[1,2,0,3,0,3,3,0,0,3,0,0,0,0,0],"split_type":[0,0,0,0,0,0,0,0,0,0,0,0,0,0,0],"sum_hessian":[3.3E1,2.7E1,6E0,2.2E1,5E0,1.3E1,9E0,1.2E1,1E0,7E0,2E0,9E0,3E0,6E0,1E0],"tree_param":{"num_deleted":"0","num_feature":"4","num_nodes":"15","size_leaf_vector":"1"}},{"base_weights":[-1.2350644E-3,-2.107945E0,4.2128906E-1,-3.841245E0,2.4438477E-1,-5.495954E0,-1.1405274E0,-4.4551535E0,-4.756592E-1,-5.3149414E-1,-1.1922201E-1,-2.9730102E-1,1.9290162E-2,-6.3689314E-2,1.1661377E-1],"categories":[],"categories_nodes":[],"categories_segments":[],"categories_sizes":[],"default_left":[0,0,0,0,0,0,0,0,0,0,0,0,0,0,0],"id":77,"left_children":[1,3,-1,5,-1,7,9,11,-1,13,-1,-1,-1,-1,-1],"loss_changes":[6.2137256E2,3.5829E2,0E0,9.651648E1,0E0,1.6153198E1,6.308525E0,9.611786E1,0E0,1.9976849E1,0E0,0E0,0E0,0E0,0E0],"parents":[2147483647,0,0,1,1,3,3,5,5,6,6,7,7,9,9],"right_children":[2,4,-1,6,-1,8,10,12,-1,14,-1,-1,-1,-1,-1],"split_conditions":[2.1213202E0,2.366432E0,4.2128906E-1,-3.2889354E-1,2.4438477E-1,-3.36297E-1,-2.6719794E-1,1.2403474E0,-4.756592E-1,-2.721336E-1,-1.1922201E-1,-2.9730102E-1,1.9290162E-2,-6.3689314E-2,1.1661377E-1],"split_indices":[1,2,0,3,0,3,3,0,0,3,0,0,0,0,0],"split_type":[0,0,0,0,0,0,0,0,0,0,0,0,0,0,0],"sum_hessian":[3.3E1,2.7E1,6E0,2.2E1,5E0,1.3E1,9E0,1.2E1,1E0,7E0,2E0,9E0,3E0,6E0,1E0],"tree_param":{"num_deleted":"0","num_feature":"4","num_nodes":"15","size_leaf_vector":"1"}},{"base_weights":[-5.7157627E-3,-2.0230887E0,4.0322962E-1,-3.6848145E0,2.3420207E-1,-5.274955E0,-1.0901368E0,-4.2537374E0,-4.6376953E-1,-4.9829102E-1,-1.1525065E-1,-2.8391966E-1,1.8566895E-2,-6.0958426E-2,1.1369629E-1],"categories":[],"categories_nodes":[],"categories_segments":[],"categories_sizes":[],"default_left":[0,0,0,0,0,0,0,0,0,0,0,0,0,0,0],"id":78,"left_children":[1,3,-1,5,-1,7,9,11,-1,13,-1,-1,-1,-1,-1],"loss_changes":[5.6986334E2,3.2933133E2,0E0,8.9145294E1,0E0,1.773935E1,6.041625E0,8.7767456E1,0E0,1.8759727E1,0E0,0E0,0E0,0E0,0E0],"parents":[2147483647,0,0,1,1,3,3,5,5,6,6,7,7,9,9],"right_children":[2,4,-1,6,-1,8,10,12,-1,14,-1,-1,-1,-1,-1],"split_conditions":[2.1213202E0,2.366432E0,4.0322962E-1,-3.2889354E-1,2.3420207E-1,-3.36297E-1,-2.6719794E-1,1.2403474E0,-4.6376953E-1,-2.721336E-1,-1.1525065E-1,-2.8391966E-1,1.8566895E-2,-6.0958426E-2,1.1369629E-1],"split_indices":[1,2,0,3,0,3,3,0,0,3,0,0,0,0,0],"split_type":[0,0,0,0,0,0,0,0,0,0,0,0,0,0,0],"sum_hessian":[3.3E1,2.7E1,6E0,2.2E1,5E0,1.3E1,9E0,1.2E1,1E0,7E0,2E0,9E0,3E0,6E0,1E0],"tree_param":{"num_deleted":"0","num_feature":"4","num_nodes":"15","size_leaf_vector":"1"}},{"base_weights":[-9.952321E-3,-1.9418074E0,3.859445E-1,-3.5349653E0,2.2444661E-1,-5.063267E0,-1.0418457E0,-4.061448E0,-4.5217285E-1,-4.6673584E-1,-1.1140951E-1,-2.7114257E-1,1.7871095E-2,-5.8342636E-2,1.10852055E-1],"categories":[],"categories_nodes":[],"categories_segments":[],"categories_sizes":[],"default_left":[0,0,0,0,0,0,0,0,0,0,0,0,0,0,0],"id":79,"left_children":[1,3,-1,5,-1,7,9,11,-1,13,-1,-1,-1,-1,-1],"loss_changes":[5.226427E2,3.0273337E2,0E0,8.236038E1,0E0,1.9094452E1,5.7828064E0,8.0144455E1,0E0,1.761862E1,0E0,0E0,0E0,0E0,0E0],"parents":[2147483647,0,0,1,1,3,3,5,5,6,6,7,7,9,9],"right_children":[2,4,-1,6,-1,8,10,12,-1,14,-1,-1,-1,-1,-1],"split_conditions":[2.1213202E0,2.366432E0,3.859445E-1,-3.2889354E-1,2.2444661E-1,-3.36297E-1,-2.6719794E-1,1.2403474E0,-4.5217285E-1,-2.721336E-1,-1.1140951E-1,-2.7114257E-1,1.7871095E-2,-5.8342636E-2,1.10852055E-1],"split_indices":[1,2,0,3,0,3,3,0,0,3,0,0,0,0,0],"split_type":[0,0,0,0,0,0,0,0,0,0,0,0,0,0,0],"sum_hessian":[3.3E1,2.7E1,6E0,2.2E1,5E0,1.3E1,9E0,1.2E1,1E0,7E0,2E0,9E0,3E0,6E0,1E0],"tree_param":{"num_deleted":"0","num_feature":"4","num_nodes":"15","size_leaf_vector":"1"}},{"base_weights":[-1.3951919E-2,-1.8639526E0,3.694022E-1,-3.3914106E0,2.1509807E-1,-4.860421E0,-9.956543E-1,-3.8777795E0,-4.4086915E-1,-4.368286E-1,-1.07698575E-1,-2.5893676E-1,1.720276E-2,-5.5841934E-2,1.0808106E-1],"categories":[],"categories_nodes":[],"categories_segments":[],"categories_sizes":[],"default_left":[0,0,0,0,0,0,0,0,0,0,0,0,0,0,0],"id":80,"left_children":[1,3,-1,5,-1,7,9,11,-1,13,-1,-1,-1,-1,-1],"loss_changes":[4.793567E2,2.7829858E2,0E0,7.610669E1,0E0,2.0243988E1,5.532057E0,7.318326E1,0E0,1.6549957E1,0E0,0E0,0E0,0E0,0E0],"parents":[2147483647,0,0,1,1,3,3,5,5,6,6,7,7,9,9],"right_children":[2,4,-1,6,-1,8,10,12,-1,14,-1,-1,-1,-1,-1],"split_conditions":[2.1213202E0,2.366432E0,3.694022E-1,-3.2889354E-1,2.1509807E-1,-3.36297E-1,-2.6719794E-1,1.2403474E0,-4.4086915E-1,-2.721336E-1,-1.07698575E-1,-2.5893676E-1,1.720276E-2,-5.5841934E-2,1.0808106E-1],"split_indices":[1,2,0,3,0,3,3,0,0,3,0,0,0,0,0],"split_type":[0,0,0,0,0,0,0,0,0,0,0,0,0,0,0],"sum_hessian":[3.3E1,2.7E1,6E0,2.2E1,5E0,1.3E1,9E0,1.2E1,1E0,7E0,2E0,9E0,3E0,6E0,1E0],"tree_param":{"num_deleted":"0","num_feature":"4","num_nodes":"15","size_leaf_vector":"1"}},{"base_weights":[-1.7721737E-2,-1.7893764E0,3.5357144E-1,-3.2538638E0,2.0613606E-1,-4.666068E0,-9.513916E-1,-3.7023926E0,-4.298462E-1,-4.0841675E-1,-1.04109704E-1,-2.4728027E-1,1.656189E-2,-5.3445872E-2,1.053772E-1],"categories":[],"categories_nodes":[],"categories_segments":[],"categories_sizes":[],"default_left":[0,0,0,0,0,0,0,0,0,0,0,0,0,0,0],"id":81,"left_children":[1,3,-1,5,-1,7,9,11,-1,13,-1,-1,-1,-1,-1],"loss_changes":[4.396773E2,2.5584416E2,0E0,7.034662E1,0E0,2.1203766E1,5.28957E0,6.682878E1,0E0,1.5547141E1,0E0,0E0,0E0,0E0,0E0],"parents":[2147483647,0,0,1,1,3,3,5,5,6,6,7,7,9,9],"right_children":[2,4,-1,6,-1,8,10,12,-1,14,-1,-1,-1,-1,-1],"split_conditions":[2.1213202E0,2.366432E0,3.5357144E-1,-3.2889354E-1,2.0613606E-1,-3.36297E-1,-2.6719794E-1,1.2403474E0,-4.298462E-1,-2.721336E-1,-1.04109704E-1,-2.4728027E-1,1.656189E-2,-5.3445872E-2,1.053772E-1],"split_indices":[1,2,0,3,0,3,3,0,0,3,0,0,0,0,0],"split_type":[0,0,0,0,0,0,0,0,0,0,0,0,0,0,0],"sum_hessian":[3.3E1,2.7E1,6E0,2.2E1,5E0,1.3E1,9E0,1.2E1,1E0,7E0,2E0,9E0,3E0,6E0,1E0],"tree_param":{"num_deleted":"0","num_feature":"4","num_nodes":"15","size_leaf_vector":"1"}},{"base_weights":[-2.1312041E-2,-1.7179826E0,3.3842075E-1,-3.1221552E0,1.9755046E-1,-4.479928E0,-9.090576E-1,-3.535006E0,-4.190979E-1,-3.8150024E-1,-1.0064291E-1,-2.3615113E-1,1.593933E-2,-5.1154435E-2,1.0274048E-1],"categories":[],"categories_nodes":[],"categories_segments":[],"categories_sizes":[],"default_left":[0,0,0,0,0,0,0,0,0,0,0,0,0,0,0],"id":82,"left_children":[1,3,-1,5,-1,7,9,11,-1,13,-1,-1,-1,-1,-1],"loss_changes":[4.0330566E2,2.3522246E2,0E0,6.5039825E1,0E0,2.1989319E1,5.055275E0,6.102443E1,0E0,1.4607119E1,0E0,0E0,0E0,0E0,0E0],"parents":[2147483647,0,0,1,1,3,3,5,5,6,6,7,7,9,9],"right_children":[2,4,-1,6,-1,8,10,12,-1,14,-1,-1,-1,-1,-1],"split_conditions":[2.1213202E0,2.366432E0,3.3842075E-1,-3.2889354E-1,1.9755046E-1,-3.36297E-1,-2.6719794E-1,1.2403474E0,-4.190979E-1,-2.721336E-1,-1.0064291E-1,-2.3615113E-1,1.593933E-2,-5.1154435E-2,1.0274048E-1],"split_indices":[1,2,0,3,0,3,3,0,0,3,0,0,0,0,0],"split_type":[0,0,0,0,0,0,0,0,0,0,0,0,0,0,0],"sum_hessian":[3.3E1,2.7E1,6E0,2.2E1,5E0,1.3E1,9E0,1.2E1,1E0,7E0,2E0,9E0,3E0,6E0,1E0],"tree_param":{"num_deleted":"0","num_feature":"4","num_nodes":"15","size_leaf_vector":"1"}},{"base_weights":[-2.4708467E-2,-1.6495972E0,3.239188E-1,-2.9959664E0,1.8932089E-1,-4.301618E0,-8.68457E-1,-3.3752253E0,-4.0861818E-1,-3.55896E-1,-9.729004E-2,-2.2552733E-1,1.5344239E-2,-4.8957173E-2,1.001709E-1],"categories":[],"categories_nodes":[],"categories_segments":[],"categories_sizes":[],"default_left":[0,0,0,0,0,0,0,0,0,0,0,0,0,0,0],"id":83,"left_children":[1,3,-1,5,-1,7,9,11,-1,13,-1,-1,-1,-1,-1],"loss_changes":[3.6995752E2,2.162727E2,0E0,6.0153305E1,0E0,2.2618073E1,4.829541E0,5.572914E1,0E0,1.3725124E1,0E0,0E0,0E0,0E0,0E0],"parents":[2147483647,0,0,1,1,3,3,5,5,6,6,7,7,9,9],"right_children":[2,4,-1,6,-1,8,10,12,-1,14,-1,-1,-1,-1,-1],"split_conditions":[2.1213202E0,2.366432E0,3.239188E-1,-3.2889354E-1,1.8932089E-1,-3.36297E-1,-2.6719794E-1,1.2403474E0,-4.0861818E-1,-2.721336E-1,-9.729004E-2,-2.2552733E-1,1.5344239E-2,-4.8957173E-2,1.001709E-1],"split_indices":[1,2,0,3,0,3,3,0,0,3,0,0,0,0,0],"split_type":[0,0,0,0,0,0,0,0,0,0,0,0,0,0,0],"sum_hessian":[3.3E1,2.7E1,6E0,2.2E1,5E0,1.3E1,9E0,1.2E1,1E0,7E0,2E0,9E0,3E0,6E0,1E0],"tree_param":{"num_deleted":"0","num_feature":"4","num_nodes":"15","size_leaf_vector":"1"}},{"base_weights":[-2.7882295E-2,-1.584028E0,3.100342E-1,-2.8750107E0,1.8143718E-1,-4.1307025E0,-8.29541E-1,-3.2226E0,-3.9840087E-1,-3.31604E-1,-9.404297E-2,-2.1537597E-1,1.4767456E-2,-4.6854075E-2,9.766846E-2],"categories":[],"categories_nodes":[],"categories_segments":[],"categories_sizes":[],"default_left":[0,0,0,0,0,0,0,0,0,0,0,0,0,0,0],"id":84,"left_children":[1,3,-1,5,-1,7,9,11,-1,13,-1,-1,-1,-1,-1],"loss_changes":[3.3936896E2,1.9886142E2,0E0,5.5648438E1,0E0,2.3107697E1,4.611203E0,5.088922E1,0E0,1.2898464E1,0E0,0E0,0E0,0E0,0E0],"parents":[2147483647,0,0,1,1,3,3,5,5,6,6,7,7,9,9],"right_children":[2,4,-1,6,-1,8,10,12,-1,14,-1,-1,-1,-1,-1],"split_conditions":[2.1213202E0,2.366432E0,3.100342E-1,-3.2889354E-1,1.8143718E-1,-3.36297E-1,-2.6719794E-1,1.2403474E0,-3.9840087E-1,-2.721336E-1,-9.404297E-2,-2.1537597E-1,1.4767456E-2,-4.6854075E-2,9.766846E-2],"split_indices":[1,2,0,3,0,3,3,0,0,3,0,0,0,0,0],"split_type":[0,0,0,0,0,0,0,0,0,0,0,0,0,0,0],"sum_hessian":[3.3E1,2.7E1,6E0,2.2E1,5E0,1.3E1,9E0,1.2E1,1E0,7E0,2E0,9E0,3E0,6E0,1E0],"tree_param":{"num_deleted":"0","num_feature":"4","num_nodes":"15","size_leaf_vector":"1"}},{"base_weights":[-3.0919692E-2,-1.5212752E0,2.9674596E-1,-2.7591817E0,1.73879E-1,-3.9669538E0,-7.9238284E-1,-3.0769043E0,-3.8843995E-1,-3.086548E-1,-9.090983E-2,-2.0568605E-1,1.4218139E-2,-4.4845145E-2,9.5227055E-2],"categories":[],"categories_nodes":[],"categories_segments":[],"categories_sizes":[],"default_left":[0,0,0,0,0,0,0,0,0,0,0,0,0,0,0],"id":85,"left_children":[1,3,-1,5,-1,7,9,11,-1,13,-1,-1,-1,-1,-1],"loss_changes":[3.1133014E2,1.8286252E2,0E0,5.1491882E1,0E0,2.3469788E1,4.400954E0,4.6475006E1,0E0,1.2123454E1,0E0,0E0,0E0,0E0,0E0],"parents":[2147483647,0,0,1,1,3,3,5,5,6,6,7,7,9,9],"right_children":[2,4,-1,6,-1,8,10,12,-1,14,-1,-1,-1,-1,-1],"split_conditions":[2.1213202E0,2.366432E0,2.9674596E-1,-3.2889354E-1,1.73879E-1,-3.36297E-1,-2.6719794E-1,1.2403474E0,-3.8843995E-1,-2.721336E-1,-9.090983E-2,-2.0568605E-1,1.4218139E-2,-4.4845145E-2,9.5227055E-2],"split_indices":[1,2,0,3,0,3,3,0,0,3,0,0,0,0,0],"split_type":[0,0,0,0,0,0,0,0,0,0,0,0,0,0,0],"sum_hessian":[3.3E1,2.7E1,6E0,2.2E1,5E0,1.3E1,9E0,1.2E1,1E0,7E0,2E0,9E0,3E0,6E0,1E0],"tree_param":{"num_deleted":"0","num_feature":"4","num_nodes":"15","size_leaf_vector":"1"}},{"base_weights":[-3.3770394E-2,-1.4611729E0,2.840332E-1,-2.6482253E0,1.6663615E-1,-3.8100934E0,-7.567871E-1,-2.937857E0,-3.7872925E-1,-2.8686523E-1,-8.788249E-2,-1.9643556E-1,1.3687134E-2,-4.2919923E-2,9.2846684E-2],"categories":[],"categories_nodes":[],"categories_segments":[],"categories_sizes":[],"default_left":[0,0,0,0,0,0,0,0,0,0,0,0,0,0,0],"id":86,"left_children":[1,3,-1,5,-1,7,9,11,-1,13,-1,-1,-1,-1,-1],"loss_changes":[2.8563156E2,1.6816275E2,0E0,4.7661407E1,0E0,2.371634E1,4.1990633E0,4.2444397E1,0E0,1.1396008E1,0E0,0E0,0E0,0E0,0E0],"parents":[2147483647,0,0,1,1,3,3,5,5,6,6,7,7,9,9],"right_children":[2,4,-1,6,-1,8,10,12,-1,14,-1,-1,-1,-1,-1],"split_conditions":[2.1213202E0,2.366432E0,2.840332E-1,-3.2889354E-1,1.6663615E-1,-3.36297E-1,-2.6719794E-1,1.2403474E0,-3.7872925E-1,-2.721336E-1,-8.788249E-2,-1.9643556E-1,1.3687134E-2,-4.2919923E-2,9.2846684E-2],"split_indices":[1,2,0,3,0,3,3,0,0,3,0,0,0,0,0],"split_type":[0,0,0,0,0,0,0,0,0,0,0,0,0,0,0],"sum_hessian":[3.3E1,2.7E1,6E0,2.2E1,5E0,1.3E1,9E0,1.2E1,1E0,7E0,2E0,9E0,3E0,6E0,1E0],"tree_param":{"num_deleted":"0","num_feature":"4","num_nodes":"15","size_leaf_vector":"1"}},{"base_weights":[-3.6420036E-2,-1.403547E0,2.7186453E-1,-2.5418224E0,1.5968832E-1,-3.6596332E0,-7.2270507E-1,-2.8049505E0,-3.692627E-1,-2.6623535E-1,-8.49528E-2,-1.8759155E-1,1.3174439E-2,-4.1078404E-2,9.052735E-2],"categories":[],"categories_nodes":[],"categories_segments":[],"categories_sizes":[],"default_left":[0,0,0,0,0,0,0,0,0,0,0,0,0,0,0],"id":87,"left_children":[1,3,-1,5,-1,7,9,11,-1,13,-1,-1,-1,-1,-1],"loss_changes":[2.6206226E2,1.5464221E2,0E0,4.4124023E1,0E0,2.3863846E1,4.0043974E0,3.875936E1,0E0,1.0713929E1,0E0,0E0,0E0,0E0,0E0],"parents":[2147483647,0,0,1,1,3,3,5,5,6,6,7,7,9,9],"right_children":[2,4,-1,6,-1,8,10,12,-1,14,-1,-1,-1,-1,-1],"split_conditions":[2.1213202E0,2.366432E0,2.7186453E-1,-3.2889354E-1,1.5968832E-1,-3.36297E-1,-2.6719794E-1,1.2403474E0,-3.692627E-1,-2.721336E-1,-8.49528E-2,-1.8759155E-1,1.3174439E-2,-4.1078404E-2,9.052735E-2],"split_indices":[1,2,0,3,0,3,3,0,0,3,0,0,0,0,0],"split_type":[0,0,0,0,0,0,0,0,0,0,0,0,0,0,0],"sum_hessian":[3.3E1,2.7E1,6E0,2.2E1,5E0,1.3E1,9E0,1.2E1,1E0,7E0,2E0,9E0,3E0,6E0,1E0],"tree_param":{"num_deleted":"0","num_feature":"4","num_nodes":"15","size_leaf_vector":"1"}},{"base_weights":[-3.8997874E-2,-1.3483974E0,2.6020858E-1,-2.4399734E0,1.5303549E-1,-3.5155551E0,-6.901611E-1,-2.678185E0,-3.600342E-1,-2.4679565E-1,-8.212077E-2,-1.7915405E-1,1.2680054E-2,-3.932059E-2,8.826294E-2],"categories":[],"categories_nodes":[],"categories_segments":[],"categories_sizes":[],"default_left":[0,0,0,0,0,0,0,0,0,0,0,0,0,0,0],"id":88,"left_children":[1,3,-1,5,-1,7,9,11,-1,13,-1,-1,-1,-1,-1],"loss_changes":[2.40441E2,1.4222855E2,0E0,4.0861237E1,0E0,2.3916672E1,3.816625E0,3.5397156E1,0E0,1.0074118E1,0E0,0E0,0E0,0E0,0E0],"parents":[2147483647,0,0,1,1,3,3,5,5,6,6,7,7,9,9],"right_children":[2,4,-1,6,-1,8,10,12,-1,14,-1,-1,-1,-1,-1],"split_conditions":[2.1213202E0,2.366432E0,2.6020858E-1,-3.2889354E-1,1.5303549E-1,-3.36297E-1,-2.6719794E-1,1.2403474E0,-3.600342E-1,-2.721336E-1,-8.212077E-2,-1.7915405E-1,1.2680054E-2,-3.932059E-2,8.826294E-2],"split_indices":[1,2,0,3,0,3,3,0,0,3,0,0,0,0,0],"split_type":[0,0,0,0,0,0,0,0,0,0,0,0,0,0,0],"sum_hessian":[3.3E1,2.7E1,6E0,2.2E1,5E0,1.3E1,9E0,1.2E1,1E0,7E0,2E0,9E0,3E0,6E0,1E0],"tree_param":{"num_deleted":"0","num_feature":"4","num_nodes":"15","size_leaf_vector":"1"}},{"base_weights":[-4.1367475E-2,-1.2955061E0,2.4905483E-1,-2.3423064E0,1.4665732E-1,-3.3773541E0,-6.590088E-1,-2.5570538E0,-3.510315E-1,-2.2836304E-1,-7.93864E-2,-1.710901E-1,1.2203979E-2,-3.7636023E-2,8.605347E-2],"categories":[],"categories_nodes":[],"categories_segments":[],"categories_sizes":[],"default_left":[0,0,0,0,0,0,0,0,0,0,0,0,0,0,0],"id":89,"left_children":[1,3,-1,5,-1,7,9,11,-1,13,-1,-1,-1,-1,-1],"loss_changes":[2.2061447E2,1.3081384E2,0E0,3.7847046E1,0E0,2.3888016E1,3.6369104E0,3.2324745E1,