{"learner":{"attributes":{"scikit_learn":"{\"_estimator_type\": \"regressor\"}"},"feature_names":[],"feature_types":[],"gradient_booster":{"model":{"cats":{"enc":[],"feature_segments":[],"sorted_idx":[]},"gbtree_model_param":{"num_parallel_tree":"1","num_trees":"300"},"iteration_indptr":[0,1,2,3,4,5,6,7,8,9,10,11,12,13,14,15,16,17,18,19,20,21,22,23,24,25,26,27,28,29,30,31,32,33,34,35,36,37,38,39,40,41,42,43,44,45,46,47,48,49,50,51,52,53,54,55,56,57,58,59,60,61,62,63,64,65,66,67,68,69,70,71,72,73,74,75,76,77,78,79,80,81,82,83,84,85,86,87,88,89,90,91,92,93,94,95,96,97,98,99,100,101,102,103,104,105,106,107,108,109,110,111,112,113,114,115,116,117,118,119,120,121,122,123,124,125,126,127,128,129,130,131,132,133,134,135,136,137,138,139,140,141,142,143,144,145,146,147,148,149,150,151,152,153,154,155,156,157,158,159,160,161,162,163,164,165,166,167,168,169,170,171,172,173,174,175,176,177,178,179,180,181,182,183,184,185,186,187,188,189,190,191,192,193,194,195,196,197,198,199,200,201,202,203,204,205,206,207,208,209,210,211,212,213,214,215,216,217,218,219,220,221,222,223,224,225,226,227,228,229,230,231,232,233,234,235,236,237,238,239,240,241,242,243,244,245,246,247,248,249,250,251,252,253,254,255,256,257,258,259,260,261,262,263,264,265,266,267,268,269,270,271,272,273,274,275,276,277,278,279,280,281,282,283,284,285,286,287,288,289,290,291,292,293,294,295,296,297,298,299,300],"tree_info":[0,0,0,0,0,0,0,0,0,0,0,0,0,0,0,0,0,0,0,0,0,0,0,0,0,0,0,0,0,0,0,0,0,0,0,0,0,0,0,0,0,0,0,0,0,0,0,0,0,0,0,0,0,0,0,0,0,0,0,0,0,0,0,0,0,0,0,0,0,0,0,0,0,0,0,0,0,0,0,0,0,0,0,0,0,0,0,0,0,0,0,0,0,0,0,0,0,0,0,0,0,0,0,0,0,0,0,0,0,0,0,0,0,0,0,0,0,0,0,0,0,0,0,0,0,0,0,0,0,0,0,0,0,0,0,0,0,0,0,0,0,0,0,0,0,0,0,0,0,0,0,0,0,0,0,0,0,0,0,0,0,0,0,0,0,0,0,0,0,0,0,0,0,0,0,0,0,0,0,0,0,0,0,0,0,0,0,0,0,0,0,0,0,0,0,0,0,0,0,0,0,0,0,0,0,0,0,0,0,0,0,0,0,0,0,0,0,0,0,0,0,0,0,0,0,0,0,0,0,0,0,0,0,0,0,0,0,0,0,0,0,0,0,0,0,0,0,0,0,0,0,0,0,0,0,0,0,0,0,0,0,0,0,0,0,0,0,0,0,0,0,0,0,0,0,0,0,0,0,0,0,0,0,0,0,0,0,0,0,0,0,0,0,0,0,0,0,0,0,0],"trees":[{"base_weights":[-2.2194603E-5,-1.3722945E1,2.5158728E2,2.734694E1,-6.7460327E0],"categories":[],"categories_nodes":[],"categories_segments":[],"categories_sizes":[],"default_left":[0,0,0,0,0],"id":0,"left_children":[1,-1,3,-1,-1],"loss_changes":[1.5881585E6,0E0,1.4436615E6,0E0,0E0],"parents":[2147483647,0,0,2,2],"right_children":[2,-1,4,-1,-1],"split_conditions":[1.2098791E-1,-1.3722945E1,1.7888544E0,2.734694E1,-6.7460327E0],"split_indices":[3,0,1,0,0],"split_type":[0,0,0,0,0],"sum_hessian":[2.1E1,1E1,1.1E1,6E0,5E0],"tree_param":{"num_deleted":"0","num_feature":"4","num_nodes":"5","size_leaf_vector":"1"}},{"base_weights":[3.1261098E-1,-1.3099176E1,2.4072469E2,2.6174927E1,-6.4649453E0],"categories":[],"categories_nodes":[],"categories_segments":[],"categories_sizes":[],"default_left":[0,0,0,0,0],"id":1,"left_children":[1,-1,3,-1,-1],"loss_changes":[1.4503675E6,0E0,1.3232838E6,0E0,0E0],"parents":[2147483647,0,0,2,2],"right_children":[2,-1,4,-1,-1],"split_conditions":[1.2098791E-1,-1.3099176E1,1.7888544E0,2.6174927E1,-6.4649453E0],"split_indices":[3,0,1,0,0],"split_type":[0,0,0,0,0],"sum_hessian":[2.1E1,1E1,1.1E1,6E0,5E0],"tree_param":{"num_deleted":"0","num_feature":"4","num_nodes":"5","size_leaf_vector":"1"}},{"base_weights":[5.9738994E-1,-1.2503762E1,2.3033086E2,2.5053139E1,-6.195577E0],"categories":[],"categories_nodes":[],"categories_segments":[],"categories_sizes":[],"default_left":[0,0,0,0,0],"id":2,"left_children":[1,-1,3,-1,-1],"loss_changes":[1.3245336E6,0E0,1.2129441E6,0E0,0E0],"parents":[2147483647,0,0,2,2],"right_children":[2,-1,4,-1,-1],"split_conditions":[1.2098791E-1,-1.2503762E1,1.7888544E0,2.5053139E1,-6.195577E0],"split_indices":[3,0,1,0,0],"split_type":[0,0,0,0,0],"sum_hessian":[2.1E1,1E1,1.1E1,6E0,5E0],"tree_param":{"num_deleted":"0","num_feature":"4","num_nodes":"5","size_leaf_vector":"1"}},{"base_weights":[8.5625666E-1,-1.1935413E1,2.2038573E2,2.397943E1,-5.937429E0],"categories":[],"categories_nodes":[],"categories_segments":[],"categories_sizes":[],"default_left":[0,0,0,0,0],"id":3,"left_children":[1,-1,3,-1,-1],"loss_changes":[1.2096204E6,0E0,1.1118052E6,0E0,0E0],"parents":[2147483647,0,0,2,2],"right_children":[2,-1,4,-1,-1],"split_conditions":[1.2098791E-1,-1.1935413E1,1.7888544E0,2.397943E1,-5.937429E0],"split_indices":[3,0,1,0,0],"split_type":[0,0,0,0,0],"sum_hessian":[2.1E1,1E1,1.1E1,6E0,5E0],"tree_param":{"num_deleted":"0","num_feature":"4","num_nodes":"5","size_leaf_vector":"1"}},{"base_weights":[1.0909646E0,-1.13929E1,2.1086993E2,2.2951736E1,-5.690033E0],"categories":[],"categories_nodes":[],"categories_segments":[],"categories_sizes":[],"default_left":[0,0,0,0,0],"id":4,"left_children":[1,-1,3,-1,-1],"loss_changes":[1.1046794E6,0E0,1.0191002E6,0E0,0E0],"parents":[2147483647,0,0,2,2],"right_children":[2,-1,4,-1,-1],"split_conditions":[1.2098791E-1,-1.13929E1,1.7888544E0,2.2951736E1,-5.690033E0],"split_indices":[3,0,1,0,0],"split_type":[0,0,0,0,0],"sum_hessian":[2.1E1,1E1,1.1E1,6E0,5E0],"tree_param":{"num_deleted":"0","num_feature":"4","num_nodes":"5","size_leaf_vector":"1"}},{"base_weights":[1.3031449E0,-1.0875045E1,2.0176491E2,2.1968094E1,-5.4529524E0],"categories":[],"categories_nodes":[],"categories_segments":[],"categories_sizes":[],"default_left":[0,0,0,0,0],"id":5,"left_children":[1,-1,3,-1,-1],"loss_changes":[1.0088446E6,0E0,9.3412625E5,0E0,0E0],"parents":[2147483647,0,0,2,2],"right_children":[2,-1,4,-1,-1],"split_conditions":[1.2098791E-1,-1.0875045E1,1.7888544E0,2.1968094E1,-5.4529524E0],"split_indices":[3,0,1,0,0],"split_type":[0,0,0,0,0],"sum_hessian":[2.1E1,1E1,1.1E1,6E0,5E0],"tree_param":{"num_deleted":"0","num_feature":"4","num_nodes":"5","size_leaf_vector":"1"}},{"base_weights":[1.4943404E0,-1.0380726E1,1.9305293E2,2.102661E1,-5.225749E0],"categories":[],"categories_nodes":[],"categories_segments":[],"categories_sizes":[],"default_left":[0,0,0,0,0],"id":6,"left_children":[1,-1,3,-1,-1],"loss_changes":[9.213258E5,0E0,8.56238E5,0E0,0E0],"parents":[2147483647,0,0,2,2],"right_children":[2,-1,4,-1,-1],"split_conditions":[1.2098791E-1,-1.0380726E1,1.7888544E0,2.102661E1,-5.225749E0],"split_indices":[3,0,1,0,0],"split_type":[0,0,0,0,0],"sum_hessian":[2.1E1,1E1,1.1E1,6E0,5E0],"tree_param":{"num_deleted":"0","num_feature":"4","num_nodes":"5","size_leaf_vector":"1"}},{"base_weights":[1.6659602E0,-9.90888E0,1.8471706E2,2.0125467E1,-5.008006E0],"categories":[],"categories_nodes":[],"categories_segments":[],"categories_sizes":[],"default_left":[0,0,0,0,0],"id":7,"left_children":[1,-1,3,-1,-1],"loss_changes":[8.414017E5,0E0,7.848439E5,0E0,0E0],"parents":[2147483647,0,0,2,2],"right_children":[2,-1,4,-1,-1],"split_conditions":[1.2098791E-1,-9.90888E0,1.7888544E0,2.0125467E1,-5.008006E0],"split_indices":[3,0,1,0,0],"split_type":[0,0,0,0,0],"sum_hessian":[2.1E1,1E1,1.1E1,6E0,5E0],"tree_param":{"num_deleted":"0","num_feature":"4","num_nodes":"5","size_leaf_vector":"1"}},{"base_weights":[1.8194469E0,-9.458474E0,1.7674101E2,1.9262947E1,-4.799337E0],"categories":[],"categories_nodes":[],"categories_segments":[],"categories_sizes":[],"default_left":[0,0,0,0,0],"id":8,"left_children":[1,-1,3,-1,-1],"loss_changes":[7.684118E5,0E0,7.194031E5,0E0,0E0],"parents":[2147483647,0,0,2,2],"right_children":[2,-1,4,-1,-1],"split_conditions":[1.2098791E-1,-9.458474E0,1.7888544E0,1.9262947E1,-4.799337E0],"split_indices":[3,0,1,0,0],"split_type":[0,0,0,0,0],"sum_hessian":[2.1E1,1E1,1.1E1,6E0,5E0],"tree_param":{"num_deleted":"0","num_feature":"4","num_nodes":"5","size_leaf_vector":"1"}},{"base_weights":[1.955988E0,-1.8057085E2,1.6910925E2,-7.138257E0,-1.3965698E1,1.8437391E1,-4.599365E0],"categories":[],"categories_nodes":[],"categories_segments":[],"categories_sizes":[],"default_left":[0,0,0,0,0,0,0],"id":9,"left_children":[1,3,5,-1,-1,-1,-1],"loss_changes":[7.017552E5,1.1873125E3,6.594195E5,0E0,0E0,0E0,0E0],"parents":[2147483647,0,0,1,1,2,2],"right_children":[2,4,6,-1,-1,-1,-1],"split_conditions":[1.2098791E-1,4.472136E0,1.7888544E0,-7.138257E0,-1.3965698E1,1.8437391E1,-4.599365E0],"split_indices":[3,0,1,0,0,0,0],"split_type":[0,0,0,0,0,0,0],"sum_hessian":[2.1E1,1E1,1.1E1,9E0,1E0,6E0,5E0],"tree_param":{"num_deleted":"0","num_feature":"4","num_nodes":"7","size_leaf_vector":"1"}},{"base_weights":[1.5278653E0,-1.7346089E2,1.618069E2,-6.817039E0,-1.3616553E1,1.7647215E1,-4.4077253E0],"categories":[],"categories_nodes":[],"categories_segments":[],"categories_sizes":[],"default_left":[0,0,0,0,0,0,0],"id":10,"left_children":[1,3,5,-1,-1,-1,-1],"loss_changes":[6.451018E5,3.2409688E3,6.044372E5,0E0,0E0,0E0,0E0],"parents":[2147483647,0,0,1,1,2,2],"right_children":[2,4,6,-1,-1,-1,-1],"split_conditions":[1.2098791E-1,4.472136E0,1.7888544E0,-6.817039E0,-1.3616553E1,1.7647215E1,-4.4077253E0],"split_indices":[3,0,1,0,0,0,0],"split_type":[0,0,0,0,0,0,0],"sum_hessian":[2.1E1,1E1,1.1E1,9E0,1E0,6E0,5E0],"tree_param":{"num_deleted":"0","num_feature":"4","num_nodes":"7","size_leaf_vector":"1"}},{"base_weights":[1.1245006E0,-1.6664537E2,1.5481984E2,-6.5102677E0,-1.3276141E1,1.6890905E1,-4.2240705E0],"categories":[],"categories_nodes":[],"categories_segments":[],"categories_sizes":[],"default_left":[0,0,0,0,0,0,0],"id":11,"left_children":[1,3,5,-1,-1,-1,-1],"loss_changes":[5.9307994E5,5.0615625E3,5.5403975E5,0E0,0E0,0E0,0E0],"parents":[2147483647,0,0,1,1,2,2],"right_children":[2,4,6,-1,-1,-1,-1],"split_conditions":[1.2098791E-1,4.472136E0,1.7888544E0,-6.5102677E0,-1.3276141E1,1.6890905E1,-4.2240705E0],"split_indices":[3,0,1,0,0,0,0],"split_type":[0,0,0,0,0,0,0],"sum_hessian":[2.1E1,1E1,1.1E1,9E0,1E0,6E0,5E0],"tree_param":{"num_deleted":"0","num_feature":"4","num_nodes":"7","size_leaf_vector":"1"}},{"base_weights":[7.446733E-1,-1.6011188E2,1.4813446E2,-6.2173057E0,-1.2944239E1,1.616701E1,-4.048065E0],"categories":[],"categories_nodes":[],"categories_segments":[],"categories_sizes":[],"default_left":[0,0,0,0,0,0,0],"id":12,"left_children":[1,3,5,-1,-1,-1,-1],"loss_changes":[5.4530756E5,6.66825E3,5.078447E5,0E0,0E0,0E0,0E0],"parents":[2147483647,0,0,1,1,2,2],"right_children":[2,4,6,-1,-1,-1,-1],"split_conditions":[1.2098791E-1,4.472136E0,1.7888544E0,-6.2173057E0,-1.2944239E1,1.616701E1,-4.048065E0],"split_indices":[3,0,1,0,0,0,0],"split_type":[0,0,0,0,0,0,0],"sum_hessian":[2.1E1,1E1,1.1E1,9E0,1E0,6E0,5E0],"tree_param":{"num_deleted":"0","num_feature":"4","num_nodes":"7","size_leaf_vector":"1"}},{"base_weights":[3.873291E-1,-1.5384825E2,1.4173767E2,-5.937528E0,-1.262063E1,1.5474138E1,-3.8793945E0],"categories":[],"categories_nodes":[],"categories_segments":[],"categories_sizes":[],"default_left":[0,0,0,0,0,0,0],"id":13,"left_children":[1,3,5,-1,-1,-1,-1],"loss_changes":[5.0143362E5,8.079078E3,4.6550156E5,0E0,0E0,0E0,0E0],"parents":[2147483647,0,0,1,1,2,2],"right_children":[2,4,6,-1,-1,-1,-1],"split_conditions":[1.2098791E-1,4.472136E0,1.7888544E0,-5.937528E0,-1.262063E1,1.5474138E1,-3.8793945E0],"split_indices":[3,0,1,0,0,0,0],"split_type":[0,0,0,0,0,0,0],"sum_hessian":[2.1E1,1E1,1.1E1,9E0,1E0,6E0,5E0],"tree_param":{"num_deleted":"0","num_feature":"4","num_nodes":"7","size_leaf_vector":"1"}},{"base_weights":[5.1435992E-2,-1.4784297E2,1.3561702E2,-5.670341E0,-1.2305115E1,1.4810962E1,-3.7177532E0],"categories":[],"categories_nodes":[],"categories_segments":[],"categories_sizes":[],"default_left":[0,0,0,0,0,0,0],"id":14,"left_children":[1,3,5,-1,-1,-1,-1],"loss_changes":[4.611367E5,9.310719E3,4.266892E5,0E0,0E0,0E0,0E0],"parents":[2147483647,0,0,1,1,2,2],"right_children":[2,4,6,-1,-1,-1,-1],"split_conditions":[1.2098791E-1,4.472136E0,1.7888544E0,-5.670341E0,-1.2305115E1,1.4810962E1,-3.7177532E0],"split_indices":[3,0,1,0,0,0,0],"split_type":[0,0,0,0,0,0,0],"sum_hessian":[2.1E1,1E1,1.1E1,9E0,1E0,6E0,5E0],"tree_param":{"num_deleted":"0","num_feature":"4","num_nodes":"7","size_leaf_vector":"1"}},{"base_weights":[-2.639493E-1,-1.420849E2,1.2976057E2,-5.415172E0,-1.1997485E1,1.4176204E1,-3.562846E0],"categories":[],"categories_nodes":[],"categories_segments":[],"categories_sizes":[],"default_left":[0,0,0,0,0,0,0],"id":15,"left_children":[1,3,5,-1,-1,-1,-1],"loss_changes":[4.2412147E5,1.0378797E4,3.9111294E5,0E0,0E0,0E0,0E0],"parents":[2147483647,0,0,1,1,2,2],"right_children":[2,4,6,-1,-1,-1,-1],"split_conditions":[1.2098791E-1,4.472136E0,1.7888544E0,-5.415172E0,-1.1997485E1,1.4176204E1,-3.562846E0],"split_indices":[3,0,1,0,0,0,0],"split_type":[0,0,0,0,0,0,0],"sum_hessian":[2.1E1,1E1,1.1E1,9E0,1E0,6E0,5E0],"tree_param":{"num_deleted":"0","num_feature":"4","num_nodes":"7","size_leaf_vector":"1"}},{"base_weights":[-5.5980337E-1,-1.3656352E2,1.2415692E2,-5.1714845E0,-1.1697547E1,1.3568649E1,-3.4143982E0],"categories":[],"categories_nodes":[],"categories_segments":[],"categories_sizes":[],"default_left":[0,0,0,0,0,0,0],"id":16,"left_children":[1,3,5,-1,-1,-1,-1],"loss_changes":[3.9011794E5,1.1297516E4,3.585032E5,0E0,0E0,0E0,0E0],"parents":[2147483647,0,0,1,1,2,2],"right_children":[2,4,6,-1,-1,-1,-1],"split_conditions":[1.2098791E-1,4.472136E0,1.7888544E0,-5.1714845E0,-1.1697547E1,1.3568649E1,-3.4143982E0],"split_indices":[3,0,1,0,0,0,0],"split_type":[0,0,0,0,0,0,0],"sum_hessian":[2.1E1,1E1,1.1E1,9E0,1E0,6E0,5E0],"tree_param":{"num_deleted":"0","num_feature":"4","num_nodes":"7","size_leaf_vector":"1"}},{"base_weights":[-8.3708054E-1,-1.3126898E2,1.1879525E2,-4.9387717E0,-1.1405108E1,1.2987137E1,-3.2721355E0],"categories":[],"categories_nodes":[],"categories_segments":[],"categories_sizes":[],"default_left":[0,0,0,0,0,0,0],"id":17,"left_children":[1,3,5,-1,-1,-1,-1],"loss_changes":[3.588793E5,1.2080094E4,3.286128E5,0E0,0E0,0E0,0E0],"parents":[2147483647,0,0,1,1,2,2],"right_children":[2,4,6,-1,-1,-1,-1],"split_conditions":[1.2098791E-1,4.472136E0,1.7888544E0,-4.9387717E0,-1.1405108E1,1.2987137E1,-3.2721355E0],"split_indices":[3,0,1,0,0,0,0],"split_type":[0,0,0,0,0,0,0],"sum_hessian":[2.1E1,1E1,1.1E1,9E0,1E0,6E0,5E0],"tree_param":{"num_deleted":"0","num_feature":"4","num_nodes":"7","size_leaf_vector":"1"}},{"base_weights":[-1.0965244E0,-1.2619138E2,1.1366514E2,-4.7165294E0,-1.1119983E1,1.2430549E1,-3.1357932E0],"categories":[],"categories_nodes":[],"categories_segments":[],"categories_sizes":[],"default_left":[0,0,0,0,0,0,0],"id":18,"left_children":[1,3,5,-1,-1,-1,-1],"loss_changes":[3.3017766E5,1.2738906E4,3.0121444E5,0E0,0E0,0E0,0E0],"parents":[2147483647,0,0,1,1,2,2],"right_children":[2,4,6,-1,-1,-1,-1],"split_conditions":[1.2098791E-1,4.472136E0,1.7888544E0,-4.7165294E0,-1.1119983E1,1.2430549E1,-3.1357932E0],"split_indices":[3,0,1,0,0,0,0],"split_type":[0,0,0,0,0,0,0],"sum_hessian":[2.1E1,1E1,1.1E1,9E0,1E0,6E0,5E0],"tree_param":{"num_deleted":"0","num_feature":"4","num_nodes":"7","size_leaf_vector":"1"}},{"base_weights":[-1.3390892E0,-1.2132149E2,1.0875637E2,-4.504285E0,-1.0841987E1,1.1897807E1,-3.0051372E0],"categories":[],"categories_nodes":[],"categories_segments":[],"categories_sizes":[],"default_left":[0,0,0,0,0,0,0],"id":19,"left_children":[1,3,5,-1,-1,-1,-1],"loss_changes":[3.0380388E5,1.32853125E4,2.7610047E5,0E0,0E0,0E0,0E0],"parents":[2147483647,0,0,1,1,2,2],"right_children":[2,4,6,-1,-1,-1,-1],"split_conditions":[1.2098791E-1,4.472136E0,1.7888544E0,-4.504285E0,-1.0841987E1,1.1897807E1,-3.0051372E0],"split_indices":[3,0,1,0,0,0,0],"split_type":[0,0,0,0,0,0,0],"sum_hessian":[2.1E1,1E1,1.1E1,9E0,1E0,6E0,5E0],"tree_param":{"num_deleted":"0","num_feature":"4","num_nodes":"7","size_leaf_vector":"1"}},{"base_weights":[-1.5654075E0,-1.1665044E2,1.04059654E2,-4.301587E0,-1.0570935E1,1.1387904E1,-2.8799236E0],"categories":[],"categories_nodes":[],"categories_segments":[],"categories_sizes":[],"default_left":[0,0,0,0,0,0,0],"id":20,"left_children":[1,3,5,-1,-1,-1,-1],"loss_changes":[2.795676E5,1.3729781E4,2.5308081E5,0E0,0E0,0E0,0E0],"parents":[2147483647,0,0,1,1,2,2],"right_children":[2,4,6,-1,-1,-1,-1],"split_conditions":[1.2098791E-1,4.472136E0,1.7888544E0,-4.301587E0,-1.0570935E1,1.1387904E1,-2.8799236E0],"split_indices":[3,0,1,0,0,0,0],"split_type":[0,0,0,0,0,0,0],"sum_hessian":[2.1E1,1E1,1.1E1,9E0,1E0,6E0,5E0],"tree_param":{"num_deleted":"0","num_feature":"4","num_nodes":"7","size_leaf_vector":"1"}},{"base_weights":[-1.7764782E0,-1.1217001E2,9.9565636E1,-4.108019E0,-1.0306659E1,1.089985E1,-2.7599285E0],"categories":[],"categories_nodes":[],"categories_segments":[],"categories_sizes":[],"default_left":[0,0,0,0,0,0,0],"id":21,"left_children":[1,3,5,-1,-1,-1,-1],"loss_changes":[2.572936E5,1.40818125E4,2.3198034E5,0E0,0E0,0E0,0E0],"parents":[2147483647,0,0,1,1,2,2],"right_children":[2,4,6,-1,-1,-1,-1],"split_conditions":[1.2098791E-1,4.472136E0,1.7888544E0,-4.108019E0,-1.0306659E1,1.089985E1,-2.7599285E0],"split_indices":[3,0,1,0,0,0,0],"split_type":[0,0,0,0,0,0,0],"sum_hessian":[2.1E1,1E1,1.1E1,9E0,1E0,6E0,5E0],"tree_param":{"num_deleted":"0","num_feature":"4","num_nodes":"7","size_leaf_vector":"1"}},{"base_weights":[-1.9729115E0,-1.07872025E2,9.5265686E1,-3.923163E0,-1.0048993E1,1.0432712E1,-2.644928E0],"categories":[],"categories_nodes":[],"categories_segments":[],"categories_sizes":[],"default_left":[0,0,0,0,0,0,0],"id":22,"left_children":[1,3,5,-1,-1,-1,-1],"loss_changes":[2.3682111E5,1.4350508E4,2.12639E5,0E0,0E0,0E0,0E0],"parents":[2147483647,0,0,1,1,2,2],"right_children":[2,4,6,-1,-1,-1,-1],"split_conditions":[1.2098791E-1,4.472136E0,1.7888544E0,-3.923163E0,-1.0048993E1,1.0432712E1,-2.644928E0],"split_indices":[3,0,1,0,0,0,0],"split_type":[0,0,0,0,0,0,0],"sum_hessian":[2.1E1,1E1,1.1E1,9E0,1E0,6E0,5E0],"tree_param":{"num_deleted":"0","num_feature":"4","num_nodes":"7","size_leaf_vector":"1"}},{"base_weights":[-2.1553512E0,-1.03748665E2,9.115147E1,-3.7466238E0,-9.797767E0,9.9855995E0,-2.534719E0],"categories":[],"categories_nodes":[],"categories_segments":[],"categories_sizes":[],"default_left":[0,0,0,0,0,0,0],"id":23,"left_children":[1,3,5,-1,-1,-1,-1],"loss_changes":[2.1800253E5,1.454407E4,1.949106E5,0E0,0E0,0E0,0E0],"parents":[2147483647,0,0,1,1,2,2],"right_children":[2,4,6,-1,-1,-1,-1],"split_conditions":[1.2098791E-1,4.472136E0,1.7888544E0,-3.7466238E0,-9.797767E0,9.9855995E0,-2.534719E0],"split_indices":[3,0,1,0,0,0,0],"split_type":[0,0,0,0,0,0,0],"sum_hessian":[2.1E1,1E1,1.1E1,9E0,1E0,6E0,5E0],"tree_param":{"num_deleted":"0","num_feature":"4","num_nodes":"7","size_leaf_vector":"1"}},{"base_weights":[-2.324585E0,-9.979257E1,8.721478E1,-3.5780275E0,-9.55282E0,9.557646E0,-2.4291077E0],"categories":[],"categories_nodes":[],"categories_segments":[],"categories_sizes":[],"default_left":[0,0,0,0,0,0,0],"id":24,"left_children":[1,3,5,-1,-1,-1,-1],"loss_changes":[2.0070228E5,1.4670086E4,1.7866034E5,0E0,0E0,0E0,0E0],"parents":[2147483647,0,0,1,1,2,2],"right_children":[2,4,6,-1,-1,-1,-1],"split_conditions":[1.2098791E-1,4.472136E0,1.7888544E0,-3.5780275E0,-9.55282E0,9.557646E0,-2.4291077E0],"split_indices":[3,0,1,0,0,0,0],"split_type":[0,0,0,0,0,0,0],"sum_hessian":[2.1E1,1E1,1.1E1,9E0,1E0,6E0,5E0],"tree_param":{"num_deleted":"0","num_feature":"4","num_nodes":"7","size_leaf_vector":"1"}},{"base_weights":[-2.4811234E0,-9.599658E1,8.344814E1,-3.4170117E0,-9.314002E0,9.148033E0,-2.327891E0],"categories":[],"categories_nodes":[],"categories_segments":[],"categories_sizes":[],"default_left":[0,0,0,0,0,0,0],"id":25,"left_children":[1,3,5,-1,-1,-1,-1],"loss_changes":[1.8479644E5,1.4735594E4,1.637649E5,0E0,0E0,0E0,0E0],"parents":[2147483647,0,0,1,1,2,2],"right_children":[2,4,6,-1,-1,-1,-1],"split_conditions":[1.2098791E-1,4.472136E0,1.7888544E0,-3.4170117E0,-9.314002E0,9.148033E0,-2.327891E0],"split_indices":[3,0,1,0,0,0,0],"split_type":[0,0,0,0,0,0,0],"sum_hessian":[2.1E1,1E1,1.1E1,9E0,1E0,6E0,5E0],"tree_param":{"num_deleted":"0","num_feature":"4","num_nodes":"7","size_leaf_vector":"1"}},{"base_weights":[-2.6257324E0,-9.235413E1,7.984412E1,-3.263247E0,-9.081153E0,8.755978E0,-2.230896E0],"categories":[],"categories_nodes":[],"categories_segments":[],"categories_sizes":[],"default_left":[0,0,0,0,0,0,0],"id":26,"left_children":[1,3,5,-1,-1,-1,-1],"loss_changes":[1.7017148E5,1.4746828E4,1.5011156E5,0E0,0E0,0E0,0E0],"parents":[2147483647,0,0,1,1,2,2],"right_children":[2,4,6,-1,-1,-1,-1],"split_conditions":[1.2098791E-1,4.472136E0,1.7888544E0,-3.263247E0,-9.081153E0,8.755978E0,-2.230896E0],"split_indices":[3,0,1,0,0,0,0],"split_type":[0,0,0,0,0,0,0],"sum_hessian":[2.1E1,1E1,1.1E1,9E0,1E0,6E0,5E0],"tree_param":{"num_deleted":"0","num_feature":"4","num_nodes":"7","size_leaf_vector":"1"}},{"base_weights":[-2.7589445E0,-8.885871E1,7.639575E1,-3.1164038E0,-8.854126E0,8.380727E0,-2.1379395E0],"categories":[],"categories_nodes":[],"categories_segments":[],"categories_sizes":[],"default_left":[0,0,0,0,0,0,0],"id":27,"left_children":[1,3,5,-1,-1,-1,-1],"loss_changes":[1.5672284E5,1.4709758E4,1.375966E5,0E0,0E0,0E0,0E0],"parents":[2147483647,0,0,1,1,2,2],"right_children":[2,4,6,-1,-1,-1,-1],"split_conditions":[1.2098791E-1,4.472136E0,1.7888544E0,-3.1164038E0,-8.854126E0,8.380727E0,-2.1379395E0],"split_indices":[3,0,1,0,0,0,0],"split_type":[0,0,0,0,0,0,0],"sum_hessian":[2.1E1,1E1,1.1E1,9E0,1E0,6E0,5E0],"tree_param":{"num_deleted":"0","num_feature":"4","num_nodes":"7","size_leaf_vector":"1"}},{"base_weights":[-2.8813033E0,-8.5503975E1,7.309625E1,-2.9761634E0,-8.632776E0,8.021558E0,-2.0488586E0],"categories":[],"categories_nodes":[],"categories_segments":[],"categories_sizes":[],"default_left":[0,0,0,0,0,0,0],"id":28,"left_children":[1,3,5,-1,-1,-1,-1],"loss_changes":[1.4435433E5,1.4629828E4,1.2612511E5,0E0,0E0,0E0,0E0],"parents":[2147483647,0,0,1,1,2,2],"right_children":[2,4,6,-1,-1,-1,-1],"split_conditions":[1.2098791E-1,4.472136E0,1.7888544E0,-2.9761634E0,-8.632776E0,8.021558E0,-2.0488586E0],"split_indices":[3,0,1,0,0,0,0],"split_type":[0,0,0,0,0,0,0],"sum_hessian":[2.1E1,1E1,1.1E1,9E0,1E0,6E0,5E0],"tree_param":{"num_deleted":"0","num_feature":"4","num_nodes":"7","size_leaf_vector":"1"}},{"base_weights":[-2.9934525E0,-8.22842E1,6.9939186E1,-2.84224E0,-8.416956E0,7.6777797E0,-1.9634908E0],"categories":[],"categories_nodes":[],"categories_segments":[],"categories_sizes":[],"default_left":[0,0,0,0,0,0,0],"id":29,"left_children":[1,3,5,-1,-1,-1,-1],"loss_changes":[1.3297833E5,1.4511828E4,1.1561009E5,0E0,0E0,0E0,0E0],"parents":[2147483647,0,0,1,1,2,2],"right_children":[2,4,6,-1,-1,-1,-1],"split_conditions":[1.2098791E-1,4.472136E0,1.7888544E0,-2.84224E0,-8.416956E0,7.6777797E0,-1.9634908E0],"split_indices":[3,0,1,0,0,0,0],"split_type":[0,0,0,0,0,0,0],"sum_hessian":[2.1E1,1E1,1.1E1,9E0,1E0,6E0,5E0],"tree_param":{"num_deleted":"0","num_feature":"4","num_nodes":"7","size_leaf_vector":"1"}},{"base_weights":[-3.095814E0,-7.919351E1,6.6918396E1,-2.714337E0,-8.206531E0,7.3487344E0,-1.8816833E0],"categories":[],"categories_nodes":[],"categories_segments":[],"categories_sizes":[],"default_left":[0,0,0,0,0,0,0],"id":30,"left_children":[1,3,5,-1,-1,-1,-1],"loss_changes":[1.2251375E5,1.4360484E4,1.0597178E5,0E0,0E0,0E0,0E0],"parents":[2147483647,0,0,1,1,2,2],"right_children":[2,4,6,-1,-1,-1,-1],"split_conditions":[1.2098791E-1,4.472136E0,1.7888544E0,-2.714337E0,-8.206531E0,7.3487344E0,-1.8816833E0],"split_indices":[3,0,1,0,0,0,0],"split_type":[0,0,0,0,0,0,0],"sum_hessian":[2.1E1,1E1,1.1E1,9E0,1E0,6E0,5E0],"tree_param":{"num_deleted":"0","num_feature":"4","num_nodes":"7","size_leaf_vector":"1"}},{"base_weights":[-3.1889093E0,-7.622663E1,6.4028076E1,-2.5921912E0,-8.001368E0,7.033793E0,-1.8032837E0],"categories":[],"categories_nodes":[],"categories_segments":[],"categories_sizes":[],"default_left":[0,0,0,0,0,0,0],"id":31,"left_children":[1,3,5,-1,-1,-1,-1],"loss_changes":[1.1288691E5,1.4179832E4,9.713711E4,0E0,0E0,0E0,0E0],"parents":[2147483647,0,0,1,1,2,2],"right_children":[2,4,6,-1,-1,-1,-1],"split_conditions":[1.2098791E-1,4.472136E0,1.7888544E0,-2.5921912E0,-8.001368E0,7.033793E0,-1.8032837E0],"split_indices":[3,0,1,0,0,0,0],"split_type":[0,0,0,0,0,0,0],"sum_hessian":[2.1E1,1E1,1.1E1,9E0,1E0,6E0,5E0],"tree_param":{"num_deleted":"0","num_feature":"4","num_nodes":"7","size_leaf_vector":"1"}},{"base_weights":[-3.2731822E0,-7.3378265E1,6.1262573E1,-2.4755383E0,-7.8013306E0,6.732349E0,-1.7281494E0],"categories":[],"categories_nodes":[],"categories_segments":[],"categories_sizes":[],"default_left":[0,0,0,0,0,0,0],"id":32,"left_children":[1,3,5,-1,-1,-1,-1],"loss_changes":[1.0402959E5,1.3973703E4,8.9039016E4,0E0,0E0,0E0,0E0],"parents":[2147483647,0,0,1,1,2,2],"right_children":[2,4,6,-1,-1,-1,-1],"split_conditions":[1.2098791E-1,4.472136E0,1.7888544E0,-2.4755383E0,-7.8013306E0,6.732349E0,-1.7281494E0],"split_indices":[3,0,1,0,0,0,0],"split_type":[0,0,0,0,0,0,0],"sum_hessian":[2.1E1,1E1,1.1E1,9E0,1E0,6E0,5E0],"tree_param":{"num_deleted":"0","num_feature":"4","num_nodes":"7","size_leaf_vector":"1"}},{"base_weights":[-3.349221E0,-7.064358E1,5.8616375E1,-2.364137E0,-7.606299E0,6.4438167E0,-1.6561483E0],"categories":[],"categories_nodes":[],"categories_segments":[],"categories_sizes":[],"default_left":[0,0,0,0,0,0,0],"id":33,"left_children":[1,3,5,-1,-1,-1,-1],"loss_changes":[9.587944E4,1.3745539E4,8.1615984E4,0E0,0E0,0E0,0E0],"parents":[2147483647,0,0,1,1,2,2],"right_children":[2,4,6,-1,-1,-1,-1],"split_conditions":[1.2098791E-1,4.472136E0,1.7888544E0,-2.364137E0,-7.606299E0,6.4438167E0,-1.6561483E0],"split_indices":[3,0,1,0,0,0,0],"split_type":[0,0,0,0,0,0,0],"sum_hessian":[2.1E1,1E1,1.1E1,9E0,1E0,6E0,5E0],"tree_param":{"num_deleted":"0","num_feature":"4","num_nodes":"7","size_leaf_vector":"1"}},{"base_weights":[-3.4172807E0,-6.801771E1,5.6084553E1,-2.2577455E0,-7.416144E0,6.1676517E0,-1.5871379E0],"categories":[],"categories_nodes":[],"categories_segments":[],"categories_sizes":[],"default_left":[0,0,0,0,0,0,0],"id":34,"left_children":[1,3,5,-1,-1,-1,-1],"loss_changes":[8.837931E4,1.3498508E4,7.481168E4,0E0,0E0,0E0,0E0],"parents":[2147483647,0,0,1,1,2,2],"right_children":[2,4,6,-1,-1,-1,-1],"split_conditions":[1.2098791E-1,4.472136E0,1.7888544E0,-2.2577455E0,-7.416144E0,6.1676517E0,-1.5871379E0],"split_indices":[3,0,1,0,0,0,0],"split_type":[0,0,0,0,0,0,0],"sum_hessian":[2.1E1,1E1,1.1E1,9E0,1E0,6E0,5E0],"tree_param":{"num_deleted":"0","num_feature":"4","num_nodes":"7","size_leaf_vector":"1"}},{"base_weights":[-3.4779165E0,-6.549621E1,5.3662006E1,-2.156144E0,-7.230737E0,5.9033203E0,-1.5210063E0],"categories":[],"categories_nodes":[],"categories_segments":[],"categories_sizes":[],"default_left":[0,0,0,0,0,0,0],"id":35,"left_children":[1,3,5,-1,-1,-1,-1],"loss_changes":[8.14765E4,1.3235391E4,6.85747E4,0E0,0E0,0E0,0E0],"parents":[2147483647,0,0,1,1,2,2],"right_children":[2,4,6,-1,-1,-1,-1],"split_conditions":[1.2098791E-1,4.472136E0,1.7888544E0,-2.156144E0,-7.230737E0,5.9033203E0,-1.5210063E0],"split_indices":[3,0,1,0,0,0,0],"split_type":[0,0,0,0,0,0,0],"sum_hessian":[2.1E1,1E1,1.1E1,9E0,1E0,6E0,5E0],"tree_param":{"num_deleted":"0","num_feature":"4","num_nodes":"7","size_leaf_vector":"1"}},{"base_weights":[-3.5314608E0,-6.307466E1,5.1344097E1,-2.0591125E0,-7.0499697E0,5.650321E0,-1.4576315E0],"categories":[],"categories_nodes":[],"categories_segments":[],"categories_sizes":[],"default_left":[0,0,0,0,0,0,0],"id":36,"left_children":[1,3,5,-1,-1,-1,-1],"loss_changes":[7.512277E4,1.2958891E4,6.2857812E4,0E0,0E0,0E0,0E0],"parents":[2147483647,0,0,1,1,2,2],"right_children":[2,4,6,-1,-1,-1,-1],"split_conditions":[1.2098791E-1,4.472136E0,1.7888544E0,-2.0591125E0,-7.0499697E0,5.650321E0,-1.4576315E0],"split_indices":[3,0,1,0,0,0,0],"split_type":[0,0,0,0,0,0,0],"sum_hessian":[2.1E1,1E1,1.1E1,9E0,1E0,6E0,5E0],"tree_param":{"num_deleted":"0","num_feature":"4","num_nodes":"7","size_leaf_vector":"1"}},{"base_weights":[-3.5784135E0,-6.0749046E1,4.91262E1,-1.9664539E0,-6.8737183E0,5.408161E0,-1.3969015E0],"categories":[],"categories_nodes":[],"categories_segments":[],"categories_sizes":[],"default_left":[0,0,0,0,0,0,0],"id":37,"left_children":[1,3,5,-1,-1,-1,-1],"loss_changes":[6.9273805E4,1.2671254E4,5.7617586E4,0E0,0E0,0E0,0E0],"parents":[2147483647,0,0,1,1,2,2],"right_children":[2,4,6,-1,-1,-1,-1],"split_conditions":[1.2098791E-1,4.472136E0,1.7888544E0,-1.9664539E0,-6.8737183E0,5.408161E0,-1.3969015E0],"split_indices":[3,0,1,0,0,0,0],"split_type":[0,0,0,0,0,0,0],"sum_hessian":[2.1E1,1E1,1.1E1,9E0,1E0,6E0,5E0],"tree_param":{"num_deleted":"0","num_feature":"4","num_nodes":"7","size_leaf_vector":"1"}},{"base_weights":[-3.6189408E0,-5.851516E1,4.700417E1,-1.8779591E0,-6.701874E0,5.1763816E0,-1.3386943E0],"categories":[],"categories_nodes":[],"categories_segments":[],"categories_sizes":[],"default_left":[0,0,0,0,0,0,0],"id":38,"left_children":[1,3,5,-1,-1,-1,-1],"loss_changes":[6.388884E4,1.2374746E4,5.2814117E4,0E0,0E0,0E0,0E0],"parents":[2147483647,0,0,1,1,2,2],"right_children":[2,4,6,-1,-1,-1,-1],"split_conditions":[1.2098791E-1,4.472136E0,1.7888544E0,-1.8779591E0,-6.701874E0,5.1763816E0,-1.3386943E0],"split_indices":[3,0,1,0,0,0,0],"split_type":[0,0,0,0,0,0,0],"sum_hessian":[2.1E1,1E1,1.1E1,9E0,1E0,6E0,5E0],"tree_param":{"num_deleted":"0","num_feature":"4","num_nodes":"7","size_leaf_vector":"1"}},{"base_weights":[-3.6535423E0,-5.6369408E1,4.4973797E1,-1.7934521E0,-6.534326E0,4.954541E0,-1.2829183E0],"categories":[],"categories_nodes":[],"categories_segments":[],"categories_sizes":[],"default_left":[0,0,0,0,0,0,0],"id":39,"left_children":[1,3,5,-1,-1,-1,-1],"loss_changes":[5.8930656E4,1.2071207E4,4.841133E4,0E0,0E0,0E0,0E0],"parents":[2147483647,0,0,1,1,2,2],"right_children":[2,4,6,-1,-1,-1,-1],"split_conditions":[1.2098791E-1,4.472136E0,1.7888544E0,-1.7934521E0,-6.534326E0,4.954541E0,-1.2829183E0],"split_indices":[3,0,1,0,0,0,0],"split_type":[0,0,0,0,0,0,0],"sum_hessian":[2.1E1,1E1,1.1E1,9E0,1E0,6E0,5E0],"tree_param":{"num_deleted":"0","num_feature":"4","num_nodes":"7","size_leaf_vector":"1"}},{"base_weights":[-3.6825063E0,-5.4307995E1,4.3031067E1,-1.7127466E0,-6.3709655E0,4.742202E0,-1.2294617E0],"categories":[],"categories_nodes":[],"categories_segments":[],"categories_sizes":[],"default_left":[0,0,0,0,0,0,0],"id":40,"left_children":[1,3,5,-1,-1,-1,-1],"loss_changes":[5.436467E4,1.1762424E4,4.4375438E4,0E0,0E0,0E0,0E0],"parents":[2147483647,0,0,1,1,2,2],"right_children":[2,4,6,-1,-1,-1,-1],"split_conditions":[1.2098791E-1,4.472136E0,1.7888544E0,-1.7127466E0,-6.3709655E0,4.742202E0,-1.2294617E0],"split_indices":[3,0,1,0,0,0,0],"split_type":[0,0,0,0,0,0,0],"sum_hessian":[2.1E1,1E1,1.1E1,9E0,1E0,6E0,5E0],"tree_param":{"num_deleted":"0","num_feature":"4","num_nodes":"7","size_leaf_vector":"1"}},{"base_weights":[-3.706188E0,-5.232757E1,4.117226E1,-1.6356776E0,-6.2116942E0,4.5389647E0,-1.1782329E0],"categories":[],"categories_nodes":[],"categories_segments":[],"categories_sizes":[],"default_left":[0,0,0,0,0,0,0],"id":41,"left_children":[1,3,5,-1,-1,-1,-1],"loss_changes":[5.0159594E4,1.1449963E4,4.0676062E4,0E0,0E0,0E0,0E0],"parents":[2147483647,0,0,1,1,2,2],"right_children":[2,4,6,-1,-1,-1,-1],"split_conditions":[1.2098791E-1,4.472136E0,1.7888544E0,-1.6356776E0,-6.2116942E0,4.5389647E0,-1.1782329E0],"split_indices":[3,0,1,0,0,0,0],"split_type":[0,0,0,0,0,0,0],"sum_hessian":[2.1E1,1E1,1.1E1,9E0,1E0,6E0,5E0],"tree_param":{"num_deleted":"0","num_feature":"4","num_nodes":"7","size_leaf_vector":"1"}},{"base_weights":[-3.7248201E0,-5.0424538E1,3.9393658E1,-1.5620692E0,-6.0564027E0,4.344434E0,-1.1291403E0],"categories":[],"categories_nodes":[],"categories_segments":[],"categories_sizes":[],"default_left":[0,0,0,0,0,0,0],"id":42,"left_children":[1,3,5,-1,-1,-1,-1],"loss_changes":[4.6286062E4,1.1135275E4,3.728507E4,0E0,0E0,0E0,0E0],"parents":[2147483647,0,0,1,1,2,2],"right_children":[2,4,6,-1,-1,-1,-1],"split_conditions":[1.2098791E-1,4.472136E0,1.7888544E0,-1.5620692E0,-6.0564027E0,4.344434E0,-1.1291403E0],"split_indices":[3,0,1,0,0,0,0],"split_type":[0,0,0,0,0,0,0],"sum_hessian":[2.1E1,1E1,1.1E1,9E0,1E0,6E0,5E0],"tree_param":{"num_deleted":"0","num_feature":"4","num_nodes":"7","size_leaf_vector":"1"}},{"base_weights":[-3.7387583E0,-4.8595947E1,3.7691895E1,-1.4917786E0,-5.9049926E0,4.1582417E0,-1.0820923E0],"categories":[],"categories_nodes":[],"categories_segments":[],"categories_sizes":[],"default_left":[0,0,0,0,0,0,0],"id":43,"left_children":[1,3,5,-1,-1,-1,-1],"loss_changes":[4.271785E4,1.0819539E4,3.417679E4,0E0,0E0,0E0,0E0],"parents":[2147483647,0,0,1,1,2,2],"right_children":[2,4,6,-1,-1,-1,-1],"split_conditions":[1.2098791E-1,4.472136E0,1.7888544E0,-1.4917786E0,-5.9049926E0,4.1582417E0,-1.0820923E0],"split_indices":[3,0,1,0,0,0,0],"split_type":[0,0,0,0,0,0,0],"sum_hessian":[2.1E1,1E1,1.1E1,9E0,1E0,6E0,5E0],"tree_param":{"num_deleted":"0","num_feature":"4","num_nodes":"7","size_leaf_vector":"1"}},{"base_weights":[-3.7482467E0,-4.6838646E1,3.606364E1,-1.4246521E0,-5.757367E0,3.9800327E0,-1.0370077E0],"categories":[],"categories_nodes":[],"categories_segments":[],"categories_sizes":[],"default_left":[0,0,0,0,0,0,0],"id":44,"left_children":[1,3,5,-1,-1,-1,-1],"loss_changes":[3.943039E4,1.0503906E4,3.1327742E4,0E0,0E0,0E0,0E0],"parents":[2147483647,0,0,1,1,2,2],"right_children":[2,4,6,-1,-1,-1,-1],"split_conditions":[1.2098791E-1,4.472136E0,1.7888544E0,-1.4246521E0,-5.757367E0,3.9800327E0,-1.0370077E0],"split_indices":[3,0,1,0,0,0,0],"split_type":[0,0,0,0,0,0,0],"sum_hessian":[2.1E1,1E1,1.1E1,9E0,1E0,6E0,5E0],"tree_param":{"num_deleted":"0","num_feature":"4","num_nodes":"7","size_leaf_vector":"1"}},{"base_weights":[-3.7535179E0,-4.5149704E1,3.450578E1,-1.360547E0,-5.613434E0,3.8094623E0,-9.9379474E-1],"categories":[],"categories_nodes":[],"categories_segments":[],"categories_sizes":[],"default_left":[0,0,0,0,0,0,0],"id":45,"left_children":[1,3,5,-1,-1,-1,-1],"loss_changes":[3.6401277E4,1.0189412E4,2.8716129E4,0E0,0E0,0E0,0E0],"parents":[2147483647,0,0,1,1,2,2],"right_children":[2,4,6,-1,-1,-1,-1],"split_conditions":[1.2098791E-1,4.472136E0,1.7888544E0,-1.360547E0,-5.613434E0,3.8094623E0,-9.9379474E-1],"split_indices":[3,0,1,0,0,0,0],"split_type":[0,0,0,0,0,0,0],"sum_hessian":[2.1E1,1E1,1.1E1,9E0,1E0,6E0,5E0],"tree_param":{"num_deleted":"0","num_feature":"4","num_nodes":"7","size_leaf_vector":"1"}},{"base_weights":[-3.7548385E0,-4.352617E1,3.3015118E1,-1.2993201E0,-5.473096E0,3.646195E0,-9.523824E-1],"categories":[],"categories_nodes":[],"categories_segments":[],"categories_sizes":[],"default_left":[0,0,0,0,0,0,0],"id":46,"left_children":[1,3,5,-1,-1,-1,-1],"loss_changes":[3.3609598E4,9.876951E3,2.6322164E4,0E0,0E0,0E0,0E0],"parents":[2147483647,0,0,1,1,2,2],"right_children":[2,4,6,-1,-1,-1,-1],"split_conditions":[1.2098791E-1,4.472136E0,1.7888544E0,-1.2993201E0,-5.473096E0,3.646195E0,-9.523824E-1],"split_indices":[3,0,1,0,0,0,0],"split_type":[0,0,0,0,0,0,0],"sum_hessian":[2.1E1,1E1,1.1E1,9E0,1E0,6E0,5E0],"tree_param":{"num_deleted":"0","num_feature":"4","num_nodes":"7","size_leaf_vector":"1"}},{"base_weights":[-3.752497E0,-4.196553E1,3.1588827E1,-1.2408508E0,-5.336267E0,3.4899273E0,-9.126994E-1],"categories":[],"categories_nodes":[],"categories_segments":[],"categories_sizes":[],"default_left":[0,0,0,0,0,0,0],"id":47,"left_children":[1,3,5,-1,-1,-1,-1],"loss_changes":[3.1036623E4,9.567277E3,2.4127867E4,0E0,0E0,0E0,0E0],"parents":[2147483647,0,0,1,1,2,2],"right_children":[2,4,6,-1,-1,-1,-1],"split_conditions":[1.2098791E-1,4.472136E0,1.7888544E0,-1.2408508E0,-5.336267E0,3.4899273E0,-9.126994E-1],"split_indices":[3,0,1,0,0,0,0],"split_type":[0,0,0,0,0,0,0],"sum_hessian":[2.1E1,1E1,1.1E1,9E0,1E0,6E0,5E0],"tree_param":{"num_deleted":"0","num_feature":"4","num_nodes":"7","size_leaf_vector":"1"}},{"base_weights":[-3.746682E0,-4.0465088E1,3.0224081E1,-1.1850073E0,-5.2028627E0,3.3403566E0,-8.746745E-1],"categories":[],"categories_nodes":[],"categories_segments":[],"categories_sizes":[],"default_left":[0,0,0,0,0,0,0],"id":48,"left_children":[1,3,5,-1,-1,-1,-1],"loss_changes":[2.866477E4,9.261137E3,2.211654E4,0E0,0E0,0E0,0E0],"parents":[2147483647,0,0,1,1,2,2],"right_children":[2,4,6,-1,-1,-1,-1],"split_conditions":[1.2098791E-1,4.472136E0,1.7888544E0,-1.1850073E0,-5.2028627E0,3.3403566E0,-8.746745E-1],"split_indices":[3,0,1,0,0,0,0],"split_type":[0,0,0,0,0,0,0],"sum_hessian":[2.1E1,1E1,1.1E1,9E0,1E0,6E0,5E0],"tree_param":{"num_deleted":"0","num_feature":"4","num_nodes":"7","size_leaf_vector":"1"}},{"base_weights":[-3.7375822E0,-3.9022507E1,2.8918396E1,-1.1316798E0,-5.0727906E0,3.1971996E0,-8.382263E-1],"categories":[],"categories_nodes":[],"categories_segments":[],"categories_sizes":[],"default_left":[0,0,0,0,0,0,0],"id":49,"left_children":[1,3,5,-1,-1,-1,-1],"loss_changes":[2.6478268E4,8.959045E3,2.0272848E4,0E0,0E0,0E0,0E0],"parents":[2147483647,0,0,1,1,2,2],"right_children":[2,4,6,-1,-1,-1,-1],"split_conditions":[1.2098791E-1,4.472136E0,1.7888544E0,-1.1316798E0,-5.0727906E0,3.1971996E0,-8.382263E-1],"split_indices":[3,0,1,0,0,0,0],"split_type":[0,0,0,0,0,0,0],"sum_hessian":[2.1E1,1E1,1.1E1,9E0,1E0,6E0,5E0],"tree_param":{"num_deleted":"0","num_feature":"4","num_nodes":"7","size_leaf_vector":"1"}},{"base_weights":[-3.7255747E0,-3.7635498E1,2.7668985E1,-1.0807581E0,-4.945972E0,3.0601737E0,-8.03304E-1],"categories":[],"categories_nodes":[],"categories_segments":[],"categories_sizes":[],"default_left":[0,0,0,0,0,0,0],"id":50,"left_children":[1,3,5,-1,-1,-1,-1],"loss_changes":[2.4462254E4,8.661524E3,1.8582895E4,0E0,0E0,0E0,0E0],"parents":[2147483647,0,0,1,1,2,2],"right_children":[2,4,6,-1,-1,-1,-1],"split_conditions":[1.2098791E-1,4.472136E0,1.7888544E0,-1.0807581E0,-4.945972E0,3.0601737E0,-8.03304E-1],"split_indices":[3,0,1,0,0,0,0],"split_type":[0,0,0,0,0,0,0],"sum_hessian":[2.1E1,1E1,1.1E1,9E0,1E0,6E0,5E0],"tree_param":{"num_deleted":"0","num_feature":"4","num_nodes":"7","size_leaf_vector":"1"}},{"base_weights":[-3.7106156E0,-3.630156E1,2.6473633E1,-1.0321215E0,-4.8223205E0,2.9290283E0,-7.698364E-1],"categories":[],"categories_nodes":[],"categories_segments":[],"categories_sizes":[],"default_left":[0,0,0,0,0,0,0],"id":51,"left_children":[1,3,5,-1,-1,-1,-1],"loss_changes":[2.2603164E4,8.369086E3,1.7033895E4,0E0,0E0,0E0,0E0],"parents":[2147483647,0,0,1,1,2,2],"right_children":[2,4,6,-1,-1,-1,-1],"split_conditions":[1.2098791E-1,4.472136E0,1.7888544E0,-1.0321215E0,-4.8223205E0,2.9290283E0,-7.698364E-1],"split_indices":[3,0,1,0,0,0,0],"split_type":[0,0,0,0,0,0,0],"sum_hessian":[2.1E1,1E1,1.1E1,9E0,1E0,6E0,5E0],"tree_param":{"num_deleted":"0","num_feature":"4","num_nodes":"7","size_leaf_vector":"1"}},{"base_weights":[-3.6930044E0,-3.501862E1,2.5329895E1,-9.8567146E-1,-4.701764E0,2.8035018E0,-7.3776245E-1],"categories":[],"categories_nodes":[],"categories_segments":[],"categories_sizes":[],"default_left":[0,0,0,0,0,0,0],"id":52,"left_children":[1,3,5,-1,-1,-1,-1],"loss_changes":[2.0888543E4,8.082116E3,1.5614002E4,0E0,0E0,0E0,0E0],"parents":[2147483647,0,0,1,1,2,2],"right_children":[2,4,6,-1,-1,-1,-1],"split_conditions":[1.2098791E-1,4.472136E0,1.7888544E0,-9.8567146E-1,-4.701764E0,2.8035018E0,-7.3776245E-1],"split_indices":[3,0,1,0,0,0,0],"split_type":[0,0,0,0,0,0,0],"sum_hessian":[2.1E1,1E1,1.1E1,9E0,1E0,6E0,5E0],"tree_param":{"num_deleted":"0","num_feature":"4","num_nodes":"7","size_leaf_vector":"1"}},{"base_weights":[-3.6729958E0,-3.37848E1,2.4235575E1,-9.413196E-1,-4.5842223E0,2.6833532E0,-7.070211E-1],"categories":[],"categories_nodes":[],"categories_segments":[],"categories_sizes":[],"default_left":[0,0,0,0,0,0,0],"id":53,"left_children":[1,3,5,-1,-1,-1,-1],"loss_changes":[1.93071E4,7.800865E3,1.4312426E4,0E0,0E0,0E0,0E0],"parents":[2147483647,0,0,1,1,2,2],"right_children":[2,4,6,-1,-1,-1,-1],"split_conditions":[1.2098791E-1,4.472136E0,1.7888544E0,-9.413196E-1,-4.5842223E0,2.6833532E0,-7.070211E-1],"split_indices":[3,0,1,0,0,0,0],"split_type":[0,0,0,0,0,0,0],"sum_hessian":[2.1E1,1E1,1.1E1,9E0,1E0,6E0,5E0],"tree_param":{"num_deleted":"0","num_feature":"4","num_nodes":"7","size_leaf_vector":"1"}},{"base_weights":[-3.6506348E0,-3.2597813E1,2.3188498E1,-8.989563E-1,-4.469617E0,2.5683525E0,-6.7756146E-1],"categories":[],"categories_nodes":[],"categories_segments":[],"categories_sizes":[],"default_left":[0,0,0,0,0,0,0],"id":54,"left_children":[1,3,5,-1,-1,-1,-1],"loss_changes":[1.7848068E4,7.5256787E3,1.3119354E4,0E0,0E0,0E0,0E0],"parents":[2147483647,0,0,1,1,2,2],"right_children":[2,4,6,-1,-1,-1,-1],"split_conditions":[1.2098791E-1,4.472136E0,1.7888544E0,-8.989563E-1,-4.469617E0,2.5683525E0,-6.7756146E-1],"split_indices":[3,0,1,0,0,0,0],"split_type":[0,0,0,0,0,0,0],"sum_hessian":[2.1E1,1E1,1.1E1,9E0,1E0,6E0,5E0],"tree_param":{"num_deleted":"0","num_feature":"4","num_nodes":"7","size_leaf_vector":"1"}},{"base_weights":[-3.6262095E0,-3.1455988E1,2.2186605E1,-8.585047E-1,-4.3578734E0,2.4582798E0,-6.493327E-1],"categories":[],"categories_nodes":[],"categories_segments":[],"categories_sizes":[],"default_left":[0,0,0,0,0,0,0],"id":55,"left_children":[1,3,5,-1,-1,-1,-1],"loss_changes":[1.650193E4,7.256699E3,1.2025766E4,0E0,0E0,0E0,0E0],"parents":[2147483647,0,0,1,1,2,2],"right_children":[2,4,6,-1,-1,-1,-1],"split_conditions":[1.2098791E-1,4.472136E0,1.7888544E0,-8.585047E-1,-4.3578734E0,2.4582798E0,-6.493327E-1],"split_indices":[3,0,1,0,0,0,0],"split_type":[0,0,0,0,0,0,0],"sum_hessian":[2.1E1,1E1,1.1E1,9E0,1E0,6E0,5E0],"tree_param":{"num_deleted":"0","num_feature":"4","num_nodes":"7","size_leaf_vector":"1"}},{"base_weights":[-3.599798E0,-3.0357489E1,2.1228067E1,-8.198767E-1,-4.2489257E0,2.3529263E0,-6.222738E-1],"categories":[],"categories_nodes":[],"categories_segments":[],"categories_sizes":[],"default_left":[0,0,0,0,0,0,0],"id":56,"left_children":[1,3,5,-1,-1,-1,-1],"loss_changes":[1.525983E4,6.9941406E3,1.1023301E4,0E0,0E0,0E0,0E0],"parents":[2147483647,0,0,1,1,2,2],"right_children":[2,4,6,-1,-1,-1,-1],"split_conditions":[1.2098791E-1,4.472136E0,1.7888544E0,-8.198767E-1,-4.2489257E0,2.3529263E0,-6.222738E-1],"split_indices":[3,0,1,0,0,0,0],"split_type":[0,0,0,0,0,0,0],"sum_hessian":[2.1E1,1E1,1.1E1,9E0,1E0,6E0,5E0],"tree_param":{"num_deleted":"0","num_feature":"4","num_nodes":"7","size_leaf_vector":"1"}},{"base_weights":[-3.5715775E0,-2.9300447E1,2.0310852E1,-7.829847E-1,-4.1427E0,2.2520823E0,-5.96344E-1],"categories":[],"categories_nodes":[],"categories_segments":[],"categories_sizes":[],"default_left":[0,0,0,0,0,0,0],"id":57,"left_children":[1,3,5,-1,-1,-1,-1],"loss_changes":[1.4113411E4,6.7381533E3,1.0104383E4,0E0,0E0,0E0,0E0],"parents":[2147483647,0,0,1,1,2,2],"right_children":[2,4,6,-1,-1,-1,-1],"split_conditions":[1.2098791E-1,4.472136E0,1.7888544E0,-7.829847E-1,-4.1427E0,2.2520823E0,-5.96344E-1],"split_indices":[3,0,1,0,0,0,0],"split_type":[0,0,0,0,0,0,0],"sum_hessian":[2.1E1,1E1,1.1E1,9E0,1E0,6E0,5E0],"tree_param":{"num_deleted":"0","num_feature":"4","num_nodes":"7","size_leaf_vector":"1"}},{"base_weights":[-3.5416594E0,3.983282E0,-4.039136E0,1.9433268E1,-7.477515E-1,2.1555593E0,-5.7149255E-1],"categories":[],"categories_nodes":[],"categories_segments":[],"categories_sizes":[],"default_left":[0,0,0,0,0,0,0],"id":58,"left_children":[1,3,-1,5,-1,-1,-1],"loss_changes":[1.31089375E4,6.4351543E3,0E0,9.262049E3,0E0,0E0,0E0],"parents":[2147483647,0,0,1,1,3,3],"right_children":[2,4,-1,6,-1,-1,-1],"split_conditions":[4.472136E0,1.1547005E0,-4.039136E0,1.7888544E0,-7.477515E-1,2.1555593E0,-5.7149255E-1],"split_indices":[0,2,0,1,0,0,0],"split_type":[0,0,0,0,0,0,0],"sum_hessian":[2.1E1,2E1,1E0,1.1E1,9E0,6E0,5E0],"tree_param":{"num_deleted":"0","num_feature":"4","num_nodes":"7","size_leaf_vector":"1"}},{"base_weights":[-3.5101206E0,3.8239863E0,-3.9381592E0,1.8593649E1,-7.1410036E-1,2.0631802E0,-5.4767865E-1],"categories":[],"categories_nodes":[],"categories_segments":[],"categories_sizes":[],"default_left":[0,0,0,0,0,0,0],"id":59,"left_children":[1,3,-1,5,-1,-1,-1],"loss_changes":[1.2443298E4,5.8813623E3,0E0,8.489994E3,0E0,0E0,0E0],"parents":[2147483647,0,0,1,1,3,3],"right_children":[2,4,-1,6,-1,-1,-1],"split_conditions":[4.472136E0,1.1547005E0,-3.9381592E0,1.7888544E0,-7.1410036E-1,2.0631802E0,-5.4767865E-1],"split_indices":[0,2,0,1,0,0,0],"split_type":[0,0,0,0,0,0,0],"sum_hessian":[2.1E1,2E1,1E0,1.1E1,9E0,6E0,5E0],"tree_param":{"num_deleted":"0","num_feature":"4","num_nodes":"7","size_leaf_vector":"1"}},{"base_weights":[-3.4772172E0,3.6709218E0,-3.8397033E0,1.7790201E1,-6.8196535E-1,1.9747559E0,-5.248617E-1],"categories":[],"categories_nodes":[],"categories_segments":[],"categories_sizes":[],"default_left":[0,0,0,0,0,0,0],"id":60,"left_children":[1,3,-1,5,-1,-1,-1],"loss_changes":[1.1811644E4,5.3752134E3,0E0,7.7823057E3,0E0,0E0,0E0],"parents":[2147483647,0,0,1,1,3,3],"right_children":[2,4,-1,6,-1,-1,-1],"split_conditions":[4.472136E0,1.1547005E0,-3.8397033E0,1.7888544E0,-6.8196535E-1,1.9747559E0,-5.248617E-1],"split_indices":[0,2,0,1,0,0,0],"split_type":[0,0,0,0,0,0,0],"sum_hessian":[2.1E1,2E1,1E0,1.1E1,9E0,6E0,5E0],"tree_param":{"num_deleted":"0","num_feature":"4","num_nodes":"7","size_leaf_vector":"1"}},{"base_weights":[-3.4430375E0,3.523891E0,-3.7437134E0,1.7021484E1,-6.512805E-1,1.8901194E0,-5.029907E-1],"categories":[],"categories_nodes":[],"categories_segments":[],"categories_sizes":[],"default_left":[0,0,0,0,0,0,0],"id":61,"left_children":[1,3,-1,5,-1,-1,-1],"loss_changes":[1.1212287E4,4.9126626E3,0E0,7.1335703E3,0E0,0E0,0E0],"parents":[2147483647,0,0,1,1,3,3],"right_children":[2,4,-1,6,-1,-1,-1],"split_conditions":[4.472136E0,1.1547005E0,-3.7437134E0,1.7888544E0,-6.512805E-1,1.8901194E0,-5.029907E-1],"split_indices":[0,2,0,1,0,0,0],"split_type":[0,0,0,0,0,0,0],"sum_hessian":[2.1E1,2E1,1E0,1.1E1,9E0,6E0,5E0],"tree_param":{"num_deleted":"0","num_feature":"4","num_nodes":"7","size_leaf_vector":"1"}},{"base_weights":[-3.4075928E0,3.3827543E0,-3.6501222E0,1.628597E1,-6.21969E-1,1.8091135E0,-4.820353E-1],"categories":[],"categories_nodes":[],"categories_segments":[],"categories_sizes":[],"default_left":[0,0,0,0,0,0,0],"id":62,"left_children":[1,3,-1,5,-1,-1,-1],"loss_changes":[1.064356E4,4.489872E3,0E0,6.538961E3,0E0,0E0,0E0],"parents":[2147483647,0,0,1,1,3,3],"right_children":[2,4,-1,6,-1,-1,-1],"split_conditions":[4.472136E0,1.1547005E0,-3.6501222E0,1.7888544E0,-6.21969E-1,1.8091135E0,-4.820353E-1],"split_indices":[0,2,0,1,0,0,0],"split_type":[0,0,0,0,0,0,0],"sum_hessian":[2.1E1,2E1,1E0,1.1E1,9E0,6E0,5E0],"tree_param":{"num_deleted":"0","num_feature":"4","num_nodes":"7","size_leaf_vector":"1"}},{"base_weights":[-3.3710494E0,3.2472215E0,-3.5588684E0,1.5582234E1,-5.9397584E-1,1.7315813E0,-4.6195474E-1],"categories":[],"categories_nodes":[],"categories_segments":[],"categories_sizes":[],"default_left":[0,0,0,0,0,0,0],"id":63,"left_children":[1,3,-1,5,-1,-1,-1],"loss_changes":[1.0103861E4,4.1034683E3,0E0,5.9939395E3,0E0,0E0,0E0],"parents":[2147483647,0,0,1,1,3,3],"right_children":[2,4,-1,6,-1,-1,-1],"split_conditions":[4.472136E0,1.1547005E0,-3.5588684E0,1.7888544E0,-5.9397584E-1,1.7315813E0,-4.6195474E-1],"split_indices":[0,2,0,1,0,0,0],"split_type":[0,0,0,0,0,0,0],"sum_hessian":[2.1E1,2E1,1E0,1.1E1,9E0,6E0,5E0],"tree_param":{"num_deleted":"0","num_feature":"4","num_nodes":"7","size_leaf_vector":"1"}},{"base_weights":[-3.3335848E0,3.1170015E0,-3.4698975E0,1.49088545E1,-5.6724614E-1,1.657366E0,-4.4270834E-1],"categories":[],"categories_nodes":[],"categories_segments":[],"categories_sizes":[],"default_left":[0,0,0,0,0,0,0],"id":64,"left_children":[1,3,-1,5,-1,-1,-1],"loss_changes":[9.591698E3,3.75033E3,0E0,5.4943047E3,0E0,0E0,0E0],"parents":[2147483647,0,0,1,1,3,3],"right_children":[2,4,-1,6,-1,-1,-1],"split_conditions":[4.472136E0,1.1547005E0,-3.4698975E0,1.7888544E0,-5.6724614E-1,1.657366E0,-4.4270834E-1],"split_indices":[0,2,0,1,0,0,0],"split_type":[0,0,0,0,0,0,0],"sum_hessian":[2.1E1,2E1,1E0,1.1E1,9E0,6E0,5E0],"tree_param":{"num_deleted":"0","num_feature":"4","num_nodes":"7","size_leaf_vector":"1"}},{"base_weights":[-3.295288E0,2.9918852E0,-3.3831482E0,1.4264546E1,-5.4172486E-1,1.5863317E0,-4.2426553E-1],"categories":[],"categories_nodes":[],"categories_segments":[],"categories_sizes":[],"default_left":[0,0,0,0,0,0,0],"id":65,"left_children":[1,3,-1,5,-1,-1,-1],"loss_changes":[9.105636E3,3.4276118E3,0E0,5.0363296E3,0E0,0E0,0E0],"parents":[2147483647,0,0,1,1,3,3],"right_children":[2,4,-1,6,-1,-1,-1],"split_conditions":[4.472136E0,1.1547005E0,-3.3831482E0,1.7888544E0,-5.4172486E-1,1.5863317E0,-4.2426553E-1],"split_indices":[0,2,0,1,0,0,0],"split_type":[0,0,0,0,0,0,0],"sum_hessian":[2.1E1,2E1,1E0,1.1E1,9E0,6E0,5E0],"tree_param":{"num_deleted":"0","num_feature":"4","num_nodes":"7","size_leaf_vector":"1"}},{"base_weights":[-3.2561147E0,2.8718262E0,-3.2985718E0,1.3648132E1,-5.173462E-1,1.5183419E0,-4.065857E-1],"categories":[],"categories_nodes":[],"categories_segments":[],"categories_sizes":[],"default_left":[0,0,0,0,0,0,0],"id":66,"left_children":[1,3,-1,5,-1,-1,-1],"loss_changes":[8.644406E3,3.1326511E3,0E0,4.616505E3,0E0,0E0,0E0],"parents":[2147483647,0,0,1,1,3,3],"right_children":[2,4,-1,6,-1,-1,-1],"split_conditions":[4.472136E0,1.1547005E0,-3.2985718E0,1.7888544E0,-5.173462E-1,1.5183419E0,-4.065857E-1],"split_indices":[0,2,0,1,0,0,0],"split_type":[0,0,0,0,0,0,0],"sum_hessian":[2.1E1,2E1,1E0,1.1E1,9E0,6E0,5E0],"tree_param":{"num_deleted":"0","num_feature":"4","num_nodes":"7","size_leaf_vector":"1"}},{"base_weights":[-3.216242E0,2.756522E0,-3.2161071E0,1.305835E1,-4.9406615E-1,1.4532715E0,-3.8964844E-1],"categories":[],"categories_nodes":[],"categories_segments":[],"categories_sizes":[],"default_left":[0,0,0,0,0,0,0],"id":67,"left_children":[1,3,-1,5,-1,-1,-1],"loss_changes":[8.206671E3,2.8630847E3,0E0,4.2317305E3,0E0,0E0,0E0],"parents":[2147483647,0,0,1,1,3,3],"right_children":[2,4,-1,6,-1,-1,-1],"split_conditions":[4.472136E0,1.1547005E0,-3.2161071E0,1.7888544E0,-4.9406615E-1,1.4532715E0,-3.8964844E-1],"split_indices":[0,2,0,1,0,0,0],"split_type":[0,0,0,0,0,0,0],"sum_hessian":[2.1E1,2E1,1E0,1.1E1,9E0,6E0,5E0],"tree_param":{"num_deleted":"0","num_feature":"4","num_nodes":"7","size_leaf_vector":"1"}},{"base_weights":[-3.1757257E0,2.6458218E0,-3.1357057E0,1.2494019E1,-4.7182986E-1,1.3909843E0,-3.734131E-1],"categories":[],"categories_nodes":[],"categories_segments":[],"categories_sizes":[],"default_left":[0,0,0,0,0,0,0],"id":68,"left_children":[1,3,-1,5,-1,-1,-1],"loss_changes":[7.7912524E3,2.616692E3,0E0,3.8789873E3,0E0,0E0,0E0],"parents":[2147483647,0,0,1,1,3,3],"right_children":[2,4,-1,6,-1,-1,-1],"split_conditions":[4.472136E0,1.1547005E0,-3.1357057E0,1.7888544E0,-4.7182986E-1,1.3909843E0,-3.734131E-1],"split_indices":[0,2,0,1,0,0,0],"split_type":[0,0,0,0,0,0,0],"sum_hessian":[2.1E1,2E1,1E0,1.1E1,9E0,6E0,5E0],"tree_param":{"num_deleted":"0","num_feature":"4","num_nodes":"7","size_leaf_vector":"1"}},{"base_weights":[-3.1345658E0,2.5396206E0,-3.057312E0,1.1954224E1,-4.505933E-1,1.3313756E0,-3.5784912E-1],"categories":[],"categories_nodes":[],"categories_segments":[],"categories_sizes":[],"default_left":[0,0,0,0,0,0,0],"id":69,"left_children":[1,3,-1,5,-1,-1,-1],"loss_changes":[7.397008E3,2.3915354E3,0E0,3.5556636E3,0E0,0E0,0E0],"parents":[2147483647,0,0,1,1,3,3],"right_children":[2,4,-1,6,-1,-1,-1],"split_conditions":[4.472136E0,1.1547005E0,-3.057312E0,1.7888544E0,-4.505933E-1,1.3313756E0,-3.5784912E-1],"split_indices":[0,2,0,1,0,0,0],"split_type":[0,0,0,0,0,0,0],"sum_hessian":[2.1E1,2E1,1E0,1.1E1,9E0,6E0,5E0],"tree_param":{"num_deleted":"0","num_feature":"4","num_nodes":"7","size_leaf_vector":"1"}},{"base_weights":[-3.092962E0,2.4376163E0,-2.9808776E0,1.1437703E1,-4.3031248E-1,1.27432E0,-3.4293622E-1],"categories":[],"categories_nodes":[],"categories_segments":[],"categories_sizes":[],"default_left":[0,0,0,0,0,0,0],"id":70,"left_children":[1,3,-1,5,-1,-1,-1],"loss_changes":[7.0228257E3,2.1857466E3,0E0,3.2592954E3,0E0,0E0,0E0],"parents":[2147483647,0,0,1,1,3,3],"right_children":[2,4,-1,6,-1,-1,-1],"split_conditions":[4.472136E0,1.1547005E0,-2.9808776E0,1.7888544E0,-4.3031248E-1,1.27432E0,-3.4293622E-1],"split_indices":[0,2,0,1,0,0,0],"split_type":[0,0,0,0,0,0,0],"sum_hessian":[2.1E1,2E1,1E0,1.1E1,9E0,6E0,5E0],"tree_param":{"num_deleted":"0","num_feature":"4","num_nodes":"7","size_leaf_vector":"1"}},{"base_weights":[-3.050992E0,2.3396344E0,-2.9063537E0,1.094342E1,-4.109436E-1,1.2197021E0,-3.286438E-1],"categories":[],"categories_nodes":[],"categories_segments":[],"categories_sizes":[],"default_left":[0,0,0,0,0,0,0],"id":71,"left_children":[1,3,-1,5,-1,-1,-1],"loss_changes":[6.6676772E3,1.9976484E3,0E0,2.9876E3,0E0,0E0,0E0],"parents":[2147483647,0,0,1,1,3,3],"right_children":[2,4,-1,6,-1,-1,-1],"split_conditions":[4.472136E0,1.1547005E0,-2.9063537E0,1.7888544E0,-4.109436E-1,1.2197021E0,-3.286438E-1],"split_indices":[0,2,0,1,0,0,0],"split_type":[0,0,0,0,0,0,0],"sum_hessian":[2.1E1,2E1,1E0,1.1E1,9E0,6E0,5E0],"tree_param":{"num_deleted":"0","num_feature":"4","num_nodes":"7","size_leaf_vector":"1"}},{"base_weights":[-3.008767E0,2.2454777E0,-2.8336976E0,1.0470479E1,-3.9245364E-1,1.1674281E0,-3.149516E-1],"categories":[],"categories_nodes":[],"categories_segments":[],"categories_sizes":[],"default_left":[0,0,0,0,0,0,0],"id":72,"left_children":[1,3,-1,5,-1,-1,-1],"loss_changes":[6.3306E3,1.8257651E3,0E0,2.7385835E3,0E0,0E0,0E0],"parents":[2147483647,0,0,1,1,3,3],"right_children":[2,4,-1,6,-1,-1,-1],"split_conditions":[4.472136E0,1.1547005E0,-2.8336976E0,1.7888544E0,-3.9245364E-1,1.1674281E0,-3.149516E-1],"split_indices":[0,2,0,1,0,0,0],"split_type":[0,0,0,0,0,0,0],"sum_hessian":[2.1E1,2E1,1E0,1.1E1,9E0,6E0,5E0],"tree_param":{"num_deleted":"0","num_feature":"4","num_nodes":"7","size_leaf_vector":"1"}},{"base_weights":[-2.9662864E0,2.155041E0,-2.762854E0,1.0017964E1,-3.747986E-1,1.1173934E0,-3.0182904E-1],"categories":[],"categories_nodes":[],"categories_segments":[],"categories_sizes":[],"default_left":[0,0,0,0,0,0,0],"id":73,"left_children":[1,3,-1,5,-1,-1,-1],"loss_changes":[6.0106436E3,1.6686831E3,0E0,2.5103162E3,0E0,0E0,0E0],"parents":[2147483647,0,0,1,1,3,3],"right_children":[2,4,-1,6,-1,-1,-1],"split_conditions":[4.472136E0,1.1547005E0,-2.762854E0,1.7888544E0,-3.747986E-1,1.1173934E0,-3.0182904E-1],"split_indices":[0,2,0,1,0,0,0],"split_type":[0,0,0,0,0,0,0],"sum_hessian":[2.1E1,2E1,1E0,1.1E1,9E0,6E0,5E0],"tree_param":{"num_deleted":"0","num_feature":"4","num_nodes":"7","size_leaf_vector":"1"}},{"base_weights":[-2.9235618E0,2.0682316E0,-2.6937807E0,9.584981E0,-3.5793456E-1,1.0695033E0,-2.892558E-1],"categories":[],"categories_nodes":[],"categories_segments":[],"categories_sizes":[],"default_left":[0,0,0,0,0,0,0],"id":74,"left_children":[1,3,-1,5,-1,-1,-1],"loss_changes":[5.706953E3,1.5251018E3,0E0,2.3010876E3,0E0,0E0,0E0],"parents":[2147483647,0,0,1,1,3,3],"right_children":[2,4,-1,6,-1,-1,-1],"split_conditions":[4.472136E0,1.1547005E0,-2.6937807E0,1.7888544E0,-3.5793456E-1,1.0695033E0,-2.892558E-1],"split_indices":[0,2,0,1,0,0,0],"split_type":[0,0,0,0,0,0,0],"sum_hessian":[2.1E1,2E1,1E0,1.1E1,9E0,6E0,5E0],"tree_param":{"num_deleted":"0","num_feature":"4","num_nodes":"7","size_leaf_vector":"1"}},{"base_weights":[-2.8806486E0,1.9849098E0,-2.6264343E0,9.170735E0,-3.418286E-1,1.0236642E0,-2.7720135E-1],"categories":[],"categories_nodes":[],"categories_segments":[],"categories_sizes":[],"default_left":[0,0,0,0,0,0,0],"id":75,"left_children":[1,3,-1,5,-1,-1,-1],"loss_changes":[5.418704E3,1.3938788E3,0E0,2.1092764E3,0E0,0E0,0E0],"parents":[2147483647,0,0,1,1,3,3],"right_children":[2,4,-1,6,-1,-1,-1],"split_conditions":[4.472136E0,1.1547005E0,-2.6264343E0,1.7888544E0,-3.418286E-1,1.0236642E0,-2.7720135E-1],"split_indices":[0,2,0,1,0,0,0],"split_type":[0,0,0,0,0,0,0],"sum_hessian":[2.1E1,2E1,1E0,1.1E1,9E0,6E0,5E0],"tree_param":{"num_deleted":"0","num_feature":"4","num_nodes":"7","size_leaf_vector":"1"}},{"base_weights":[-2.8376465E0,1.9048898E0,-2.5607727E0,8.774353E0,-3.2644776E-1,9.797921E-1,-2.6565552E-1],"categories":[],"categories_nodes":[],"categories_segments":[],"categories_sizes":[],"default_left":[0,0,0,0,0,0,0],"id":76,"left_children":[1,3,-1,5,-1,-1,-1],"loss_changes":[5.1450967E3,1.2739431E3,0E0,1.9334827E3,0E0,0E0,0E0],"parents":[2147483647,0,0,1,1,3,3],"right_children":[2,4,-1,6,-1,-1,-1],"split_conditions":[4.472136E0,1.1547005E0,-2.5607727E0,1.7888544E0,-3.2644776E-1,9.797921E-1,-2.6565552E-1],"split_indices":[0,2,0,1,0,0,0],"split_type":[0,0,0,0,0,0,0],"sum_hessian":[2.1E1,2E1,1E0,1.1E1,9E0,6E0,5E0],"tree_param":{"num_deleted":"0","num_feature":"4","num_nodes":"7","size_leaf_vector":"1"}},{"base_weights":[-2.7945445E0,1.8281018E0,-2.496753E0,8.395162E0,-3.1175905E-1,9.3780345E-1,-2.5458783E-1],"categories":[],"categories_nodes":[],"categories_segments":[],"categories_sizes":[],"default_left":[0,0,0,0,0,0,0],"id":77,"left_children":[1,3,-1,5,-1,-1,-1],"loss_changes":[4.8853926E3,1.1643387E3,0E0,1.7723418E3,0E0,0E0,0E0],"parents":[2147483647,0,0,1,1,3,3],"right_children":[2,4,-1,6,-1,-1,-1],"split_conditions":[4.472136E0,1.1547005E0,-2.496753E0,1.7888544E0,-3.1175905E-1,9.3780345E-1,-2.5458783E-1],"split_indices":[0,2,0,1,0,0,0],"split_type":[0,0,0,0,0,0,0],"sum_hessian":[2.1E1,2E1,1E0,1.1E1,9E0,6E0,5E0],"tree_param":{"num_deleted":"0","num_feature":"4","num_nodes":"7","size_leaf_vector":"1"}},{"base_weights":[-2.7513871E0,1.7544178E0,-2.4343324E0,8.03239E0,-2.977295E-1,8.976144E-1,-2.4397786E-1],"categories":[],"categories_nodes":[],"categories_segments":[],"categories_sizes":[],"default_left":[0,0,0,0,0,0,0],"id":78,"left_children":[1,3,-1,5,-1,-1,-1],"loss_changes":[4.6388735E3,1.0641652E3,0E0,1.6246216E3,0E0,0E0,0E0],"parents":[2147483647,0,0,1,1,3,3],"right_children":[2,4,-1,6,-1,-1,-1],"split_conditions":[4.472136E0,1.1547005E0,-2.4343324E0,1.7888544E0,-2.977295E-1,8.976144E-1,-2.4397786E-1],"split_indices":[0,2,0,1,0,0,0],"split_type":[0,0,0,0,0,0,0],"sum_hessian":[2.1E1,2E1,1E0,1.1E1,9E0,6E0,5E0],"tree_param":{"num_deleted":"0","num_feature":"4","num_nodes":"7","size_leaf_vector":"1"}},{"base_weights":[-2.7082853E0,1.6836519E0,-2.3734741E0,7.68516E0,-2.8432617E-1,8.5914135E-1,-2.338155E-1],"categories":[],"categories_nodes":[],"categories_segments":[],"categories_sizes":[],"default_left":[0,0,0,0,0,0,0],"id":79,"left_children":[1,3,-1,5,-1,-1,-1],"loss_changes":[4.404866E3,9.7257733E2,0E0,1.4892136E3,0E0,0E0,0E0],"parents":[2147483647,0,0,1,1,3,3],"right_children":[2,4,-1,6,-1,-1,-1],"split_conditions":[4.472136E0,1.1547005E0,-2.3734741E0,1.7888544E0,-2.8432617E-1,8.5914135E-1,-2.338155E-1],"split_indices":[0,2,0,1,0,0,0],"split_type":[0,0,0,0,0,0,0],"sum_hessian":[2.1E1,2E1,1E0,1.1E1,9E0,6E0,5E0],"tree_param":{"num_deleted":"0","num_feature":"4","num_nodes":"7","size_leaf_vector":"1"}},{"base_weights":[-2.6651945E0,1.6157691E0,-2.3141358E0,7.353048E0,-2.715271E-1,8.223214E-1,-2.2407024E-1],"categories":[],"categories_nodes":[],"categories_segments":[],"categories_sizes":[],"default_left":[0,0,0,0,0,0,0],"id":80,"left_children":[1,3,-1,5,-1,-1,-1],"loss_changes":[4.182732E3,8.888907E2,0E0,1.3650853E3,0E0,0E0,0E0],"parents":[2147483647,0,0,1,1,3,3],"right_children":[2,4,-1,6,-1,-1,-1],"split_conditions":[4.472136E0,1.1547005E0,-2.3141358E0,1.7888544E0,-2.715271E-1,8.223214E-1,-2.2407024E-1],"split_indices":[0,2,0,1,0,0,0],"split_type":[0,0,0,0,0,0,0],"sum_hessian":[2.1E1,2E1,1E0,1.1E1,9E0,6E0,5E0],"tree_param":{"num_deleted":"0","num_feature":"4","num_nodes":"7","size_leaf_vector":"1"}},{"base_weights":[-2.622259E0,1.5505488E0,-2.2562807E0,7.035299E0,-2.593103E-1,7.870815E-1,-2.1473186E-1],"categories":[],"categories_nodes":[],"categories_segments":[],"categories_sizes":[],"default_left":[0,0,0,0,0,0,0],"id":81,"left_children":[1,3,-1,5,-1,-1,-1],"loss_changes":[3.971852E3,8.1242426E2,0E0,1.2513108E3,0E0,0E0,0E0],"parents":[2147483647,0,0,1,1,3,3],"right_children":[2,4,-1,6,-1,-1,-1],"split_conditions":[4.472136E0,1.1547005E0,-2.2562807E0,1.7888544E0,-2.593103E-1,7.870815E-1,-2.1473186E-1],"split_indices":[0,2,0,1,0,0,0],"split_type":[0,0,0,0,0,0,0],"sum_hessian":[2.1E1,2E1,1E0,1.1E1,9E0,6E0,5E0],"tree_param":{"num_deleted":"0","num_feature":"4","num_nodes":"7","size_leaf_vector":"1"}},{"base_weights":[-2.5794678E0,1.4879324E0,-2.1998718E0,6.731262E0,-2.4764283E-1,7.5334823E-1,-2.0578003E-1],"categories":[],"categories_nodes":[],"categories_segments":[],"categories_sizes":[],"default_left":[0,0,0,0,0,0,0],"id":82,"left_children":[1,3,-1,5,-1,-1,-1],"loss_changes":[3.7716614E3,7.4253375E2,0E0,1.1470042E3,0E0,0E0,0E0],"parents":[2147483647,0,0,1,1,3,3],"right_children":[2,4,-1,6,-1,-1,-1],"split_conditions":[4.472136E0,1.1547005E0,-2.1998718E0,1.7888544E0,-2.4764283E-1,7.5334823E-1,-2.0578003E-1],"split_indices":[0,2,0,1,0,0,0],"split_type":[0,0,0,0,0,0,0],"sum_hessian":[2.1E1,2E1,1E0,1.1E1,9E0,6E0,5E0],"tree_param":{"num_deleted":"0","num_feature":"4","num_nodes":"7","size_leaf_vector":"1"}},{"base_weights":[-2.5368986E0,1.4277693E0,-2.1448731E0,6.4403076E0,-2.3650269E-1,7.210589E-1,-1.9720459E-1],"categories":[],"categories_nodes":[],"categories_segments":[],"categories_sizes":[],"default_left":[0,0,0,0,0,0,0],"id":83,"left_children":[1,3,-1,5,-1,-1,-1],"loss_changes":[3.5816045E3,6.786558E2,0E0,1.0513971E3,0E0,0E0,0E0],"parents":[2147483647,0,0,1,1,3,3],"right_children":[2,4,-1,6,-1,-1,-1],"split_conditions":[4.472136E0,1.1547005E0,-2.1448731E0,1.7888544E0,-2.3650269E-1,7.210589E-1,-1.9720459E-1],"split_indices":[0,2,0,1,0,0,0],"split_type":[0,0,0,0,0,0,0],"sum_hessian":[2.1E1,2E1,1E0,1.1E1,9E0,6E0,5E0],"tree_param":{"num_deleted":"0","num_feature":"4","num_nodes":"7","size_leaf_vector":"1"}},{"base_weights":[-2.4944181E0,1.3701404E0,-2.0912538E0,6.162028E0,-2.2585693E-1,6.9016117E-1,-1.889852E-1],"categories":[],"categories_nodes":[],"categories_segments":[],"categories_sizes":[],"default_left":[0,0,0,0,0,0,0],"id":84,"left_children":[1,3,-1,5,-1,-1,-1],"loss_changes":[3.40121E3,6.2026953E2,0E0,9.637726E2,0E0,0E0,0E0],"parents":[2147483647,0,0,1,1,3,3],"right_children":[2,4,-1,6,-1,-1,-1],"split_conditions":[4.472136E0,1.1547005E0,-2.0912538E0,1.7888544E0,-2.2585693E-1,6.9016117E-1,-1.889852E-1],"split_indices":[0,2,0,1,0,0,0],"split_type":[0,0,0,0,0,0,0],"sum_hessian":[2.1E1,2E1,1E0,1.1E1,9E0,6E0,5E0],"tree_param":{"num_deleted":"0","num_feature":"4","num_nodes":"7","size_leaf_vector":"1"}},{"base_weights":[-2.4522593E0,1.3147205E0,-2.038971E0,5.8956704E0,-2.1569458E-1,6.6058177E-1,-1.8111166E-1],"categories":[],"categories_nodes":[],"categories_segments":[],"categories_sizes":[],"default_left":[0,0,0,0,0,0,0],"id":85,"left_children":[1,3,-1,5,-1,-1,-1],"loss_changes":[3.2299219E3,5.669055E2,0E0,8.8344727E2,0E0,0E0,0E0],"parents":[2147483647,0,0,1,1,3,3],"right_children":[2,4,-1,6,-1,-1,-1],"split_conditions":[4.472136E0,1.1547005E0,-2.038971E0,1.7888544E0,-2.1569458E-1,6.6058177E-1,-1.8111166E-1],"split_indices":[0,2,0,1,0,0,0],"split_type":[0,0,0,0,0,0,0],"sum_hessian":[2.1E1,2E1,1E0,1.1E1,9E0,6E0,5E0],"tree_param":{"num_deleted":"0","num_feature":"4","num_nodes":"7","size_leaf_vector":"1"}},{"base_weights":[-2.4103892E0,1.2614863E0,-1.9879944E0,5.6408286E0,-2.0599365E-1,6.322684E-1,-1.7356364E-1],"categories":[],"categories_nodes":[],"categories_segments":[],"categories_sizes":[],"default_left":[0,0,0,0,0,0,0],"id":86,"left_children":[1,3,-1,5,-1,-1,-1],"loss_changes":[3.067296E3,5.1814264E2,0E0,8.098085E2,0E0,0E0,0E0],"parents":[2147483647,0,0,1,1,3,3],"right_children":[2,4,-1,6,-1,-1,-1],"split_conditions":[4.472136E0,1.1547005E0,-1.9879944E0,1.7888544E0,-2.0599365E-1,6.322684E-1,-1.7356364E-1],"split_indices":[0,2,0,1,0,0,0],"split_type":[0,0,0,0,0,0,0],"sum_hessian":[2.1E1,2E1,1E0,1.1E1,9E0,6E0,5E0],"tree_param":{"num_deleted":"0","num_feature":"4","num_nodes":"7","size_leaf_vector":"1"}},{"base_weights":[-2.36873E0,1.2104609E0,-1.9382935E0,5.396993E0,-1.967212E-1,6.051688E-1,-1.6633098E-1],"categories":[],"categories_nodes":[],"categories_segments":[],"categories_sizes":[],"default_left":[0,0,0,0,0,0,0],"id":87,"left_children":[1,3,-1,5,-1,-1,-1],"loss_changes":[2.9129153E3,4.7355777E2,0E0,7.4231006E2,0E0,0E0,0E0],"parents":[2147483647,0,0,1,1,3,3],"right_children":[2,4,-1,6,-1,-1,-1],"split_conditions":[4.472136E0,1.1547005E0,-1.9382935E0,1.7888544E0,-1.967212E-1,6.051688E-1,-1.6633098E-1],"split_indices":[0,2,0,1,0,0,0],"split_type":[0,0,0,0,0,0,0],"sum_hessian":[2.1E1,2E1,1E0,1.1E1,9E0,6E0,5E0],"tree_param":{"num_deleted":"0","num_feature":"4","num_nodes":"7","size_leaf_vector":"1"}},{"base_weights":[-2.3274038E0,1.1614584E0,-1.8898376E0,5.1636558E0,-1.8786621E-1,5.792306E-1,-1.5940349E-1],"categories":[],"categories_nodes":[],"categories_segments":[],"categories_sizes":[],"default_left":[0,0,0,0,0,0,0],"id":88,"left_children":[1,3,-1,5,-1,-1,-1],"loss_changes":[2.766348E3,4.3280618E2,0E0,6.804453E2,0E0,0E0,0E0],"parents":[2147483647,0,0,1,1,3,3],"right_children":[2,4,-1,6,-1,-1,-1],"split_conditions":[4.472136E0,1.1547005E0,-1.8898376E0,1.7888544E0,-1.8786621E-1,5.792306E-1,-1.5940349E-1],"split_indices":[0,2,0,1,0,0,0],"split_type":[0,0,0,0,0,0,0],"sum_hessian":[2.1E1,2E1,1E0,1.1E1,9E0,6E0,5E0],"tree_param":{"num_deleted":"0","num_feature":"4","num_nodes":"7","size_leaf_vector":"1"}},{"base_weights":[-2.2863657E0,1.1144555E0,-1.8425903E0,4.940409E0,-1.7940675E-1,5.544015E-1,-1.5276083E-1],"categories":[],"categories_nodes":[],"categories_segments":[],"categories_sizes":[],"default_left":[0,0,0,0,0,0,0],"id":89,"left_children":[1,3,-1,5,-1,-1,-1],"loss_changes":[2.6271892E3,3.9555658E2,0E0,6.237253E2,0E0,0E0,0E0],"parents":[2147483647,0,0,1,1,3,3],"right_children":[2,4,-1,6,-1,-1,-1],"split_conditions":[4.472136E0,1.1547005E0,-1.8425903E0,1.7888544E0,-1.7940675E-1,5.544015E-1,-1.5276083E-1],"split_indices":[0,2,0,1,0,0,0],"split_type":[0,0,0,0,0,0,0],"sum_hessian":[2.1E1,2E1,1E0,1.1E1,9E0,6E0,5E0],"tree_param":{"num_deleted":"0","num_feature":"4","num_nodes":"7","size_leaf_vector":"1"}},{"base_weights":[-2.2456832E0,1.0693359E0,-1.7965271E0,4.7268677E0,-1.713318E-1,5.3063965E-1,-1.4639282E-1],"categories":[],"categories_nodes":[],"categories_segments":[],"categories_sizes":[],"default_left":[0,0,0,0,0,0,0],"id":90,"left_children":[1,3,-1,5,-1,-1,-1],"loss_changes":[2.495073E3,3.615246E2,0E0,5.717344E2,0E0,0E0,0E0],"parents":[2147483647,0,0,1,1,3,3],"right_children":[2,4,-1,6,-1,-1,-1],"split_conditions":[4.472136E0,1.1547005E0,-1.7965271E0,1.7888544E0,-1.713318E-1,5.3063965E-1,-1.4639282E-1],"split_indices":[0,2,0,1,0,0,0],"split_type":[0,0,0,0,0,0,0],"sum_hessian":[2.1E1,2E1,1E0,1.1E1,9E0,6E0,5E0],"tree_param":{"num_deleted":"0","num_feature":"4","num_nodes":"7","size_leaf_vector":"1"}},{"base_weights":[-2.2053E0,1.0260881E0,-1.7516114E0,4.522644E0,-1.6361938E-1,5.079032E-1,-1.402893E-1],"categories":[],"categories_nodes":[],"categories_segments":[],"categories_sizes":[],"default_left":[0,0,0,0,0,0,0],"id":91,"left_children":[1,3,-1,5,-1,-1,-1],"loss_changes":[2.3696304E3,3.3042694E2,0E0,5.240867E2,0E0,0E0,0E0],"parents":[2147483647,0,0,1,1,3,3],"right_children":[2,4,-1,6,-1,-1,-1],"split_conditions":[4.472136E0,1.1547005E0,-1.7516114E0,1.7888544E0,-1.6361938E-1,5.079032E-1,-1.402893E-1],"split_indices":[0,2,0,1,0,0,0],"split_type":[0,0,0,0,0,0,0],"sum_hessian":[2.1E1,2E1,1E0,1.1E1,9E0,6E0,5E0],"tree_param":{"num_deleted":"0","num_feature":"4","num_nodes":"7","size_leaf_vector":"1"}},{"base_weights":[-2.1653497E0,9.8452616E-1,-1.7078186E0,4.32723E0,-1.5625855E-1,4.8613977E-1,-1.3444011E-1],"categories":[],"categories_nodes":[],"categories_segments":[],"categories_sizes":[],"default_left":[0,0,0,0,0,0,0],"id":92,"left_children":[1,3,-1,5,-1,-1,-1],"loss_changes":[2.2505183E3,3.0201083E2,0E0,4.804082E2,0E0,0E0,0E0],"parents":[2147483647,0,0,1,1,3,3],"right_children":[2,4,-1,6,-1,-1,-1],"split_conditions":[4.472136E0,1.1547005E0,-1.7078186E0,1.7888544E0,-1.5625855E-1,4.8613977E-1,-1.3444011E-1],"split_indices":[0,2,0,1,0,0,0],"split_type":[0,0,0,0,0,0,0],"sum_hessian":[2.1E1,2E1,1E0,1.1E1,9E0,6E0,5E0],"tree_param":{"num_deleted":"0","num_feature":"4","num_nodes":"7","size_leaf_vector":"1"}},{"base_weights":[-2.125799E0,9.446382E-1,-1.6651245E0,4.1402383E0,-1.492273E-1,4.6530762E-1,-1.2883505E-1],"categories":[],"categories_nodes":[],"categories_segments":[],"categories_sizes":[],"default_left":[0,0,0,0,0,0,0],"id":93,"left_children":[1,3,-1,5,-1,-1,-1],"loss_changes":[2.1374326E3,2.7603488E2,0E0,4.403687E2,0E0,0E0,0E0],"parents":[2147483647,0,0,1,1,3,3],"right_children":[2,4,-1,6,-1,-1,-1],"split_conditions":[4.472136E0,1.1547005E0,-1.6651245E0,1.7888544E0,-1.492273E-1,4.6530762E-1,-1.2883505E-1],"split_indices":[0,2,0,1,0,0,0],"split_type":[0,0,0,0,0,0,0],"sum_hessian":[2.1E1,2E1,1E0,1.1E1,9E0,6E0,5E0],"tree_param":{"num_deleted":"0","num_feature":"4","num_nodes":"7","size_leaf_vector":"1"}},{"base_weights":[-2.0867033E0,9.063081E-1,-1.6234986E0,3.9612834E0,-1.4251465E-1,4.453648E-1,-1.2346395E-1],"categories":[],"categories_nodes":[],"categories_segments":[],"categories_sizes":[],"default_left":[0,0,0,0,0,0,0],"id":94,"left_children":[1,3,-1,5,-1,-1,-1],"loss_changes":[2.0300519E3,2.5229362E2,0E0,4.0366235E2,0E0,0E0,0E0],"parents":[2147483647,0,0,1,1,3,3],"right_children":[2,4,-1,6,-1,-1,-1],"split_conditions":[4.472136E0,1.1547005E0,-1.6234986E0,1.7888544E0,-1.4251465E-1,4.453648E-1,-1.2346395E-1],"split_indices":[0,2,0,1,0,0,0],"split_type":[0,0,0,0,0,0,0],"sum_hessian":[2.1E1,2E1,1E0,1.1E1,9E0,6E0,5E0],"tree_param":{"num_deleted":"0","num_feature":"4","num_nodes":"7","size_leaf_vector":"1"}},{"base_weights":[-2.0479515E0,8.6959404E-1,-1.5829102E0,3.7901E0,-1.3609864E-1,4.2628E-1,-1.1831665E-1],"categories":[],"categories_nodes":[],"categories_segments":[],"categories_sizes":[],"default_left":[0,0,0,0,0,0,0],"id":95,"left_children":[1,3,-1,5,-1,-1,-1],"loss_changes":[1.9280935E3,2.3058958E2,0E0,3.700199E2,0E0,0E0,0E0],"parents":[2147483647,0,0,1,1,3,3],"right_children":[2,4,-1,6,-1,-1,-1],"split_conditions":[4.472136E0,1.1547005E0,-1.5829102E0,1.7888544E0,-1.3609864E-1,4.2628E-1,-1.1831665E-1],"split_indices":[0,2,0,1,0,0,0],"split_type":[0,0,0,0,0,0,0],"sum_hessian":[2.1E1,2E1,1E0,1.1E1,9E0,6E0,5E0],"tree_param":{"num_deleted":"0","num_feature":"4","num_nodes":"7","size_leaf_vector":"1"}},{"base_weights":[-2.00971E0,8.34275E-1,-1.543335E0,3.626302E0,-1.2997925E-1,4.080113E-1,-1.1338297E-1],"categories":[],"categories_nodes":[],"categories_segments":[],"categories_sizes":[],"default_left":[0,0,0,0,0,0,0],"id":96,"left_children":[1,3,-1,5,-1,-1,-1],"loss_changes":[1.831266E3,2.107629E2,0E0,3.3917792E2,0E0,0E0,0E0],"parents":[2147483647,0,0,1,1,3,3],"right_children":[2,4,-1,6,-1,-1,-1],"split_conditions":[4.472136E0,1.1547005E0,-1.543335E0,1.7888544E0,-1.2997925E-1,4.080113E-1,-1.1338297E-1],"split_indices":[0,2,0,1,0,0,0],"split_type":[0,0,0,0,0,0,0],"sum_hessian":[2.1E1,2E1,1E0,1.1E1,9E0,6E0,5E0],"tree_param":{"num_deleted":"0","num_feature":"4","num_nodes":"7","size_leaf_vector":"1"}},{"base_weights":[-1.9719349E0,8.003511E-1,-1.5047486E0,3.4695232E0,-1.2413452E-1,3.9052734E-1,-1.08662926E-1],"categories":[],"categories_nodes":[],"categories_segments":[],"categories_sizes":[],"default_left":[0,0,0,0,0,0,0],"id":97,"left_children":[1,3,-1,5,-1,-1,-1],"loss_changes":[1.7393187E3,1.9263683E2,0E0,3.1091974E2,0E0,0E0,0E0],"parents":[2147483647,0,0,1,1,3,3],"right_children":[2,4,-1,6,-1,-1,-1],"split_conditions":[4.472136E0,1.1547005E0,-1.5047486E0,1.7888544E0,-1.2413452E-1,3.9052734E-1,-1.08662926E-1],"split_indices":[0,2,0,1,0,0,0],"split_type":[0,0,0,0,0,0,0],"sum_hessian":[2.1E1,2E1,1E0,1.1E1,9E0,6E0,5E0],"tree_param":{"num_deleted":"0","num_feature":"4","num_nodes":"7","size_leaf_vector":"1"}},{"base_weights":[-1.934648E0,7.6776415E-1,-1.4671326E0,3.3194783E0,-1.18553475E-1,3.737863E-1,-1.0413615E-1],"categories":[],"categories_nodes":[],"categories_segments":[],"categories_sizes":[],"default_left":[0,0,0,0,0,0,0],"id":98,"left_children":[1,3,-1,5,-1,-1,-1],"loss_changes":[1.6520181E3,1.7606824E2,0E0,2.8500446E2,0E0,0E0,0E0],"parents":[2147483647,0,0,1,1,3,3],"right_children":[2,4,-1,6,-1,-1,-1],"split_conditions":[4.472136E0,1.1547005E0,-1.4671326E0,1.7888544E0,-1.18553475E-1,3.737863E-1,-1.0413615E-1],"split_indices":[0,2,0,1,0,0,0],"split_type":[0,0,0,0,0,0,0],"sum_hessian":[2.1E1,2E1,1E0,1.1E1,9E0,6E0,5E0],"tree_param":{"num_deleted":"0","num_feature":"4","num_nodes":"7","size_leaf_vector":"1"}},{"base_weights":[-1.8976718E0,7.36642E-1,-1.4304565E0,3.1760254E0,-1.1321411E-1,3.5776716E-1,-9.979248E-2],"categories":[],"categories_nodes":[],"categories_segments":[],"categories_sizes":[],"default_left":[0,0,0,0,0,0,0],"id":99,"left_children":[1,3,-1,5,-1,-1,-1],"loss_changes":[1.5691348E3,1.609199E2,0E0,2.6124738E2,0E0,0E0,0E0],"parents":[2147483647,0,0,1,1,3,3],"right_children":[2,4,-1,6,-1,-1,-1],"split_conditions":[4.472136E0,1.1547005E0,-1.4304565E0,1.7888544E0,-1.1321411E-1,3.5776716E-1,-9.979248E-2],"split_indices":[0,2,0,1,0,0,0],"split_type":[0,0,0,0,0,0,0],"sum_hessian":[2.1E1,2E1,1E0,1.1E1,9E0,6E0,5E0],"tree_param":{"num_deleted":"0","num_feature":"4","num_nodes":"7","size_leaf_vector":"1"}},{"base_weights":[-1.8611617E0,7.067755E-1,-1.3946961E0,3.038798E0,-1.0811646E-1,3.4243864E-1,-9.563192E-2],"categories":[],"categories_nodes":[],"categories_segments":[],"categories_sizes":[],"default_left":[0,0,0,0,0,0,0],"id":100,"left_children":[1,3,-1,5,-1,-1,-1],"loss_changes":[1.4904254E3,1.4707803E2,0E0,2.3947736E2,0E0,0E0,0E0],"parents":[2147483647,0,0,1,1,3,3],"right_children":[2,4,-1,6,-1,-1,-1],"split_conditions":[4.472136E0,1.1547005E0,-1.3946961E0,1.7888544E0,-1.0811646E-1,3.4243864E-1,-9.563192E-2],"split_indices":[0,2,0,1,0,0,0],"split_type":[0,0,0,0,0,0,0],"sum_hessian":[2.1E1,2E1,1E0,1.1E1,9E0,6E0,5E0],"tree_param":{"num_deleted":"0","num_feature":"4","num_nodes":"7","size_leaf_vector":"1"}},{"base_weights":[-1.8251842E0,6.7804825E-1,-1.3598267E0,2.9074097E0,-1.0324951E-1,3.277588E-1,-9.164429E-2],"categories":[],"categories_nodes":[],"categories_segments":[],"categories_sizes":[],"default_left":[0,0,0,0,0,0,0],"id":101,"left_children":[1,3,-1,5,-1,-1,-1],"loss_changes":[1.4156691E3,1.3442348E2,0E0,2.1951276E2,0E0,0E0,0E0],"parents":[2147483647,0,0,1,1,3,3],"right_children":[2,4,-1,6,-1,-1,-1],"split_conditions":[4.472136E0,1.1547005E0,-1.3598267E0,1.7888544E0,-1.0324951E-1,3.277588E-1,-9.164429E-2],"split_indices":[0,2,0,1,0,0,0],"split_type":[0,0,0,0,0,0,0],"sum_hessian":[2.1E1,2E1,1E0,1.1E1,9E0,6E0,5E0],"tree_param":{"num_deleted":"0","num_feature":"4","num_nodes":"7","size_leaf_vector":"1"}},{"base_weights":[-1.7897395E0,6.504255E-1,-1.3258301E0,2.7816162E0,-9.8602295E-2,3.1370676E-1,-8.782959E-2],"categories":[],"categories_nodes":[],"categories_segments":[],"categories_sizes":[],"default_left":[0,0,0,0,0,0,0],"id":102,"left_children":[1,3,-1,5,-1,-1,-1],"loss_changes":[1.3446748E3,1.22854195E2,0E0,2.0121844E2,0E0,0E0,0E0],"parents":[2147483647,0,0,1,1,3,3],"right_children":[2,4,-1,6,-1,-1,-1],"split_conditions":[4.472136E0,1.1547005E0,-1.3258301E0,1.7888544E0,-9.8602295E-2,3.1370676E-1,-8.782959E-2],"split_indices":[0,2,0,1,0,0,0],"split_type":[0,0,0,0,0,0,0],"sum_hessian":[2.1E1,2E1,1E0,1.1E1,9E0,6E0,5E0],"tree_param":{"num_deleted":"0","num_feature":"4","num_nodes":"7","size_leaf_vector":"1"}},{"base_weights":[-1.7547053E0,6.2398857E-1,-1.2926819E0,2.661377E0,-9.416382E-2,3.002616E-1,-8.416748E-2],"categories":[],"categories_nodes":[],"categories_segments":[],"categories_sizes":[],"default_left":[0,0,0,0,0,0,0],"id":103,"left_children":[1,3,-1,5,-1,-1,-1],"loss_changes":[1.27726E3,1.1228582E2,0E0,1.8444653E2,0E0,0E0,0E0],"parents":[2147483647,0,0,1,1,3,3],"right_children":[2,4,-1,6,-1,-1,-1],"split_conditions":[4.472136E0,1.1547005E0,-1.2926819E0,1.7888544E0,-9.416382E-2,3.002616E-1,-8.416748E-2],"split_indices":[0,2,0,1,0,0,0],"split_type":[0,0,0,0,0,0,0],"sum_hessian":[2.1E1,2E1,1E0,1.1E1,9E0,6E0,5E0],"tree_param":{"num_deleted":"0","num_feature":"4","num_nodes":"7","size_leaf_vector":"1"}},{"base_weights":[-1.7201482E0,5.986328E-1,-1.2603638E0,2.5463257E0,-8.99231E-2,2.8739187E-1,-8.065796E-2],"categories":[],"categories_nodes":[],"categories_segments":[],"categories_sizes":[],"default_left":[0,0,0,0,0,0,0],"id":104,"left_children":[1,3,-1,5,-1,-1,-1],"loss_changes":[1.213243E3,1.0262436E2,0E0,1.6907187E2,0E0,0E0,0E0],"parents":[2147483647,0,0,1,1,3,3],"right_children":[2,4,-1,6,-1,-1,-1],"split_conditions":[4.472136E0,1.1547005E0,-1.2603638E0,1.7888544E0,-8.99231E-2,2.8739187E-1,-8.065796E-2],"split_indices":[0,2,0,1,0,0,0],"split_type":[0,0,0,0,0,0,0],"sum_hessian":[2.1E1,2E1,1E0,1.1E1,9E0,6E0,5E0],"tree_param":{"num_deleted":"0","num_feature":"4","num_nodes":"7","size_leaf_vector":"1"}},{"base_weights":[-1.6861683E0,5.7421875E-1,-1.2288574E0,2.4362183E0,-8.588012E-2,2.7507672E-1,-7.7301025E-2],"categories":[],"categories_nodes":[],"categories_segments":[],"categories_sizes":[],"default_left":[0,0,0,0,0,0,0],"id":105,"left_children":[1,3,-1,5,-1,-1,-1],"loss_changes":[1.1524473E3,9.3799225E1,0E0,1.5498734E2,0E0,0E0,0E0],"parents":[2147483647,0,0,1,1,3,3],"right_children":[2,4,-1,6,-1,-1,-1],"split_conditions":[4.472136E0,1.1547005E0,-1.2288574E0,1.7888544E0,-8.588012E-2,2.7507672E-1,-7.7301025E-2],"split_indices":[0,2,0,1,0,0,0],"split_type":[0,0,0,0,0,0,0],"sum_hessian":[2.1E1,2E1,1E0,1.1E1,9E0,6E0,5E0],"tree_param":{"num_deleted":"0","num_feature":"4","num_nodes":"7","size_leaf_vector":"1"}},{"base_weights":[-1.6526101E0,5.508626E-1,-1.1981385E0,2.3308918E0,-8.2012944E-2,2.6328474E-1,-7.407634E-2],"categories":[],"categories_nodes":[],"categories_segments":[],"categories_sizes":[],"default_left":[0,0,0,0,0,0,0],"id":106,"left_children":[1,3,-1,5,-1,-1,-1],"loss_changes":[1.0947164E3,8.572873E1,0E0,1.4206563E2,0E0,0E0,0E0],"parents":[2147483647,0,0,1,1,3,3],"right_children":[2,4,-1,6,-1,-1,-1],"split_conditions":[4.472136E0,1.1547005E0,-1.1981385E0,1.7888544E0,-8.2012944E-2,2.6328474E-1,-7.407634E-2],"split_indices":[0,2,0,1,0,0,0],"split_type":[0,0,0,0,0,0,0],"sum_hessian":[2.1E1,2E1,1E0,1.1E1,9E0,6E0,5E0],"tree_param":{"num_deleted":"0","num_feature":"4","num_nodes":"7","size_leaf_vector":"1"}},{"base_weights":[-1.6195512E0,5.2843654E-1,-1.1681824E0,2.2301228E0,-7.832154E-2,2.5200543E-1,-7.0994064E-2],"categories":[],"categories_nodes":[],"categories_segments":[],"categories_sizes":[],"default_left":[0,0,0,0,0,0,0],"id":107,"left_children":[1,3,-1,5,-1,-1,-1],"loss_changes":[1.0398794E3,7.835428E1,0E0,1.3023387E2,0E0,0E0,0E0],"parents":[2147483647,0,0,1,1,3,3],"right_children":[2,4,-1,6,-1,-1,-1],"split_conditions":[4.472136E0,1.1547005E0,-1.1681824E0,1.7888544E0,-7.832154E-2,2.5200543E-1,-7.0994064E-2],"split_indices":[0,2,0,1,0,0,0],"split_type":[0,0,0,0,0,0,0],"sum_hessian":[2.1E1,2E1,1E0,1.1E1,9E0,6E0,5E0],"tree_param":{"num_deleted":"0","num_feature":"4","num_nodes":"7","size_leaf_vector":"1"}},{"base_weights":[-1.5869584E0,5.0695217E-1,-1.138977E0,2.1337483E0,-7.4794926E-2,2.4120747E-1,-6.803386E-2],"categories":[],"categories_nodes":[],"categories_segments":[],"categories_sizes":[],"default_left":[0,0,0,0,0,0,0],"id":108,"left_children":[1,3,-1,5,-1,-1,-1],"loss_changes":[9.878063E2,7.161469E1,0E0,1.1938097E2,0E0,0E0,0E0],"parents":[2147483647,0,0,1,1,3,3],"right_children":[2,4,-1,6,-1,-1,-1],"split_conditions":[4.472136E0,1.1547005E0,-1.138977E0,1.7888544E0,-7.4794926E-2,2.4120747E-1,-6.803386E-2],"split_indices":[0,2,0,1,0,0,0],"split_type":[0,0,0,0,0,0,0],"sum_hessian":[2.1E1,2E1,1E0,1.1E1,9E0,6E0,5E0],"tree_param":{"num_deleted":"0","num_feature":"4","num_nodes":"7","size_leaf_vector":"1"}},{"base_weights":[-1.5549316E0,4.8627E-1,-1.1105042E0,2.0415242E0,-7.1433105E-2,2.3086984E-1,-6.5195724E-2],"categories":[],"categories_nodes":[],"categories_segments":[],"categories_sizes":[],"default_left":[0,0,0,0,0,0,0],"id":109,"left_children":[1,3,-1,5,-1,-1,-1],"loss_changes":[9.383493E2,6.545898E1,0E0,1.0942976E2,0E0,0E0,0E0],"parents":[2147483647,0,0,1,1,3,3],"right_children":[2,4,-1,6,-1,-1,-1],"split_conditions":[4.472136E0,1.1547005E0,-1.1105042E0,1.7888544E0,-7.1433105E-2,2.3086984E-1,-6.5195724E-2],"split_indices":[0,2,0,1,0,0,0],"split_type":[0,0,0,0,0,0,0],"sum_hessian":[2.1E1,2E1,1E0,1.1E1,9E0,6E0,5E0],"tree_param":{"num_deleted":"0","num_feature":"4","num_nodes":"7","size_leaf_vector":"1"}},{"base_weights":[-1.5233598E0,4.6645972E-1,-1.0827392E0,1.9532064E0,-6.821411E-2,2.2097169E-1,-6.2479656E-2],"categories":[],"categories_nodes":[],"categories_segments":[],"categories_sizes":[],"default_left":[0,0,0,0,0,0,0],"id":110,"left_children":[1,3,-1,5,-1,-1,-1],"loss_changes":[8.9137494E2,5.982356E1,0E0,1.0030847E2,0E0,0E0,0E0],"parents":[2147483647,0,0,1,1,3,3],"right_children":[2,4,-1,6,-1,-1,-1],"split_conditions":[4.472136E0,1.1547005E0,-1.0827392E0,1.7888544E0,-6.821411E-2,2.2097169E-1,-6.2479656E-2],"split_indices":[0,2,0,1,0,0,0],"split_type":[0,0,0,0,0,0,0],"sum_hessian":[2.1E1,2E1,1E0,1.1E1,9E0,6E0,5E0],"tree_param":{"num_deleted":"0","num_feature":"4","num_nodes":"7","size_leaf_vector":"1"}},{"base_weights":[-1.4923317E0,4.4740513E-1,-1.0556701E0,1.8687744E0,-6.514893E-2,2.115025E-1,-5.987549E-2],"categories":[],"categories_nodes":[],"categories_segments":[],"categories_sizes":[],"default_left":[0,0,0,0,0,0,0],"id":111,"left_children":[1,3,-1,5,-1,-1,-1],"loss_changes":[8.4676E2,5.4681747E1,0E0,9.194964E1,0E0,0E0,0E0],"parents":[2147483647,0,0,1,1,3,3],"right_children":[2,4,-1,6,-1,-1,-1],"split_conditions":[4.472136E0,1.1547005E0,-1.0556701E0,1.7888544E0,-6.514893E-2,2.115025E-1,-5.987549E-2],"split_indices":[0,2,0,1,0,0,0],"split_type":[0,0,0,0,0,0,0],"sum_hessian":[2.1E1,2E1,1E0,1.1E1,9E0,6E0,5E0],"tree_param":{"num_deleted":"0","num_feature":"4","num_nodes":"7","size_leaf_vector":"1"}},{"base_weights":[-1.4617476E0,4.2917597E-1,-1.0292786E0,1.7879843E0,-6.2215578E-2,2.0244141E-1,-5.738322E-2],"categories":[],"categories_nodes":[],"categories_segments":[],"categories_sizes":[],"default_left":[0,0,0,0,0,0,0],"id":112,"left_children":[1,3,-1,5,-1,-1,-1],"loss_changes":[8.04392E2,4.9977734E1,0E0,8.4291214E1,0E0,0E0,0E0],"parents":[2147483647,0,0,1,1,3,3],"right_children":[2,4,-1,6,-1,-1,-1],"split_conditions":[4.472136E0,1.1547005E0,-1.0292786E0,1.7888544E0,-6.2215578E-2,2.0244141E-1,-5.738322E-2],"split_indices":[0,2,0,1,0,0,0],"split_type":[0,0,0,0,0,0,0],"sum_hessian":[2.1E1,2E1,1E0,1.1E1,9E0,6E0,5E0],"tree_param":{"num_deleted":"0","num_feature":"4","num_nodes":"7","size_leaf_vector":"1"}},{"base_weights":[-1.4316517E0,4.1169086E-1,-1.0035461E0,1.7106934E0,-5.9414066E-2,1.9376744E-1,-5.4992676E-2],"categories":[],"categories_nodes":[],"categories_segments":[],"categories_sizes":[],"default_left":[0,0,0,0,0,0,0],"id":113,"left_children":[1,3,-1,5,-1,-1,-1],"loss_changes":[7.6415137E2,4.567851E1,0E0,7.72687E1,0E0,0E0,0E0],"parents":[2147483647,0,0,1,1,3,3],"right_children":[2,4,-1,6,-1,-1,-1],"split_conditions":[4.472136E0,1.1547005E0,-1.0035461E0,1.7888544E0,-5.9414066E-2,1.9376744E-1,-5.4992676E-2],"split_indices":[0,2,0,1,0,0,0],"split_type":[0,0,0,0,0,0,0],"sum_hessian":[2.1E1,2E1,1E0,1.1E1,9E0,6E0,5E0],"tree_param":{"num_deleted":"0","num_feature":"4","num_nodes":"7","size_leaf_vector":"1"}},{"base_weights":[-1.402144E0,3.9481026E-1,-9.784546E-1,1.6366577E0,-5.6744386E-2,1.8545969E-1,-5.2703857E-2],"categories":[],"categories_nodes":[],"categories_segments":[],"categories_sizes":[],"default_left":[0,0,0,0,0,0,0],"id":114,"left_children":[1,3,-1,5,-1,-1,-1],"loss_changes":[7.2591986E2,4.1750107E1,0E0,7.082951E1,0E0,0E0,0E0],"parents":[2147483647,0,0,1,1,3,3],"right_children":[2,4,-1,6,-1,-1,-1],"split_conditions":[4.472136E0,1.1547005E0,-9.784546E-1,1.7888544E0,-5.6744386E-2,1.8545969E-1,-5.2703857E-2],"split_indices":[0,2,0,1,0,0,0],"split_type":[0,0,0,0,0,0,0],"sum_hessian":[2.1E1,2E1,1E0,1.1E1,9E0,6E0,5E0],"tree_param":{"num_deleted":"0","num_feature":"4","num_nodes":"7","size_leaf_vector":"1"}},{"base_weights":[-1.3731135E0,3.7862724E-1,-9.539917E-1,1.5658569E0,-5.419556E-2,1.7750768E-1,-5.050659E-2],"categories":[],"categories_nodes":[],"categories_segments":[],"categories_sizes":[],"default_left":[0,0,0,0,0,0,0],"id":115,"left_children":[1,3,-1,5,-1,-1,-1],"loss_changes":[6.89611E2,3.8161E1,0E0,6.492442E1,0E0,0E0,0E0],"parents":[2147483647,0,0,1,1,3,3],"right_children":[2,4,-1,6,-1,-1,-1],"split_conditions":[4.472136E0,1.1547005E0,-9.539917E-1,1.7888544E0,-5.419556E-2,1.7750768E-1,-5.050659E-2],"split_indices":[0,2,0,1,0,0,0],"split_type":[0,0,0,0,0,0,0],"sum_hessian":[2.1E1,2E1,1E0,1.1E1,9E0,6E0,5E0],"tree_param":{"num_deleted":"0","num_feature":"4","num_nodes":"7","size_leaf_vector":"1"}},{"base_weights":[-1.3444935E0,3.631766E-1,-9.301392E-1,1.498169E0,-5.175659E-2,1.6990095E-1,-4.840088E-2],"categories":[],"categories_nodes":[],"categories_segments":[],"categories_sizes":[],"default_left":[0,0,0,0,0,0,0],"id":116,"left_children":[1,3,-1,5,-1,-1,-1],"loss_changes":[6.5512836E2,3.4879257E1,0E0,5.9513954E1,0E0,0E0,0E0],"parents":[2147483647,0,0,1,1,3,3],"right_children":[2,4,-1,6,-1,-1,-1],"split_conditions":[4.472136E0,1.1547005E0,-9.301392E-1,1.7888544E0,-5.175659E-2,1.6990095E-1,-4.840088E-2],"split_indices":[0,2,0,1,0,0,0],"split_type":[0,0,0,0,0,0,0],"sum_hessian":[2.1E1,2E1,1E0,1.1E1,9E0,6E0,5E0],"tree_param":{"num_deleted":"0","num_feature":"4","num_nodes":"7","size_leaf_vector":"1"}},{"base_weights":[-1.3163952E0,3.483189E-1,-9.068848E-1,1.4333496E0,-4.942749E-2,1.6261858E-1,-4.638672E-2],"categories":[],"categories_nodes":[],"categories_segments":[],"categories_sizes":[],"default_left":[0,0,0,0,0,0,0],"id":117,"left_children":[1,3,-1,5,-1,-1,-1],"loss_changes":[6.223761E2,3.1878353E1,0E0,5.455571E1,0E0,0E0,0E0],"parents":[2147483647,0,0,1,1,3,3],"right_children":[2,4,-1,6,-1,-1,-1],"split_conditions":[4.472136E0,1.1547005E0,-9.068848E-1,1.7888544E0,-4.942749E-2,1.6261858E-1,-4.638672E-2],"split_indices":[0,2,0,1,0,0,0],"split_type":[0,0,0,0,0,0,0],"sum_hessian":[2.1E1,2E1,1E0,1.1E1,9E0,6E0,5E0],"tree_param":{"num_deleted":"0","num_feature":"4","num_nodes":"7","size_leaf_vector":"1"}},{"base_weights":[-1.2887962E0,3.340425E-1,-8.842102E-1,1.3713785E0,-4.7208253E-2,1.5565012E-1,-4.445394E-2],"categories":[],"categories_nodes":[],"categories_segments":[],"categories_sizes":[],"default_left":[0,0,0,0,0,0,0],"id":118,"left_children":[1,3,-1,5,-1,-1,-1],"loss_changes":[5.912635E2,2.9139355E1,0E0,5.0010094E1,0E0,0E0,0E0],"parents":[2147483647,0,0,1,1,3,3],"right_children":[2,4,-1,6,-1,-1,-1],"split_conditions":[4.472136E0,1.1547005E0,-8.842102E-1,1.7888544E0,-4.7208253E-2,1.5565012E-1,-4.445394E-2],"split_indices":[0,2,0,1,0,0,0],"split_type":[0,0,0,0,0,0,0],"sum_hessian":[2.1E1,2E1,1E0,1.1E1,9E0,6E0,5E0],"tree_param":{"num_deleted":"0","num_feature":"4","num_nodes":"7","size_leaf_vector":"1"}},{"base_weights":[-1.2617077E0,3.203125E-1,-8.621033E-1,1.3120117E0,-4.5087893E-2,1.4897461E-1,-4.260254E-2],"categories":[],"categories_nodes":[],"categories_segments":[],"categories_sizes":[],"default_left":[0,0,0,0,0,0,0],"id":119,"left_children":[1,3,-1,5,-1,-1,-1],"loss_changes":[5.617103E2,2.6633564E1,0E0,4.5841064E1,0E0,0E0,0E0],"parents":[2147483647,0,0,1,1,3,3],"right_children":[2,4,-1,6,-1,-1,-1],"split_conditions":[4.472136E0,1.1547005E0,-8.621033E-1,1.7888544E0,-4.5087893E-2,1.4897461E-1,-4.260254E-2],"split_indices":[0,2,0,1,0,0,0],"split_type":[0,0,0,0,0,0,0],"sum_hessian":[2.1E1,2E1,1E0,1.1E1,9E0,6E0,5E0],"tree_param":{"num_deleted":"0","num_feature":"4","num_nodes":"7","size_leaf_vector":"1"}},{"base_weights":[-1.2350075E0,3.0723354E-1,-8.405518E-1,1.255249E0,-4.3055423E-2,1.4259207E-1,-4.083252E-2],"categories":[],"categories_nodes":[],"categories_segments":[],"categories_sizes":[],"default_left":[0,0,0,0,0,0,0],"id":120,"left_children":[1,3,-1,5,-1,-1,-1],"loss_changes":[5.336487E2,2.4340635E1,0E0,4.2024704E1,0E0,0E0,0E0],"parents":[2147483647,0,0,1,1,3,3],"right_children":[2,4,-1,6,-1,-1,-1],"split_conditions":[4.472136E0,1.1547005E0,-8.405518E-1,1.7888544E0,-4.3055423E-2,1.4259207E-1,-4.083252E-2],"split_indices":[0,2,0,1,0,0,0],"split_type":[0,0,0,0,0,0,0],"sum_hessian":[2.1E1,2E1,1E0,1.1E1,9E0,6E0,5E0],"tree_param":{"num_deleted":"0","num_feature":"4","num_nodes":"7","size_leaf_vector":"1"}},{"base_weights":[-1.2088401E0,2.9461962E-1,-8.1953734E-1,1.2009481E0,-4.1121826E-2,1.3648158E-1,-3.913371E-2],"categories":[],"categories_nodes":[],"categories_segments":[],"categories_sizes":[],"default_left":[0,0,0,0,0,0,0],"id":121,"left_children":[1,3,-1,5,-1,-1,-1],"loss_changes":[5.0698752E2,2.224852E1,0E0,3.852438E1,0E0,0E0,0E0],"parents":[2147483647,0,0,1,1,3,3],"right_children":[2,4,-1,6,-1,-1,-1],"split_conditions":[4.472136E0,1.1547005E0,-8.1953734E-1,1.7888544E0,-4.1121826E-2,1.3648158E-1,-3.913371E-2],"split_indices":[0,2,0,1,0,0,0],"split_type":[0,0,0,0,0,0,0],"sum_hessian":[2.1E1,2E1,1E0,1.1E1,9E0,6E0,5E0],"tree_param":{"num_deleted":"0","num_feature":"4","num_nodes":"7","size_leaf_vector":"1"}},{"base_weights":[-1.1831498E0,2.8250557E-1,-7.990479E-1,1.1489868E0,-3.9276123E-2,1.3063268E-1,-3.7506104E-2],"categories":[],"categories_nodes":[],"categories_segments":[],"categories_sizes":[],"default_left":[0,0,0,0,0,0,0],"id":122,"left_children":[1,3,-1,5,-1,-1,-1],"loss_changes":[4.8166144E2,2.0336508E1,0E0,3.5315758E1,0E0,0E0,0E0],"parents":[2147483647,0,0,1,1,3,3],"right_children":[2,4,-1,6,-1,-1,-1],"split_conditions":[4.472136E0,1.1547005E0,-7.990479E-1,1.7888544E0,-3.9276123E-2,1.3063268E-1,-3.7506104E-2],"split_indices":[0,2,0,1,0,0,0],"split_type":[0,0,0,0,0,0,0],"sum_hessian":[2.1E1,2E1,1E0,1.1E1,9E0,6E0,5E0],"tree_param":{"num_deleted":"0","num_feature":"4","num_nodes":"7","size_leaf_vector":"1"}},{"base_weights":[-1.1578258E0,2.7098447E-1,-7.7907103E-1,1.0993448E0,-3.7507325E-2,1.2503488E-1,-3.5939537E-2],"categories":[],"categories_nodes":[],"categories_segments":[],"categories_sizes":[],"default_left":[0,0,0,0,0,0,0],"id":123,"left_children":[1,3,-1,5,-1,-1,-1],"loss_changes":[4.5761108E2,1.8587824E1,0E0,3.237167E1,0E0,0E0,0E0],"parents":[2147483647,0,0,1,1,3,3],"right_children":[2,4,-1,6,-1,-1,-1],"split_conditions":[4.472136E0,1.1547005E0,-7.7907103E-1,1.7888544E0,-3.7507325E-2,1.2503488E-1,-3.5939537E-2],"split_indices":[0,2,0,1,0,0,0],"split_type":[0,0,0,0,0,0,0],"sum_hessian":[2.1E1,2E1,1E0,1.1E1,9E0,6E0,5E0],"tree_param":{"num_deleted":"0","num_feature":"4","num_nodes":"7","size_leaf_vector":"1"}},{"base_weights":[-1.1329678E0,2.5992838E-1,-7.5959474E-1,1.0517985E0,-3.581543E-2,1.1967774E-1,-3.4444176E-2],"categories":[],"categories_nodes":[],"categories_segments":[],"categories_sizes":[],"default_left":[0,0,0,0,0,0,0],"id":124,"left_children":[1,3,-1,5,-1,-1,-1],"loss_changes":[4.3476657E2,1.6987524E1,0E0,2.9675732E1,0E0,0E0,0E0],"parents":[2147483647,0,0,1,1,3,3],"right_children":[2,4,-1,6,-1,-1,-1],"split_conditions":[4.472136E0,1.1547005E0,-7.5959474E-1,1.7888544E0,-3.581543E-2,1.1967774E-1,-3.4444176E-2],"split_indices":[0,2,0,1,0,0,0],"split_type":[0,0,0,0,0,0,0],"sum_hessian":[2.1E1,2E1,1E0,1.1E1,9E0,6E0,5E0],"tree_param":{"num_deleted":"0","num_feature":"4","num_nodes":"7","size_leaf_vector":"1"}},{"base_weights":[-1.1085649E0,2.4932571E-1,-7.406067E-1,1.0063273E0,-3.420044E-2,1.14550784E-1,-3.300985E-2],"categories":[],"categories_nodes":[],"categories_segments":[],"categories_sizes":[],"default_left":[0,0,0,0,0,0,0],"id":125,"left_children":[1,3,-1,5,-1,-1,-1],"loss_changes":[4.1306787E2,1.5525587E1,0E0,2.7204094E1,0E0,0E0,0E0],"parents":[2147483647,0,0,1,1,3,3],"right_children":[2,4,-1,6,-1,-1,-1],"split_conditions":[4.472136E0,1.1547005E0,-7.406067E-1,1.7888544E0,-3.420044E-2,1.14550784E-1,-3.300985E-2],"split_indices":[0,2,0,1,0,0,0],"split_type":[0,0,0,0,0,0,0],"sum_hessian":[2.1E1,2E1,1E0,1.1E1,9E0,6E0,5E0],"tree_param":{"num_deleted":"0","num_feature":"4","num_nodes":"7","size_leaf_vector":"1"}},{"base_weights":[-1.0846502E0,2.3910668E-1,-7.2208863E-1,9.6280926E-1,-3.2662354E-2,1.09643556E-1,-3.163656E-2],"categories":[],"categories_nodes":[],"categories_segments":[],"categories_sizes":[],"default_left":[0,0,0,0,0,0,0],"id":126,"left_children":[1,3,-1,5,-1,-1,-1],"loss_changes":[3.9244794E2,1.4190724E1,0E0,2.4938858E1,0E0,0E0,0E0],"parents":[2147483647,0,0,1,1,3,3],"right_children":[2,4,-1,6,-1,-1,-1],"split_conditions":[4.472136E0,1.1547005E0,-7.2208863E-1,1.7888544E0,-3.2662354E-2,1.09643556E-1,-3.163656E-2],"split_indices":[0,2,0,1,0,0,0],"split_type":[0,0,0,0,0,0,0],"sum_hessian":[2.1E1,2E1,1E0,1.1E1,9E0,6E0,5E0],"tree_param":{"num_deleted":"0","num_feature":"4","num_nodes":"7","size_leaf_vector":"1"}},{"base_weights":[-1.061124E0,2.293643E-1,-7.0403445E-1,9.2122394E-1,-3.1190187E-2,1.0494559E-1,-3.0314127E-2],"categories":[],"categories_nodes":[],"categories_segments":[],"categories_sizes":[],"default_left":[0,0,0,0,0,0,0],"id":127,"left_children":[1,3,-1,5,-1,-1,-1],"loss_changes":[3.7286472E2,1.2970386E1,0E0,2.2859646E1,0E0,0E0,0E0],"parents":[2147483647,0,0,1,1,3,3],"right_children":[2,4,-1,6,-1,-1,-1],"split_conditions":[4.472136E0,1.1547005E0,-7.0403445E-1,1.7888544E0,-3.1190187E-2,1.0494559E-1,-3.0314127E-2],"split_indices":[0,2,0,1,0,0,0],"split_type":[0,0,0,0,0,0,0],"sum_hessian":[2.1E1,2E1,1E0,1.1E1,9E0,6E0,5E0],"tree_param":{"num_deleted":"0","num_feature":"4","num_nodes":"7","size_leaf_vector":"1"}},{"base_weights":[-1.0380859E0,2.199707E-1,-6.864319E-1,8.8134766E-1,-2.9783934E-2,1.00446425E-1,-2.9052734E-2],"categories":[],"categories_nodes":[],"categories_segments":[],"categories_sizes":[],"default_left":[0,0,0,0,0,0,0],"id":128,"left_children":[1,3,-1,5,-1,-1,-1],"loss_changes":[3.5425943E2,1.1853486E1,0E0,2.095502E1,0E0,0E0,0E0],"parents":[2147483647,0,0,1,1,3,3],"right_children":[2,4,-1,6,-1,-1,-1],"split_conditions":[4.472136E0,1.1547005E0,-6.864319E-1,1.7888544E0,-2.9783934E-2,1.00446425E-1,-2.9052734E-2],"split_indices":[0,2,0,1,0,0,0],"split_type":[0,0,0,0,0,0,0],"sum_hessian":[2.1E1,2E1,1E0,1.1E1,9E0,6E0,5E0],"tree_param":{"num_deleted":"0","num_feature":"4","num_nodes":"7","size_leaf_vector":"1"}},{"base_weights":[-1.0154586E0,2.10984E-1,-6.692688E-1,8.4328204E-1,-2.8443605E-2,9.614607E-2,-2.7842203E-2],"categories":[],"categories_nodes":[],"categories_segments":[],"categories_sizes":[],"default_left":[0,0,0,0,0,0,0],"id":129,"left_children":[1,3,-1,5,-1,-1,-1],"loss_changes":[3.3658594E2,1.083485E1,0E0,1.9210342E1,0E0,0E0,0E0],"parents":[2147483647,0,0,1,1,3,3],"right_children":[2,4,-1,6,-1,-1,-1],"split_conditions":[4.472136E0,1.1547005E0,-6.692688E-1,1.7888544E0,-2.8443605E-2,9.614607E-2,-2.7842203E-2],"split_indices":[0,2,0,1,0,0,0],"split_type":[0,0,0,0,0,0,0],"sum_hessian":[2.1E1,2E1,1E0,1.1E1,9E0,6E0,5E0],"tree_param":{"num_deleted":"0","num_feature":"4","num_nodes":"7","size_leaf_vector":"1"}},{"base_weights":[-9.9326396E-1,2.0236933E-1,-6.525391E-1,8.06783E-1,-2.7158204E-2,9.2023574E-2,-2.6682535E-2],"categories":[],"categories_nodes":[],"categories_segments":[],"categories_sizes":[],"default_left":[0,0,0,0,0,0,0],"id":130,"left_children":[1,3,-1,5,-1,-1,-1],"loss_changes":[3.1980118E2,9.901038E0,0E0,1.760926E1,0E0,0E0,0E0],"parents":[2147483647,0,0,1,1,3,3],"right_children":[2,4,-1,6,-1,-1,-1],"split_conditions":[4.472136E0,1.1547005E0,-6.525391E-1,1.7888544E0,-2.7158204E-2,9.2023574E-2,-2.6682535E-2],"split_indices":[0,2,0,1,0,0,0],"split_type":[0,0,0,0,0,0,0],"sum_hessian":[2.1E1,2E1,1E0,1.1E1,9E0,6E0,5E0],"tree_param":{"num_deleted":"0","num_feature":"4","num_nodes":"7","size_leaf_vector":"1"}},{"base_weights":[-9.715687E-1,1.9402204E-1,-6.362244E-1,7.718506E-1,-2.593872E-2,8.807897E-2,-2.557373E-2],"categories":[],"categories_nodes":[],"categories_segments":[],"categories_sizes":[],"default_left":[0,0,0,0,0,0,0],"id":131,"left_children":[1,3,-1,5,-1,-1,-1],"loss_changes":[3.0384888E2,9.049773E0,0E0,1.6142729E1,0E0,0E0,0E0],"parents":[2147483647,0,0,1,1,3,3],"right_children":[2,4,-1,6,-1,-1,-1],"split_conditions":[4.472136E0,1.1547005E0,-6.362244E-1,1.7888544E0,-2.593872E-2,8.807897E-2,-2.557373E-2],"split_indices":[0,2,0,1,0,0,0],"split_type":[0,0,0,0,0,0,0],"sum_hessian":[2.1E1,2E1,1E0,1.1E1,9E0,6E0,5E0],"tree_param":{"num_deleted":"0","num_feature":"4","num_nodes":"7","size_leaf_vector":"1"}},{"base_weights":[-9.50273E-1,1.8603516E-1,-6.203186E-1,7.3846436E-1,-2.477417E-2,8.430176E-2,-2.4505615E-2],"categories":[],"categories_nodes":[],"categories_segments":[],"categories_sizes":[],"default_left":[0,0,0,0,0,0,0],"id":132,"left_children":[1,3,-1,5,-1,-1,-1],"loss_changes":[2.886965E2,8.2722025E0,0E0,1.47963085E1,0E0,0E0,0E0],"parents":[2147483647,0,0,1,1,3,3],"right_children":[2,4,-1,6,-1,-1,-1],"split_conditions":[4.472136E0,1.1547005E0,-6.203186E-1,1.7888544E0,-2.477417E-2,8.430176E-2,-2.4505615E-2],"split_indices":[0,2,0,1,0,0,0],"split_type":[0,0,0,0,0,0,0],"sum_hessian":[2.1E1,2E1,1E0,1.1E1,9E0,6E0,5E0],"tree_param":{"num_deleted":"0","num_feature":"4","num_nodes":"7","size_leaf_vector":"1"}},{"base_weights":[-9.2941004E-1,1.7835054E-1,-6.048096E-1,7.0652264E-1,-2.366455E-2,8.069196E-2,-2.3488363E-2],"categories":[],"categories_nodes":[],"categories_segments":[],"categories_sizes":[],"default_left":[0,0,0,0,0,0,0],"id":133,"left_children":[1,3,-1,5,-1,-1,-1],"loss_changes":[2.7430002E2,7.5621476E0,0E0,1.3565336E1,0E0,0E0,0E0],"parents":[2147483647,0,0,1,1,3,3],"right_children":[2,4,-1,6,-1,-1,-1],"split_conditions":[4.472136E0,1.1547005E0,-6.048096E-1,1.7888544E0,-2.366455E-2,8.069196E-2,-2.3488363E-2],"split_indices":[0,2,0,1,0,0,0],"split_type":[0,0,0,0,0,0,0],"sum_hessian":[2.1E1,2E1,1E0,1.1E1,9E0,6E0,5E0],"tree_param":{"num_deleted":"0","num_feature":"4","num_nodes":"7","size_leaf_vector":"1"}},{"base_weights":[-9.0894663E-1,1.7099145E-1,-5.8969116E-1,6.75883E-1,-2.2598878E-2,7.722866E-2,-2.25118E-2],"categories":[],"categories_nodes":[],"categories_segments":[],"categories_sizes":[],"default_left":[0,0,0,0,0,0,0],"id":134,"left_children":[1,3,-1,5,-1,-1,-1],"loss_changes":[2.606265E2,6.910651E0,0E0,1.2434402E1,0E0,0E0,0E0],"parents":[2147483647,0,0,1,1,3,3],"right_children":[2,4,-1,6,-1,-1,-1],"split_conditions":[4.472136E0,1.1547005E0,-5.8969116E-1,1.7888544E0,-2.2598878E-2,7.722866E-2,-2.25118E-2],"split_indices":[0,2,0,1,0,0,0],"split_type":[0,0,0,0,0,0,0],"sum_hessian":[2.1E1,2E1,1E0,1.1E1,9E0,6E0,5E0],"tree_param":{"num_deleted":"0","num_feature":"4","num_nodes":"7","size_leaf_vector":"1"}},{"base_weights":[-8.8879395E-1,1.6402762E-1,-5.749512E-1,6.466675E-1,-2.1577148E-2,7.39223E-2,-2.1575928E-2],"categories":[],"categories_nodes":[],"categories_segments":[],"categories_sizes":[],"default_left":[0,0,0,0,0,0,0],"id":135,"left_children":[1,3,-1,5,-1,-1,-1],"loss_changes":[2.4764108E2,6.315433E0,0E0,1.1399719E1,0E0,0E0,0E0],"parents":[2147483647,0,0,1,1,3,3],"right_children":[2,4,-1,6,-1,-1,-1],"split_conditions":[4.472136E0,1.1547005E0,-5.749512E-1,1.7888544E0,-2.1577148E-2,7.39223E-2,-2.1575928E-2],"split_indices":[0,2,0,1,0,0,0],"split_type":[0,0,0,0,0,0,0],"sum_hessian":[2.1E1,2E1,1E0,1.1E1,9E0,6E0,5E0],"tree_param":{"num_deleted":"0","num_feature":"4","num_nodes":"7","size_leaf_vector":"1"}},{"base_weights":[-8.691628E-1,1.5721494E-1,-5.605774E-1,6.18632E-1,-2.0610353E-2,7.075196E-2,-2.0680746E-2],"categories":[],"categories_nodes":[],"categories_segments":[],"categories_sizes":[],"default_left":[0,0,0,0,0,0,0],"id":136,"left_children":[1,3,-1,5,-1,-1,-1],"loss_changes":[2.3529689E2,5.772566E0,0E0,1.0450346E1,0E0,0E0,0E0],"parents":[2147483647,0,0,1,1,3,3],"right_children":[2,4,-1,6,-1,-1,-1],"split_conditions":[4.472136E0,1.1547005E0,-5.605774E-1,1.7888544E0,-2.0610353E-2,7.075196E-2,-2.0680746E-2],"split_indices":[0,2,0,1,0,0,0],"split_type":[0,0,0,0,0,0,0],"sum_hessian":[2.1E1,2E1,1E0,1.1E1,9E0,6E0,5E0],"tree_param":{"num_deleted":"0","num_feature":"4","num_nodes":"7","size_leaf_vector":"1"}},{"base_weights":[-8.4988683E-1,1.5071614E-1,-5.4656374E-1,5.9187824E-1,-1.9687502E-2,6.7717634E-2,-1.9816082E-2],"categories":[],"categories_nodes":[],"categories_segments":[],"categories_sizes":[],"default_left":[0,0,0,0,0,0,0],"id":137,"left_children":[1,3,-1,5,-1,-1,-1],"loss_changes":[2.2357178E2,5.2772064E0,0E0,9.578485E0,0E0,0E0,0E0],"parents":[2147483647,0,0,1,1,3,3],"right_children":[2,4,-1,6,-1,-1,-1],"split_conditions":[4.472136E0,1.1547005E0,-5.4656374E-1,1.7888544E0,-1.9687502E-2,6.7717634E-2,-1.9816082E-2],"split_indices":[0,2,0,1,0,0,0],"split_type":[0,0,0,0,0,0,0],"sum_hessian":[2.1E1,2E1,1E0,1.1E1,9E0,6E0,5E0],"tree_param":{"num_deleted":"0","num_feature":"4","num_nodes":"7","size_leaf_vector":"1"}},{"base_weights":[-8.308993E-1,1.4457776E-1,-5.3289795E-1,5.663045E-1,-1.8797608E-2,6.4819336E-2,-1.8992107E-2],"categories":[],"categories_nodes":[],"categories_segments":[],"categories_sizes":[],"default_left":[0,0,0,0,0,0,0],"id":138,"left_children":[1,3,-1,5,-1,-1,-1],"loss_changes":[2.1243448E2,