{"learner":{"attributes":{"scikit_learn":"{\"_estimator_type\": \"regressor\"}"},"feature_names":[],"feature_types":[],"gradient_booster":{"model":{"cats":{"enc":[],"feature_segments":[],"sorted_idx":[]},"gbtree_model_param":{"num_parallel_tree":"1","num_trees":"300"},"iteration_indptr":[0,1,2,3,4,5,6,7,8,9,10,11,12,13,14,15,16,17,18,19,20,21,22,23,24,25,26,27,28,29,30,31,32,33,34,35,36,37,38,39,40,41,42,43,44,45,46,47,48,49,50,51,52,53,54,55,56,57,58,59,60,61,62,63,64,65,66,67,68,69,70,71,72,73,74,75,76,77,78,79,80,81,82,83,84,85,86,87,88,89,90,91,92,93,94,95,96,97,98,99,100,101,102,103,104,105,106,107,108,109,110,111,112,113,114,115,116,117,118,119,120,121,122,123,124,125,126,127,128,129,130,131,132,133,134,135,136,137,138,139,140,141,142,143,144,145,146,147,148,149,150,151,152,153,154,155,156,157,158,159,160,161,162,163,164,165,166,167,168,169,170,171,172,173,174,175,176,177,178,179,180,181,182,183,184,185,186,187,188,189,190,191,192,193,194,195,196,197,198,199,200,201,202,203,204,205,206,207,208,209,210,211,212,213,214,215,216,217,218,219,220,221,222,223,224,225,226,227,228,229,230,231,232,233,234,235,236,237,238,239,240,241,242,243,244,245,246,247,248,249,250,251,252,253,254,255,256,257,258,259,260,261,262,263,264,265,266,267,268,269,270,271,272,273,274,275,276,277,278,279,280,281,282,283,284,285,286,287,288,289,290,291,292,293,294,295,296,297,298,299,300],"tree_info":[0,0,0,0,0,0,0,0,0,0,0,0,0,0,0,0,0,0,0,0,0,0,0,0,0,0,0,0,0,0,0,0,0,0,0,0,0,0,0,0,0,0,0,0,0,0,0,0,0,0,0,0,0,0,0,0,0,0,0,0,0,0,0,0,0,0,0,0,0,0,0,0,0,0,0,0,0,0,0,0,0,0,0,0,0,0,0,0,0,0,0,0,0,0,0,0,0,0,0,0,0,0,0,0,0,0,0,0,0,0,0,0,0,0,0,0,0,0,0,0,0,0,0,0,0,0,0,0,0,0,0,0,0,0,0,0,0,0,0,0,0,0,0,0,0,0,0,0,0,0,0,0,0,0,0,0,0,0,0,0,0,0,0,0,0,0,0,0,0,0,0,0,0,0,0,0,0,0,0,0,0,0,0,0,0,0,0,0,0,0,0,0,0,0,0,0,0,0,0,0,0,0,0,0,0,0,0,0,0,0,0,0,0,0,0,0,0,0,0,0,0,0,0,0,0,0,0,0,0,0,0,0,0,0,0,0,0,0,0,0,0,0,0,0,0,0,0,0,0,0,0,0,0,0,0,0,0,0,0,0,0,0,0,0,0,0,0,0,0,0,0,0,0,0,0,0,0,0,0,0,0,0,0,0,0,0,0,0,0,0,0,0,0,0,0,0,0,0,0,0],"trees":[{"base_weights":[5.5486507E-5,-1.0218252E1,7.212891E1,9.100532E0,-4.5767143E1,-2.6041641E0,1.1904907E-1],"categories":[],"categories_nodes":[],"categories_segments":[],"categories_sizes":[],"default_left":[0,0,0,0,0,0,0],"id":0,"left_children":[1,-1,3,-1,5,-1,-1],"loss_changes":[3.3903425E5,0E0,2.2855869E5,0E0,2.861E3,0E0,0E0],"parents":[2147483647,0,0,2,2,4,4],"right_children":[2,-1,4,-1,6,-1,-1],"split_conditions":[-5.888444E-1,-1.0218252E1,1.2747549E0,9.100532E0,-2.0836034E-1,-2.6041641E0,1.1904907E-1],"split_indices":[3,0,0,0,3,0,0],"split_type":[0,0,0,0,0,0,0],"sum_hessian":[2.1E1,5E0,1.6E1,8E0,8E0,7E0,1E0],"tree_param":{"num_deleted":"0","num_feature":"4","num_nodes":"7","size_leaf_vector":"1"}},{"base_weights":[-1.6370739E-1,-9.792491E0,6.8911606E1,8.696061E0,-4.3754856E1,-2.4902284E0,1.1607056E-1],"categories":[],"categories_nodes":[],"categories_segments":[],"categories_sizes":[],"default_left":[0,0,0,0,0,0,0],"id":1,"left_children":[1,-1,3,-1,5,-1,-1],"loss_changes":[3.1087206E5,0E0,2.0873795E5,0E0,2.6243477E3,0E0,0E0],"parents":[2147483647,0,0,2,2,4,4],"right_children":[2,-1,4,-1,6,-1,-1],"split_conditions":[-5.888444E-1,-9.792491E0,1.2747549E0,8.696061E0,-2.0836034E-1,-2.4902284E0,1.1607056E-1],"split_indices":[3,0,0,0,3,0,0],"split_type":[0,0,0,0,0,0,0],"sum_hessian":[2.1E1,5E0,1.6E1,8E0,8E0,7E0,1E0],"tree_param":{"num_deleted":"0","num_feature":"4","num_nodes":"7","size_leaf_vector":"1"}},{"base_weights":[-3.132657E-1,-9.384471E0,6.583792E1,8.30957E0,-4.183089E1,-2.3812807E0,1.1317139E-1],"categories":[],"categories_nodes":[],"categories_segments":[],"categories_sizes":[],"default_left":[0,0,0,0,0,0,0],"id":2,"left_children":[1,-1,3,-1,5,-1,-1],"loss_changes":[2.8505047E5,0E0,1.9063592E5,0E0,2.4074248E3,0E0,0E0],"parents":[2147483647,0,0,2,2,4,4],"right_children":[2,-1,4,-1,6,-1,-1],"split_conditions":[-5.888444E-1,-9.384471E0,1.2747549E0,8.30957E0,-2.0836034E-1,-2.3812807E0,1.1317139E-1],"split_indices":[3,0,0,0,3,0,0],"split_type":[0,0,0,0,0,0,0],"sum_hessian":[2.1E1,5E0,1.6E1,8E0,8E0,7E0,1E0],"tree_param":{"num_deleted":"0","num_feature":"4","num_nodes":"7","size_leaf_vector":"1"}},{"base_weights":[-4.4952947E-1,-8.993449E0,6.2901424E1,7.9402556E0,-3.9991318E1,-2.2770965E0,1.1033936E-1],"categories":[],"categories_nodes":[],"categories_segments":[],"categories_sizes":[],"default_left":[0,0,0,0,0,0,0],"id":3,"left_children":[1,-1,3,-1,5,-1,-1],"loss_changes":[2.6137467E5,0E0,1.7410333E5,0E0,2.2085283E3,0E0,0E0],"parents":[2147483647,0,0,2,2,4,4],"right_children":[2,-1,4,-1,6,-1,-1],"split_conditions":[-5.888444E-1,-8.993449E0,1.2747549E0,7.9402556E0,-2.0836034E-1,-2.2770965E0,1.1033936E-1],"split_indices":[3,0,0,0,3,0,0],"split_type":[0,0,0,0,0,0,0],"sum_hessian":[2.1E1,5E0,1.6E1,8E0,8E0,7E0,1E0],"tree_param":{"num_deleted":"0","num_feature":"4","num_nodes":"7","size_leaf_vector":"1"}},{"base_weights":[-5.733976E-1,-8.618724E0,6.0096004E1,7.587359E0,-3.8232502E1,-2.1774735E0,1.07580565E-1],"categories":[],"categories_nodes":[],"categories_segments":[],"categories_sizes":[],"default_left":[0,0,0,0,0,0,0],"id":4,"left_children":[1,-1,3,-1,5,-1,-1],"loss_changes":[2.3966652E5,0E0,1.5900438E5,0E0,2.0261895E3,0E0,0E0],"parents":[2147483647,0,0,2,2,4,4],"right_children":[2,-1,4,-1,6,-1,-1],"split_conditions":[-5.888444E-1,-8.618724E0,1.2747549E0,7.587359E0,-2.0836034E-1,-2.1774735E0,1.07580565E-1],"split_indices":[3,0,0,0,3,0,0],"split_type":[0,0,0,0,0,0,0],"sum_hessian":[2.1E1,5E0,1.6E1,8E0,8E0,7E0,1E0],"tree_param":{"num_deleted":"0","num_feature":"4","num_nodes":"7","size_leaf_vector":"1"}},{"base_weights":[-6.8572444E-1,-8.259613E0,5.741574E1,7.250141E0,-3.655086E1,-2.0822084E0,1.04888916E-1],"categories":[],"categories_nodes":[],"categories_segments":[],"categories_sizes":[],"default_left":[0,0,0,0,0,0,0],"id":5,"left_children":[1,-1,3,-1,5,-1,-1],"loss_changes":[2.1976219E5,0E0,1.452144E5,0E0,1.8590029E3,0E0,0E0],"parents":[2147483647,0,0,2,2,4,4],"right_children":[2,-1,4,-1,6,-1,-1],"split_conditions":[-5.888444E-1,-8.259613E0,1.2747549E0,7.250141E0,-2.0836034E-1,-2.0822084E0,1.04888916E-1],"split_indices":[3,0,0,0,3,0,0],"split_type":[0,0,0,0,0,0,0],"sum_hessian":[2.1E1,5E0,1.6E1,8E0,8E0,7E0,1E0],"tree_param":{"num_deleted":"0","num_feature":"4","num_nodes":"7","size_leaf_vector":"1"}},{"base_weights":[-7.8724253E-1,-7.9154663E0,5.4855095E1,6.9279084E0,-3.4942978E1,-1.9911088E0,1.02264404E-1],"categories":[],"categories_nodes":[],"categories_segments":[],"categories_sizes":[],"default_left":[0,0,0,0,0,0,0],"id":6,"left_children":[1,-1,3,-1,5,-1,-1],"loss_changes":[2.015118E5,0E0,1.3262E5,0E0,1.7057041E3,0E0,0E0],"parents":[2147483647,0,0,2,2,4,4],"right_children":[2,-1,4,-1,6,-1,-1],"split_conditions":[-5.888444E-1,-7.9154663E0,1.2747549E0,6.9279084E0,-2.0836034E-1,-1.9911088E0,1.02264404E-1],"split_indices":[3,0,0,0,3,0,0],"split_type":[0,0,0,0,0,0,0],"sum_hessian":[2.1E1,5E0,1.6E1,8E0,8E0,7E0,1E0],"tree_param":{"num_deleted":"0","num_feature":"4","num_nodes":"7","size_leaf_vector":"1"}},{"base_weights":[-8.786066E-1,-7.585653E0,5.2408764E1,1.3239996E2,-3.3405624E1,3.957998E0,7.957998E0,-1.9039932E0,9.970703E-2],"categories":[],"categories_nodes":[],"categories_segments":[],"categories_sizes":[],"default_left":[0,0,0,0,0,0,0,0,0],"id":7,"left_children":[1,-1,3,5,7,-1,-1,-1,-1],"loss_changes":[1.8477766E5,0E0,1.21117625E5,2.2321875E2,1.5651387E3,0E0,0E0,0E0,0E0],"parents":[2147483647,0,0,2,2,3,3,4,4],"right_children":[2,-1,4,6,8,-1,-1,-1,-1],"split_conditions":[-5.888444E-1,-7.585653E0,1.2747549E0,2.0615528E0,-2.0836034E-1,3.957998E0,7.957998E0,-1.9039932E0,9.970703E-2],"split_indices":[3,0,0,1,3,0,0,0,0],"split_type":[0,0,0,0,0,0,0,0,0],"sum_hessian":[2.1E1,5E0,1.6E1,8E0,8E0,4E0,4E0,7E0,1E0],"tree_param":{"num_deleted":"0","num_feature":"4","num_nodes":"9","size_leaf_vector":"1"}},{"base_weights":[-7.1982646E-1,-7.2695823E0,5.0383156E1,1.2710395E2,-3.1935764E1,3.7996776E0,7.6396775E0,-1.820691E0,9.72168E-2],"categories":[],"categories_nodes":[],"categories_segments":[],"categories_sizes":[],"default_left":[0,0,0,0,0,0,0,0,0],"id":8,"left_children":[1,-1,3,5,7,-1,-1,-1,-1],"loss_changes":[1.6997483E5,0E0,1.1142389E5,2.0573438E2,1.4362529E3,0E0,0E0,0E0,0E0],"parents":[2147483647,0,0,2,2,3,3,4,4],"right_children":[2,-1,4,6,8,-1,-1,-1,-1],"split_conditions":[-5.888444E-1,-7.2695823E0,1.2747549E0,2.0615528E0,-2.0836034E-1,3.7996776E0,7.6396775E0,-1.820691E0,9.72168E-2],"split_indices":[3,0,0,1,3,0,0,0,0],"split_type":[0,0,0,0,0,0,0,0,0],"sum_hessian":[2.1E1,5E0,1.6E1,8E0,8E0,4E0,4E0,7E0,1E0],"tree_param":{"num_deleted":"0","num_feature":"4","num_nodes":"9","size_leaf_vector":"1"}},{"base_weights":[-5.7258743E-1,-6.966685E0,4.8435604E1,1.2201986E2,-3.0530382E1,3.6476953E0,7.334092E0,-1.7410309E0,9.47876E-2],"categories":[],"categories_nodes":[],"categories_segments":[],"categories_sizes":[],"default_left":[0,0,0,0,0,0,0,0,0],"id":9,"left_children":[1,-1,3,5,7,-1,-1,-1,-1],"loss_changes":[1.5635819E5,0E0,1.02506414E5,1.8954688E2,1.3180527E3,0E0,0E0,0E0,0E0],"parents":[2147483647,0,0,2,2,3,3,4,4],"right_children":[2,-1,4,6,8,-1,-1,-1,-1],"split_conditions":[-5.888444E-1,-6.966685E0,1.2747549E0,2.0615528E0,-2.0836034E-1,3.6476953E0,7.334092E0,-1.7410309E0,9.47876E-2],"split_indices":[3,0,0,1,3,0,0,0,0],"split_type":[0,0,0,0,0,0,0,0,0],"sum_hessian":[2.1E1,5E0,1.6E1,8E0,8E0,4E0,4E0,7E0,1E0],"tree_param":{"num_deleted":"0","num_feature":"4","num_nodes":"9","size_leaf_vector":"1"}},{"base_weights":[-4.362571E-1,-6.6764016E0,4.6562973E1,1.1713911E2,-2.9186821E1,3.5017872E0,7.040733E0,-1.6648636E0,9.241944E-2],"categories":[],"categories_nodes":[],"categories_segments":[],"categories_sizes":[],"default_left":[0,0,0,0,0,0,0,0,0],"id":10,"left_children":[1,-1,3,5,7,-1,-1,-1,-1],"loss_changes":[1.4383211E5,0E0,9.430308E4,1.7473438E2,1.2096641E3,0E0,0E0,0E0,0E0],"parents":[2147483647,0,0,2,2,3,3,4,4],"right_children":[2,-1,4,6,8,-1,-1,-1,-1],"split_conditions":[-5.888444E-1,-6.6764016E0,1.2747549E0,2.0615528E0,-2.0836034E-1,3.5017872E0,7.040733E0,-1.6648636E0,9.241944E-2],"split_indices":[3,0,0,1,3,0,0,0,0],"split_type":[0,0,0,0,0,0,0,0,0],"sum_hessian":[2.1E1,5E0,1.6E1,8E0,8E0,4E0,4E0,7E0,1E0],"tree_param":{"num_deleted":"0","num_feature":"4","num_nodes":"9","size_leaf_vector":"1"}},{"base_weights":[-3.1018066E-1,-6.398214E0,4.476245E1,1.1245356E2,-2.7902262E1,3.361719E0,6.759102E0,-1.5920289E0,9.0106204E-2],"categories":[],"categories_nodes":[],"categories_segments":[],"categories_sizes":[],"default_left":[0,0,0,0,0,0,0,0,0],"id":11,"left_children":[1,-1,3,5,7,-1,-1,-1,-1],"loss_changes":[1.3230953E5,0E0,8.675655E4,1.6098438E2,1.1102471E3,0E0,0E0,0E0,0E0],"parents":[2147483647,0,0,2,2,3,3,4,4],"right_children":[2,-1,4,6,8,-1,-1,-1,-1],"split_conditions":[-5.888444E-1,-6.398214E0,1.2747549E0,2.0615528E0,-2.0836034E-1,3.361719E0,6.759102E0,-1.5920289E0,9.0106204E-2],"split_indices":[3,0,0,1,3,0,0,0,0],"split_type":[0,0,0,0,0,0,0,0,0],"sum_hessian":[2.1E1,5E0,1.6E1,8E0,8E0,4E0,4E0,7E0,1E0],"tree_param":{"num_deleted":"0","num_feature":"4","num_nodes":"9","size_leaf_vector":"1"}},{"base_weights":[-1.9373669E-1,-6.1316223E0,4.3031322E1,1.0795541E2,-2.6674019E1,3.227246E0,6.4887404E0,-1.522377E0,8.7854005E-2],"categories":[],"categories_nodes":[],"categories_segments":[],"categories_sizes":[],"default_left":[0,0,0,0,0,0,0,0,0],"id":12,"left_children":[1,-1,3,5,7,-1,-1,-1,-1],"loss_changes":[1.2171028E5,0E0,7.981405E4,1.4841406E2,1.0190674E3,0E0,0E0,0E0,0E0],"parents":[2147483647,0,0,2,2,3,3,4,4],"right_children":[2,-1,4,6,8,-1,-1,-1,-1],"split_conditions":[-5.888444E-1,-6.1316223E0,1.2747549E0,2.0615528E0,-2.0836034E-1,3.227246E0,6.4887404E0,-1.522377E0,8.7854005E-2],"split_indices":[3,0,0,1,3,0,0,0,0],"split_type":[0,0,0,0,0,0,0,0,0],"sum_hessian":[2.1E1,5E0,1.6E1,8E0,8E0,4E0,4E0,7E0,1E0],"tree_param":{"num_deleted":"0","num_feature":"4","num_nodes":"9","size_leaf_vector":"1"}},{"base_weights":[-8.6325906E-2,-5.8761396E0,4.1366913E1,1.0363715E2,-2.5499647E1,3.0981543E0,6.2291894E0,-1.4557694E0,8.565674E-2],"categories":[],"categories_nodes":[],"categories_segments":[],"categories_sizes":[],"default_left":[0,0,0,0,0,0,0,0,0],"id":13,"left_children":[1,-1,3,5,7,-1,-1,-1,-1],"loss_changes":[1.11960234E5,0E0,7.342726E4,1.3678125E2,9.3542773E2,0E0,0E0,0E0,0E0],"parents":[2147483647,0,0,2,2,3,3,4,4],"right_children":[2,-1,4,6,8,-1,-1,-1,-1],"split_conditions":[-5.888444E-1,-5.8761396E0,1.2747549E0,2.0615528E0,-2.0836034E-1,3.0981543E0,6.2291894E0,-1.4557694E0,8.565674E-2],"split_indices":[3,0,0,1,3,0,0,0,0],"split_type":[0,0,0,0,0,0,0,0,0],"sum_hessian":[2.1E1,5E0,1.6E1,8E0,8E0,4E0,4E0,7E0,1E0],"tree_param":{"num_deleted":"0","num_feature":"4","num_nodes":"9","size_leaf_vector":"1"}},{"base_weights":[1.2606534E-2,-5.631297E0,3.9766644E1,9.9491646E1,-2.4376871E1,2.9742286E0,5.9800196E0,-1.3920777E0,8.351441E-2],"categories":[],"categories_nodes":[],"categories_segments":[],"categories_sizes":[],"default_left":[0,0,0,0,0,0,0,0,0],"id":14,"left_children":[1,-1,3,5,7,-1,-1,-1,-1],"loss_changes":[1.0299117E5,0E0,6.7551805E4,1.2605469E2,8.58709E2,0E0,0E0,0E0,0E0],"parents":[2147483647,0,0,2,2,3,3,4,4],"right_children":[2,-1,4,6,8,-1,-1,-1,-1],"split_conditions":[-5.888444E-1,-5.631297E0,1.2747549E0,2.0615528E0,-2.0836034E-1,2.9742286E0,5.9800196E0,-1.3920777E0,8.351441E-2],"split_indices":[3,0,0,1,3,0,0,0,0],"split_type":[0,0,0,0,0,0,0,0,0],"sum_hessian":[2.1E1,5E0,1.6E1,8E0,8E0,4E0,4E0,7E0,1E0],"tree_param":{"num_deleted":"0","num_feature":"4","num_nodes":"9","size_leaf_vector":"1"}},{"base_weights":[1.0358221E-1,-5.3966575E0,3.82281E1,9.551205E1,-2.3303413E1,2.8552637E0,5.7408204E0,-1.3311738E0,8.1427E-2],"categories":[],"categories_nodes":[],"categories_segments":[],"categories_sizes":[],"default_left":[0,0,0,0,0,0,0,0,0],"id":15,"left_children":[1,-1,3,5,7,-1,-1,-1,-1],"loss_changes":[9.4740734E4,0E0,6.214682E4,1.16140625E2,7.883379E2,0E0,0E0,0E0,0E0],"parents":[2147483647,0,0,2,2,3,3,4,4],"right_children":[2,-1,4,6,8,-1,-1,-1,-1],"split_conditions":[-5.888444E-1,-5.3966575E0,1.2747549E0,2.0615528E0,-2.0836034E-1,2.8552637E0,5.7408204E0,-1.3311738E0,8.1427E-2],"split_indices":[3,0,0,1,3,0,0,0,0],"split_type":[0,0,0,0,0,0,0,0,0],"sum_hessian":[2.1E1,5E0,1.6E1,8E0,8E0,4E0,4E0,7E0,1E0],"tree_param":{"num_deleted":"0","num_feature":"4","num_nodes":"9","size_leaf_vector":"1"}},{"base_weights":[1.8702282E-1,-5.171794E0,3.674881E1,9.169162E1,-2.2277208E1,2.7410548E0,5.511192E0,-1.27294E0,7.938843E-2],"categories":[],"categories_nodes":[],"categories_segments":[],"categories_sizes":[],"default_left":[0,0,0,0,0,0,0,0,0],"id":16,"left_children":[1,-1,3,5,7,-1,-1,-1,-1],"loss_changes":[8.715119E4,0E0,5.7174574E4,1.0703906E2,7.237803E2,0E0,0E0,0E0,0E0],"parents":[2147483647,0,0,2,2,3,3,4,4],"right_children":[2,-1,4,6,8,-1,-1,-1,-1],"split_conditions":[-5.888444E-1,-5.171794E0,1.2747549E0,2.0615528E0,-2.0836034E-1,2.7410548E0,5.511192E0,-1.27294E0,7.938843E-2],"split_indices":[3,0,0,1,3,0,0,0,0],"split_type":[0,0,0,0,0,0,0,0,0],"sum_hessian":[2.1E1,5E0,1.6E1,8E0,8E0,4E0,4E0,7E0,1E0],"tree_param":{"num_deleted":"0","num_feature":"4","num_nodes":"9","size_leaf_vector":"1"}},{"base_weights":[2.634721E-1,-4.956299E0,3.5326603E1,8.802398E1,-2.1295952E1,2.631416E0,5.2907424E0,-1.2172486E0,7.740479E-2],"categories":[],"categories_nodes":[],"categories_segments":[],"categories_sizes":[],"default_left":[0,0,0,0,0,0,0,0,0],"id":17,"left_children":[1,-1,3,5,7,-1,-1,-1,-1],"loss_changes":[8.01697E4,0E0,5.260017E4,9.8625E1,6.645554E2,0E0,0E0,0E0,0E0],"parents":[2147483647,0,0,2,2,3,3,4,4],"right_children":[2,-1,4,6,8,-1,-1,-1,-1],"split_conditions":[-5.888444E-1,-4.956299E0,1.2747549E0,2.0615528E0,-2.0836034E-1,2.631416E0,5.2907424E0,-1.2172486E0,7.740479E-2],"split_indices":[3,0,0,1,3,0,0,0,0],"split_type":[0,0,0,0,0,0,0,0,0],"sum_hessian":[2.1E1,5E0,1.6E1,8E0,8E0,4E0,4E0,7E0,1E0],"tree_param":{"num_deleted":"0","num_feature":"4","num_nodes":"9","size_leaf_vector":"1"}},{"base_weights":[3.3331853E-1,-4.7497864E0,3.395926E1,8.450304E1,-2.0357775E1,2.5261621E0,5.0791116E0,-1.1639923E0,7.546997E-2],"categories":[],"categories_nodes":[],"categories_segments":[],"categories_sizes":[],"default_left":[0,0,0,0,0,0,0,0,0],"id":18,"left_children":[1,-1,3,5,7,-1,-1,-1,-1],"loss_changes":[7.374762E4,0E0,4.839189E4,9.086719E1,6.102156E2,0E0,0E0,0E0,0E0],"parents":[2147483647,0,0,2,2,3,3,4,4],"right_children":[2,-1,4,6,8,-1,-1,-1,-1],"split_conditions":[-5.888444E-1,-4.7497864E0,1.2747549E0,2.0615528E0,-2.0836034E-1,2.5261621E0,5.0791116E0,-1.1639923E0,7.546997E-2],"split_indices":[3,0,0,1,3,0,0,0,0],"split_type":[0,0,0,0,0,0,0,0,0],"sum_hessian":[2.1E1,5E0,1.6E1,8E0,8E0,4E0,4E0,7E0,1E0],"tree_param":{"num_deleted":"0","num_feature":"4","num_nodes":"9","size_leaf_vector":"1"}},{"base_weights":[3.9699486E-1,-4.55188E0,3.2644676E1,8.112294E1,-1.9460775E1,2.4251173E0,4.8759475E0,-1.1130646E0,7.358398E-2],"categories":[],"categories_nodes":[],"categories_segments":[],"categories_sizes":[],"default_left":[0,0,0,0,0,0,0,0,0],"id":19,"left_children":[1,-1,3,5,7,-1,-1,-1,-1],"loss_changes":[6.784007E4,0E0,4.4520406E4,8.373047E1,5.603567E2,0E0,0E0,0E0,0E0],"parents":[2147483647,0,0,2,2,3,3,4,4],"right_children":[2,-1,4,6,8,-1,-1,-1,-1],"split_conditions":[-5.888444E-1,-4.55188E0,1.2747549E0,2.0615528E0,-2.0836034E-1,2.4251173E0,4.8759475E0,-1.1130646E0,7.358398E-2],"split_indices":[3,0,0,1,3,0,0,0,0],"split_type":[0,0,0,0,0,0,0,0,0],"sum_hessian":[2.1E1,5E0,1.6E1,8E0,8E0,4E0,4E0,7E0,1E0],"tree_param":{"num_deleted":"0","num_feature":"4","num_nodes":"9","size_leaf_vector":"1"}},{"base_weights":[4.5483398E-1,-4.3622236E0,3.1380774E1,7.787804E1,-1.8603245E1,2.3281152E0,4.680908E0,-1.0643692E0,7.1746826E-2],"categories":[],"categories_nodes":[],"categories_segments":[],"categories_sizes":[],"default_left":[0,0,0,0,0,0,0,0,0],"id":20,"left_children":[1,-1,3,5,7,-1,-1,-1,-1],"loss_changes":[6.2405832E4,0E0,4.095883E4,7.714844E1,5.146135E2,0E0,0E0,0E0,0E0],"parents":[2147483647,0,0,2,2,3,3,4,4],"right_children":[2,-1,4,6,8,-1,-1,-1,-1],"split_conditions":[-5.888444E-1,-4.3622236E0,1.2747549E0,2.0615528E0,-2.0836034E-1,2.3281152E0,4.680908E0,-1.0643692E0,7.1746826E-2],"split_indices":[3,0,0,1,3,0,0,0,0],"split_type":[0,0,0,0,0,0,0,0,0],"sum_hessian":[2.1E1,5E0,1.6E1,8E0,8E0,4E0,4E0,7E0,1E0],"tree_param":{"num_deleted":"0","num_feature":"4","num_nodes":"9","size_leaf_vector":"1"}},{"base_weights":[5.073242E-1,-4.180461E0,3.016567E1,7.476291E1,-1.7783312E1,2.2349904E0,4.493672E0,-1.0177994E0,6.995239E-2],"categories":[],"categories_nodes":[],"categories_segments":[],"categories_sizes":[],"default_left":[0,0,0,0,0,0,0,0,0],"id":21,"left_children":[1,-1,3,5,7,-1,-1,-1,-1],"loss_changes":[5.740679E4,0E0,3.7682203E4,7.110156E1,4.726289E2,0E0,0E0,0E0,0E0],"parents":[2147483647,0,0,2,2,3,3,4,4],"right_children":[2,-1,4,6,8,-1,-1,-1,-1],"split_conditions":[-5.888444E-1,-4.180461E0,1.2747549E0,2.0615528E0,-2.0836034E-1,2.2349904E0,4.493672E0,-1.0177994E0,6.995239E-2],"split_indices":[3,0,0,1,3,0,0,0,0],"split_type":[0,0,0,0,0,0,0,0,0],"sum_hessian":[2.1E1,5E0,1.6E1,8E0,8E0,4E0,4E0,7E0,1E0],"tree_param":{"num_deleted":"0","num_feature":"4","num_nodes":"9","size_leaf_vector":"1"}},{"base_weights":[5.546764E-1,-4.0062766E0,2.8997416E1,7.1772354E1,-1.6999458E1,2.145586E0,4.313926E0,-9.7326964E-1,6.8200685E-2],"categories":[],"categories_nodes":[],"categories_segments":[],"categories_sizes":[],"default_left":[0,0,0,0,0,0,0,0,0],"id":22,"left_children":[1,-1,3,5,7,-1,-1,-1,-1],"loss_changes":[5.2808285E4,0E0,3.4667812E4,6.555859E1,4.3409912E2,0E0,0E0,0E0,0E0],"parents":[2147483647,0,0,2,2,3,3,4,4],"right_children":[2,-1,4,6,8,-1,-1,-1,-1],"split_conditions":[-5.888444E-1,-4.0062766E0,1.2747549E0,2.0615528E0,-2.0836034E-1,2.145586E0,4.313926E0,-9.7326964E-1,6.8200685E-2],"split_indices":[3,0,0,1,3,0,0,0,0],"split_type":[0,0,0,0,0,0,0,0,0],"sum_hessian":[2.1E1,5E0,1.6E1,8E0,8E0,4E0,4E0,7E0,1E0],"tree_param":{"num_deleted":"0","num_feature":"4","num_nodes":"9","size_leaf_vector":"1"}},{"base_weights":[5.973788E-1,-3.8393452E0,2.787434E1,6.8901474E1,-1.6249947E1,2.0597656E0,4.1413674E0,-9.306839E-1,6.64978E-2],"categories":[],"categories_nodes":[],"categories_segments":[],"categories_sizes":[],"default_left":[0,0,0,0,0,0,0,0,0],"id":23,"left_children":[1,-1,3,5,7,-1,-1,-1,-1],"loss_changes":[4.857816E4,0E0,3.1894625E4,6.039453E1,3.9874292E2,0E0,0E0,0E0,0E0],"parents":[2147483647,0,0,2,2,3,3,4,4],"right_children":[2,-1,4,6,8,-1,-1,-1,-1],"split_conditions":[-5.888444E-1,-3.8393452E0,1.2747549E0,2.0615528E0,-2.0836034E-1,2.0597656E0,4.1413674E0,-9.306839E-1,6.64978E-2],"split_indices":[3,0,0,1,3,0,0,0,0],"split_type":[0,0,0,0,0,0,0,0,0],"sum_hessian":[2.1E1,5E0,1.6E1,8E0,8E0,4E0,4E0,7E0,1E0],"tree_param":{"num_deleted":"0","num_feature":"4","num_nodes":"9","size_leaf_vector":"1"}},{"base_weights":[6.355757E-1,-3.679372E0,2.6794548E1,6.61454E1,-1.5533474E1,1.9773731E0,3.975713E0,-8.899674E-1,6.483765E-2],"categories":[],"categories_nodes":[],"categories_segments":[],"categories_sizes":[],"default_left":[0,0,0,0,0,0,0,0,0],"id":24,"left_children":[1,-1,3,5,7,-1,-1,-1,-1],"loss_changes":[4.46869E4,0E0,2.9343406E4,5.567578E1,3.662976E2,0E0,0E0,0E0,0E0],"parents":[2147483647,0,0,2,2,3,3,4,4],"right_children":[2,-1,4,6,8,-1,-1,-1,-1],"split_conditions":[-5.888444E-1,-3.679372E0,1.2747549E0,2.0615528E0,-2.0836034E-1,1.9773731E0,3.975713E0,-8.899674E-1,6.483765E-2],"split_indices":[3,0,0,1,3,0,0,0,0],"split_type":[0,0,0,0,0,0,0,0,0],"sum_hessian":[2.1E1,5E0,1.6E1,8E0,8E0,4E0,4E0,7E0,1E0],"tree_param":{"num_deleted":"0","num_feature":"4","num_nodes":"9","size_leaf_vector":"1"}},{"base_weights":[6.6962224E-1,-3.526062E0,2.575642E1,6.3499565E1,-1.4848552E1,1.8982813E0,3.8166797E0,-8.510346E-1,6.3214116E-2],"categories":[],"categories_nodes":[],"categories_segments":[],"categories_sizes":[],"default_left":[0,0,0,0,0,0,0,0,0],"id":25,"left_children":[1,-1,3,5,7,-1,-1,-1,-1],"loss_changes":[4.1107293E4,0E0,2.6996387E4,5.1277344E1,3.3651282E2,0E0,0E0,0E0,0E0],"parents":[2147483647,0,0,2,2,3,3,4,4],"right_children":[2,-1,4,6,8,-1,-1,-1,-1],"split_conditions":[-5.888444E-1,-3.526062E0,1.2747549E0,2.0615528E0,-2.0836034E-1,1.8982813E0,3.8166797E0,-8.510346E-1,6.3214116E-2],"split_indices":[3,0,0,1,3,0,0,0,0],"split_type":[0,0,0,0,0,0,0,0,0],"sum_hessian":[2.1E1,5E0,1.6E1,8E0,8E0,4E0,4E0,7E0,1E0],"tree_param":{"num_deleted":"0","num_feature":"4","num_nodes":"9","size_leaf_vector":"1"}},{"base_weights":[6.998735E-1,-3.3791401E0,2.4758472E1,6.0959637E1,-1.419363E1,1.8223536E0,3.6640136E0,-8.1380004E-1,6.16333E-2],"categories":[],"categories_nodes":[],"categories_segments":[],"categories_sizes":[],"default_left":[0,0,0,0,0,0,0,0,0],"id":26,"left_children":[1,-1,3,5,7,-1,-1,-1,-1],"loss_changes":[3.7814527E4,0E0,2.4837133E4,4.7242188E1,3.0917212E2,0E0,0E0,0E0,0E0],"parents":[2147483647,0,0,2,2,3,3,4,4],"right_children":[2,-1,4,6,8,-1,-1,-1,-1],"split_conditions":[-5.888444E-1,-3.3791401E0,1.2747549E0,2.0615528E0,-2.0836034E-1,1.8223536E0,3.6640136E0,-8.1380004E-1,6.16333E-2],"split_indices":[3,0,0,1,3,0,0,0,0],"split_type":[0,0,0,0,0,0,0,0,0],"sum_hessian":[2.1E1,5E0,1.6E1,8E0,8E0,4E0,4E0,7E0,1E0],"tree_param":{"num_deleted":"0","num_feature":"4","num_nodes":"9","size_leaf_vector":"1"}},{"base_weights":[7.264626E-1,-3.2383423E0,2.3799015E1,5.8521267E1,-1.3567573E1,1.749463E0,3.517451E0,-7.781998E-1,6.0095217E-2],"categories":[],"categories_nodes":[],"categories_segments":[],"categories_sizes":[],"default_left":[0,0,0,0,0,0,0,0,0],"id":27,"left_children":[1,-1,3,5,7,-1,-1,-1,-1],"loss_changes":[3.478554E4,0E0,2.2850676E4,4.351758E1,2.8408142E2,0E0,0E0,0E0,0E0],"parents":[2147483647,0,0,2,2,3,3,4,4],"right_children":[2,-1,4,6,8,-1,-1,-1,-1],"split_conditions":[-5.888444E-1,-3.2383423E0,1.2747549E0,2.0615528E0,-2.0836034E-1,1.749463E0,3.517451E0,-7.781998E-1,6.0095217E-2],"split_indices":[3,0,0,1,3,0,0,0,0],"split_type":[0,0,0,0,0,0,0,0,0],"sum_hessian":[2.1E1,5E0,1.6E1,8E0,8E0,4E0,4E0,7E0,1E0],"tree_param":{"num_deleted":"0","num_feature":"4","num_nodes":"9","size_leaf_vector":"1"}},{"base_weights":[7.497448E-1,-3.103414E0,2.2876709E1,5.6180447E1,-1.2968885E1,1.6794825E0,3.3767579E0,-7.4414825E-1,5.859375E-2],"categories":[],"categories_nodes":[],"categories_segments":[],"categories_sizes":[],"default_left":[0,0,0,0,0,0,0,0,0],"id":28,"left_children":[1,-1,3,5,7,-1,-1,-1,-1],"loss_changes":[3.1999305E4,0E0,2.1023066E4,4.0125E1,2.610398E2,0E0,0E0,0E0,0E0],"parents":[2147483647,0,0,2,2,3,3,4,4],"right_children":[2,-1,4,6,8,-1,-1,-1,-1],"split_conditions":[-5.888444E-1,-3.103414E0,1.2747549E0,2.0615528E0,-2.0836034E-1,1.6794825E0,3.3767579E0,-7.4414825E-1,5.859375E-2],"split_indices":[3,0,0,1,3,0,0,0,0],"split_type":[0,0,0,0,0,0,0,0,0],"sum_hessian":[2.1E1,5E0,1.6E1,8E0,8E0,4E0,4E0,7E0,1E0],"tree_param":{"num_deleted":"0","num_feature":"4","num_nodes":"9","size_leaf_vector":"1"}},{"base_weights":[7.6989746E-1,-2.9741008E0,2.198999E1,5.393327E1,-1.239662E1,1.6123047E0,3.2416894E0,-7.1159214E-1,5.7128906E-2],"categories":[],"categories_nodes":[],"categories_segments":[],"categories_sizes":[],"default_left":[0,0,0,0,0,0,0,0,0],"id":29,"left_children":[1,-1,3,5,7,-1,-1,-1,-1],"loss_changes":[2.9436135E4,0E0,1.934175E4,3.6976562E1,2.3988794E2,0E0,0E0,0E0,0E0],"parents":[2147483647,0,0,2,2,3,3,4,4],"right_children":[2,-1,4,6,8,-1,-1,-1,-1],"split_conditions":[-5.888444E-1,-2.9741008E0,1.2747549E0,2.0615528E0,-2.0836034E-1,1.6123047E0,3.2416894E0,-7.1159214E-1,5.7128906E-2],"split_indices":[3,0,0,1,3,0,0,0,0],"split_type":[0,0,0,0,0,0,0,0,0],"sum_hessian":[2.1E1,5E0,1.6E1,8E0,8E0,4E0,4E0,7E0,1E0],"tree_param":{"num_deleted":"0","num_feature":"4","num_nodes":"9","size_leaf_vector":"1"}},{"base_weights":[7.8713155E-1,-2.8501792E0,2.1137552E1,5.1775932E1,-1.1849446E1,1.5478125E0,3.1120214E0,-6.804566E-1,5.5700686E-2],"categories":[],"categories_nodes":[],"categories_segments":[],"categories_sizes":[],"default_left":[0,0,0,0,0,0,0,0,0],"id":30,"left_children":[1,-1,3,5,7,-1,-1,-1,-1],"loss_changes":[2.7078352E4,0E0,1.7794877E4,3.407617E1,2.2046521E2,0E0,0E0,0E0,0E0],"parents":[2147483647,0,0,2,2,3,3,4,4],"right_children":[2,-1,4,6,8,-1,-1,-1,-1],"split_conditions":[-5.888444E-1,-2.8501792E0,1.2747549E0,2.0615528E0,-2.0836034E-1,1.5478125E0,3.1120214E0,-6.804566E-1,5.5700686E-2],"split_indices":[3,0,0,1,3,0,0,0,0],"split_type":[0,0,0,0,0,0,0,0,0],"sum_hessian":[2.1E1,5E0,1.6E1,8E0,8E0,4E0,4E0,7E0,1E0],"tree_param":{"num_deleted":"0","num_feature":"4","num_nodes":"9","size_leaf_vector":"1"}},{"base_weights":[8.0159134E-1,-2.731425E0,2.0318E1,4.970486E1,-1.1326416E1,1.4858984E0,2.987539E0,-6.506882E-1,5.430908E-2],"categories":[],"categories_nodes":[],"categories_segments":[],"categories_sizes":[],"default_left":[0,0,0,0,0,0,0,0,0],"id":31,"left_children":[1,-1,3,5,7,-1,-1,-1,-1],"loss_changes":[2.490946E4,0E0,1.6371791E4,3.140625E1,2.0263452E2,0E0,0E0,0E0,0E0],"parents":[2147483647,0,0,2,2,3,3,4,4],"right_children":[2,-1,4,6,8,-1,-1,-1,-1],"split_conditions":[-5.888444E-1,-2.731425E0,1.2747549E0,2.0615528E0,-2.0836034E-1,1.4858984E0,2.987539E0,-6.506882E-1,5.430908E-2],"split_indices":[3,0,0,1,3,0,0,0,0],"split_type":[0,0,0,0,0,0,0,0,0],"sum_hessian":[2.1E1,5E0,1.6E1,8E0,8E0,4E0,4E0,7E0,1E0],"tree_param":{"num_deleted":"0","num_feature":"4","num_nodes":"9","size_leaf_vector":"1"}},{"base_weights":[8.1358755E-1,-2.6176147E0,1.9530159E1,4.771669E1,-1.0826389E1,1.4264649E0,2.868037E0,-1.2444458E1,5.2954104E-2,-8.3121747E-1,-8.2804365E0,2.380371E-3,-8.3121747E-1],"categories":[],"categories_nodes":[],"categories_segments":[],"categories_sizes":[],"default_left":[0,0,0,0,0,0,0,0,0,0,0,0,0],"id":32,"left_children":[1,-1,3,5,7,-1,-1,9,-1,-1,11,-1,-1],"loss_changes":[2.2914273E4,0E0,1.5062577E4,2.8935547E1,1.862633E2,0E0,0E0,1.5844727E0,0E0,0E0,4.1772226E2,0E0,0E0],"parents":[2147483647,0,0,2,2,3,3,4,4,7,7,10,10],"right_children":[2,-1,4,6,8,-1,-1,10,-1,-1,12,-1,-1],"split_conditions":[-5.888444E-1,-2.6176147E0,1.2747549E0,2.0615528E0,-2.0836034E-1,1.4264649E0,2.868037E0,-2.74123E-1,5.2954104E-2,-8.3121747E-1,-2.6707703E-1,2.380371E-3,-8.3121747E-1],"split_indices":[3,0,0,1,3,0,0,3,0,0,3,0,0],"split_type":[0,0,0,0,0,0,0,0,0,0,0,0,0],"sum_hessian":[2.1E1,5E0,1.6E1,8E0,8E0,4E0,4E0,7E0,1E0,2E0,5E0,3E0,2E0],"tree_param":{"num_deleted":"0","num_feature":"4","num_nodes":"13","size_leaf_vector":"1"}},{"base_weights":[7.7611196E-1,-2.508545E0,1.8711756E1,4.5808052E1,-1.0463623E1,1.3694043E0,2.7533205E0,-1.2029724E1,5.162964E-2,-8.035075E-1,-8.004558E0,2.2888184E-3,-8.035075E-1],"categories":[],"categories_nodes":[],"categories_segments":[],"categories_sizes":[],"default_left":[0,0,0,0,0,0,0,0,0,0,0,0,0],"id":33,"left_children":[1,-1,3,5,7,-1,-1,9,-1,-1,11,-1,-1],"loss_changes":[2.104167E4,0E0,1.3918578E4,2.6683594E1,1.7445984E2,0E0,0E0,1.4726562E0,0E0,0E0,3.9031982E2,0E0,0E0],"parents":[2147483647,0,0,2,2,3,3,4,4,7,7,10,10],"right_children":[2,-1,4,6,8,-1,-1,10,-1,-1,12,-1,-1],"split_conditions":[-5.888444E-1,-2.508545E0,1.2747549E0,2.0615528E0,-2.0836034E-1,1.3694043E0,2.7533205E0,-2.74123E-1,5.162964E-2,-8.035075E-1,-2.6707703E-1,2.2888184E-3,-8.035075E-1],"split_indices":[3,0,0,1,3,0,0,3,0,0,3,0,0],"split_type":[0,0,0,0,0,0,0,0,0,0,0,0,0],"sum_hessian":[2.1E1,5E0,1.6E1,8E0,8E0,4E0,4E0,7E0,1E0,2E0,5E0,3E0,2E0],"tree_param":{"num_deleted":"0","num_feature":"4","num_nodes":"13","size_leaf_vector":"1"}},{"base_weights":[7.40079E-1,-2.4040222E0,1.7927319E1,4.3975693E1,-1.0112983E1,1.314629E0,2.6431835E0,-1.1628815E1,5.0341796E-2,-7.7672523E-1,-7.7378335E0,2.206421E-3,-7.7672523E-1],"categories":[],"categories_nodes":[],"categories_segments":[],"categories_sizes":[],"default_left":[0,0,0,0,0,0,0,0,0,0,0,0,0],"id":34,"left_children":[1,-1,3,5,7,-1,-1,9,-1,-1,11,-1,-1],"loss_changes":[1.9321936E4,0E0,1.2861599E4,2.4582031E1,1.6341022E2,0E0,0E0,1.3724365E0,0E0,0E0,3.6472598E2,0E0,0E0],"parents":[2147483647,0,0,2,2,3,3,4,4,7,7,10,10],"right_children":[2,-1,4,6,8,-1,-1,10,-1,-1,12,-1,-1],"split_conditions":[-5.888444E-1,-2.4040222E0,1.2747549E0,2.0615528E0,-2.0836034E-1,1.314629E0,2.6431835E0,-2.74123E-1,5.0341796E-2,-7.7672523E-1,-2.6707703E-1,2.206421E-3,-7.7672523E-1],"split_indices":[3,0,0,1,3,0,0,3,0,0,3,0,0],"split_type":[0,0,0,0,0,0,0,0,0,0,0,0,0],"sum_hessian":[2.1E1,5E0,1.6E1,8E0,8E0,4E0,4E0,7E0,1E0,2E0,5E0,3E0,2E0],"tree_param":{"num_deleted":"0","num_feature":"4","num_nodes":"13","size_leaf_vector":"1"}},{"base_weights":[7.0547765E-1,-2.3038535E0,1.7175465E1,4.221669E1,-9.774143E0,1.262041E0,2.537461E0,-1.1241333E1,4.9084473E-2,-7.508382E-1,-7.480062E0,2.1240234E-3,-7.508382E-1],"categories":[],"categories_nodes":[],"categories_segments":[],"categories_sizes":[],"default_left":[0,0,0,0,0,0,0,0,0,0,0,0,0],"id":35,"left_children":[1,-1,3,5,7,-1,-1,9,-1,-1,11,-1,-1],"loss_changes":[1.774257E4,0E0,1.1885103E4,2.2671875E1,1.5306317E2,0E0,0E0,1.2770386E0,0E0,0E0,3.408089E2,0E0,0E0],"parents":[2147483647,0,0,2,2,3,3,4,4,7,7,10,10],"right_children":[2,-1,4,6,8,-1,-1,10,-1,-1,12,-1,-1],"split_conditions":[-5.888444E-1,-2.3038535E0,1.2747549E0,2.0615528E0,-2.0836034E-1,1.262041E0,2.537461E0,-2.74123E-1,4.9084473E-2,-7.508382E-1,-2.6707703E-1,2.1240234E-3,-7.508382E-1],"split_indices":[3,0,0,1,3,0,0,3,0,0,3,0,0],"split_type":[0,0,0,0,0,0,0,0,0,0,0,0,0],"sum_hessian":[2.1E1,5E0,1.6E1,8E0,8E0,4E0,4E0,7E0,1E0,2E0,5E0,3E0,2E0],"tree_param":{"num_deleted":"0","num_feature":"4","num_nodes":"13","size_leaf_vector":"1"}},{"base_weights":[6.722856E-1,-2.2078552E0,1.6454878E1,4.0528103E1,-9.446669E0,1.2115625E0,2.435967E0,-1.0866791E1,4.785767E-2,-7.258138E-1,-7.2309165E0,2.041626E-3,-7.258138E-1],"categories":[],"categories_nodes":[],"categories_segments":[],"categories_sizes":[],"default_left":[0,0,0,0,0,0,0,0,0,0,0,0,0],"id":36,"left_children":[1,-1,3,5,7,-1,-1,9,-1,-1,11,-1,-1],"loss_changes":[1.6292126E4,0E0,1.0982931E4,2.0891602E1,1.4337341E2,0E0,0E0,1.1865234E0,0E0,0E0,3.1845657E2,0E0,0E0],"parents":[2147483647,0,0,2,2,3,3,4,4,7,7,10,10],"right_children":[2,-1,4,6,8,-1,-1,10,-1,-1,12,-1,-1],"split_conditions":[-5.888444E-1,-2.2078552E0,1.2747549E0,2.0615528E0,-2.0836034E-1,1.2115625E0,2.435967E0,-2.74123E-1,4.785767E-2,-7.258138E-1,-2.6707703E-1,2.041626E-3,-7.258138E-1],"split_indices":[3,0,0,1,3,0,0,3,0,0,3,0,0],"split_type":[0,0,0,0,0,0,0,0,0,0,0,0,0],"sum_hessian":[2.1E1,5E0,1.6E1,8E0,8E0,4E0,4E0,7E0,1E0,2E0,5E0,3E0,2E0],"tree_param":{"num_deleted":"0","num_feature":"4","num_nodes":"13","size_leaf_vector":"1"}},{"base_weights":[6.403587E-1,-2.1158652E0,1.5764217E1,3.8906902E1,-9.130046E0,1.1630957E0,2.3385255E0,-1.0504608E1,4.6661377E-2,-7.016195E-1,-6.9899497E0,1.9683838E-3,-7.016195E-1],"categories":[],"categories_nodes":[],"categories_segments":[],"categories_sizes":[],"default_left":[0,0,0,0,0,0,0,0,0,0,0,0,0],"id":37,"left_children":[1,-1,3,5,7,-1,-1,9,-1,-1,11,-1,-1],"loss_changes":[1.4960183E4,0E0,1.0149263E4,1.9262695E1,1.3429663E2,0E0,0E0,1.105835E0,0E0,0E0,2.9757367E2,0E0,0E0],"parents":[2147483647,0,0,2,2,3,3,4,4,7,7,10,10],"right_children":[2,-1,4,6,8,-1,-1,10,-1,-1,12,-1,-1],"split_conditions":[-5.888444E-1,-2.1158652E0,1.2747549E0,2.0615528E0,-2.0836034E-1,1.1630957E0,2.3385255E0,-2.74123E-1,4.6661377E-2,-7.016195E-1,-2.6707703E-1,1.9683838E-3,-7.016195E-1],"split_indices":[3,0,0,1,3,0,0,3,0,0,3,0,0],"split_type":[0,0,0,0,0,0,0,0,0,0,0,0,0],"sum_hessian":[2.1E1,5E0,1.6E1,8E0,8E0,4E0,4E0,7E0,1E0,2E0,5E0,3E0,2E0],"tree_param":{"num_deleted":"0","num_feature":"4","num_nodes":"13","size_leaf_vector":"1"}},{"base_weights":[6.0977453E-1,-2.0277E0,1.5102295E1,3.7350586E1,-8.824029E0,1.1165723E0,2.2449806E0,-1.01545105E1,4.5495607E-2,-6.782308E-1,-6.7570395E0,1.8951417E-3,-6.782308E-1],"categories":[],"categories_nodes":[],"categories_segments":[],"categories_sizes":[],"default_left":[0,0,0,0,0,0,0,0,0,0,0,0,0],"id":38,"left_children":[1,-1,3,5,7,-1,-1,9,-1,-1,11,-1,-1],"loss_changes":[1.3736928E4,0E0,9.37902E3,1.7745117E1,1.2579718E2,0E0,0E0,1.0292358E0,0E0,0E0,2.7805664E2,0E0,0E0],"parents":[2147483647,0,0,2,2,3,3,4,4,7,7,10,10],"right_children":[2,-1,4,6,8,-1,-1,10,-1,-1,12,-1,-1],"split_conditions":[-5.888444E-1,-2.0277E0,1.2747549E0,2.0615528E0,-2.0836034E-1,1.1165723E0,2.2449806E0,-2.74123E-1,4.5495607E-2,-6.782308E-1,-2.6707703E-1,1.8951417E-3,-6.782308E-1],"split_indices":[3,0,0,1,3,0,0,3,0,0,3,0,0],"split_type":[0,0,0,0,0,0,0,0,0,0,0,0,0],"sum_hessian":[2.1E1,5E0,1.6E1,8E0,8E0,4E0,4E0,7E0,1E0,2E0,5E0,3E0,2E0],"tree_param":{"num_deleted":"0","num_feature":"4","num_nodes":"13","size_leaf_vector":"1"}},{"base_weights":[5.8042216E-1,-1.9432169E0,1.446796E1,3.5856663E1,-8.528294E0,1.0719141E0,2.1551855E0,-9.816132E0,4.436035E-2,-6.556234E-1,-6.531942E0,1.8218994E-3,-6.556234E-1],"categories":[],"categories_nodes":[],"categories_segments":[],"categories_sizes":[],"default_left":[0,0,0,0,0,0,0,0,0,0,0,0,0],"id":39,"left_children":[1,-1,3,5,7,-1,-1,9,-1,-1,11,-1,-1],"loss_changes":[1.2613682E4,0E0,8.667416E3,1.634668E1,1.1783972E2,0E0,0E0,9.5648193E-1,0E0,0E0,2.5981818E2,0E0,0E0],"parents":[2147483647,0,0,2,2,3,3,4,4,7,7,10,10],"right_children":[2,-1,4,6,8,-1,-1,10,-1,-1,12,-1,-1],"split_conditions":[-5.888444E-1,-1.9432169E0,1.2747549E0,2.0615528E0,-2.0836034E-1,1.0719141E0,2.1551855E0,-2.74123E-1,4.436035E-2,-6.556234E-1,-2.6707703E-1,1.8218994E-3,-6.556234E-1],"split_indices":[3,0,0,1,3,0,0,3,0,0,3,0,0],"split_type":[0,0,0,0,0,0,0,0,0,0,0,0,0],"sum_hessian":[2.1E1,5E0,1.6E1,8E0,8E0,4E0,4E0,7E0,1E0,2E0,5E0,3E0,2E0],"tree_param":{"num_deleted":"0","num_feature":"4","num_nodes":"13","size_leaf_vector":"1"}},{"base_weights":[5.521906E-1,-1.8622538E0,1.38599205E1,3.442231E1,-8.242458E0,1.0290332E0,2.0689747E0,-9.489014E0,4.3249514E-2,-6.337728E-1,-6.3142905E0,1.7578126E-3,-6.337728E-1],"categories":[],"categories_nodes":[],"categories_segments":[],"categories_sizes":[],"default_left":[0,0,0,0,0,0,0,0,0,0,0,0,0],"id":40,"left_children":[1,-1,3,5,7,-1,-1,9,-1,-1,11,-1,-1],"loss_changes":[1.1582122E4,0E0,8.009846E3,1.5072266E1,1.1038434E2,0E0,0E0,8.9208984E-1,0E0,0E0,2.4278493E2,0E0,0E0],"parents":[2147483647,0,0,2,2,3,3,4,4,7,7,10,10],"right_children":[2,-1,4,6,8,-1,-1,10,-1,-1,12,-1,-1],"split_conditions":[-5.888444E-1,-1.8622538E0,1.2747549E0,2.0615528E0,-2.0836034E-1,1.0290332E0,2.0689747E0,-2.74123E-1,4.3249514E-2,-6.337728E-1,-2.6707703E-1,1.7578126E-3,-6.337728E-1],"split_indices":[3,0,0,1,3,0,0,3,0,0,3,0,0],"split_type":[0,0,0,0,0,0,0,0,0,0,0,0,0],"sum_hessian":[2.1E1,5E0,1.6E1,8E0,8E0,4E0,4E0,7E0,1E0,2E0,5E0,3E0,2E0],"tree_param":{"num_deleted":"0","num_feature":"4","num_nodes":"13","size_leaf_vector":"1"}},{"base_weights":[5.251798E-1,-1.7846578E0,1.3277229E1,3.3045357E1,-7.966146E0,9.878711E-1,1.9862111E0,-9.17276E0,4.216919E-2,-6.126465E-1,-6.103882E0,1.6937256E-3,-6.126465E-1],"categories":[],"categories_nodes":[],"categories_segments":[],"categories_sizes":[],"default_left":[0,0,0,0,0,0,0,0,0,0,0,0,0],"id":41,"left_children":[1,-1,3,5,7,-1,-1,9,-1,-1,11,-1,-1],"loss_changes":[1.0634781E4,0E0,7.402254E3,1.3886719E1,1.034035E2,0E0,0E0,8.309326E-1,0E0,0E0,2.2686319E2,0E0,0E0],"parents":[2147483647,0,0,2,2,3,3,4,4,7,7,10,10],"right_children":[2,-1,4,6,8,-1,-1,10,-1,-1,12,-1,-1],"split_conditions":[-5.888444E-1,-1.7846578E0,1.2747549E0,2.0615528E0,-2.0836034E-1,9.878711E-1,1.9862111E0,-2.74123E-1,4.216919E-2,-6.126465E-1,-2.6707703E-1,1.6937256E-3,-6.126465E-1],"split_indices":[3,0,0,1,3,0,0,3,0,0,3,0,0],"split_type":[0,0,0,0,0,0,0,0,0,0,0,0,0],"sum_hessian":[2.1E1,5E0,1.6E1,8E0,8E0,4E0,4E0,7E0,1E0,2E0,5E0,3E0,2E0],"tree_param":{"num_deleted":"0","num_feature":"4","num_nodes":"13","size_leaf_vector":"1"}},{"base_weights":[4.992565E-1,-1.7102966E0,1.2718779E1,3.1723524E1,-7.6991644E0,9.4835943E-1,1.9067577E0,-8.867126E0,4.1113283E-2,-5.922282E-1,-5.900553E0,1.6296387E-3,-5.922282E-1],"categories":[],"categories_nodes":[],"categories_segments":[],"categories_sizes":[],"default_left":[0,0,0,0,0,0,0,0,0,0,0,0,0],"id":42,"left_children":[1,-1,3,5,7,-1,-1,9,-1,-1,11,-1,-1],"loss_changes":[9.764836E3,0E0,6.8408877E3,1.2783203E1,9.686548E1,0E0,0E0,7.7282715E-1,0E0,0E0,2.1198613E2,0E0,0E0],"parents":[2147483647,0,0,2,2,3,3,4,4,7,7,10,10],"right_children":[2,-1,4,6,8,-1,-1,10,-1,-1,12,-1,-1],"split_conditions":[-5.888444E-1,-1.7102966E0,1.2747549E0,2.0615528E0,-2.0836034E-1,9.4835943E-1,1.9067577E0,-2.74123E-1,4.1113283E-2,-5.922282E-1,-2.6707703E-1,1.6296387E-3,-5.922282E-1],"split_indices":[3,0,0,1,3,0,0,3,0,0,3,0,0],"split_type":[0,0,0,0,0,0,0,0,0,0,0,0,0],"sum_hessian":[2.1E1,5E0,1.6E1,8E0,8E0,4E0,4E0,7E0,1E0,2E0,5E0,3E0,2E0],"tree_param":{"num_deleted":"0","num_feature":"4","num_nodes":"13","size_leaf_vector":"1"}},{"base_weights":[4.7444293E-1,-1.6390381E0,1.2183665E1,3.0454643E1,-7.4410534E0,9.1042966E-1,1.8304882E0,-8.571625E0,4.008789E-2,-5.724854E-1,-5.7039795E0,1.5655517E-3,-5.724854E-1],"categories":[],"categories_nodes":[],"categories_segments":[],"categories_sizes":[],"default_left":[0,0,0,0,0,0,0,0,0,0,0,0,0],"id":43,"left_children":[1,-1,3,5,7,-1,-1,9,-1,-1,11,-1,-1],"loss_changes":[8.966027E3,0E0,6.3221826E3,1.1771484E1,9.074411E1,0E0,0E0,7.1765137E-1,0E0,0E0,1.98079E2,0E0,0E0],"parents":[2147483647,0,0,2,2,3,3,4,4,7,7,10,10],"right_children":[2,-1,4,6,8,-1,-1,10,-1,-1,12,-1,-1],"split_conditions":[-5.888444E-1,-1.6390381E0,1.2747549E0,2.0615528E0,-2.0836034E-1,9.1042966E-1,1.8304882E0,-2.74123E-1,4.008789E-2,-5.724854E-1,-2.6707703E-1,1.5655517E-3,-5.724854E-1],"split_indices":[3,0,0,1,3,0,0,3,0,0,3,0,0],"split_type":[0,0,0,0,0,0,0,0,0,0,0,0,0],"sum_hessian":[2.1E1,5E0,1.6E1,8E0,8E0,4E0,4E0,7E0,1E0,2E0,5E0,3E0,2E0],"tree_param":{"num_deleted":"0","num_feature":"4","num_nodes":"13","size_leaf_vector":"1"}},{"base_weights":[4.5069468E-1,-1.5707397E0,1.1670827E1,2.9236437E1,-7.1915417E0,8.740137E-1,1.7572657E0,-8.285919E0,3.9086916E-2,-5.534017E-1,-5.5138755E0,1.5106201E-3,-5.534017E-1],"categories":[],"categories_nodes":[],"categories_segments":[],"categories_sizes":[],"default_left":[0,0,0,0,0,0,0,0,0,0,0,0,0],"id":44,"left_children":[1,-1,3,5,7,-1,-1,9,-1,-1,11,-1,-1],"loss_changes":[8.232406E3,0E0,5.8428477E3,1.0841797E1,8.50094E1,0E0,0E0,6.6937256E-1,0E0,0E0,1.8509085E2,0E0,0E0],"parents":[2147483647,0,0,2,2,3,3,4,4,7,7,10,10],"right_children":[2,-1,4,6,8,-1,-1,10,-1,-1,12,-1,-1],"split_conditions":[-5.888444E-1,-1.5707397E0,1.2747549E0,2.0615528E0,-2.0836034E-1,8.740137E-1,1.7572657E0,-2.74123E-1,3.9086916E-2,-5.534017E-1,-2.6707703E-1,1.5106201E-3,-5.534017E-1],"split_indices":[3,0,0,1,3,0,0,3,0,0,3,0,0],"split_type":[0,0,0,0,0,0,0,0,0,0,0,0,0],"sum_hessian":[2.1E1,5E0,1.6E1,8E0,8E0,4E0,4E0,7E0,1E0,2E0,5E0,3E0,2E0],"tree_param":{"num_deleted":"0","num_feature":"4","num_nodes":"13","size_leaf_vector":"1"}},{"base_weights":[4.2792302E-1,-1.5052898E0,1.1179358E1,2.8066948E1,-6.950385E0,8.390528E-1,1.6869726E0,-8.009735E0,3.8110353E-2,-5.349528E-1,-5.3301187E0,1.4556885E-3,-5.349528E-1],"categories":[],"categories_nodes":[],"categories_segments":[],"categories_sizes":[],"default_left":[0,0,0,0,0,0,0,0,0,0,0,0,0],"id":45,"left_children":[1,-1,3,5,7,-1,-1,9,-1,-1,11,-1,-1],"loss_changes":[7.5587505E3,0E0,5.399927E3,9.989746E0,7.963806E1,0E0,0E0,6.2353516E-1,0E0,0E0,1.7295178E2,0E0,0E0],"parents":[2147483647,0,0,2,2,3,3,4,4,7,7,10,10],"right_children":[2,-1,4,6,8,-1,-1,10,-1,-1,12,-1,-1],"split_conditions":[-5.888444E-1,-1.5052898E0,1.2747549E0,2.0615528E0,-2.0836034E-1,8.390528E-1,1.6869726E0,-2.74123E-1,3.8110353E-2,-5.349528E-1,-2.6707703E-1,1.4556885E-3,-5.349528E-1],"split_indices":[3,0,0,1,3,0,0,3,0,0,3,0,0],"split_type":[0,0,0,0,0,0,0,0,0,0,0,0,0],"sum_hessian":[2.1E1,5E0,1.6E1,8E0,8E0,4E0,4E0,7E0,1E0,2E0,5E0,3E0,2E0],"tree_param":{"num_deleted":"0","num_feature":"4","num_nodes":"13","size_leaf_vector":"1"}},{"base_weights":[4.0608355E-1,-1.4425659E0,1.0708338E1,2.6944227E1,-6.7173667E0,8.054883E-1,1.6194922E0,-7.7428284E0,3.7158202E-2,-5.1712245E-1,-5.1525474E0,1.4007569E-3,-5.1712245E-1],"categories":[],"categories_nodes":[],"categories_segments":[],"categories_sizes":[],"default_left":[0,0,0,0,0,0,0,0,0,0,0,0,0],"id":46,"left_children":[1,-1,3,5,7,-1,-1,9,-1,-1,11,-1,-1],"loss_changes":[6.940128E3,0E0,4.990665E3,9.209961E0,7.460858E1,0E0,0E0,5.800476E-1,0E0,0E0,1.6160936E2,0E0,0E0],"parents":[2147483647,0,0,2,2,3,3,4,4,7,7,10,10],"right_children":[2,-1,4,6,8,-1,-1,10,-1,-1,12,-1,-1],"split_conditions":[-5.888444E-1,-1.4425659E0,1.2747549E0,2.0615528E0,-2.0836034E-1,8.054883E-1,1.6194922E0,-2.74123E-1,3.7158202E-2,-5.1712245E-1,-2.6707703E-1,1.4007569E-3,-5.1712245E-1],"split_indices":[3,0,0,1,3,0,0,3,0,0,3,0,0],"split_type":[0,0,0,0,0,0,0,0,0,0,0,0,0],"sum_hessian":[2.1E1,5E0,1.6E1,8E0,8E0,4E0,4E0,7E0,1E0,2E0,5E0,3E0,2E0],"tree_param":{"num_deleted":"0","num_feature":"4","num_nodes":"13","size_leaf_vector":"1"}},{"base_weights":[3.8520953E-1,-1.3824565E0,1.0257023E1,2.5866537E1,-6.4921603E0,7.732715E-1,1.5547168E0,-7.484833E0,3.623047E-2,-4.998861E-1,-4.9809165E0,1.3458253E-3,-4.998861E-1],"categories":[],"categories_nodes":[],"categories_segments":[],"categories_sizes":[],"default_left":[0,0,0,0,0,0,0,0,0,0,0,0,0],"id":47,"left_children":[1,-1,3,5,7,-1,-1,9,-1,-1,11,-1,-1],"loss_changes":[6.3720923E3,0E0,4.612522E3,8.486816E0,6.989856E1,0E0,0E0,5.386963E-1,0E0,0E0,1.5100905E2,0E0,0E0],"parents":[2147483647,0,0,2,2,3,3,4,4,7,7,10,10],"right_children":[2,-1,4,6,8,-1,-1,10,-1,-1,12,-1,-1],"split_conditions":[-5.888444E-1,-1.3824565E0,1.2747549E0,2.0615528E0,-2.0836034E-1,7.732715E-1,1.5547168E0,-2.74123E-1,3.623047E-2,-4.998861E-1,-2.6707703E-1,1.3458253E-3,-4.998861E-1],"split_indices":[3,0,0,1,3,0,0,3,0,0,3,0,0],"split_type":[0,0,0,0,0,0,0,0,0,0,0,0,0],"sum_hessian":[2.1E1,5E0,1.6E1,8E0,8E0,4E0,4E0,7E0,1E0,2E0,5E0,3E0,2E0],"tree_param":{"num_deleted":"0","num_feature":"4","num_nodes":"13","size_leaf_vector":"1"}},{"base_weights":[3.6524546E-1,-1.3248495E0,9.824549E0,2.4831923E1,-6.2744412E0,7.423438E-1,1.4925293E0,-7.235382E0,3.5327148E-2,-4.832194E-1,-4.814982E0,1.2908935E-3,-4.832194E-1],"categories":[],"categories_nodes":[],"categories_segments":[],"categories_sizes":[],"default_left":[0,0,0,0,0,0,0,0,0,0,0,0,0],"id":48,"left_children":[1,-1,3,5,7,-1,-1,9,-1,-1,11,-1,-1],"loss_changes":[5.8504775E3,0E0,4.2630664E3,7.8168945E0,6.548694E1,0E0,0E0,4.9951172E-1,0E0,0E0,1.4109953E2,0E0,0E0],"parents":[2147483647,0,0,2,2,3,3,4,4,7,7,10,10],"right_children":[2,-1,4,6,8,-1,-1,10,-1,-1,12,-1,-1],"split_conditions":[-5.888444E-1,-1.3248495E0,1.2747549E0,2.0615528E0,-2.0836034E-1,7.423438E-1,1.4925293E0,-2.74123E-1,3.5327148E-2,-4.832194E-1,-2.6707703E-1,1.2908935E-3,-4.832194E-1],"split_indices":[3,0,0,1,3,0,0,3,0,0,3,0,0],"split_type":[0,0,0,0,0,0,0,0,0,0,0,0,0],"sum_hessian":[2.1E1,5E0,1.6E1,8E0,8E0,4E0,4E0,7E0,1E0,2E0,5E0,3E0,2E0],"tree_param":{"num_deleted":"0","num_feature":"4","num_nodes":"13","size_leaf_vector":"1"}},{"base_weights":[3.4610263E-1,-1.2696432E0,9.410085E0,2.383865E1,-6.0640464E0,7.126465E-1,1.4328321E0,-6.9942627E0,3.4442138E-2,-4.6711427E-1,-4.654541E0,1.2451172E-3,-4.6711427E-1],"categories":[],"categories_nodes":[],"categories_segments":[],"categories_sizes":[],"default_left":[0,0,0,0,0,0,0,0,0,0,0,0,0],"id":49,"left_children":[1,-1,3,5,7,-1,-1,9,-1,-1,11,-1,-1],"loss_changes":[5.3714946E3,0E0,3.9401406E3,7.213867E0,6.1352783E1,0E0,0E0,4.6566772E-1,0E0,0E0,1.3184883E2,0E0,0E0],"parents":[2147483647,0,0,2,2,3,3,4,4,7,7,10,10],"right_children":[2,-1,4,6,8,-1,-1,10,-1,-1,12,-1,-1],"split_conditions":[-5.888444E-1,-1.2696432E0,1.2747549E0,2.0615528E0,-2.0836034E-1,7.126465E-1,1.4328321E0,-2.74123E-1,3.4442138E-2,-4.6711427E-1,-2.6707703E-1,1.2451172E-3,-4.6711427E-1],"split_indices":[3,0,0,1,3,0,0,3,0,0,3,0,0],"split_type":[0,0,0,0,0,0,0,0,0,0,0,0,0],"sum_hessian":[2.1E1,5E0,1.6E1,8E0,8E0,4E0,4E0,7E0,1E0,2E0,5E0,3E0,2E0],"tree_param":{"num_deleted":"0","num_feature":"4","num_nodes":"13","size_leaf_vector":"1"}},{"base_weights":[3.277255E-1,-1.2167461E0,9.012911E0,2.2885092E1,-5.8607044E0,6.841406E-1,1.3755176E0,-6.7612E0,3.3581544E-2,-4.5154625E-1,-4.499471E0,1.1993408E-3,-4.5154625E-1],"categories":[],"categories_nodes":[],"categories_segments":[],"categories_sizes":[],"default_left":[0,0,0,0,0,0,0,0,0,0,0,0,0],"id":50,"left_children":[1,-1,3,5,7,-1,-1,9,-1,-1,11,-1,-1],"loss_changes":[4.9317207E3,0E0,3.6417236E3,6.647461E0,5.7482086E1,0E0,0E0,4.3362427E-1,0E0,0E0,1.2320366E2,0E0,0E0],"parents":[2147483647,0,0,2,2,3,3,4,4,7,7,10,10],"right_children":[2,-1,4,6,8,-1,-1,10,-1,-1,12,-1,-1],"split_conditions":[-5.888444E-1,-1.2167461E0,1.2747549E0,2.0615528E0,-2.0836034E-1,6.841406E-1,1.3755176E0,-2.74123E-1,3.3581544E-2,-4.5154625E-1,-2.6707703E-1,1.1993408E-3,-4.5154625E-1],"split_indices":[3,0,0,1,3,0,0,3,0,0,3,0,0],"split_type":[0,0,0,0,0,0,0,0,0,0,0,0,0],"sum_hessian":[2.1E1,5E0,1.6E1,8E0,8E0,4E0,4E0,7E0,1E0,2E0,5E0,3E0,2E0],"tree_param":{"num_deleted":"0","num_feature":"4","num_nodes":"13","size_leaf_vector":"1"}},{"base_weights":[3.1022504E-1,-1.1660461E0,8.632381E0,2.1969727E1,-5.664117E0,6.567773E-1,1.3204981E0,-6.5358276E0,3.273926E-2,-4.3649086E-1,-4.349528E0,1.1535644E-3,-4.3649086E-1],"categories":[],"categories_nodes":[],"categories_segments":[],"categories_sizes":[],"default_left":[0,0,0,0,0,0,0,0,0,0,0,0,0],"id":51,"left_children":[1,-1,3,5,7,-1,-1,9,-1,-1,11,-1,-1],"loss_changes":[4.527882E3,0E0,3.3659536E3,6.123047E0,5.385385E1,0E0,0E0,4.0319824E-1,0E0,0E0,1.1512092E2,0E0,0E0],"parents":[2147483647,0,0,2,2,3,3,4,4,7,7,10,10],"right_children":[2,-1,4,6,8,-1,-1,10,-1,-1,12,-1,-1],"split_conditions":[-5.888444E-1,-1.1660461E0,1.2747549E0,2.0615528E0,-2.0836034E-1,6.567773E-1,1.3204981E0,-2.74123E-1,3.273926E-2,-4.3649086E-1,-2.6707703E-1,1.1535644E-3,-4.3649086E-1],"split_indices":[3,0,0,1,3,0,0,3,0,0,3,0,0],"split_type":[0,0,0,0,0,0,0,0,0,0,0,0,0],"sum_hessian":[2.1E1,5E0,1.6E1,8E0,8E0,4E0,4E0,7E0,1E0,2E0,5E0,3E0,2E0],"tree_param":{"num_deleted":"0","num_feature":"4","num_nodes":"13","size_leaf_vector":"1"}},{"base_weights":[2.9343483E-1,-1.1174622E0,8.267708E0,2.1090929E1,-5.4741483E0,6.305078E-1,1.2676758E0,-6.3180237E0,3.1921387E-2,-4.219401E-1,-4.2046304E0,1.1077881E-3,-4.219401E-1],"categories":[],"categories_nodes":[],"categories_segments":[],"categories_sizes":[],"default_left":[0,0,0,0,0,0,0,0,0,0,0,0,0],"id":52,"left_children":[1,-1,3,5,7,-1,-1,9,-1,-1,11,-1,-1],"loss_changes":[4.1570723E3,0E0,3.1111074E3,5.638672E0,5.0457886E1,0E0,0E0,3.7426758E-1,0E0,0E0,1.07568596E2,0E0,0E0],"parents":[2147483647,0,0,2,2,3,3,4,4,7,7,10,10],"right_children":[2,-1,4,6,8,-1,-1,10,-1,-1,12,-1,-1],"split_conditions":[-5.888444E-1,-1.1174622E0,1.2747549E0,2.0615528E0,-2.0836034E-1,6.305078E-1,1.2676758E0,-2.74123E-1,3.1921387E-2,-4.219401E-1,-2.6707703E-1,1.1077881E-3,-4.219401E-1],"split_indices":[3,0,0,1,3,0,0,3,0,0,3,0,0],"split_type":[0,0,0,0,0,0,0,0,0,0,0,0,0],"sum_hessian":[2.1E1,5E0,1.6E1,8E0,8E0,4E0,4E0,7E0,1E0,2E0,5E0,3E0,2E0],"tree_param":{"num_deleted":"0","num_feature":"4","num_nodes":"13","size_leaf_vector":"1"}},{"base_weights":[2.7735484E-1,-1.0709026E0,7.9182415E0,2.0247288E1,-5.290609E0,6.052832E-1,1.2169727E0,-6.107544E0,3.1121826E-2,-4.078776E-1,-4.0646157E0,1.0620117E-3,-4.078776E-1],"categories":[],"categories_nodes":[],"categories_segments":[],"categories_sizes":[],"default_left":[0,0,0,0,0,0,0,0,0,0,0,0,0],"id":53,"left_children":[1,-1,3,5,7,-1,-1,9,-1,-1,11,-1,-1],"loss_changes":[3.81658E3,0E0,2.8756133E3,5.206543E0,4.727672E1,0E0,0E0,3.4683228E-1,0E0,0E0,1.00512146E2,0E0,0E0],"parents":[2147483647,0,0,2,2,3,3,4,4,7,7,10,10],"right_children":[2,-1,4,6,8,-1,-1,10,-1,-1,12,-1,-1],"split_conditions":[-5.888444E-1,-1.0709026E0,1.2747549E0,2.0615528E0,-2.0836034E-1,6.052832E-1,1.2169727E0,-2.74123E-1,3.1121826E-2,-4.078776E-1,-2.6707703E-1,1.0620117E-3,-4.078776E-1],"split_indices":[3,0,0,1,3,0,0,3,0,0,3,0,0],"split_type":[0,0,0,0,0,0,0,0,0,0,0,0,0],"sum_hessian":[2.1E1,5E0,1.6E1,8E0,8E0,4E0,4E0,7E0,1E0,2E0,5E0,3E0,2E0],"tree_param":{"num_deleted":"0","num_feature":"4","num_nodes":"13","size_leaf_vector":"1"}},{"base_weights":[2.6202947E-1,-1.0262859E0,7.5834675E0,1.9437391E1,-5.1130643E0,5.8107424E-1,1.168291E0,-5.9039307E0,3.034668E-2,-3.9427897E-1,-3.929118E0,1.0253907E-3,-3.9427897E-1],"categories":[],"categories_nodes":[],"categories_segments":[],"categories_sizes":[],"default_left":[0,0,0,0,0,0,0,0,0,0,0,0,0],"id":54,"left_children":[1,-1,3,5,7,-1,-1,9,-1,-1,11,-1,-1],"loss_changes":[3.5039722E3,0E0,2.6579478E3,4.7927246E0,4.429706E1,0E0,0E0,3.2373047E-1,0E0,0E0,9.392098E1,0E0,0E0],"parents":[2147483647,0,0,2,2,3,3,4,4,7,7,10,10],"right_children":[2,-1,4,6,8,-1,-1,10,-1,-1,12,-1,-1],"split_conditions":[-5.888444E-1,-1.0262859E0,1.2747549E0,2.0615528E0,-2.0836034E-1,5.8107424E-1,1.168291E0,-2.74123E-1,3.034668E-2,-3.9427897E-1,-2.6707703E-1,1.0253907E-3,-3.9427897E-1],"split_indices":[3,0,0,1,3,0,0,3,0,0,3,0,0],"split_type":[0,0,0,0,0,0,0,0,0,0,0,0,0],"sum_hessian":[2.1E1,5E0,1.6E1,8E0,8E0,4E0,4E0,7E0,1E0,2E0,5E0,3E0,2E0],"tree_param":{"num_deleted":"0","num_feature":"4","num_nodes":"13","size_leaf_vector":"1"}},{"base_weights":[2.4742542E-1,-9.835205E-1,7.2626953E0,1.8659939E1,-4.941515E0,5.5783206E-1,1.1215625E0,-5.7071533E0,2.9589845E-2,-3.8113606E-1,-3.798177E0,9.887696E-4,-3.8113606E-1],"categories":[],"categories_nodes":[],"categories_segments":[],"categories_sizes":[],"default_left":[0,0,0,0,0,0,0,0,0,0,0,0,0],"id":55,"left_children":[1,-1,3,5,7,-1,-1,9,-1,-1,11,-1,-1],"loss_changes":[3.216898E3,0E0,2.4568125E3,4.418213E0,4.1506104E1,0E0,0E0,3.017578E-1,0E0,0E0,8.776232E1,0E0,0E0],"parents":[2147483647,0,0,2,2,3,3,4,4,7,7,10,10],"right_children":[2,-1,4,6,8,-1,-1,10,-1,-1,12,-1,-1],"split_conditions":[-5.888444E-1,-9.835205E-1,1.2747549E0,2.0615528E0,-2.0836034E-1,5.5783206E-1,1.1215625E0,-2.74123E-1,2.9589845E-2,-3.8113606E-1,-2.6707703E-1,9.887696E-4,-3.8113606E-1],"split_indices":[3,0,0,1,3,0,0,3,0,0,3,0,0],"split_type":[0,0,0,0,0,0,0,0,0,0,0,0,0],"sum_hessian":[2.1E1,5E0,1.6E1,8E0,8E0,4E0,4E0,7E0,1E0,2E0,5E0,3E0,2E0],"tree_param":{"num_deleted":"0","num_feature":"4","num_nodes":"13","size_leaf_vector":"1"}},{"base_weights":[2.3338734E-1,-9.425456E-1,6.9552937E0,1.791352E1,-4.7757435E0,5.3551763E-1,1.0766993E0,-5.516968E0,2.885132E-2,-3.684326E-1,-3.6716309E0,9.5214846E-4,-3.684326E-1],"categories":[],"categories_nodes":[],"categories_segments":[],"categories_sizes":[],"default_left":[0,0,0,0,0,0,0,0,0,0,0,0,0],"id":56,"left_children":[1,-1,3,5,7,-1,-1,9,-1,-1,11,-1,-1],"loss_changes":[2.9533367E3,0E0,2.2709236E3,4.072754E0,3.8891876E1,0E0,0E0,2.808838E-1,0E0,0E0,8.2007324E1,0E0,0E0],"parents":[2147483647,0,0,2,2,3,3,4,4,7,7,10,10],"right_children":[2,-1,4,6,8,-1,-1,10,-1,-1,12,-1,-1],"split_conditions":[-5.888444E-1,-9.425456E-1,1.2747549E0,2.0615528E0,-2.0836034E-1,5.3551763E-1,1.0766993E0,-2.74123E-1,2.885132E-2,-3.684326E-1,-2.6707703E-1,9.5214846E-4,-3.684326E-1],"split_indices":[3,0,0,1,3,0,0,3,0,0,3,0,0],"split_type":[0,0,0,0,0,0,0,0,0,0,0,0,0],"sum_hessian":[2.1E1,5E0,1.6E1,8E0,8E0,4E0,4E0,7E0,1E0,2E0,5E0,3E0,2E0],"tree_param":{"num_deleted":"0","num_feature":"4","num_nodes":"13","size_leaf_vector":"1"}},{"base_weights":[2.2005948E-1,-9.0326947E-1,6.6608024E0,1.7197048E1,-4.615533E0,5.1410156E-1,1.0336329E0,-5.33313E0,2.8131103E-2,-3.5615236E-1,-3.5493164E0,9.1552734E-4,-3.5615236E-1],"categories":[],"categories_nodes":[],"categories_segments":[],"categories_sizes":[],"default_left":[0,0,0,0,0,0,0,0,0,0,0,0,0],"id":57,"left_children":[1,-1,3,5,7,-1,-1,9,-1,-1,11,-1,-1],"loss_changes":[2.7113113E3,0E0,2.0991475E3,3.7480469E0,3.6442993E1,0E0,0E0,2.6109314E-1,0E0,0E0,7.662885E1,0E0,0E0],"parents":[2147483647,0,0,2,2,3,3,4,4,7,7,10,10],"right_children":[2,-1,4,6,8,-1,-1,10,-1,-1,12,-1,-1],"split_conditions":[-5.888444E-1,-9.0326947E-1,1.2747549E0,2.0615528E0,-2.0836034E-1,5.1410156E-1,1.0336329E0,-2.74123E-1,2.8131103E-2,-3.5615236E-1,-2.6707703E-1,9.1552734E-4,-3.5615236E-1],"split_indices":[3,0,0,1,3,0,0,3,0,0,3,0,0],"split_type":[0,0,0,0,0,0,0,0,0,0,0,0,0],"sum_hessian":[2.1E1,5E0,1.6E1,8E0,8E0,4E0,4E0,7E0,1E0,2E0,5E0,3E0,2E0],"tree_param":{"num_deleted":"0","num_feature":"4","num_nodes":"13","size_leaf_vector":"1"}},{"base_weights":[2.0728649E-1,-8.656311E-1,6.37859E0,1.6509115E1,-4.460666E0,4.9353513E-1,9.922852E-1,-5.1553955E0,2.7429199E-2,-3.44279E-1,-3.431071E0,8.789063E-4,-3.44279E-1],"categories":[],"categories_nodes":[],"categories_segments":[],"categories_sizes":[],"default_left":[0,0,0,0,0,0,0,0,0,0,0,0,0],"id":58,"left_children":[1,-1,3,5,7,-1,-1,9,-1,-1,11,-1,-1],"loss_changes":[2.489085E3,0E0,1.9403666E3,3.4555664E0,3.4148804E1,0E0,0E0,2.4227905E-1,0E0,0E0,7.160136E1,0E0,0E0],"parents":[2147483647,0,0,2,2,3,3,4,4,7,7,10,10],"right_children":[2,-1,4,6,8,-1,-1,10,-1,-1,12,-1,-1],"split_conditions":[-5.888444E-1,-8.656311E-1,1.2747549E0,2.0615528E0,-2.0836034E-1,4.9353513E-1,9.922852E-1,-2.74123E-1,2.7429199E-2,-3.44279E-1,-2.6707703E-1,8.789063E-4,-3.44279E-1],"split_indices":[3,0,0,1,3,0,0,3,0,0,3,0,0],"split_type":[0,0,0,0,0,0,0,0,0,0,0,0,0],"sum_hessian":[2.1E1,5E0,1.6E1,8E0,8E0,4E0,4E0,7E0,1E0,2E0,5E0,3E0,2E0],"tree_param":{"num_deleted":"0","num_feature":"4","num_nodes":"13","size_leaf_vector":"1"}},{"base_weights":[1.9510165E-1,-8.295593E-1,6.108197E0,1.5848742E1,-4.311035E0,4.7378907E-1,9.525976E-1,-4.9836426E0,2.6745606E-2,-3.3280438E-1,-3.3168132E0,8.4228517E-4,-3.3280438E-1],"categories":[],"categories_nodes":[],"categories_segments":[],"categories_sizes":[],"default_left":[0,0,0,0,0,0,0,0,0,0,0,0,0],"id":59,"left_children":[1,-1,3,5,7,-1,-1,9,-1,-1,11,-1,-1],"loss_changes":[2.2850386E3,0E0,1.7936375E3,3.1931152E0,3.2000595E1,0E0,0E0,2.2445679E-1,0E0,0E0,6.690412E1,0E0,0E0],"parents":[2147483647,0,0,2,2,3,3,4,4,7,7,10,10],"right_children":[2,-1,4,6,8,-1,-1,10,-1,-1,12,-1,-1],"split_conditions":[-5.888444E-1,-8.295593E-1,1.2747549E0,2.0615528E0,-2.0836034E-1,4.7378907E-1,9.525976E-1,-2.74123E-1,2.6745606E-2,-3.3280438E-1,-2.6707703E-1,8.4228517E-4,-3.3280438E-1],"split_indices":[3,0,0,1,3,0,0,3,0,0,3,0,0],"split_type":[0,0,0,0,0,0,0,0,0,0,0,0,0],"sum_hessian":[2.1E1,5E0,1.6E1,8E0,8E0,4E0,4E0,7E0,1E0,2E0,5E0,3E0,2E0],"tree_param":{"num_deleted":"0","num_feature":"4","num_nodes":"13","size_leaf_vector":"1"}},{"base_weights":[1.8346058E-1,-7.949931E-1,5.8491354E0,1.5214735E1,-4.1663685E0,4.5483398E-1,9.1449225E-1,-4.8175354E0,2.607422E-2,-3.2171223E-1,-3.206258E0,8.1481936E-4,-3.2171223E-1],"categories":[],"categories_nodes":[],"categories_segments":[],"categories_sizes":[],"default_left":[0,0,0,0,0,0,0,0,0,0,0,0,0],"id":60,"left_children":[1,-1,3,5,7,-1,-1,9,-1,-1,11,-1,-1],"loss_changes":[2.0977039E3,0E0,1.6580105E3,2.946289E0,2.9985458E1,0E0,0E0,2.0988464E-1,0E0,0E0,6.251903E1,0E0,0E0],"parents":[2147483647,0,0,2,2,3,3,4,4,7,7,10,10],"right_children":[2,-1,4,6,8,-1,-1,10,-1,-1,12,-1,-1],"split_conditions":[-5.888444E-1,-7.949931E-1,1.2747549E0,2.0615528E0,-2.0836034E-1,4.5483398E-1,9.1449225E-1,-2.74123E-1,2.607422E-2,-3.2171223E-1,-2.6707703E-1,8.1481936E-4,-3.2171223E-1],"split_indices":[3,0,0,1,3,0,0,3,0,0,3,0,0],"split_type":[0,0,0,0,0,0,0,0,0,0,0,0,0],"sum_hessian":[2.1E1,5E0,1.6E1,8E0,8E0,4E0,4E0,7E0,1E0,2E0,5E0,3E0,2E0],"tree_param":{"num_deleted":"0","num_feature":"4","num_nodes":"13","size_leaf_vector":"1"}},{"base_weights":[1.7236328E-1,-4.6666126E0,8.7791014E-1,-9.118792E0,4.3664065E-1,-6.880234E-1,-2.5113351E0,7.8735355E-4,-4.4105835E0,-3.1098634E-1,2.5421143E-2],"categories":[],"categories_nodes":[],"categories_segments":[],"categories_sizes":[],"default_left":[0,0,0,0,0,0,0,0,0,0,0],"id":61,"left_children":[1,3,-1,5,-1,-1,7,-1,9,-1,-1],"loss_changes":[1.9327897E3,1.1534523E3,0E0,3.9481824E2,0E0,0E0,3.3666355E1,0E0,3.8758995E1,0E0,0E0],"parents":[2147483647,0,0,1,1,3,3,6,6,8,8],"right_children":[2,4,-1,6,-1,-1,8,-1,10,-1,-1],"split_conditions":[2.0615528E0,2.0615528E0,8.7791014E-1,-2.74123E-1,4.3664065E-1,-6.880234E-1,-2.6707703E-1,7.8735355E-4,-2.0836034E-1,-3.1098634E-1,2.5421143E-2],"split_indices":[1,2,0,3,0,0,3,0,3,0,0],"split_type":[0,0,0,0,0,0,0,0,0,0,0],"sum_hessian":[2.1E1,1.7E1,4E0,1.3E1,4E0,7E0,6E0,3E0,3E0,2E0,1E0],"tree_param":{"num_deleted":"0","num_feature":"4","num_nodes":"11","size_leaf_vector":"1"}},{"base_weights":[1.792991E-1,-7.332052E-1,5.4076E0,1.4021918E1,-3.8075628E0,4.1917968E-1,8.42793E-1,-4.40744E0,2.4786377E-2,-2.870402E0,-3.006185E-1,-2.880534E-1,7.598877E-4],"categories":[],"categories_nodes":[],"categories_segments":[],"categories_sizes":[],"default_left":[0,0,0,0,0,0,0,0,0,0,0,0,0],"id":62,"left_children":[1,-1,3,5,7,-1,-1,9,-1,11,-1,-1,-1],"loss_changes":[1.7866245E3,0E0,1.4028893E3,2.4953613E0,2.5417892E1,0E0,0E0,2.4767761E0,0E0,5.013538E1,0E0,0E0,0E0],"parents":[2147483647,0,0,2,2,3,3,4,4,7,7,9,9],"right_children":[2,-1,4,6,8,-1,-1,10,-1,12,-1,-1,-1],"split_conditions":[-5.888444E-1,-7.332052E-1,1.2747549E0,2.0615528E0,-2.0836034E-1,4.1917968E-1,8.42793E-1,-2.6707703E-1,2.4786377E-2,-2.74123E-1,-3.006185E-1,-2.880534E-1,7.598877E-4],"split_indices":[3,0,0,1,3,0,0,3,0,3,0,0,0],"split_type":[0,0,0,0,0,0,0,0,0,0,0,0,0],"sum_hessian":[2.1E1,5E0,1.6E1,8E0,8E0,4E0,4E0,7E0,1E0,5E0,2E0,2E0,3E0],"tree_param":{"num_deleted":"0","num_feature":"4","num_nodes":"13","size_leaf_vector":"1"}},{"base_weights":[1.6875666E-1,-7.026571E-1,5.1783233E0,1.3461046E1,-3.6797688E0,4.0241215E-1,8.0908203E-1,-4.260559E0,2.4163818E-2,-2.7747395E0,-2.906006E-1,-2.7845052E-1,7.324219E-4],"categories":[],"categories_nodes":[],"categories_segments":[],"categories_sizes":[],"default_left":[0,0,0,0,0,0,0,0,0,0,0,0,0],"id":63,"left_children":[1,-1,3,5,7,-1,-1,9,-1,11,-1,-1,-1],"loss_changes":[1.6401737E3,0E0,1.2968086E3,2.300537E0,2.3819725E1,0E0,0E0,2.314621E0,0E0,4.68474E1,0E0,0E0,0E0],"parents":[2147483647,0,0,2,2,3,3,4,4,7,7,9,9],"right_children":[2,-1,4,6,8,-1,-1,10,-1,12,-1,-1,-1],"split_conditions":[-5.888444E-1,-7.026571E-1,1.2747549E0,2.0615528E0,-2.0836034E-1,4.0241215E-1,8.0908203E-1,-2.6707703E-1,2.4163818E-2,-2.74123E-1,-2.906006E-1,-2.7845052E-1,7.324219E-4],"split_indices":[3,0,0,1,3,0,0,3,0,3,0,0,0],"split_type":[0,0,0,0,0,0,0,0,0,0,0,0,0],"sum_hessian":[2.1E1,5E0,1.6E1,8E0,8E0,4E0,4E0,7E0,1E0,5E0,2E0,2E0,3E0],"tree_param":{"num_deleted":"0","num_feature":"4","num_nodes":"13","size_leaf_vector":"1"}},{"base_weights":[1.587247E-1,-4.121107E0,7.767188E-1,-8.057983E0,3.8631836E-1,-1.2119446E1,-2.2651715E0,-6.7338055E-1,-2.6916504E-1,7.0495607E-4,-3.9781494E0,-2.8091633E-1,2.355957E-2],"categories":[],"categories_nodes":[],"categories_segments":[],"categories_sizes":[],"default_left":[0,0,0,0,0,0,0,0,0,0,0,0,0],"id":64,"left_children":[1,3,-1,5,-1,7,9,-1,-1,-1,11,-1,-1],"loss_changes":[1.5117333E3,9.0181555E2,0E0,3.0192938E2,0E0,1.5124512E-1,2.738647E1,0E0,0E0,0E0,3.1838139E1,0E0,0E0],"parents":[2147483647,0,0,1,1,3,3,5,5,6,6,10,10],"right_children":[2,4,-1,6,-1,8,10,-1,-1,-1,12,-1,-1],"split_conditions":[2.0615528E0,2.0615528E0,7.767188E-1,-2.74123E-1,3.8631836E-1,1.2747549E0,-2.6707703E-1,-6.7338055E-1,-2.6916504E-1,7.0495607E-4,-2.0836034E-1,-2.8091633E-1,2.355957E-2],"split_indices":[1,2,0,3,0,0,3,0,0,0,3,0,0],"split_type":[0,0,0,0,0,0,0,0,0,0,0,0,0],"sum_hessian":[2.1E1,1.7E1,4E0,1.3E1,4E0,7E0,6E0,5E0,2E0,3E0,3E0,2E0,1E0],"tree_param":{"num_deleted":"0","num_feature":"4","num_nodes":"13","size_leaf_vector":"1"}},{"base_weights":[1.4919211E-1,-3.960178E0,7.456543E-1,-7.7407227E0,3.7086913E-1,-5.8156437E-1,-2.1885464E0,6.7749026E-4,-3.8435059E0,-2.715495E-1,2.2973632E-2],"categories":[],"categories_nodes":[],"categories_segments":[],"categories_sizes":[],"default_left":[0,0,0,0,0,0,0,0,0,0,0],"id":65,"left_children":[1,3,-1,5,-1,-1,7,-1,9,-1,-1],"loss_changes":[1.3938053E3,8.316566E2,0E0,2.769599E2,0E0,0E0,2.556274E1,0E0,2.9819023E1,0E0,0E0],"parents":[2147483647,0,0,1,1,3,3,6,6,8,8],"right_children":[2,4,-1,6,-1,-1,8,-1,10,-1,-1],"split_conditions":[2.0615528E0,2.0615528E0,7.456543E-1,-2.74123E-1,3.7086913E-1,-5.8156437E-1,-2.6707703E-1,6.7749026E-4,-2.0836034E-1,-2.715495E-1,2.2973632E-2],"split_indices":[1,2,0,3,0,0,3,0,3,0,0],"split_type":[0,0,0,0,0,0,0,0,0,0,0],"sum_hessian":[2.1E1,1.7E1,4E0,1.3E1,4E0,7E0,6E0,3E0,3E0,2E0,1E0],"tree_param":{"num_deleted":"0","num_feature":"4","num_nodes":"11","size_leaf_vector":"1"}},{"base_weights":[1.5477405E-1,-6.2109375E-1,4.584487E0,1.1909614E1,-3.2500272E0,3.5603517E-1,7.158301E-1,-3.76828E0,2.2399902E-2,-2.3993733E0,-2.6250002E-1,-2.4080403E-1,6.5002445E-4],"categories":[],"categories_nodes":[],"categories_segments":[],"categories_sizes":[],"default_left":[0,0,0,0,0,0,0,0,0,0,0,0,0],"id":66,"left_children":[1,-1,3,5,7,-1,-1,9,-1,11,-1,-1,-1],"loss_changes":[1.2825887E3,0E0,1.0143164E3,1.7973633E0,1.893679E1,0E0,0E0,3.6299896E0,0E0,3.504262E1,0E0,0E0,0E0],"parents":[2147483647,0,0,2,2,3,3,4,4,7,7,9,9],"right_children":[2,-1,4,6,8,-1,-1,10,-1,12,-1,-1,-1],"split_conditions":[-5.888444E-1,-6.2109375E-1,1.2747549E0,2.0615528E0,-2.0836034E-1,3.5603517E-1,7.158301E-1,-2.6707703E-1,2.2399902E-2,-2.74123E-1,-2.6250002E-1,-2.4080403E-1,6.5002445E-4],"split_indices":[3,0,0,1,3,0,0,3,0,3,0,0,0],"split_type":[0,0,0,0,0,0,0,0,0,0,0,0,0],"sum_hessian":[2.1E1,5E0,1.6E1,8E0,8E0,4E0,4E0,7E0,1E0,5E0,2E0,2E0,3E0],"tree_param":{"num_deleted":"0","num_feature":"4","num_nodes":"13","size_leaf_vector":"1"}},{"base_weights":[1.4568537E-1,-3.6397028E0,6.8719727E-1,-7.121024E0,3.4179688E-1,-1.0674072E1,-2.0431082E0,-5.9521484E-1,-2.3277996E-1,6.225586E-4,-3.5878906E0,-2.5375164E-1,2.183838E-2],"categories":[],"categories_nodes":[],"categories_segments":[],"categories_sizes":[],"default_left":[0,0,0,0,0,0,0,0,0,0,0,0,0],"id":67,"left_children":[1,3,-1,5,-1,7,9,-1,-1,-1,11,-1,-1],"loss_changes":[1.182467E3,7.051222E2,0E0,2.3078082E2,0E0,3.810913E0,2.2272417E1,0E0,0E0,0E0,2.6157562E1,0E0,0E0],"parents":[2147483647,0,0,1,1,3,3,5,5,6,6,10,10],"right_children":[2,4,-1,6,-1,8,10,-1,-1,-1,12,-1,-1],"split_conditions":[2.0615528E0,2.0615528E0,6.8719727E-1,-2.74123E-1,3.4179688E-1,1.2747549E0,-2.6707703E-1,-5.9521484E-1,-2.3277996E-1,6.225586E-4,-2.0836034E-1,-2.5375164E-1,2.183838E-2],"split_indices":[1,2,0,3,0,0,3,0,0,0,3,0,0],"split_type":[0,0,0,0,0,0,0,0,0,0,0,0,0],"sum_hessian":[2.1E1,1.7E1,4E0,1.3E1,4E0,7E0,6E0,5E0,2E0,3E0,3E0,2E0,1E0],"tree_param":{"num_deleted":"0","num_feature":"4","num_nodes":"13","size_leaf_vector":"1"}},{"base_weights":[1.3698508E-1,-3.497613E0,6.59707E-1,-6.8406806E0,3.28125E-1,-1.02438965E1,-1.9740514E0,-5.7041425E-1,-2.2502442E-1,5.950928E-4,-3.4664917E0,-2.4529622E-1,2.1295166E-2],"categories":[],"categories_nodes":[],"categories_segments":[],"categories_sizes":[],"default_left":[0,0,0,0,0,0,0,0,0,0,0,0,0],"id":68,"left_children":[1,3,-1,5,-1,7,9,-1,-1,-1,11,-1,-1],"loss_changes":[1.0902133E3,6.502615E2,0E0,2.1164868E2,0E0,2.1575928E0,2.0788675E1,0E0,0E0,0E0,2.4500813E1,0E0,0E0],"parents":[2147483647,0,0,1,1,3,3,5,5,6,6,10,10],"right_children":[2,4,-1,6,-1,8,10,-1,-1,-1,12,-1,-1],"split_conditions":[2.0615528E0,2.0615528E0,6.59707E-1,-2.74123E-1,3.28125E-1,1.2747549E0,-2.6707703E-1,-5.7041425E-1,-2.2502442E-1,5.950928E-4,-2.0836034E-1,-2.4529622E-1,2.1295166E-2],"split_indices":[1,2,0,3,0,0,3,0,0,0,3,0,0],"split_type":[0,0,0,0,0,0,0,0,0,0,0,0,0],"sum_hessian":[2.1E1,1.7E1,4E0,1.3E1,4E0,7E0,6E0,5E0,2E0,3E0,3E0,2E0,1E0],"tree_param":{"num_deleted":"0","num_feature":"4","num_nodes":"13","size_leaf_vector":"1"}},{"base_weights":[1.2873979E-1,-3.3610976E0,6.3332033E-1,-6.571411E0,3.1500003E-1,-9.831177E0,-1.9071916E0,-5.4665124E-1,-2.1752118E-1,5.767822E-4,-3.349121E0,-2.3711751E-1,2.076416E-2],"categories":[],"categories_nodes":[],"categories_segments":[],"categories_sizes":[],"default_left":[0,0,0,0,0,0,0,0,0,0,0,0,0],"id":69,"left_children":[1,3,-1,5,-1,7,9,-1,-1,-1,11,-1,-1],"loss_changes":[1.0051702E3,5.9967267E2,0E0,1.9410974E2,0E0,7.4835205E-1,1.9405321E1,0E0,0E0,0E0,2.2948128E1,0E0,0E0],"parents":[2147483647,0,0,1,1,3,3,5,5,6,6,10,10],"right_children":[2,4,-1,6,-1,8,10,-1,-1,-1,12,-1,-1],"split_conditions":[2.0615528E0,2.0615528E0,6.3332033E-1,-2.74123E-1,3.1500003E-1,1.2747549E0,-2.6707703E-1,-5.4665124E-1,-2.1752118E-1,5.767822E-4,-2.0836034E-1,-2.3711751E-1,2.076416E-2],"split_indices":[1,2,0,3,0,0,3,0,0,0,3,0,0],"split_type":[0,0,0,0,0,0,0,0,0,0,0,0,0],"sum_hessian":[2.1E1,1.7E1,4E0,1.3E1,4E0,7E0,6E0,5E0,2E0,3E0,3E0,2E0,1E0],"tree_param":{"num_deleted":"0","num_feature":"4","num_nodes":"13","size_leaf_vector":"1"}},{"base_weights":[1.208829E-1,-3.2299669E0,6.079883E-1,-6.3128314E0,3.0240235E-1,-4.717575E-1,-1.842634E0,5.584717E-4,-3.2357788E0,-2.292155E-1,2.0245362E-2],"categories":[],"categories_nodes":[],"categories_segments":[],"categories_sizes":[],"default_left":[0,0,0,0,0,0,0,0,0,0,0],"id":70,"left_children":[1,3,-1,5,-1,-1,7,-1,9,-1,-1],"loss_changes":[9.267664E2,5.5303174E2,0E0,1.7801782E2,0E0,0E0,1.8114458E1,0E0,2.1494537E1,0E0,0E0],"parents":[2147483647,0,0,1,1,3,3,6,6,8,8],"right_children":[2,4,-1,6,-1,-1,8,-1,10,-1,-1],"split_conditions":[2.0615528E0,2.0615528E0,6.079883E-1,-2.74123E-1,3.0240235E-1,-4.717575E-1,-2.6707703E-1,5.584717E-4,-2.0836034E-1,-2.292155E-1,2.0245362E-2],"split_indices":[1,2,0,3,0,0,3,0,3,0,0],"split_type":[0,0,0,0,0,0,0,0,0,0,0],"sum_hessian":[2.1E1,1.7E1,4E0,1.3E1,4E0,7E0,6E0,3E0,3E0,2E0,1E0],"tree_param":{"num_deleted":"0","num_feature":"4","num_nodes":"11","size_leaf_vector":"1"}},{"base_weights":[1.2528853E-1,-3.0894911E0,5.8367187E-1,-6.045794E0,2.9030272E-1,-5.042216E-1,-2.6816134E0,-3.115509E0,1.973877E-2,-1.9382731E0,-2.215739E-1,-1.9454752E-1,5.4016116E-4],"categories":[],"categories_nodes":[],"categories_segments":[],"categories_sizes":[],"default_left":[0,0,0,0,0,0,0,0,0,0,0,0,0],"id":71,"left_children":[1,3,-1,5,-1,-1,7,9,-1,11,-1,-1,-1],"loss_changes":[8.528096E2,5.0846484E2,0E0,1.6317133E2,0E0,0E0,1.3243416E1,3.8042297E0,0E0,2.2877539E1,0E0,0E0,0E0],"parents":[2147483647,0,0,1,1,3,3,6,6,7,7,9,9],"right_children":[2,4,-1,6,-1,-1,8,10,-1,12,-1,-1,-1],"split_conditions":[2.0615528E0,2.0615528E0,5.8367187E-1,1.2747549E0,2.9030272E-1,-5.042216E-1,-2.0836034E-1,-2.6707703E-1,1.973877E-2,-2.74123E-1,-2.215739E-1,-1.9454752E-1,5.4016116E-4],"split_indices":[1,2,0,0,0,0,3,3,0,3,0,0,0],"split_type":[0,0,0,0,0,0,0,0,0,0,0,0,0],"sum_hessian":[2.1E1,1.7E1,4E0,1.3E1,4E0,5E0,8E0,7E0,1E0,5E0,2E0,2E0,3E0],"tree_param":{"num_deleted":"0","num_feature":"4","num_nodes":"13","size_leaf_vector":"1"}},{"base_weights":[1.1783114E-1,-2.9688857E0,5.603223E-1,-5.8077917E0,2.786914E-1,-4.8321533E-1,-2.5914714E0,-3.0116272E0,1.9244386E-2,-1.8736572E0,-2.1418457E-1,-1.8806152E-1,5.218506E-4],"categories":[],"categories_nodes":[],"categories_segments":[],"categories_sizes":[],"default_left":[0,0,0,0,0,0,0,0,0,0,0,0,0],"id":72,"left_children":[1,3,-1,5,-1,-1,7,9,-1,11,-1,-1,-1],"loss_changes":[7.862736E2,4.6890695E2,0E0,1.4860825E2,0E0,0E0,1.2413956E1,3.5543976E0,0E0,2.1377449E1,0E0,0E0,0E0],"parents":[2147483647,0,0,1,1,3,3,6,6,7,7,9,9],"right_children":[2,4,-1,6,-1,-1,8,10,-1,12,-1,-1,-1],"split_conditions":[2.0615528E0,2.0615528E0,5.603223E-1,1.2747549E0,2.786914E-1,-4.8321533E-1,-2.0836034E-1,-2.6707703E-1,1.9244386E-2,-2.74123E-1,-2.1418457E-1,-1.8806152E-1,5.218506E-4],"split_indices":[1,2,0,0,0,0,3,3,0,3,0,0,0],"split_type":[0,0,0,0,0,0,0,0,0,0,0,0,0],"sum_hessian":[2.1E1,1.7E1,4E0,1.3E1,4E0,5E0,8E0,7E0,1E0,5E0,2E0,2E0,3E0],"tree_param":{"num_deleted":"0","num_feature":"4","num_nodes":"13","size_leaf_vector":"1"}},{"base_weights":[1.10684484E-1,-2.8531086E0,5.3791016E-1,-5.579276E0,2.6753908E-1,-8.309723E0,-1.6617258E0,-4.630839E-1,-1.8179525E-1,5.0354004E-4,-2.9180908E0,-2.0704754E-1,1.8762207E-2],"categories":[],"categories_nodes":[],"categories_segments":[],"categories_sizes":[],"default_left":[0,0,0,0,0,0,0,0,0,0,0,0,0],"id":73,"left_children":[1,3,-1,5,-1,7,9,-1,-1,-1,11,-1,-1],"loss_changes":[7.249493E2,4.324267E2,0E0,1.3594485E2,0E0,1.9194946E0,1.4732094E1,0E0,0E0,0E0,1.7663013E1,0E0,0E0],"parents":[2147483647,0,0,1,1,3,3,5,5,6,6,10,10],"right_children":[2,4,-1,6,-1,8,10,-1,-1,-1,12,-1,-1],"split_conditions":[2.0615528E0,2.0615528E0,5.3791016E-1,-2.74123E-1,2.6753908E-1,1.2747549E0,-2.6707703E-1,-4.630839E-1,-1.8179525E-1,5.0354004E-4,-2.0836034E-1,-2.0704754E-1,1.8762207E-2],"split_indices":[1,2,0,3,0,0,3,0,0,0,3,0,0],"split_type":[0,0,0,0,0,0,0,0,0,0,0,0,0],"sum_hessian":[2.1E1,1.7E1,4E0,1.3E1,4E0,7E0,6E0,5E0,2E0,3E0,3E0,2E0,1E0],"tree_param":{"num_deleted":"0","num_feature":"4","num_nodes":"13","size_leaf_vector":"1"}},{"base_weights":[1.0393732E-1,-2.7418349E0,5.1639646E-1,-5.359759E0,2.5683594E-1,-7.9747925E0,-1.6054688E0,-4.4378662E-1,-1.7573242E-1,4.852295E-4,-2.819275E0,-2.0014648E-1,1.8292237E-2],"categories":[],"categories_nodes":[],"categories_segments":[],"categories_sizes":[],"default_left":[0,0,0,0,0,0,0,0,0,0,0,0,0],"id":74,"left_children":[1,3,-1,5,-1,7,9,-1,-1,-1,11,-1,-1],"loss_changes":[6.684109E2,3.9878976E2,0E0,1.24643036E2,0E0,9.5147705E-1,1.3750912E1,0E0,0E0,0E0,1.654478E1,0E0,0E0],"parents":[2147483647,0,0,1,1,3,3,5,5,6,6,10,10],"right_children":[2,4,-1,6,-1,8,10,-1,-1,-1,12,-1,-1],"split_conditions":[2.0615528E0,2.0615528E0,5.1639646E-1,-2.74123E-1,2.5683594E-1,1.2747549E0,-2.6707703E-1,-4.4378662E-1,-1.7573242E-1,4.852295E-4,-2.0836034E-1,-2.0014648E-1,1.8292237E-2],"split_indices":[1,2,0,3,0,0,3,0,0,0,3,0,0],"split_type":[0,0,0,0,0,0,0,0,0,0,0,0,0],"sum_hessian":[2.1E1,1.7E1,4E0,1.3E1,4E0,7E0,6E0,5E0,2E0,3E0,3E0,2E0,1E0],"tree_param":{"num_deleted":"0","num_feature":"4","num_nodes":"13","size_leaf_vector":"1"}},{"base_weights":[9.7511984E-2,-2.634942E0,4.9574217E-1,-5.1489434E0,2.4656251E-1,-7.6534424E0,-1.5510951E0,-4.2529297E-1,-1.6987304E-1,4.6691895E-4,-2.723755E0,-1.9347331E-1,1.7834473E-2],"categories":[],"categories_nodes":[],"categories_segments":[],"categories_sizes":[],"default_left":[0,0,0,0,0,0,0,0,0,0,0,0,0],"id":75,"left_children":[1,3,-1,5,-1,7,9,-1,-1,-1,11,-1,-1],"loss_changes":[6.1628406E2,3.6777625E2,0E0,1.1428009E2,0E0,1.2466431E-1,1.283444E1,0E0,0E0,0E0,1.5497396E1,0E0,0E0],"parents":[2147483647,0,0,1,1,3,3,5,5,6,6,10,10],"right_children":[2,4,-1,6,-1,8,10,-1,-1,-1,12,-1,-1],"split_conditions":[2.0615528E0,2.0615528E0,4.9574217E-1,-2.74123E-1,2.4656251E-1,1.2747549E0,-2.6707703E-1,-4.2529297E-1,-1.6987304E-1,4.6691895E-4,-2.0836034E-1,-1.9347331E-1,1.7834473E-2],"split_indices":[1,2,0,3,0,0,3,0,0,0,3,0,0],"split_type":[0,0,0,0,0,0,0,0,0,0,0,0,0],"sum_hessian":[2.1E1,1.7E1,4E0,1.3E1,4E0,7E0,6E0,5E0,2E0,3E0,3E0,2E0,1E0],"tree_param":{"num_deleted":"0","num_feature":"4","num_nodes":"13","size_leaf_vector":"1"}},{"base_weights":[9.133079E-2,-2.5323079E0,4.759082E-1,-4.946533E0,2.3669922E-1,-3.6725768E-1,-1.4986049E0,4.486084E-4,-2.6315308E0,-1.8702799E-1,1.7388916E-2],"categories":[],"categories_nodes":[],"categories_segments":[],"categories_sizes":[],"default_left":[0,0,0,0,0,0,0,0,0,0,0],"id":76,"left_children":[1,3,-1,5,-1,-1,7,-1,9,-1,-1],"loss_changes":[5.682202E2,3.391812E2,0E0,1.04776306E2,0E0,0E0,1.1979422E1,0E0,1.451745E1,0E0,0E0],"parents":[2147483647,0,0,1,1,3,3,6,6,8,8],"right_children":[2,4,-1,6,-1,-1,8,-1,10,-1,-1],"split_conditions":[2.0615528E0,2.0615528E0,4.759082E-1,-2.74123E-1,2.3669922E-1,-3.6725768E-1,-2.6707703E-1,4.486084E-4,-2.0836034E-1,-1.8702799E-1,1.7388916E-2],"split_indices":[1,2,0,3,0,0,3,0,3,0,0],"split_type":[0,0,0,0,0,0,0,0,0,0,0],"sum_hessian":[2.1E1,1.7E1,4E0,1.3E1,4E0,7E0,6E0,3E0,3E0,2E0,1E0],"tree_param":{"num_deleted":"0","num_feature":"4","num_nodes":"11","size_leaf_vector":"1"}},{"base_weights":[9.473766E-2,-2.422404E0,4.56875E-1,-4.7375665E0,2.2722657E-1,-3.9227295E-1,-2.1392415E0,-2.4914246E0,1.6955568E-2,-1.5139567E0,-1.8079428E-1,-1.519694E-1,4.3029786E-4],"categories":[],"categories_nodes":[],"categories_segments":[],"categories_sizes":[],"default_left":[0,0,0,0,0,0,0,0,0,0,0,0,0],"id":77,"left_children":[1,3,-1,5,-1,-1,7,9,-1,11,-1,-1,-1],"loss_changes":[5.2289685E2,3.1186258E2,0E0,9.627109E1,0E0,0E0,8.700375E0,3.318699E0,0E0,1.3961545E1,0E0,0E0,0E0],"parents":[2147483647,0,0,1,1,3,3,6,6,7,7,9,9],"right_children":[2,4,-1,6,-1,-1,8,10,-1,12,-1,-1,-1],"split_conditions":[2.0615528E0,2.0615528E0,4.56875E-1,1.2747549E0,2.2722657E-1,-3.9227295E-1,-2.0836034E-1,-2.6707703E-1,1.6955568E-2,-2.74123E-1,-1.8079428E-1,-1.519694E-1,4.3029786E-4],"split_indices":[1,2,0,0,0,0,3,3,0,3,0,0,0],"split_type":[0,0,0,0,0,0,0,0,0,0,0,0,0],"sum_hessian":[2.1E1,1.7E1,4E0,1.3E1,4E0,5E0,8E0,7E0,1E0,5E0,2E0,2E0,3E0],"tree_param":{"num_deleted":"0","num_feature":"4","num_nodes":"13","size_leaf_vector":"1"}},{"base_weights":[8.894487E-2,-2.3279757E0,4.386035E-1,-4.551217E0,2.1813476E-1,-3.7592572E-1,-2.0673285E0,-2.4084167E0,1.6534423E-2,-1.4635824E0,-1.74764E-1,-1.4690755E-1,4.119873E-4],"categories":[],"categories_nodes":[],"categories_segments":[],"categories_sizes":[],"default_left":[0,0,0,0,0,0,0,0,0,0,0,0,0],"id":78,"left_children":[1,3,-1,5,-1,-1,7,9,-1,11,-1,-1,-1],"loss_changes":[4.8212253E2,2.8760516E2,0E0,8.764285E1,0E0,0E0,8.157852E0,3.0996132E0,0E0,1.3046024E1,0E0,0E0,0E0],"parents":[2147483647,0,0,1,1,3,3,6,6,7,7,9,9],"right_children":[2,4,-1,6,-1,-1,8,10,-1,12,-1,-1,-1],"split_conditions":[2.0615528E0,2.0615528E0,4.386035E-1,1.2747549E0,2.1813476E-1,-3.7592572E-1,-2.0836034E-1,-2.6707703E-1,1.6534423E-2,-2.74123E-1,-1.74764E-1,-1.4690755E-1,4.119873E-4],"split_indices":[1,2,0,0,0,0,3,3,0,3,0,0,0],"split_type":[0,0,0,0,0,0,0,0,0,0,0,0,0],"sum_hessian":[2.1E1,1.7E1,4E0,1.3E1,4E0,5E0,8E0,7E0,1E0,5E0,2E0,2E0,3E0],"tree_param":{"num_deleted":"0","num_feature":"4","num_nodes":"13","size_leaf_vector":"1"}},{"base_weights":[8.3418414E-2,-2.237237E0,4.210547E-1,-4.372262E0,2.0941405E-1,-6.4689636E0,-1.351423E0,-3.6026E-1,-1.4200847E-1,3.9367678E-4,-2.3728638E0,-1.6893718E-1,1.6119385E-2],"categories":[],"categories_nodes":[],"categories_segments":[],"categories_sizes":[],"default_left":[0,0,0,0,0,0,0,0,0,0,0,0,0],"id":79,"left_children":[1,3,-1,5,-1,7,9,-1,-1,-1,11,-1,-1],"loss_changes":[4.4451514E2,2.6524786E2,0E0,7.993085E1,0E0,9.092102E-1,9.73777E0,0E0,0E0,0E0,1.1933659E1,0E0,0E0],"parents":[2147483647,0,0,1,1,3,3,5,5,6,6,10,10],"right_children":[2,4,-1,6,-1,8,10,-1,-1,-1,12,-1,-1],"split_conditions":[2.0615528E0,2.0615528E0,4.210547E-1,-2.74123E-1,2.0941405E-1,1.2747549E0,-2.6707703E-1,-3.6026E-1,-1.4200847E-1,3.9367678E-4,-2.0836034E-1,-1.6893718E-1,1.6119385E-2],"split_indices":[1,2,0,3,0,0,3,0,0,0,3,0,0],"split_type":[0,0,0,0,0,0,0,0,0,0,0,0,0],"sum_hessian":[2.1E1,1.7E1,4E0,1.3E1,4E0,7E0,6E0,5E0,2E0,3E0,3E0,2E0,1E0],"tree_param":{"num_deleted":"0","num_feature":"4","num_nodes":"13","size_leaf_vector":"1"}},{"base_weights":[7.8136094E-2,-2.1501057E0,4.04209E-1,-4.200387E0,2.0103517E-1,-6.2082214E0,-1.3056641E0,-3.4524536E-1,-1.3727213E-1,3.7536622E-4,-2.2924194E0,-1.6330567E-1,1.5716553E-2],"categories":[],"categories_nodes":[],"categories_segments":[],"categories_sizes":[],"default_left":[0,0,0,0,0,0,0,0,0,0,0,0,0],"id":80,"left_children":[1,3,-1,5,-1,7,9,-1,-1,-1,11,-1,-1],"loss_changes":[4.098487E2,2.4462259E2,0E0,7.3263916E1,0E0,3.427124E-1,9.087663E0,0E0,0E0,0E0,1.1179348E1,0E0,0E0],"parents":[2147483647,0,0,1,1,3,3,5,5,6,6,10,10],"right_children":[2,4,-1,6,-1,8,10,-1,-1,-1,12,-1,-1],"split_conditions":[2.0615528E0,2.0615528E0,4.04209E-1,-2.74123E-1,2.0103517E-1,1.2747549E0,-2.6707703E-1,-3.4524536E-1,-1.3727213E-1,3.7536622E-4,-2.0836034E-1,-1.6330567E-1,1.5716553E-2],"split_indices":[1,2,0,3,0,0,3,0,0,0,3,0,0],"split_type":[0,0,0,0,0,0,0,0,0,0,0,0,0],"sum_hessian":[2.1E1,1.7E1,4E0,1.3E1,4E0,7E0,6E0,5E0,2E0,3E0,3E0,2E0,1E0],"tree_param":{"num_deleted":"0","num_feature":"4","num_nodes":"13","size_leaf_vector":"1"}},{"base_weights":[7.309792E-2,-2.0664198E0,3.8803712E-1,-4.0353827E0,1.9299805E-1,-2.9790804E-1,-1.2614397E0,3.5705566E-4,-2.2146606E0,-1.5786134E-1,1.5325928E-2],"categories":[],"categories_nodes":[],"categories_segments":[],"categories_sizes":[],"default_left":[0,0,0,0,0,0,0,0,0,0,0],"id":81,"left_children":[1,3,-1,5,-1,-1,7,-1,9,-1,-1],"loss_changes":[3.7788968E2,2.256153E2,0E0,6.7155594E1,0E0,0E0,8.48048E0,0E0,1.0473259E1,0E0,0E0],"parents":[2147483647,0,0,1,1,3,3,6,6,8,8],"right_children":[2,4,-1,6,-1,-1,8,-1,10,-1,-1],"split_conditions":[2.0615528E0,2.0615528E0,3.8803712E-1,-2.74123E-1,1.9299805E-1,-2.9790804E-1,-2.6707703E-1,3.5705566E-4,-2.0836034E-1,-1.5786134E-1,1.5325928E-2],"split_indices":[1,2,0,3,0,0,3,0,3,0,0],"split_type":[0,0,0,0,0,0,0,0,0,0,0],"sum_hessian":[2.1E1,1.7E1,4E0,1.3E1,4E0,7E0,6E0,3E0,3E0,2E0,1E0],"tree_param":{"num_deleted":"0","num_feature":"4","num_nodes":"11","size_leaf_vector":"1"}},{"base_weights":[7.5850055E-2,-1.9768473E0,3.7251955E-1,-3.8650424E0,1.8527344E-1,-3.1845093E-1,-1.766276E0,-2.0617676E0,1.4941406E-2,-1.2230631E0,-1.5259604E-1,-1.2277018E-1,3.479004E-4],"categories":[],"categories_nodes":[],"categories_segments":[],"categories_sizes":[],"default_left":[0,0,0,0,0,0,0,0,0,0,0,0,0],"id":82,"left_children":[1,3,-1,5,-1,-1,7,9,-1,11,-1,-1,-1],"loss_changes":[3.477577E2,2.0744958E2,0E0,6.2324234E1,0E0,0E0,6.108101E0,2.9108734E0,0E0,9.111915E0,0E0,0E0,0E0],"parents":[2147483647,0,0,1,1,3,3,6,6,7,7,9,9],"right_children":[2,4,-1,6,-1,-1,8,10,-1,12,-1,-1,-1],"split_conditions":[2.0615528E0,2.0615528E0,3.7251955E-1,1.2747549E0,1.8527344E-1,-3.1845093E-1,-2.0836034E-1,-2.6707703E-1,1.4941406E-2,-2.74123E-1,-1.5259604E-1,-1.2277018E-1,3.479004E-4],"split_indices":[1,2,0,0,0,0,3,3,0,3,0,0,0],"split_type":[0,0,0,0,0,0,0,0,0,0,0,0,0],"sum_hessian":[2.1E1,1.7E1,4E0,1.3E1,4E0,5E0,8E0,7E0,1E0,5E0,2E0,2E0,3E0],"tree_param":{"num_deleted":"0","num_feature":"4","num_nodes":"13","size_leaf_vector":"1"}},{"base_weights":[7.110041E-2,-1.8998617E0,3.576172E-1,-3.7131174E0,1.7786133E-1,-3.0518597E-1,-1.7068143E0,-1.9930115E0,1.4569092E-2,-1.182251E0,-1.4750977E-1,-1.1867676E-1,3.3874513E-4],"categories":[],"categories_nodes":[],"categories_segments":[],"categories_sizes":[],"default_left":[0,0,0,0,0,0,0,0,0,0,0,0,0],"id":83,"left_children":[1,3,-1,5,-1,-1,7,9,-1,11,-1,-1,-1],"loss_changes":[3.2063943E2,1.9132013E2,0E0,5.6729904E1,0E0,0E0,5.7276325E0,2.7205029E0,0E0,8.514886E0,0E0,0E0,0E0],"parents":[2147483647,0,0,1,1,3,3,6,6,7,7,9,9],"right_children":[2,4,-1,6,-1,-1,8,10,-1,12,-1,-1,-1],"split_conditions":[2.0615528E0,2.0615528E0,3.576172E-1,1.2747549E0,1.7786133E-1,-3.0518597E-1,-2.0836034E-1,-2.6707703E-1,1.4569092E-2,-2.74123E-1,-1.4750977E-1,-1.1867676E-1,3.3874513E-4],"split_indices":[1,2,0,0,0,0,3,3,0,3,0,0,0],"split_type":[0,0,0,0,0,0,0,0,0,0,0,0,0],"sum_hessian":[2.1E1,1.7E1,4E0,1.3E1,4E0,5E0,8E0,7E0,1E0,5E0,2E0,2E0,3E0],"tree_param":{"num_deleted":"0","num_feature":"4","num_nodes":"13","size_leaf_vector":"1"}},{"base_weights":[6.656161E-2,-1.8259277E0,3.4331056E-1,-3.5672085E0,1.707422E-1,-2.924703E-1,-1.6493869E0,-1.9265747E0,1.4202881E-2,-1.1428223E0,-1.425944E-1,-1.1472168E-1,3.2958985E-4],"categories":[],"categories_nodes":[],"categories_segments":[],"categories_sizes":[],"default_left":[0,0,0,0,0,0,0,0,0,0,0,0,0],"id":84,"left_children":[1,3,-1,5,-1,-1,7,9,-1,11,-1,-1,-1],"loss_changes":[2.9563904E2,1.7644322E2,0E0,5.162793E1,0E0,0E0,5.3706036E0,2.542532E0,0E0,7.957194E0,0E0,0E0,0E0],"parents":[2147483647,0,0,1,1,3,3,6,6,7,7,9,9],"right_children":[2,4,-1,6,-1,-1,8,10,-1,12,-1,-1,-1],"split_conditions":[2.0615528E0,2.0615528E0,3.4331056E-1,1.2747549E0,1.707422E-1,-2.924703E-1,-2.0836034E-1,-2.6707703E-1,1.4202881E-2,-2.74123E-1,-1.425944E-1,-1.1472168E-1,3.2958985E-4],"split_indices":[1,2,0,0,0,0,3,3,0,3,0,0,0],"split_type":[0,0,0,0,0,0,0,0,0,0,0,0,0],"sum_hessian":[2.1E1,1.7E1,4E0,1.3E1,4E0,5E0,8E0,7E0,1E0,5E0,2E0,2E0,3E0],"tree_param":{"num_deleted":"0","num_feature":"4","num_nodes":"13","size_leaf_vector":"1"}},{"base_weights":[6.2311348E-2,-1.7548422E0,3.2958007E-1,-3.4270542E0,1.6391602E-1,-2.8028363E-1,-1.5938585E0,-1.8623352E0,1.38488775E-2,-1.1046957E0,-1.378418E-1,-1.1089682E-1,3.2043457E-4],"categories":[],"categories_nodes":[],"categories_segments":[],"categories_sizes":[],"default_left":[0,0,0,0,0,0,0,0,0,0,0,0,0],"id":85,"left_children":[1,3,-1,5,-1,-1,7,9,-1,11,-1,-1,-1],"loss_changes":[2.725911E2,1.6273227E2,0E0,4.697902E1,0E0,0E0,5.0363083E0,2.3762074E0,0E0,7.435773E0,0E0,0E0,0E0],"parents":[2147483647,0,0,1,1,3,3,6,6,7,7,9,9],"right_children":[2,4,-1,6,-1,-1,8,10,-1,12,-1,-1,-1],"split_conditions":[2.0615528E0,2.0615528E0,3.2958007E-1,1.2747549E0,1.6391602E-1,-2.8028363E-1,-2.0836034E-1,-2.6707703E-1,1.38488775E-2,-2.74123E-1,-1.378418E-1,-1.1089682E-1,3.2043457E-4],"split_indices":[1,2,0,0,0,0,3,3,0,3,0,0,0],"split_type":[0,0,0,0,0,0,0,0,0,0,0,0,0],"sum_hessian":[2.1E1,1.7E1,4E0,1.3E1,4E0,5E0,8E0,7E0,1E0,5E0,2E0,2E0,3E0],"tree_param":{"num_deleted":"0","num_feature":"4","num_nodes":"13","size_leaf_vector":"1"}},{"base_weights":[5.8249734E-2,-1.6865641E0,3.1639647E-1,-3.292463E0,1.5736328E-1,-4.8330994E0,-1.061384E0,-2.6860556E-1,-1.0720215E-1,3.112793E-4,-1.8636475E0,-1.3324381E-1,1.3500976E-2],"categories":[],"categories_nodes":[],"categories_segments":[],"categories_sizes":[],"default_left":[0,0,0,0,0,0,0,0,0,0,0,0,0],"id":86,"left_children":[1,3,-1,5,-1,7,9,-1,-1,-1,11,-1,-1],"loss_changes":[2.513398E2,1.5008983E2,0E0,4.2992157E1,0E0,7.7423096E-2,6.0071325E0,0E0,0E0,0E0,7.55779E0,0E0,0E0],"parents":[2147483647,0,0,1,1,3,3,5,5,6,6,10,10],"right_children":[2,4,-1,6,-1,8,10,-1,-1,-1,12,-1,-1],"split_conditions":[2.0615528E0,2.0615528E0,3.1639647E-1,-2.74123E-1,1.5736328E-1,1.2747549E0,-2.6707703E-1,-2.6860556E-1,-1.0720215E-1,3.112793E-4,-2.0836034E-1,-1.3324381E-1,1.3500976E-2],"split_indices":[1,2,0,3,0,0,3,0,0,0,3,0,0],"split_type":[0,0,0,0,0,0,0,0,0,0,0,0,0],"sum_hessian":[2.1E1,1.7E1,4E0,1.3E1,4E0,7E0,6E0,5E0,2E0,3E0,3E0,2E0,1E0],"tree_param":{"num_deleted":"0","num_feature":"4","num_nodes":"13","size_leaf_vector":"1"}},{"base_weights":[5.4343484E-2,-1.6210259E0,3.0374023E-1,-3.163208E0,1.5106446E-1,-2.3192291E-1,-1.0253209E0,3.0212404E-4,-1.800354E0,-1.2880045E-1,1.3165283E-2],"categories":[],"categories_nodes":[],"categories_segments":[],"categories_sizes":[],"default_left":[0,0,0,0,0,0,0,0,0,0,0],"id":87,"left_children":[1,3,-1,5,-1,-1,7,-1,9,-1,-1],"loss_changes":[2.3175035E2,1.3842427E2,0E0,3.9398956E1,0E0,0E0,5.6062636E0,0E0,7.081031E0,0E0,0E0],"parents":[2147483647,0,0,1,1,3,3,6,6,8,8],"right_children":[2,4,-1,6,-1,-1,8,-1,10,-1,-1],"split_conditions":[2.0615528E0,2.0615528E0,3.0374023E-1,-2.74123E-1,1.5106446E-1,-2.3192291E-1,-2.6707703E-1,3.0212404E-4,-2.0836034E-1,-1.2880045E-1,1.3165283E-2],"split_indices":[1,2,0,3,0,0,3,0,3,0,0],"split_type":[0,0,0,0,0,0,0,0,0,0,0],"sum_hessian":[2.1E1,1.7E1,4E0,1.3E1,4E0,7E0,6E0,3E0,3E0,2E0,1E0],"tree_param":{"num_deleted":"0","num_feature":"4","num_nodes":"11","size_leaf_vector":"1"}},{"base_weights":[5.6529652E-2,-1.5508627E0,2.915918E-1,-3.02982E0,1.4501953E-1,-2.4775188E-1,-1.4096951E0,-1.6500854E0,1.2835694E-2,-9.550781E-1,-1.24503575E-1,-9.589844E-2,2.9296876E-4],"categories":[],"categories_nodes":[],"categories_segments":[],"categories_sizes":[],"default_left":[0,0,0,0,0,0,0,0,0,0,0,0,0],"id":88,"left_children":[1,3,-1,5,-1,-1,7,9,-1,11,-1,-1,-1],"loss_changes":[2.132744E2,1.2728551E2,0E0,3.6682205E1,0E0,0E0,4.0288963E0,2.29216E0,0E0,5.5629044E0,0E0,0E0,0E0],"parents":[2147483647,0,0,1,1,3,3,6,6,7,7,9,9],"right_children":[2,4,-1,6,-1,-1,8,10,-1,12,-1,-1,-1],"split_conditions":[2.0615528E0,2.0615528E0,2.915918E-1,1.2747549E0,1.4501953E-1,-2.4775188E-1,-2.0836034E-1,-2.6707703E-1,1.2835694E-2,-2.74123E-1,-1.24503575E-1,-9.589844E-2,2.9296876E-4],"split_indices":[1,2,0,0,0,0,3,3,0,3,0,0,0],"split_type":[0,0,0,0,0,0,0,0,0,0,0,0,0],"sum_hessian":[2.1E1,1.7E1,4E0,1.3E1,4E0,5E0,8E0,7E0,1E0,5E0,2E0,2E0,3E0],"tree_param":{"num_deleted":"0","num_feature":"4","num_nodes":"13","size_leaf_vector":"1"}},{"base_weights":[5.2900836E-2,-1.4905192E0,2.7993163E-1,-2.9108014E0,1.3921875E-1,-2.3742676E-1,-1.3622233E0,-1.5950623E0,1.2512207E-2,-9.232178E-1,-1.20353185E-1,-9.27002E-2,2.8381348E-4],"categories":[],"categories_nodes":[],"categories_segments":[],"categories_sizes":[],"default_left":[0,0,0,0,0,0,0,0,0,0,0,0,0],"id":89,"left_children":[1,3,-1,5,-1,-1,7,9,-1,11,-1,-1,-1],"loss_changes":[1.9665154E2,1.1739278E2,0E0,3.3373672E1,0E0,0E0,3.77816E0,2.142067E0,0E0,5.198134E0,0E0,0E0,0E0],"parents":[2147483647,0,0,1,1,3,3,6,6,7,7,9,9],"right_children":[2,4,-1,6,-1,-1,8,10,-1,12,-1,-1,-1],"split_conditions":[2.0615528E0,2.0615528E0,2.7993163E-1,1.2747549E0,1.3921875E-1,-2.3742676E-1,-2.0836034E-1,-2.6707703E-1,1.2512207E-2,-2.74123E-1,-1.20353185E-1,-9.27002E-2,2.8381348E-4],"split_indices":[1,2,0,0,0,0,3,3,0,3,0,0,0],"split_type":[0,0,0,0,0,0,0,0,0,0,0,0,0],"sum_hessian":[2.1E1,1.7E1,4E0,1.3E1,4E0,5E0,8E0,7E0,1E0,5E0,2E0,2E0,3E0],"tree_param":{"num_deleted":"0","num_feature":"4","num_nodes":"13","size_leaf_vector":"1"}},{"base_weights":[4.9394086E-2,-1.4325765E0,2.687305E-1,-2.7965436E0,1.3365234E-1,-2.2753906E-1,-1.3163248E0,-1.5418701E0,1.2200928E-2,-8.9241534E-1,-1.1634115E-1,-8.9607745E-2,2.746582E-4],"categories":[],"categories_nodes":[],"categories_segments":[],"categories_sizes":[],"default_left":[0,0,0,0,0,0,0,0,0,0,0,0,0],"id":90,"left_children":[1,3,-1,5,-1,-1,7,9,-1,11,-1,-1,-1],"loss_changes":[1.8131941E2,1.08274124E2,0E0,3.0362877E1,0E0,0E0,3.5435972E0,2.0018387E0,0E0,4.857148E0,0E0,0E0,0E0],"parents":[2147483647,0,0,1,1,3,3,6,6,7,7,9,9],"right_children":[2,4,-1,6,-1,-1,8,10,-1,12,-1,-1,-1],"split_conditions":[2.0615528E0,2.0615528E0,2.687305E-1,1.2747549E0,1.3365234E-1,-2.2753906E-1,-2.0836034E-1,-2.6707703E-1,1.2200928E-2,-2.74123E-1,-1.1634115E-1,-8.9607745E-2,2.746582E-4],"split_indices":[1,2,0,0,0,0,3,3,0,3,0,0,0],"split_type":[0,0,0,0,0,0,0,0,0,0,0,0,0],"sum_hessian":[2.1E1,1.7E1,4E0,1.3E1,4E0,5E0,8E0,7E0,1E0,5E0,2E0,2E0,3E0],"tree_param":{"num_deleted":"0","num_feature":"4","num_nodes":"13","size_leaf_vector":"1"}},{"base_weights":[4.6098188E-2,-1.3768717E0,2.5797853E-1,-2.6867676E0,1.2831055E-1,-2.1805827E-1,-1.2719727E0,-1.490448E0,1.18957525E-2,-8.626709E-1,-1.1245932E-1,-8.66211E-2,2.6550292E-4],"categories":[],"categories_nodes":[],"categories_segments":[],"categories_sizes":[],"default_left":[0,0,0,0,0,0,0,0,0,0,0,0,0],"id":91,"left_children":[1,3,-1,5,-1,-1,7,9,-1,11,-1,-1,-1],"loss_changes":[1.6718304E2,9.986531E1,0E0,2.761773E1,0E0,0E0,3.3234596E0,1.8702412E0,0E0,4.5387626E0,0E0,0E0,0E0],"parents":[2147483647,0,0,1,1,3,3,6,6,7,7,9,9],"right_children":[2,4,-1,6,-1,-1,8,10,-1,12,-1,-1,-1],"split_conditions":[2.0615528E0,2.0615528E0,2.5797853E-1,1.2747549E0,1.2831055E-1,-2.1805827E-1,-2.0836034E-1,-2.6707703E-1,1.18957525E-2,-2.74123E-1,-1.1245932E-1,-8.66211E-2,2.6550292E-4],"split_indices":[1,2,0,0,0,0,3,3,0,3,0,0,0],"split_type":[0,0,0,0,0,0,0,0,0,0,0,0,0],"sum_hessian":[2.1E1,1.7E1,4E0,1.3E1,4E0,5E0,8E0,7E0,1E0,5E0,2E0,2E0,3E0],"tree_param":{"num_deleted":"0","num_feature":"4","num_nodes":"13","size_leaf_vector":"1"}},{"base_weights":[4.291326E-2,-1.3234185E0,2.4765626E-1,-2.581351E0,1.2317383E-1,-1.8813019E-1,-8.625837E-1,2.5634767E-4,-1.5146484E0,-1.0870768E-1,1.159668E-2],"categories":[],"categories_nodes":[],"categories_segments":[],"categories_sizes":[],"default_left":[0,0,0,0,0,0,0,0,0,0,0],"id":92,"left_children":[1,3,-1,5,-1,-1,7,-1,9,-1,-1],"loss_changes":[1.5415259E2,9.210496E1,0E0,2.517862E1,0E0,0E0,3.96839E0,0E0,5.1117783E0,0E0,0E0],"parents":[2147483647,0,0,1,1,3,3,6,6,8,8],"right_children":[2,4,-1,6,-1,-1,8,-1,10,-1,-1],"split_conditions":[2.0615528E0,2.0615528E0,2.4765626E-1,-2.74123E-1,1.2317383E-1,-1.8813019E-1,-2.6707703E-1,2.5634767E-4,-2.0836034E-1,-1.0870768E-1,1.159668E-2],"split_indices":[1,2,0,3,0,0,3,0,3,0,0],"split_type":[0,0,0,0,0,0,0,0,0,0,0],"sum_hessian":[2.1E1,1.7E1,4E0,1.3E1,4E0,7E0,6E0,3E0,3E0,2E0,1E0],"tree_param":{"num_deleted":"0","num_feature":"4","num_nodes":"11","size_leaf_vector":"1"}},{"base_weights":[4.4688832E-2,-1.2662354E0,2.3775391E-1,-2.472604E0,1.182422E-1,-2.0113118E-1,-1.1645236E0,-1.3666077E0,1.1303711E-2,-7.7128094E-1,-1.0508627E-1,-7.745769E-2,2.471924E-4],"categories":[],"categories_nodes":[],"categories_segments":[],"categories_sizes":[],"default_left":[0,0,0,0,0,0,0,0,0,0,0,0,0],"id":93,"left_children":[1,3,-1,5,-1,-1,7,9,-1,11,-1,-1,-1],"loss_changes":[1.4187025E2,8.469487E1,0E0,2.3701271E1,0E0,0E0,2.8381138E0,1.8800611E0,0E0,3.630483E0,0E0,0E0,0E0],"parents":[2147483647,0,0,1,1,3,3,6,6,7,7,9,9],"right_children":[2,4,-1,6,-1,-1,8,10,-1,12,-1,-1,-1],"split_conditions":[2.0615528E0,2.0615528E0,2.3775391E-1,1.2747549E0,1.182422E-1,-2.0113118E-1,-2.0836034E-1,-2.6707703E-1,1.1303711E-2,-2.74123E-1,-1.0508627E-1,-7.745769E-2,2.471924E-4],"split_indices":[1,2,0,0,0,0,3,3,0,3,0,0,0],"split_type":[0,0,0,0,0,0,0,0,0,0,0,0,0],"sum_hessian":[2.1E1,1.7E1,4E0,1.3E1,4E0,5E0,8E0,7E0,1E0,5E0,2E0,2E0,3E0],"tree_param":{"num_deleted":"0","num_feature":"4","num_nodes":"13","size_leaf_vector":"1"}},{"base_weights":[4.172585E-2,-1.2170138E0,2.2824219E-1,-2.3755581E0,1.1351563E-1,-1.9274902E-1,-1.1253256E0,-1.321106E0,1.102295E-2,-7.4560547E-1,-1.01586916E-1,-7.487793E-2,2.3803712E-4],"categories":[],"categories_nodes":[],"categories_segments":[],"categories_sizes":[],"default_left":[0,0,0,0,0,0,0,0,0,0,0,0,0],"id":94,"left_children":[1,3,-1,5,-1,-1,7,9,-1,11,-1,-1,-1],"loss_changes":[1.308109E2,7.811724E1,0E0,2.1556602E1,0E0,0E0,2.6625538E0,1.7568789E0,0E0,3.3925707E0,0E0,0E0,0E0],"parents":[2147483647,0,0,1,1,3,3,6,6,7,7,9,9],"right_children":[2,4,-1,6,-1,-1,8,10,-1,12,-1,-1,-1],"split_conditions":[2.0615528E0,2.0615528E0,2.2824219E-1,1.2747549E0,1.1351563E-1,-1.9274902E-1,-2.0836034E-1,-2.6707703E-1,1.102295E-2,-2.74123E-1,-1.01586916E-1,-7.487793E-2,2.3803712E-4],"split_indices":[1,2,0,0,0,0,3,3,0,3,0,0,0],"split_type":[0,0,0,0,0,0,0,0,0,0,0,0,0],"sum_hessian":[2.1E1,1.7E1,4E0,1.3E1,4E0,5E0,8E0,7E0,1E0,5E0,2E0,2E0,3E0],"tree_param":{"num_deleted":"0","num_feature":"4","num_nodes":"13","size_leaf_vector":"1"}},{"base_weights":[3.8929332E-2,-1.1697049E0,2.1911132E-1,-2.2822964E0,1.0897461E-1,-1.8471274E-1,-1.0874023E0,-1.2770691E0,1.0748291E-2,-7.2074383E-1,-9.82015E-2,-7.237956E-2,2.2888184E-4],"categories":[],"categories_nodes":[],"categories_segments":[],"categories_sizes":[],"default_left":[0,0,0,0,0,0,0,0,0,0,0,0,0],"id":95,"left_children":[1,3,-1,5,-1,-1,7,9,-1,11,-1,-1,-1],"loss_changes":[1.20613976E2,7.204743E1,0E0,1.9602829E1,0E0,0E0,2.4976702E0,1.6418276E0,0E0,3.169814E0,0E0,0E0,0E0],"parents":[2147483647,0,0,1,1,3,3,6,6,7,7,9,9],"right_children":[2,4,-1,6,-1,-1,8,10,-1,12,-1,-1,-1],"split_conditions":[2.0615528E0,2.0615528E0,2.1911132E-1,1.2747549E0,1.0897461E-1,-1.8471274E-1,-2.0836034E-1,-2.6707703E-1,1.0748291E-2,-2.74123E-1,-9.82015E-2,-7.237956E-2,2.2888184E-4],"split_indices":[1,2,0,0,0,0,3,3,0,3,0,0,0],"split_type":[0,0,0,0,0,0,0,0,0,0,0,0,0],"sum_hessian":[2.1E1,1.7E1,4E0,1.3E1,4E0,5E0,8E0,7E0,1E0,5E0,2E0,2E0,3E0],"tree_param":{"num_deleted":"0","num_feature":"4","num_nodes":"13","size_leaf_vector":"1"}},{"base_weights":[3.6288176E-2,-1.1242676E0,2.1035157E-1,-2.1927664E0,1.04619145E-1,-1.7701213E-1,-1.0508084E0,-1.2345581E0,1.0479736E-2,-6.9677734E-1,-9.4930016E-2,-6.9970705E-2,2.1972657E-4],"categories":[],"categories_nodes":[],"categories_segments":[],"categories_sizes":[],"default_left":[0,0,0,0,0,0,0,0,0,0,0,0,0],"id":96,"left_children":[1,3,-1,5,-1,-1,7,9,-1,11,-1,-1,-1],"loss_changes":[1.11218185E2,6.645388E1,0E0,1.7822533E1,0E0,0E0,2.3431454E0,1.5339708E0,0E0,2.9621642E0,0E0,0E0,0E0],"parents":[2147483647,0,0,1,1,3,3,6,6,7,7,9,9],"right_children":[2,4,-1,6,-1,-1,8,10,-1,12,-1,-1,-1],"split_conditions":[2.0615528E0,2.0615528E0,2.1035157E-1,1.2747549E0,1.04619145E-1,-1.7701213E-1,-2.0836034E-1,-2.6707703E-1,1.0479736E-2,-2.74123E-1,-9.4930016E-2,-6.9970705E-2,2.1972657E-4],"split_indices":[1,2,0,0,0,0,3,3,0,3,0,0,0],"split_type":[0,0,0,0,0,0,0,0,0,0,0,0,0],"sum_hessian":[2.1E1,1.7E1,4E0,1.3E1,4E0,5E0,8E0,7E0,1E0,5E0,2E0,2E0,3E0],"tree_param":{"num_deleted":"0","num_feature":"4","num_nodes":"13","size_leaf_vector":"1"}},{"base_weights":[3.3702504E-2,-1.0806613E0,2.0193361E-1,-2.1067767E0,1.0042969E-1,-1.6963705E-1,-1.0153809E0,-1.1933899E0,1.0217286E-2,-6.735433E-1,-9.176432E-2,-6.763509E-2,2.1057129E-4],"categories":[],"categories_nodes":[],"categories_segments":[],"categories_sizes":[],"default_left":[0,0,0,0,0,0,0,0,0,0,0,0,0],"id":97,"left_children":[1,3,-1,5,-1,-1,7,9,-1,11,-1,-1,-1],"loss_changes":[1.02550285E2,6.1290436E1,0E0,1.6204018E1,0E0,0E0,2.1979647E0,1.4333572E0,0E0,2.767514E0,0E0,0E0,0E0],"parents":[2147483647,0,0,1,1,3,3,6,6,7,7,9,9],"right_children":[2,4,-1,6,-1,-1,8,10,-1,12,-1,-1,-1],"split_conditions":[2.0615528E0,2.0615528E0,2.0193361E-1,1.2747549E0,1.0042969E-1,-1.6963705E-1,-2.0836034E-1,-2.6707703E-1,1.0217286E-2,-2.74123E-1,-9.176432E-2,-6.763509E-2,2.1057129E-4],"split_indices":[1,2,0,0,0,0,3,3,0,3,0,0,0],"split_type":[0,0,0,0,0,0,0,0,0,0,0,0,0],"sum_hessian":[2.1E1,1.7E1,4E0,1.3E1,4E0,5E0,8E0,7E0,1E0,5E0,2E0,2E0,3E0],"tree_param":{"num_deleted":"0","num_feature":"4","num_nodes":"13","size_leaf_vector":"1"}},{"base_weights":[3.130549E-2,-1.0387235E0,1.9385742E-1,-2.0241873E0,9.641602E-2,-1.6256714E-1,-9.8117405E-1,-1.1536255E0,9.960937E-3,-6.5112305E-1,-8.870443E-2,-6.5380864E-2,2.0141601E-4],"categories":[],"categories_nodes":[],"categories_segments":[],"categories_sizes":[],"default_left":[0,0,0,0,0,0,0,0,0,0,0,0,0],"id":98,"left_children":[1,3,-1,5,-1,-1,7,9,-1,11,-1,-1,-1],"loss_changes":[9.4560875E1,5.6533745E1,0E0,1.4729023E1,0E0,0E0,2.0618677E0,1.3391228E0,0E0,2.5858858E0,0E0,0E0,0E0],"parents":[2147483647,0,0,1,1,3,3,6,6,7,7,9,9],"right_children":[2,4,-1,6,-1,-1,8,10,-1,12,-1,-1,-1],"split_conditions":[2.0615528E0,2.0615528E0,1.9385742E-1,1.2747549E0,9.641602E-2,-1.6256714E-1,-2.0836034E-1,-2.6707703E-1,9.960937E-3,-2.74123E-1,-8.870443E-2,-6.5380864E-2,2.0141601E-4],"split_indices":[1,2,0,0,0,0,3,3,0,3,0,0,0],"split_type":[0,0,0,0,0,0,0,0,0,0,0,0,0],"sum_hessian":[2.1E1,1.7E1,4E0,1.3E1,4E0,5E0,8E0,7E0,1E0,5E0,2E0,2E0,3E0],"tree_param":{"num_deleted":"0","num_feature":"4","num_nodes":"13","size_leaf_vector":"1"}},{"base_weights":[2.8997248E-2,-9.984673E-1,1.8610351E-1,-1.9448766E0,9.255859E-2,-1.4054413E-1,-6.7731583E-1,1.9226075E-4,-1.189148E0,-8.575033E-2,9.710694E-3],"categories":[],"categories_nodes":[],"categories_segments":[],"categories_sizes":[],"default_left":[0,0,0,0,0,0,0,0,0,0,0],"id":99,"left_children":[1,3,-1,5,-1,-1,7,-1,9,-1,-1],"loss_changes":[8.71954E1,5.2144947E1,0E0,1.3464157E1,0E0,0E0,2.4450533E0,0E0,3.242889E0,0E0,0E0],"parents":[2147483647,0,0,1,1,3,3,6,6,8,8],"right_children":[2,4,-1,6,-1,-1,8,-1,10,-1,-1],"split_conditions":[2.0615528E0,2.0615528E0,1.8610351E-1,-2.74123E-1,9.255859E-2,-1.4054413E-1,-2.6707703E-1,1.9226075E-4,-2.0836034E-1,-8.575033E-2,9.710694E-3],"split_indices":[1,2,0,3,0,0,3,0,3,0,0],"split_type":[0,0,0,0,0,0,0,0,0,0,0],"sum_hessian":[2.1E1,1.7E1,4E0,1.3E1,4E0,7E0,6E0,3E0,3E0,2E0,1E0],"tree_param":{"num_deleted":"0","num_feature":"4","num_nodes":"11","size_leaf_vector":"1"}},{"base_weights":[3.0406605E-2,-9.554036E-1,1.786621E-1,-1.863072E0,8.885743E-2,-1.4993286E-1,-8.9900714E-1,-1.0587158E0,9.466553E-3,-5.826823E-1,-8.289388E-2,-5.851237E-2,1.8310547E-4],"categories":[],"categories_nodes":[],"categories_segments":[],"categories_sizes":[],"default_left":[0,0,0,0,0,0,0,0,0,0,0,0,0],"id":100,"left_children":[1,3,-1,5,-1,-1,7,9,-1,11,-1,-1,-1],"loss_changes":[8.025029E1,4.7955475E1,0E0,1.2631077E1,0E0,0E0,1.764801E0,1.315753E0,0E0,2.071379E0,0E0,0E0,0E0],"parents":[2147483647,0,0,1,1,3,3,6,6,7,7,9,9],"right_children":[2,4,-1,6,-1,-1,8,10,-1,12,-1,-1,-1],"split_conditions":[2.0615528E0,2.0615528E0,1.786621E-1,1.2747549E0,8.885743E-2,-1.4993286E-1,-2.0836034E-1,-2.6707703E-1,9.466553E-3,-2.74123E-1,-8.289388E-2,-5.851237E-2,1.8310547E-4],"split_indices":[1,2,0,0,0,0,3,3,0,3,0,0,0],"split_type":[0,0,0,0,0,0,0,0,0,0,0,0,0],"sum_hessian":[2.1E1,1.7E1,4E0,1.3E1,4E0,5E0,8E0,7E0,1E0,5E0,2E0,2E0,3E0],"tree_param":{"num_deleted":"0","num_feature":"4","num_nodes":"13","size_leaf_vector":"1"}},{"base_weights":[2.8231533E-2,-9.1834855E-1,1.7151368E-1,-1.7900391E0,8.530273E-2,-1.4368694E-1,-8.6867946E-1,-1.023407E0,9.228515E-3,-5.6327313E-1,-8.0126956E-2,-5.6559246E-2,1.739502E-4],"categories":[],"categories_nodes":[],"categories_segments":[],"categories_sizes":[],"default_left":[0,0,0,0,0,0,0,0,0,0,0,0,0],"id":101,"left_children":[1,3,-1,5,-1,-1,7,9,-1,11,-1,-1,-1],"loss_changes":[7.39969E1,4.4231915E1,0E0,1.1482323E1,0E0,0E0,1.655591E0,1.2291584E0,0E0,1.9351264E0,0E0,0E0,0E0],"parents":[2147483647,0,0,1,1,3,3,6,6,7,7,9,9],"right_children":[2,4,-1,6,-1,-1,8,10,-1,12,-1,-1,-1],"split_conditions":[2.0615528E0,2.0615528E0,1.7151368E-1,1.2747549E0,8.530273E-2,-1.4368694E-1,-2.0836034E-1,-2.6707703E-1,9.228515E-3,-2.74123E-1,-8.0126956E-2,-5.6559246E-2,1.739502E-4],"split_indices":[1,2,0,0,0,0,3,3,0,3,0,0,0],"split_type":[0,0,0,0,0,0,0,0,0,0,0,0,0],"sum_hessian":[2.1E1,1.7E1,4E0,1.3E1,4E0,5E0,8E0,7E0,1E0,5E0,2E0,2E0,3E0],"tree_param":{"num_deleted":"0","num_feature":"4","num_nodes":"13","size_leaf_vector":"1"}},{"base_weights":[2.618963E-2,-8.82704E-1,1.6464844E-1,-1.719866E0,8.189453E-2,-1.3769531E-1,-8.394097E-1,-9.8931885E-1,8.996583E-3,-5.4451495E-1,-7.745769E-2,-5.4671224E-2,1.6479492E-4],"categories":[],"categories_nodes":[],"categories_segments":[],"categories_sizes":[],"default_left":[0,0,0,0,0,0,0,0,0,0,0,0,0],"id":102,"left_children":[1,3,-1,5,-1,-1,7,9,-1,11,-1,-1,-1],"loss_changes":[6.822812E1,4.0799583E1,0E0,1.0434322E1,0E0,0E0,1.5532866E0,1.1485958E0,0E0,1.8077953E0,0E0,0E0,0E0],"parents":[2147483647,0,0,1,1,3,3,6,6,7,7,9,9],"right_children":[2,4,-1,6,-1,-1,8,10,-1,12,-1,-1,-1],"split_conditions":[2.0615528E0,2.0615528E0,1.6464844E-1,1.2747549E0,8.189453E-2,-1.3769531E-1,-2.0836034E-1,-2.6707703E-1,8.996583E-3,-2.74123E-1,-7.745769E-2,-5.4671224E-2,1.6479492E-4],"split_indices":[1,2,0,0,0,0,3,3,0,3,0,0,0],"split_type":[0,0,0,0,0,0,0,0,0,0,0,0,0],"sum_hessian":[2.1E1,1.7E1,4E0,1.3E1,4E0,5E0,8E0,7E0,1E0,5E0,2E0,2E0,3E0],"tree_param":{"num_deleted":"0","num_feature":"4","num_nodes":"13","size_leaf_vector":"1"}},{"base_weights":[2.4258701E-2,-8.4849715E-1,1.580664E-1,-1.6525182E0,7.862305E-2,-1.3195801E-1,-8.1114364E-1,-9.563904E-1,8.770752E-3,-5.264079E-1,-7.487793E-2,-5.284831E-2,1.5563965E-4],"categories":[],"categories_nodes":[],"categories_segments":[],"categories_sizes":[],"default_left":[0,0,0,0,0,0,0,0,0,0,0,0,0],"id":103,"left_children":[1,3,-1,5,-1,-1,7,9,-1,11,-1,-1,-1],"loss_changes":[6.2916084E1,3.7635536E1,0E0,9.481155E0,0E0,0E0,1.4574151E0,1.073216E0,0E0,1.6889396E0,0E0,0E0,0E0],"parents":[2147483647,0,0,1,1,3,3,6,6,7,7,9,9],"right_children":[2,4,-1,6,-1,-1,8,10,-1,12,