{"learner":{"attributes":{"scikit_learn":"{\"_estimator_type\": \"regressor\"}"},"feature_names":[],"feature_types":[],"gradient_booster":{"model":{"cats":{"enc":[],"feature_segments":[],"sorted_idx":[]},"gbtree_model_param":{"num_parallel_tree":"1","num_trees":"300"},"iteration_indptr":[0,1,2,3,4,5,6,7,8,9,10,11,12,13,14,15,16,17,18,19,20,21,22,23,24,25,26,27,28,29,30,31,32,33,34,35,36,37,38,39,40,41,42,43,44,45,46,47,48,49,50,51,52,53,54,55,56,57,58,59,60,61,62,63,64,65,66,67,68,69,70,71,72,73,74,75,76,77,78,79,80,81,82,83,84,85,86,87,88,89,90,91,92,93,94,95,96,97,98,99,100,101,102,103,104,105,106,107,108,109,110,111,112,113,114,115,116,117,118,119,120,121,122,123,124,125,126,127,128,129,130,131,132,133,134,135,136,137,138,139,140,141,142,143,144,145,146,147,148,149,150,151,152,153,154,155,156,157,158,159,160,161,162,163,164,165,166,167,168,169,170,171,172,173,174,175,176,177,178,179,180,181,182,183,184,185,186,187,188,189,190,191,192,193,194,195,196,197,198,199,200,201,202,203,204,205,206,207,208,209,210,211,212,213,214,215,216,217,218,219,220,221,222,223,224,225,226,227,228,229,230,231,232,233,234,235,236,237,238,239,240,241,242,243,244,245,246,247,248,249,250,251,252,253,254,255,256,257,258,259,260,261,262,263,264,265,266,267,268,269,270,271,272,273,274,275,276,277,278,279,280,281,282,283,284,285,286,287,288,289,290,291,292,293,294,295,296,297,298,299,300],"tree_info":[0,0,0,0,0,0,0,0,0,0,0,0,0,0,0,0,0,0,0,0,0,0,0,0,0,0,0,0,0,0,0,0,0,0,0,0,0,0,0,0,0,0,0,0,0,0,0,0,0,0,0,0,0,0,0,0,0,0,0,0,0,0,0,0,0,0,0,0,0,0,0,0,0,0,0,0,0,0,0,0,0,0,0,0,0,0,0,0,0,0,0,0,0,0,0,0,0,0,0,0,0,0,0,0,0,0,0,0,0,0,0,0,0,0,0,0,0,0,0,0,0,0,0,0,0,0,0,0,0,0,0,0,0,0,0,0,0,0,0,0,0,0,0,0,0,0,0,0,0,0,0,0,0,0,0,0,0,0,0,0,0,0,0,0,0,0,0,0,0,0,0,0,0,0,0,0,0,0,0,0,0,0,0,0,0,0,0,0,0,0,0,0,0,0,0,0,0,0,0,0,0,0,0,0,0,0,0,0,0,0,0,0,0,0,0,0,0,0,0,0,0,0,0,0,0,0,0,0,0,0,0,0,0,0,0,0,0,0,0,0,0,0,0,0,0,0,0,0,0,0,0,0,0,0,0,0,0,0,0,0,0,0,0,0,0,0,0,0,0,0,0,0,0,0,0,0,0,0,0,0,0,0,0,0,0,0,0,0,0,0,0,0,0,0,0,0,0,0,0,0],"trees":[{"base_weights":[-1.0102371E-4,-5.1242336E1,8.418364E0,-6.500005E0,4.28571E0],"categories":[],"categories_nodes":[],"categories_segments":[],"categories_sizes":[],"default_left":[0,0,0,0,0],"id":0,"left_children":[1,3,-1,-1,-1],"loss_changes":[2.5882561E5,2.5922981E5,0E0,0E0,0E0],"parents":[2147483647,0,0,1,1],"right_children":[2,4,-1,-1,-1],"split_conditions":[1.9148542E0,1.5811388E0,8.418364E0,-6.500005E0,4.28571E0],"split_indices":[0,1,0,0,0],"split_type":[0,0,0,0,0],"sum_hessian":[2.8E1,2.2E1,6E0,1.4E1,8E0],"tree_param":{"num_deleted":"0","num_feature":"3","num_nodes":"5","size_leaf_vector":"1"}},{"base_weights":[2.1383351E-1,-4.8776474E1,8.057572E0,-6.196672E0,4.095237E0],"categories":[],"categories_nodes":[],"categories_segments":[],"categories_sizes":[],"default_left":[0,0,0,0,0],"id":1,"left_children":[1,3,-1,-1,-1],"loss_changes":[2.3650748E5,2.360476E5,0E0,0E0,0E0],"parents":[2147483647,0,0,1,1],"right_children":[2,4,-1,-1,-1],"split_conditions":[1.9148542E0,1.5811388E0,8.057572E0,-6.196672E0,4.095237E0],"split_indices":[0,1,0,0,0],"split_type":[0,0,0,0,0],"sum_hessian":[2.8E1,2.2E1,6E0,1.4E1,8E0],"tree_param":{"num_deleted":"0","num_feature":"3","num_nodes":"5","size_leaf_vector":"1"}},{"base_weights":[4.0857354E-1,-4.6428944E1,7.7122455E0,-5.907489E0,3.913227E0],"categories":[],"categories_nodes":[],"categories_segments":[],"categories_sizes":[],"default_left":[0,0,0,0,0],"id":2,"left_children":[1,3,-1,-1,-1],"loss_changes":[2.1611548E5,2.1493869E5,0E0,0E0,0E0],"parents":[2147483647,0,0,1,1],"right_children":[2,4,-1,-1,-1],"split_conditions":[1.9148542E0,1.5811388E0,7.7122455E0,-5.907489E0,3.913227E0],"split_indices":[0,1,0,0,0],"split_type":[0,0,0,0,0],"sum_hessian":[2.8E1,2.2E1,6E0,1.4E1,8E0],"tree_param":{"num_deleted":"0","num_feature":"3","num_nodes":"5","size_leaf_vector":"1"}},{"base_weights":[5.852977E-1,-4.4194252E1,7.381725E0,-5.631807E0,3.7393014E0],"categories":[],"categories_nodes":[],"categories_segments":[],"categories_sizes":[],"default_left":[0,0,0,0,0],"id":3,"left_children":[1,3,-1,-1,-1],"loss_changes":[1.9748369E5,1.95718E5,0E0,0E0,0E0],"parents":[2147483647,0,0,1,1],"right_children":[2,4,-1,-1,-1],"split_conditions":[1.9148542E0,1.5811388E0,7.381725E0,-5.631807E0,3.7393014E0],"split_indices":[0,1,0,0,0],"split_type":[0,0,0,0,0],"sum_hessian":[2.8E1,2.2E1,6E0,1.4E1,8E0],"tree_param":{"num_deleted":"0","num_feature":"3","num_nodes":"5","size_leaf_vector":"1"}},{"base_weights":[7.4531925E-1,-4.2066788E1,7.0653605E0,-5.3689876E0,3.5731122E0],"categories":[],"categories_nodes":[],"categories_segments":[],"categories_sizes":[],"default_left":[0,0,0,0,0],"id":4,"left_children":[1,3,-1,-1,-1],"loss_changes":[1.8045911E5,1.782167E5,0E0,0E0,0E0],"parents":[2147483647,0,0,1,1],"right_children":[2,4,-1,-1,-1],"split_conditions":[1.9148542E0,1.5811388E0,7.0653605E0,-5.3689876E0,3.5731122E0],"split_indices":[0,1,0,0,0],"split_type":[0,0,0,0,0],"sum_hessian":[2.8E1,2.2E1,6E0,1.4E1,8E0],"tree_param":{"num_deleted":"0","num_feature":"3","num_nodes":"5","size_leaf_vector":"1"}},{"base_weights":[8.897326E-1,-4.0041546E1,6.7625556E0,-5.118439E0,3.4143121E0],"categories":[],"categories_nodes":[],"categories_segments":[],"categories_sizes":[],"default_left":[0,0,0,0,0],"id":5,"left_children":[1,3,-1,-1,-1],"loss_changes":[1.6490358E5,1.6228112E5,0E0,0E0,0E0],"parents":[2147483647,0,0,1,1],"right_children":[2,4,-1,-1,-1],"split_conditions":[1.9148542E0,1.5811388E0,6.7625556E0,-5.118439E0,3.4143121E0],"split_indices":[0,1,0,0,0],"split_type":[0,0,0,0,0],"sum_hessian":[2.8E1,2.2E1,6E0,1.4E1,8E0],"tree_param":{"num_deleted":"0","num_feature":"3","num_nodes":"5","size_leaf_vector":"1"}},{"base_weights":[1.0196828E0,-3.811358E1,6.4727364E0,-4.87958E0,3.2625654E0],"categories":[],"categories_nodes":[],"categories_segments":[],"categories_sizes":[],"default_left":[0,0,0,0,0],"id":6,"left_children":[1,3,-1,-1,-1],"loss_changes":[1.5069036E5,1.4777058E5,0E0,0E0,0E0],"parents":[2147483647,0,0,1,1],"right_children":[2,4,-1,-1,-1],"split_conditions":[1.9148542E0,1.5811388E0,6.4727364E0,-4.87958E0,3.2625654E0],"split_indices":[0,1,0,0,0],"split_type":[0,0,0,0,0],"sum_hessian":[2.8E1,2.2E1,6E0,1.4E1,8E0],"tree_param":{"num_deleted":"0","num_feature":"3","num_nodes":"5","size_leaf_vector":"1"}},{"base_weights":[1.1362137E0,-3.627813E1,6.195337E0,-4.6518636E0,3.1175673E0],"categories":[],"categories_nodes":[],"categories_segments":[],"categories_sizes":[],"default_left":[0,0,0,0,0],"id":7,"left_children":[1,3,-1,-1,-1],"loss_changes":[1.377031E5,1.3455786E5,0E0,0E0,0E0],"parents":[2147483647,0,0,1,1],"right_children":[2,4,-1,-1,-1],"split_conditions":[1.9148542E0,1.5811388E0,6.195337E0,-4.6518636E0,3.1175673E0],"split_indices":[0,1,0,0,0],"split_type":[0,0,0,0,0],"sum_hessian":[2.8E1,2.2E1,6E0,1.4E1,8E0],"tree_param":{"num_deleted":"0","num_feature":"3","num_nodes":"5","size_leaf_vector":"1"}},{"base_weights":[1.2400997E0,-3.4530975E1,5.929824E0,-4.4347773E0,2.979004E0],"categories":[],"categories_nodes":[],"categories_segments":[],"categories_sizes":[],"default_left":[0,0,0,0,0],"id":8,"left_children":[1,3,-1,-1,-1],"loss_changes":[1.2583619E5,1.2252664E5,0E0,0E0,0E0],"parents":[2147483647,0,0,1,1],"right_children":[2,4,-1,-1,-1],"split_conditions":[1.9148542E0,1.5811388E0,5.929824E0,-4.4347773E0,2.979004E0],"split_indices":[0,1,0,0,0],"split_type":[0,0,0,0,0],"sum_hessian":[2.8E1,2.2E1,6E0,1.4E1,8E0],"tree_param":{"num_deleted":"0","num_feature":"3","num_nodes":"5","size_leaf_vector":"1"}},{"base_weights":[1.332368E0,-3.28677E1,5.6756835E0,-4.227819E0,2.8466039E0],"categories":[],"categories_nodes":[],"categories_segments":[],"categories_sizes":[],"default_left":[0,0,0,0,0],"id":9,"left_children":[1,3,-1,-1,-1],"loss_changes":[1.1499256E5,1.1157151E5,0E0,0E0,0E0],"parents":[2147483647,0,0,1,1],"right_children":[2,4,-1,-1,-1],"split_conditions":[1.9148542E0,1.5811388E0,5.6756835E0,-4.227819E0,2.8466039E0],"split_indices":[0,1,0,0,0],"split_type":[0,0,0,0,0],"sum_hessian":[2.8E1,2.2E1,6E0,1.4E1,8E0],"tree_param":{"num_deleted":"0","num_feature":"3","num_nodes":"5","size_leaf_vector":"1"}},{"base_weights":[1.4137763E0,-3.1284412E1,5.432436E0,-4.030523E0,2.7200847E0],"categories":[],"categories_nodes":[],"categories_segments":[],"categories_sizes":[],"default_left":[0,0,0,0,0],"id":10,"left_children":[1,3,-1,-1,-1],"loss_changes":[1.0508427E5,1.01596125E5,0E0,0E0,0E0],"parents":[2147483647,0,0,1,1],"right_children":[2,4,-1,-1,-1],"split_conditions":[1.9148542E0,1.5811388E0,5.432436E0,-4.030523E0,2.7200847E0],"split_indices":[0,1,0,0,0],"split_type":[0,0,0,0,0],"sum_hessian":[2.8E1,2.2E1,6E0,1.4E1,8E0],"tree_param":{"num_deleted":"0","num_feature":"3","num_nodes":"5","size_leaf_vector":"1"}},{"base_weights":[1.4852674E0,-2.9777132E1,5.19962E0,-3.8424318E0,2.5991971E0],"categories":[],"categories_nodes":[],"categories_segments":[],"categories_sizes":[],"default_left":[0,0,0,0,0],"id":11,"left_children":[1,3,-1,-1,-1],"loss_changes":[9.603054E4,9.251306E4,0E0,0E0,0E0],"parents":[2147483647,0,0,1,1],"right_children":[2,4,-1,-1,-1],"split_conditions":[1.9148542E0,1.5811388E0,5.19962E0,-3.8424318E0,2.5991971E0],"split_indices":[0,1,0,0,0],"split_type":[0,0,0,0,0],"sum_hessian":[2.8E1,2.2E1,6E0,1.4E1,8E0],"tree_param":{"num_deleted":"0","num_feature":"3","num_nodes":"5","size_leaf_vector":"1"}},{"base_weights":[1.5474812E0,-2.8342243E1,4.9767756E0,-3.6631138E0,2.4836805E0],"categories":[],"categories_nodes":[],"categories_segments":[],"categories_sizes":[],"default_left":[0,0,0,0,0],"id":12,"left_children":[1,3,-1,-1,-1],"loss_changes":[8.775727E4,8.424212E4,0E0,0E0,0E0],"parents":[2147483647,0,0,1,1],"right_children":[2,4,-1,-1,-1],"split_conditions":[1.9148542E0,1.5811388E0,4.9767756E0,-3.6631138E0,2.4836805E0],"split_indices":[0,1,0,0,0],"split_type":[0,0,0,0,0],"sum_hessian":[2.8E1,2.2E1,6E0,1.4E1,8E0],"tree_param":{"num_deleted":"0","num_feature":"3","num_nodes":"5","size_leaf_vector":"1"}},{"base_weights":[1.6010406E0,-2.6976414E1,4.7634835E0,-3.4921696E0,2.3732965E0],"categories":[],"categories_nodes":[],"categories_segments":[],"categories_sizes":[],"default_left":[0,0,0,0,0],"id":13,"left_children":[1,3,-1,-1,-1],"loss_changes":[8.0197555E4,7.671091E4,0E0,0E0,0E0],"parents":[2147483647,0,0,1,1],"right_children":[2,4,-1,-1,-1],"split_conditions":[1.9148542E0,1.5811388E0,4.7634835E0,-3.4921696E0,2.3732965E0],"split_indices":[0,1,0,0,0],"split_type":[0,0,0,0,0],"sum_hessian":[2.8E1,2.2E1,6E0,1.4E1,8E0],"tree_param":{"num_deleted":"0","num_feature":"3","num_nodes":"5","size_leaf_vector":"1"}},{"base_weights":[1.6466864E0,-2.5676228E1,4.5593367E0,-3.3292007E0,2.267817E0],"categories":[],"categories_nodes":[],"categories_segments":[],"categories_sizes":[],"default_left":[0,0,0,0,0],"id":14,"left_children":[1,3,-1,-1,-1],"loss_changes":[7.328969E4,6.985306E4,0E0,0E0,0E0],"parents":[2147483647,0,0,1,1],"right_children":[2,4,-1,-1,-1],"split_conditions":[1.9148542E0,1.5811388E0,4.5593367E0,-3.3292007E0,2.267817E0],"split_indices":[0,1,0,0,0],"split_type":[0,0,0,0,0],"sum_hessian":[2.8E1,2.2E1,6E0,1.4E1,8E0],"tree_param":{"num_deleted":"0","num_feature":"3","num_nodes":"5","size_leaf_vector":"1"}},{"base_weights":[1.6849239E0,-2.4438625E1,4.363937E0,-3.173843E0,2.1670249E0],"categories":[],"categories_nodes":[],"categories_segments":[],"categories_sizes":[],"default_left":[0,0,0,0,0],"id":15,"left_children":[1,3,-1,-1,-1],"loss_changes":[6.697739E4,6.3608582E4,0E0,0E0,0E0],"parents":[2147483647,0,0,1,1],"right_children":[2,4,-1,-1,-1],"split_conditions":[1.9148542E0,1.5811388E0,4.363937E0,-3.173843E0,2.1670249E0],"split_indices":[0,1,0,0,0],"split_type":[0,0,0,0,0],"sum_hessian":[2.8E1,2.2E1,6E0,1.4E1,8E0],"tree_param":{"num_deleted":"0","num_feature":"3","num_nodes":"5","size_leaf_vector":"1"}},{"base_weights":[1.7164265E0,-2.3260466E1,4.176908E0,-3.0257308E0,2.070714E0],"categories":[],"categories_nodes":[],"categories_segments":[],"categories_sizes":[],"default_left":[0,0,0,0,0],"id":16,"left_children":[1,3,-1,-1,-1],"loss_changes":[6.1209062E4,5.792243E4,0E0,0E0,0E0],"parents":[2147483647,0,0,1,1],"right_children":[2,4,-1,-1,-1],"split_conditions":[1.9148542E0,1.5811388E0,4.176908E0,-3.0257308E0,2.070714E0],"split_indices":[0,1,0,0,0],"split_type":[0,0,0,0,0],"sum_hessian":[2.8E1,2.2E1,6E0,1.4E1,8E0],"tree_param":{"num_deleted":"0","num_feature":"3","num_nodes":"5","size_leaf_vector":"1"}},{"base_weights":[1.741615E0,-2.2139053E1,3.9978936E0,-2.8845346E0,1.9786783E0],"categories":[],"categories_nodes":[],"categories_segments":[],"categories_sizes":[],"default_left":[0,0,0,0,0],"id":17,"left_children":[1,3,-1,-1,-1],"loss_changes":[5.5938027E4,5.2744676E4,0E0,0E0,0E0],"parents":[2147483647,0,0,1,1],"right_children":[2,4,-1,-1,-1],"split_conditions":[1.9148542E0,1.5811388E0,3.9978936E0,-2.8845346E0,1.9786783E0],"split_indices":[0,1,0,0,0],"split_type":[0,0,0,0,0],"sum_hessian":[2.8E1,2.2E1,6E0,1.4E1,8E0],"tree_param":{"num_deleted":"0","num_feature":"3","num_nodes":"5","size_leaf_vector":"1"}},{"base_weights":[1.7611463E0,-2.1071522E1,3.826559E0,-2.7499235E0,1.8907336E0],"categories":[],"categories_nodes":[],"categories_segments":[],"categories_sizes":[],"default_left":[0,0,0,0,0],"id":18,"left_children":[1,3,-1,-1,-1],"loss_changes":[5.112141E4,4.8029812E4,0E0,0E0,0E0],"parents":[2147483647,0,0,1,1],"right_children":[2,4,-1,-1,-1],"split_conditions":[1.9148542E0,1.5811388E0,3.826559E0,-2.7499235E0,1.8907336E0],"split_indices":[0,1,0,0,0],"split_type":[0,0,0,0,0],"sum_hessian":[2.8E1,2.2E1,6E0,1.4E1,8E0],"tree_param":{"num_deleted":"0","num_feature":"3","num_nodes":"5","size_leaf_vector":"1"}},{"base_weights":[1.775458E0,-2.0055218E1,3.6625593E0,-2.6215904E0,1.8067057E0],"categories":[],"categories_nodes":[],"categories_segments":[],"categories_sizes":[],"default_left":[0,0,0,0,0],"id":19,"left_children":[1,3,-1,-1,-1],"loss_changes":[4.671961E4,4.3736605E4,0E0,0E0,0E0],"parents":[2147483647,0,0,1,1],"right_children":[2,4,-1,-1,-1],"split_conditions":[1.9148542E0,1.5811388E0,3.6625593E0,-2.6215904E0,1.8067057E0],"split_indices":[0,1,0,0,0],"split_type":[0,0,0,0,0],"sum_hessian":[2.8E1,2.2E1,6E0,1.4E1,8E0],"tree_param":{"num_deleted":"0","num_feature":"3","num_nodes":"5","size_leaf_vector":"1"}},{"base_weights":[1.7848868E0,-1.908787E1,3.505591E0,-2.4992497E0,1.7264107E0],"categories":[],"categories_nodes":[],"categories_segments":[],"categories_sizes":[],"default_left":[0,0,0,0,0],"id":20,"left_children":[1,3,-1,-1,-1],"loss_changes":[4.2697254E4,3.9827293E4,0E0,0E0,0E0],"parents":[2147483647,0,0,1,1],"right_children":[2,4,-1,-1,-1],"split_conditions":[1.9148542E0,1.5811388E0,3.505591E0,-2.4992497E0,1.7264107E0],"split_indices":[0,1,0,0,0],"split_type":[0,0,0,0,0],"sum_hessian":[2.8E1,2.2E1,6E0,1.4E1,8E0],"tree_param":{"num_deleted":"0","num_feature":"3","num_nodes":"5","size_leaf_vector":"1"}},{"base_weights":[1.7899044E0,-1.8167034E1,3.3553503E0,-4.7652344E1,1.6496853E0,-3.113672E0,-3.6674362E1,8.664551E-1,-2.1903808E0],"categories":[],"categories_nodes":[],"categories_segments":[],"categories_sizes":[],"default_left":[0,0,0,0,0,0,0,0,0],"id":21,"left_children":[1,3,-1,5,-1,-1,7,-1,-1],"loss_changes":[3.9021484E4,3.6267504E4,0E0,1.238125E2,0E0,0E0,4.996573E3,0E0,0E0],"parents":[2147483647,0,0,1,1,3,3,6,6],"right_children":[2,4,-1,6,-1,-1,8,-1,-1],"split_conditions":[1.9148542E0,1.5811388E0,3.3553503E0,-5.0078595E-1,1.6496853E0,-3.113672E0,-4.9162722E-1,8.664551E-1,-2.1903808E0],"split_indices":[0,1,0,2,0,0,2,0,0],"split_type":[0,0,0,0,0,0,0,0,0],"sum_hessian":[2.8E1,2.2E1,6E0,1.4E1,8E0,4E0,1E1,1E0,9E0],"tree_param":{"num_deleted":"0","num_feature":"3","num_nodes":"9","size_leaf_vector":"1"}},{"base_weights":[1.7199875E0,-1.737985E1,3.2115445E0,-4.556551E1,1.5763673E0,-2.9891212E0,-3.496096E1,8.4479374E-1,-2.0918117E0],"categories":[],"categories_nodes":[],"categories_segments":[],"categories_sizes":[],"default_left":[0,0,0,0,0,0,0,0,0],"id":22,"left_children":[1,3,-1,5,-1,-1,7,-1,-1],"loss_changes":[3.5740816E4,3.3141637E4,0E0,1.7140625E2,0E0,0E0,4.6286865E3,0E0,0E0],"parents":[2147483647,0,0,1,1,3,3,6,6],"right_children":[2,4,-1,6,-1,-1,8,-1,-1],"split_conditions":[1.9148542E0,1.5811388E0,3.2115445E0,-5.0078595E-1,1.5763673E0,-2.9891212E0,-4.9162722E-1,8.4479374E-1,-2.0918117E0],"split_indices":[0,1,0,2,0,0,2,0,0],"split_type":[0,0,0,0,0,0,0,0,0],"sum_hessian":[2.8E1,2.2E1,6E0,1.4E1,8E0,4E0,1E1,1E0,9E0],"tree_param":{"num_deleted":"0","num_feature":"3","num_nodes":"9","size_leaf_vector":"1"}},{"base_weights":[1.6530088E0,-1.662654E1,3.073912E0,-4.356968E1,1.5063043E0,-2.8695607E0,-3.3326283E1,8.236756E-1,-1.9976807E0],"categories":[],"categories_nodes":[],"categories_segments":[],"categories_sizes":[],"default_left":[0,0,0,0,0,0,0,0,0],"id":23,"left_children":[1,3,-1,5,-1,-1,7,-1,-1],"loss_changes":[3.2735936E4,3.0284818E4,0E0,2.1105469E2,0E0,0E0,4.2886133E3,0E0,0E0],"parents":[2147483647,0,0,1,1,3,3,6,6],"right_children":[2,4,-1,6,-1,-1,8,-1,-1],"split_conditions":[1.9148542E0,1.5811388E0,3.073912E0,-5.0078595E-1,1.5063043E0,-2.8695607E0,-4.9162722E-1,8.236756E-1,-1.9976807E0],"split_indices":[0,1,0,2,0,0,2,0,0],"split_type":[0,0,0,0,0,0,0,0,0],"sum_hessian":[2.8E1,2.2E1,6E0,1.4E1,8E0,4E0,1E1,1E0,9E0],"tree_param":{"num_deleted":"0","num_feature":"3","num_nodes":"9","size_leaf_vector":"1"}},{"base_weights":[1.5888083E0,-1.5905581E1,2.9421701E0,-4.1660824E1,1.4393555E0,-2.7547755E0,-3.1766802E1,8.030823E-1,-1.9077905E0],"categories":[],"categories_nodes":[],"categories_segments":[],"categories_sizes":[],"default_left":[0,0,0,0,0,0,0,0,0],"id":24,"left_children":[1,3,-1,5,-1,-1,7,-1,-1],"loss_changes":[2.998333E4,2.7673928E4,0E0,2.4363672E2,0E0,0E0,3.9741865E3,0E0,0E0],"parents":[2147483647,0,0,1,1,3,3,6,6],"right_children":[2,4,-1,6,-1,-1,8,-1,-1],"split_conditions":[1.9148542E0,1.5811388E0,2.9421701E0,-5.0078595E-1,1.4393555E0,-2.7547755E0,-4.9162722E-1,8.030823E-1,-1.9077905E0],"split_indices":[0,1,0,2,0,0,2,0,0],"split_type":[0,0,0,0,0,0,0,0,0],"sum_hessian":[2.8E1,2.2E1,6E0,1.4E1,8E0,4E0,1E1,1E0,9E0],"tree_param":{"num_deleted":"0","num_feature":"3","num_nodes":"9","size_leaf_vector":"1"}},{"base_weights":[1.5273438E0,-1.5215566E1,2.8160784E0,-3.983509E1,1.3753798E0,-2.6445801E0,-3.0278942E1,7.830078E-1,-1.8219433E0],"categories":[],"categories_nodes":[],"categories_segments":[],"categories_sizes":[],"default_left":[0,0,0,0,0,0,0,0,0],"id":25,"left_children":[1,3,-1,5,-1,-1,7,-1,-1],"loss_changes":[2.746199E4,2.5287719E4,0E0,2.7004688E2,0E0,0E0,3.6834355E3,0E0,0E0],"parents":[2147483647,0,0,1,1,3,3,6,6],"right_children":[2,4,-1,6,-1,-1,8,-1,-1],"split_conditions":[1.9148542E0,1.5811388E0,2.8160784E0,-5.0078595E-1,1.3753798E0,-2.6445801E0,-4.9162722E-1,7.830078E-1,-1.8219433E0],"split_indices":[0,1,0,2,0,0,2,0,0],"split_type":[0,0,0,0,0,0,0,0,0],"sum_hessian":[2.8E1,2.2E1,6E0,1.4E1,8E0,4E0,1E1,1E0,9E0],"tree_param":{"num_deleted":"0","num_feature":"3","num_nodes":"9","size_leaf_vector":"1"}},{"base_weights":[1.4684638E0,-1.4555155E1,2.6953857E0,-3.8088867E1,1.314247E0,-2.538799E0,-2.8859375E1,7.634339E-1,-1.7399524E0],"categories":[],"categories_nodes":[],"categories_segments":[],"categories_sizes":[],"default_left":[0,0,0,0,0,0,0,0,0],"id":26,"left_children":[1,3,-1,5,-1,-1,7,-1,-1],"loss_changes":[2.5152365E4,2.3106902E4,0E0,2.910703E2,0E0,0E0,3.414503E3,0E0,0E0],"parents":[2147483647,0,0,1,1,3,3,6,6],"right_children":[2,4,-1,6,-1,-1,8,-1,-1],"split_conditions":[1.9148542E0,1.5811388E0,2.6953857E0,-5.0078595E-1,1.314247E0,-2.538799E0,-4.9162722E-1,7.634339E-1,-1.7399524E0],"split_indices":[0,1,0,2,0,0,2,0,0],"split_type":[0,0,0,0,0,0,0,0,0],"sum_hessian":[2.8E1,2.2E1,6E0,1.4E1,8E0,4E0,1E1,1E0,9E0],"tree_param":{"num_deleted":"0","num_feature":"3","num_nodes":"9","size_leaf_vector":"1"}},{"base_weights":[1.4121262E0,-1.3923064E1,2.5798724E0,-3.641875E1,1.2558377E0,-2.2681642E0,-2.5415365E1,1.1601928E0,-1.7196625E0],"categories":[],"categories_nodes":[],"categories_segments":[],"categories_sizes":[],"default_left":[0,0,0,0,0,0,0,0,0],"id":27,"left_children":[1,3,-1,5,-1,-1,7,-1,-1],"loss_changes":[2.3036838E4,2.1113953E4,0E0,3.2337695E2,0E0,0E0,4.726536E3,0E0,0E0],"parents":[2147483647,0,0,1,1,3,3,6,6],"right_children":[2,4,-1,6,-1,-1,8,-1,-1],"split_conditions":[1.9148542E0,1.5811388E0,2.5798724E0,-4.6415105E-1,1.2558377E0,-2.2681642E0,-4.595717E-1,1.1601928E0,-1.7196625E0],"split_indices":[0,1,0,2,0,0,2,0,0],"split_type":[0,0,0,0,0,0,0,0,0],"sum_hessian":[2.8E1,2.2E1,6E0,1.4E1,8E0,6E0,8E0,1E0,7E0],"tree_param":{"num_deleted":"0","num_feature":"3","num_nodes":"9","size_leaf_vector":"1"}},{"base_weights":[1.3762796E0,-1.3295261E1,2.4693081E0,-3.4786327E1,1.2000217E0,-2.3465235E0,-2.610387E1,8.010498E-1,-3.1918457E1,-2.5331056E0,-2.4206705E1,1.131189E0,-1.6444244E0],"categories":[],"categories_nodes":[],"categories_segments":[],"categories_sizes":[],"default_left":[0,0,0,0,0,0,0,0,0,0,0,0,0],"id":28,"left_children":[1,3,-1,5,-1,-1,7,-1,9,-1,11,-1,-1],"loss_changes":[2.1083592E4,1.9269945E4,0E0,3.5654688E2,0E0,0E0,3.205691E3,0E0,2.1910156E2,0E0,4.403211E3,0E0,0E0],"parents":[2147483647,0,0,1,1,3,3,6,6,8,8,10,10],"right_children":[2,4,-1,6,-1,-1,8,-1,10,-1,12,-1,-1],"split_conditions":[1.9148542E0,1.5811388E0,2.4693081E0,-5.0078595E-1,1.2000217E0,-2.3465235E0,-4.9162722E-1,8.010498E-1,-4.6415105E-1,-2.5331056E0,-4.595717E-1,1.131189E0,-1.6444244E0],"split_indices":[0,1,0,2,0,0,2,0,2,0,2,0,0],"split_type":[0,0,0,0,0,0,0,0,0,0,0,0,0],"sum_hessian":[2.8E1,2.2E1,6E0,1.4E1,8E0,4E0,1E1,1E0,9E0,1E0,8E0,1E0,7E0],"tree_param":{"num_deleted":"0","num_feature":"3","num_nodes":"13","size_leaf_vector":"1"}},{"base_weights":[1.2757106E0,-1.2777917E1,2.3634837E0,-3.3353092E1,1.1466906E0,-2.0915477E0,-2.3053305E1,1.1029114E0,-1.5724763E0],"categories":[],"categories_nodes":[],"categories_segments":[],"categories_sizes":[],"default_left":[0,0,0,0,0,0,0,0,0],"id":29,"left_children":[1,3,-1,5,-1,-1,7,-1,-1],"loss_changes":[1.9349086E4,1.766474E4,0E0,3.4546094E2,0E0,0E0,4.1026177E3,0E0,0E0],"parents":[2147483647,0,0,1,1,3,3,6,6],"right_children":[2,4,-1,6,-1,-1,8,-1,-1],"split_conditions":[1.9148542E0,1.5811388E0,2.3634837E0,-4.6415105E-1,1.1466906E0,-2.0915477E0,-4.595717E-1,1.1029114E0,-1.5724763E0],"split_indices":[0,1,0,2,0,0,2,0,0],"split_type":[0,0,0,0,0,0,0,0,0],"sum_hessian":[2.8E1,2.2E1,6E0,1.4E1,8E0,6E0,8E0,1E0,7E0],"tree_param":{"num_deleted":"0","num_feature":"3","num_nodes":"9","size_leaf_vector":"1"}},{"base_weights":[1.2446374E0,-1.2200524E1,2.2621896E0,-3.1856169E1,1.0957249E0,-2.169004E0,-2.3722013E1,8.33313E-1,-2.9427465E1,-2.4174867E0,-2.1952799E1,1.0753357E0,-1.5036789E0],"categories":[],"categories_nodes":[],"categories_segments":[],"categories_sizes":[],"default_left":[0,0,0,0,0,0,0,0,0,0,0,0,0],"id":30,"left_children":[1,3,-1,5,-1,-1,7,-1,9,-1,11,-1,-1],"loss_changes":[1.7707695E4,1.6120825E4,0E0,3.769961E2,0E0,0E0,3.0252139E3,0E0,3.5296387E2,0E0,3.8231099E3,0E0,0E0],"parents":[2147483647,0,0,1,1,3,3,6,6,8,8,10,10],"right_children":[2,4,-1,6,-1,-1,8,-1,10,-1,12,-1,-1],"split_conditions":[1.9148542E0,1.5811388E0,2.2621896E0,-5.0078595E-1,1.0957249E0,-2.169004E0,-4.9162722E-1,8.33313E-1,-4.6415105E-1,-2.4174867E0,-4.595717E-1,1.0753357E0,-1.5036789E0],"split_indices":[0,1,0,2,0,0,2,0,2,0,2,0,0],"split_type":[0,0,0,0,0,0,0,0,0,0,0,0,0],"sum_hessian":[2.8E1,2.2E1,6E0,1.4E1,8E0,4E0,1E1,1E0,9E0,1E0,8E0,1E0,7E0],"tree_param":{"num_deleted":"0","num_feature":"3","num_nodes":"13","size_leaf_vector":"1"}},{"base_weights":[1.1539938E0,-1.1724673E1,2.165238E0,-3.0542154E1,1.047027E0,-2.082246E0,-2.2718884E1,8.124817E-1,-2.8240698E1,-2.3570497E0,-2.0902779E1,1.0484498E0,-1.4378937E0],"categories":[],"categories_nodes":[],"categories_segments":[],"categories_sizes":[],"default_left":[0,0,0,0,0,0,0,0,0,0,0,0,0],"id":31,"left_children":[1,3,-1,5,-1,-1,7,-1,9,-1,11,-1,-1],"loss_changes":[1.6250258E4,1.477714E4,0E0,3.567754E2,0E0,0E0,2.8258472E3,0E0,4.0151074E2,0E0,3.563185E3,0E0,0E0],"parents":[2147483647,0,0,1,1,3,3,6,6,8,8,10,10],"right_children":[2,4,-1,6,-1,-1,8,-1,10,-1,12,-1,-1],"split_conditions":[1.9148542E0,1.5811388E0,2.165238E0,-5.0078595E-1,1.047027E0,-2.082246E0,-4.9162722E-1,8.124817E-1,-4.6415105E-1,-2.3570497E0,-4.595717E-1,1.0484498E0,-1.4378937E0],"split_indices":[0,1,0,2,0,0,2,0,2,0,2,0,0],"split_type":[0,0,0,0,0,0,0,0,0,0,0,0,0],"sum_hessian":[2.8E1,2.2E1,6E0,1.4E1,8E0,4E0,1E1,1E0,9E0,1E0,8E0,1E0,7E0],"tree_param":{"num_deleted":"0","num_feature":"3","num_nodes":"13","size_leaf_vector":"1"}},{"base_weights":[1.0685614E0,-1.1267535E1,2.07244E0,-2.9282747E1,1.0004883E0,-1.8580984E0,-1.9900826E1,1.0222412E0,-2.7499634E1,-3.42854E1,-8.2855475E-1,-6.904623E-1,-2.3928468E0],"categories":[],"categories_nodes":[],"categories_segments":[],"categories_sizes":[],"default_left":[0,0,0,0,0,0,0,0,0,0,0,0,0],"id":32,"left_children":[1,3,-1,5,-1,-1,7,-1,9,11,-1,-1,-1],"loss_changes":[1.4912928E4,1.35456875E4,0E0,3.6928027E2,0E0,0E0,3.3214348E3,0E0,2.5121582E1,4.507036E2,0E0,0E0,0E0],"parents":[2147483647,0,0,1,1,3,3,6,6,8,8,9,9],"right_children":[2,4,-1,6,-1,-1,8,-1,10,12,-1,-1,-1],"split_conditions":[1.9148542E0,1.5811388E0,2.07244E0,-4.6415105E-1,1.0004883E0,-1.8580984E0,-4.595717E-1,1.0222412E0,-4.5041296E-1,-4.57282E-1,-8.2855475E-1,-6.904623E-1,-2.3928468E0],"split_indices":[0,1,0,2,0,0,2,0,2,2,0,0,0],"split_type":[0,0,0,0,0,0,0,0,0,0,0,0,0],"sum_hessian":[2.8E1,2.2E1,6E0,1.4E1,8E0,6E0,8E0,1E0,7E0,3E0,4E0,2E0,1E0],"tree_param":{"num_deleted":"0","num_feature":"3","num_nodes":"13","size_leaf_vector":"1"}},{"base_weights":[9.573848E-1,-1.086706E1,1.9836181E0,-2.8135092E1,9.560222E-1,-1.9246289E0,-2.0869408E1,8.3862305E-1,-2.631084E1,-2.2516725E0,-1.9226833E1,9.966858E-1,-1.3306808E0],"categories":[],"categories_nodes":[],"categories_segments":[],"categories_sizes":[],"default_left":[0,0,0,0,0,0,0,0,0,0,0,0,0],"id":33,"left_children":[1,3,-1,5,-1,-1,7,-1,9,-1,11,-1,-1],"loss_changes":[1.3706832E4,1.2447934E4,0E0,3.254961E2,0E0,0E0,2.6943804E3,0E0,4.6045947E2,0E0,3.1339429E3,0E0,0E0],"parents":[2147483647,0,0,1,1,3,3,6,6,8,8,10,10],"right_children":[2,4,-1,6,-1,-1,8,-1,10,-1,12,-1,-1],"split_conditions":[1.9148542E0,1.5811388E0,1.9836181E0,-5.0078595E-1,9.560222E-1,-1.9246289E0,-4.9162722E-1,8.3862305E-1,-4.6415105E-1,-2.2516725E0,-4.595717E-1,9.966858E-1,-1.3306808E0],"split_indices":[0,1,0,2,0,0,2,0,2,0,2,0,0],"split_type":[0,0,0,0,0,0,0,0,0,0,0,0,0],"sum_hessian":[2.8E1,2.2E1,6E0,1.4E1,8E0,4E0,1E1,1E0,9E0,1E0,8E0,1E0,7E0],"tree_param":{"num_deleted":"0","num_feature":"3","num_nodes":"13","size_leaf_vector":"1"}},{"base_weights":[8.8422686E-1,-1.0441831E1,1.898605E0,-2.6973177E1,9.135308E-1,-1.7133824E0,-1.8302681E1,9.7177124E-1,-2.5449371E1,-3.2344055E1,-7.421875E-1,-6.230957E-1,-2.299762E0],"categories":[],"categories_nodes":[],"categories_segments":[],"categories_sizes":[],"default_left":[0,0,0,0,0,0,0,0,0,0,0,0,0],"id":34,"left_children":[1,3,-1,5,-1,-1,7,-1,9,11,-1,-1,-1],"loss_changes":[1.2578221E4,1.1409891E4,0E0,3.2150977E2,0E0,0E0,2.9219426E3,0E0,1.0487256E2,5.124702E2,0E0,0E0,0E0],"parents":[2147483647,0,0,1,1,3,3,6,6,8,8,9,9],"right_children":[2,4,-1,6,-1,-1,8,-1,10,12,-1,-1,-1],"split_conditions":[1.9148542E0,1.5811388E0,1.898605E0,-4.6415105E-1,9.135308E-1,-1.7133824E0,-4.595717E-1,9.7177124E-1,-4.5041296E-1,-4.57282E-1,-7.421875E-1,-6.230957E-1,-2.299762E0],"split_indices":[0,1,0,2,0,0,2,0,2,2,0,0,0],"split_type":[0,0,0,0,0,0,0,0,0,0,0,0,0],"sum_hessian":[2.8E1,2.2E1,6E0,1.4E1,8E0,6E0,8E0,1E0,7E0,3E0,4E0,2E0,1E0],"tree_param":{"num_deleted":"0","num_feature":"3","num_nodes":"13","size_leaf_vector":"1"}},{"base_weights":[7.8500473E-1,-1.0071629E1,1.817233E0,-2.5918295E1,8.729275E-1,-1.7791113E0,-1.916939E1,8.6049193E-1,-2.4528296E1,-2.1525452E0,-1.7686794E1,9.4747925E-1,-1.231752E0],"categories":[],"categories_nodes":[],"categories_segments":[],"categories_sizes":[],"default_left":[0,0,0,0,0,0,0,0,0,0,0,0,0],"id":35,"left_children":[1,3,-1,5,-1,-1,7,-1,9,-1,11,-1,-1],"loss_changes":[1.1561734E4,1.0486512E4,0E0,2.962246E2,0E0,0E0,2.5666096E3,0E0,5.05792E2,0E0,2.7578506E3,0E0,0E0],"parents":[2147483647,0,0,1,1,3,3,6,6,8,8,10,10],"right_children":[2,4,-1,6,-1,-1,8,-1,10,-1,12,-1,-1],"split_conditions":[1.9148542E0,1.5811388E0,1.817233E0,-5.0078595E-1,8.729275E-1,-1.7791113E0,-4.9162722E-1,8.6049193E-1,-4.6415105E-1,-2.1525452E0,-4.595717E-1,9.4747925E-1,-1.231752E0],"split_indices":[0,1,0,2,0,0,2,0,2,0,2,0,0],"split_type":[0,0,0,0,0,0,0,0,0,0,0,0,0],"sum_hessian":[2.8E1,2.2E1,6E0,1.4E1,8E0,4E0,1E1,1E0,9E0,1E0,8E0,1E0,7E0],"tree_param":{"num_deleted":"0","num_feature":"3","num_nodes":"13","size_leaf_vector":"1"}},{"base_weights":[7.227741E-1,-9.676057E0,1.7393554E0,-2.4846127E1,8.3412546E-1,-1.7079493E0,-1.835427E1,8.3897704E-1,-2.3545605E1,-2.0987306E0,-1.6834093E1,9.237915E-1,-1.1778656E0],"categories":[],"categories_nodes":[],"categories_segments":[],"categories_sizes":[],"default_left":[0,0,0,0,0,0,0,0,0,0,0,0,0],"id":36,"left_children":[1,3,-1,5,-1,-1,7,-1,9,-1,11,-1,-1],"loss_changes":[1.0609251E4,9.611305E3,0E0,2.7990234E2,0E0,0E0,2.40139E3,0E0,5.3026025E2,0E0,2.5718079E3,0E0,0E0],"parents":[2147483647,0,0,1,1,3,3,6,6,8,8,10,10],"right_children":[2,4,-1,6,-1,-1,8,-1,10,-1,12,-1,-1],"split_conditions":[1.9148542E0,1.5811388E0,1.7393554E0,-5.0078595E-1,8.3412546E-1,-1.7079493E0,-4.9162722E-1,8.3897704E-1,-4.6415105E-1,-2.0987306E0,-4.595717E-1,9.237915E-1,-1.1778656E0],"split_indices":[0,1,0,2,0,0,2,0,2,0,2,0,0],"split_type":[0,0,0,0,0,0,0,0,0,0,0,0,0],"sum_hessian":[2.8E1,2.2E1,6E0,1.4E1,8E0,4E0,1E1,1E0,9E0,1E0,8E0,1E0,7E0],"tree_param":{"num_deleted":"0","num_feature":"3","num_nodes":"13","size_leaf_vector":"1"}},{"base_weights":[6.6430664E-1,-9.296058E0,1.6648159E0,-2.3818539E1,7.970486E-1,-1.5220947E0,-1.6020535E1,9.006958E-1,-2.252658E1,-2.965033E1,-6.161133E-1,-5.2200526E-1,-2.1820252E0],"categories":[],"categories_nodes":[],"categories_segments":[],"categories_sizes":[],"default_left":[0,0,0,0,0,0,0,0,0,0,0,0,0],"id":37,"left_children":[1,3,-1,5,-1,-1,7,-1,9,11,-1,-1,-1],"loss_changes":[9.735299E3,8.809289E3,0E0,2.870381E2,0E0,0E0,2.3986594E3,0E0,2.1618457E2,6.194065E2,0E0,0E0,0E0],"parents":[2147483647,0,0,1,1,3,3,6,6,8,8,9,9],"right_children":[2,4,-1,6,-1,-1,8,-1,10,12,-1,-1,-1],"split_conditions":[1.9148542E0,1.5811388E0,1.6648159E0,-4.6415105E-1,7.970486E-1,-1.5220947E0,-4.595717E-1,9.006958E-1,-4.5041296E-1,-4.57282E-1,-6.161133E-1,-5.2200526E-1,-2.1820252E0],"split_indices":[0,1,0,2,0,0,2,0,2,2,0,0,0],"split_type":[0,0,0,0,0,0,0,0,0,0,0,0,0],"sum_hessian":[2.8E1,2.2E1,6E0,1.4E1,8E0,6E0,8E0,1E0,7E0,3E0,4E0,2E0,1E0],"tree_param":{"num_deleted":"0","num_feature":"3","num_nodes":"13","size_leaf_vector":"1"}},{"base_weights":[5.8004445E-1,-8.968007E0,1.5934676E0,-2.2890398E1,7.616211E-1,-1.57875E0,-1.6861906E1,8.560547E-1,-2.1972315E1,-2.0082154E0,-1.5488281E1,8.7817997E-1,-1.0907608E0],"categories":[],"categories_nodes":[],"categories_segments":[],"categories_sizes":[],"default_left":[0,0,0,0,0,0,0,0,0,0,0,0,0],"id":38,"left_children":[1,3,-1,5,-1,-1,7,-1,9,-1,11,-1,-1],"loss_changes":[8.94961E3,8.0980156E3,0E0,2.5291162E2,0E0,0E0,2.2865276E3,0E0,5.5749854E2,0E0,2.2652078E3,0E0,0E0],"parents":[2147483647,0,0,1,1,3,3,6,6,8,8,10,10],"right_children":[2,4,-1,6,-1,-1,8,-1,10,-1,12,-1,-1],"split_conditions":[1.9148542E0,1.5811388E0,1.5934676E0,-5.0078595E-1,7.616211E-1,-1.57875E0,-4.9162722E-1,8.560547E-1,-4.6415105E-1,-2.0082154E0,-4.595717E-1,8.7817997E-1,-1.0907608E0],"split_indices":[0,1,0,2,0,0,2,0,2,0,2,0,0],"split_type":[0,0,0,0,0,0,0,0,0,0,0,0,0],"sum_hessian":[2.8E1,2.2E1,6E0,1.4E1,8E0,4E0,1E1,1E0,9E0,1E0,8E0,1E0,7E0],"tree_param":{"num_deleted":"0","num_feature":"3","num_nodes":"13","size_leaf_vector":"1"}},{"base_weights":[5.307533E-1,-8.614459E0,1.5251745E0,-2.1942041E1,7.2776693E-1,-1.4035262E0,-1.473744E1,8.562256E-1,-2.0860748E1,-2.8025696E1,-5.47832E-1,-4.6824548E-1,-2.1002014E0],"categories":[],"categories_nodes":[],"categories_segments":[],"categories_sizes":[],"default_left":[0,0,0,0,0,0,0,0,0,0,0,0,0],"id":39,"left_children":[1,3,-1,5,-1,-1,7,-1,9,11,-1,-1,-1],"loss_changes":[8.211875E3,7.4217134E3,0E0,2.4861133E2,0E0,0E0,2.1131348E3,0E0,2.6063208E2,6.500227E2,0E0,0E0,0E0],"parents":[2147483647,0,0,1,1,3,3,6,6,8,8,9,9],"right_children":[2,4,-1,6,-1,-1,8,-1,10,12,-1,-1,-1],"split_conditions":[1.9148542E0,1.5811388E0,1.5251745E0,-4.6415105E-1,7.2776693E-1,-1.4035262E0,-4.595717E-1,8.562256E-1,-4.5041296E-1,-4.57282E-1,-5.47832E-1,-4.6824548E-1,-2.1002014E0],"split_indices":[0,1,0,2,0,0,2,0,2,2,0,0,0],"split_type":[0,0,0,0,0,0,0,0,0,0,0,0,0],"sum_hessian":[2.8E1,2.2E1,6E0,1.4E1,8E0,6E0,8E0,1E0,7E0,3E0,4E0,2E0,1E0],"tree_param":{"num_deleted":"0","num_feature":"3","num_nodes":"13","size_leaf_vector":"1"}},{"base_weights":[4.5558324E-1,-8.311375E0,1.459811E0,-2.108916E1,6.9542104E-1,-1.8496583E0,-1.7310791E1,-7.433838E0,-2.0518188E1,-8.994873E-1,8.697449E-1,-1.9229187E0,-1.4251682E1,8.3482057E-1,-1.0103623E0],"categories":[],"categories_nodes":[],"categories_segments":[],"categories_sizes":[],"default_left":[0,0,0,0,0,0,0,0,0,0,0,0,0,0,0],"id":40,"left_children":[1,3,-1,5,-1,-1,7,9,11,-1,-1,-1,13,-1,-1],"loss_changes":[7.5497314E3,6.823471E3,0E0,2.6098682E2,0E0,0E0,2.9098145E2,1.623379E3,5.7612646E2,0E0,0E0,0E0,1.9962083E3,0E0,0E0],"parents":[2147483647,0,0,1,1,3,3,6,6,7,7,8,8,12,12],"right_children":[2,4,-1,6,-1,-1,8,10,12,-1,-1,-1,14,-1,-1],"split_conditions":[1.9148542E0,1.5811388E0,1.459811E0,-5.191034E-1,6.9542104E-1,-1.8496583E0,-4.9162722E-1,-5.0078595E-1,-4.6415105E-1,-8.994873E-1,8.697449E-1,-1.9229187E0,-4.595717E-1,8.3482057E-1,-1.0103623E0],"split_indices":[0,1,0,2,0,0,2,2,2,0,0,0,2,0,0],"split_type":[0,0,0,0,0,0,0,0,0,0,0,0,0,0,0],"sum_hessian":[2.8E1,2.2E1,6E0,1.4E1,8E0,1E0,1.3E1,4E0,9E0,3E0,1E0,1E0,8E0,1E0,7E0],"tree_param":{"num_deleted":"0","num_feature":"3","num_nodes":"15","size_leaf_vector":"1"}},{"base_weights":[3.6997408E-1,-8.038521E0,1.3972517E0,-2.0299952E1,6.6451824E-1,-1.803418E0,-1.6597324E1,-7.068115E0,-1.9702198E1,-8.657593E-1,8.4800416E-1,-1.8748474E0,-1.3558675E1,8.139526E-1,-9.6616364E-1],"categories":[],"categories_nodes":[],"categories_segments":[],"categories_sizes":[],"default_left":[0,0,0,0,0,0,0,0,0,0,0,0,0,0,0],"id":41,"left_children":[1,3,-1,5,-1,-1,7,9,11,-1,-1,-1,13,-1,-1],"loss_changes":[6.9487144E3,6.2848145E3,0E0,2.7712988E2,0E0,0E0,2.7495972E2,1.5247601E3,5.848154E2,0E0,0E0,0E0,1.8625869E3,0E0,0E0],"parents":[2147483647,0,0,1,1,3,3,6,6,7,7,8,8,12,12],"right_children":[2,4,-1,6,-1,-1,8,10,12,-1,-1,-1,14,-1,-1],"split_conditions":[1.9148542E0,1.5811388E0,1.3972517E0,-5.191034E-1,6.6451824E-1,-1.803418E0,-4.9162722E-1,-5.0078595E-1,-4.6415105E-1,-8.657593E-1,8.4800416E-1,-1.8748474E0,-4.595717E-1,8.139526E-1,-9.6616364E-1],"split_indices":[0,1,0,2,0,0,2,2,2,0,0,0,2,0,0],"split_type":[0,0,0,0,0,0,0,0,0,0,0,0,0,0,0],"sum_hessian":[2.8E1,2.2E1,6E0,1.4E1,8E0,1E0,1.3E1,4E0,9E0,3E0,1E0,1E0,8E0,1E0,7E0],"tree_param":{"num_deleted":"0","num_feature":"3","num_nodes":"15","size_leaf_vector":"1"}},{"base_weights":[2.8984544E-1,-7.7750616E0,1.337371E0,-1.9541553E1,6.3498265E-1,-1.7583313E0,-1.5913574E1,-6.7182617E0,-1.8919872E1,-8.332947E-1,8.2680666E-1,-1.8279785E0,-1.2897732E1,7.9360354E-1,-9.2389834E-1],"categories":[],"categories_nodes":[],"categories_segments":[],"categories_sizes":[],"default_left":[0,0,0,0,0,0,0,0,0,0,0,0,0,0,0],"id":42,"left_children":[1,3,-1,5,-1,-1,7,9,11,-1,-1,-1,13,-1,-1],"loss_changes":[6.395921E3,5.789229E3,0E0,2.9068457E2,0E0,0E0,2.5990527E2,1.4322203E3,5.907517E2,0E0,0E0,0E0,1.7381637E3,0E0,0E0],"parents":[2147483647,0,0,1,1,3,3,6,6,7,7,8,8,12,12],"right_children":[2,4,-1,6,-1,-1,8,10,12,-1,-1,-1,14,-1,-1],"split_conditions":[1.9148542E0,1.5811388E0,1.337371E0,-5.191034E-1,6.3498265E-1,-1.7583313E0,-4.9162722E-1,-5.0078595E-1,-4.6415105E-1,-8.332947E-1,8.2680666E-1,-1.8279785E0,-4.595717E-1,7.9360354E-1,-9.2389834E-1],"split_indices":[0,1,0,2,0,0,2,2,2,0,0,0,2,0,0],"split_type":[0,0,0,0,0,0,0,0,0,0,0,0,0,0,0],"sum_hessian":[2.8E1,2.2E1,6E0,1.4E1,8E0,1E0,1.3E1,4E0,9E0,3E0,1E0,1E0,8E0,1E0,7E0],"tree_param":{"num_deleted":"0","num_feature":"3","num_nodes":"15","size_leaf_vector":"1"}},{"base_weights":[2.1493636E-1,-7.5206246E0,1.2800537E0,-1.8812744E1,6.0675997E-1,-2.1927269E1,-4.099121E-1,-1.6219213E1,-1.9751953E0,-2.4540667E1,2.3981323E0,-8.374451E-1,-1.7822815E0,7.73761E-1,-3.5596517E-1],"categories":[],"categories_nodes":[],"categories_segments":[],"categories_sizes":[],"default_left":[0,0,0,0,0,0,0,0,0,0,0,0,0,0,0],"id":43,"left_children":[1,3,-1,5,-1,7,-1,9,-1,11,13,-1,-1,-1,-1],"loss_changes":[5.8874404E3,5.333282E3,0E0,3.1612158E2,0E0,4.6289014E2,0E0,1.6080859E3,0E0,8.665527E0,6.0801416E2,0E0,0E0,0E0,0E0],"parents":[2147483647,0,0,1,1,3,3,5,5,7,7,9,9,10,10],"right_children":[2,4,-1,6,-1,8,-1,10,-1,12,14,-1,-1,-1,-1],"split_conditions":[1.9148542E0,1.5811388E0,1.2800537E0,-4.5041296E-1,6.0675997E-1,-4.57282E-1,-4.099121E-1,-4.6415105E-1,-1.9751953E0,-4.9162722E-1,-4.595717E-1,-8.374451E-1,-1.7822815E0,7.73761E-1,-3.5596517E-1],"split_indices":[0,1,0,2,0,2,0,2,0,2,2,0,0,0,0],"split_type":[0,0,0,0,0,0,0,0,0,0,0,0,0,0,0],"sum_hessian":[2.8E1,2.2E1,6E0,1.4E1,8E0,1E1,4E0,9E0,1E0,6E0,3E0,5E0,1E0,1E0,2E0],"tree_param":{"num_deleted":"0","num_feature":"3","num_nodes":"15","size_leaf_vector":"1"}},{"base_weights":[1.110924E-1,-7.3176374E0,1.2251953E0,-1.8177929E1,5.79796E-1,-1.6934388E0,-1.4637957E1,-5.7137694E0,-1.7636255E1,-7.7064514E-1,8.270691E-1,-1.7377259E0,-1.1872613E1,7.5441897E-1,-8.5643923E-1],"categories":[],"categories_nodes":[],"categories_segments":[],"categories_sizes":[],"default_left":[0,0,0,0,0,0,0,0,0,0,0,0,0,0,0],"id":44,"left_children":[1,3,-1,5,-1,-1,7,9,11,-1,-1,-1,13,-1,-1],"loss_changes":[5.4343315E3,4.9351455E3,0E0,3.374082E2,0E0,0E0,2.738335E2,1.334229E3,5.7400854E2,0E0,0E0,0E0,1.5338499E3,0E0,0E0],"parents":[2147483647,0,0,1,1,3,3,6,6,7,7,8,8,12,12],"right_children":[2,4,-1,6,-1,-1,8,10,12,-1,-1,-1,14,-1,-1],"split_conditions":[1.9148542E0,1.5811388E0,1.2251953E0,-5.191034E-1,5.79796E-1,-1.6934388E0,-4.9162722E-1,-5.0078595E-1,-4.6415105E-1,-7.7064514E-1,8.270691E-1,-1.7377259E0,-4.595717E-1,7.5441897E-1,-8.5643923E-1],"split_indices":[0,1,0,2,0,0,2,2,2,0,0,0,2,0,0],"split_type":[0,0,0,0,0,0,0,0,0,0,0,0,0,0,0],"sum_hessian":[2.8E1,2.2E1,6E0,1.4E1,8E0,1E0,1.3E1,4E0,9E0,3E0,1E0,1E0,8E0,1E0,7E0],"tree_param":{"num_deleted":"0","num_feature":"3","num_nodes":"15","size_leaf_vector":"1"}},{"base_weights":[4.7910493E-2,-7.077711E0,1.1726912E0,-1.7500797E1,5.540256E-1,-1.6511048E0,-1.4033412E1,-5.416748E0,-1.6938404E1,-7.4174196E-1,8.063904E-1,-1.694281E0,-1.129031E1,7.355591E-1,-8.189697E-1],"categories":[],"categories_nodes":[],"categories_segments":[],"categories_sizes":[],"default_left":[0,0,0,0,0,0,0,0,0,0,0,0,0,0,0],"id":45,"left_children":[1,3,-1,5,-1,-1,7,9,11,-1,-1,-1,13,-1,-1],"loss_changes":[5.002668E3,4.547007E3,0E0,3.4386182E2,0E0,0E0,2.5868774E2,1.2537964E3,5.7461523E2,0E0,0E0,0E0,1.4318743E3,0E0,0E0],"parents":[2147483647,0,0,1,1,3,3,6,6,7,7,8,8,12,12],"right_children":[2,4,-1,6,-1,-1,8,10,12,-1,-1,-1,14,-1,-1],"split_conditions":[1.9148542E0,1.5811388E0,1.1726912E0,-5.191034E-1,5.540256E-1,-1.6511048E0,-4.9162722E-1,-5.0078595E-1,-4.6415105E-1,-7.4174196E-1,8.063904E-1,-1.694281E0,-4.595717E-1,7.355591E-1,-8.189697E-1],"split_indices":[0,1,0,2,0,0,2,2,2,0,0,0,2,0,0],"split_type":[0,0,0,0,0,0,0,0,0,0,0,0,0,0,0],"sum_hessian":[2.8E1,2.2E1,6E0,1.4E1,8E0,1E0,1.3E1,4E0,9E0,3E0,1E0,1E0,8E0,1E0,7E0],"tree_param":{"num_deleted":"0","num_feature":"3","num_nodes":"15","size_leaf_vector":"1"}},{"base_weights":[-1.0927398E-2,-6.846E0,1.1224365E0,-1.6850065E1,5.294054E-1,-2.0009144E1,-3.265039E-1,-1.4474317E1,-1.8839356E0,-2.2305002E1,2.8479614E0,-7.504842E-1,-1.6519226E0,7.171692E-1,-2.8824872E-1],"categories":[],"categories_nodes":[],"categories_segments":[],"categories_sizes":[],"default_left":[0,0,0,0,0,0,0,0,0,0,0,0,0,0,0],"id":46,"left_children":[1,3,-1,5,-1,7,-1,9,-1,11,13,-1,-1,-1,-1],"loss_changes":[4.6055728E3,4.189885E3,0E0,3.5836377E2,0E0,5.304043E2,0E0,1.4199768E3,0E0,5.2230713E1,4.7872656E2,0E0,0E0,0E0,0E0],"parents":[2147483647,0,0,1,1,3,3,5,5,7,7,9,9,10,10],"right_children":[2,4,-1,6,-1,8,-1,10,-1,12,14,-1,-1,-1,-1],"split_conditions":[1.9148542E0,1.5811388E0,1.1224365E0,-4.5041296E-1,5.294054E-1,-4.57282E-1,-3.265039E-1,-4.6415105E-1,-1.8839356E0,-4.9162722E-1,-4.595717E-1,-7.504842E-1,-1.6519226E0,7.171692E-1,-2.8824872E-1],"split_indices":[0,1,0,2,0,2,0,2,0,2,2,0,0,0,0],"split_type":[0,0,0,0,0,0,0,0,0,0,0,0,0,0,0],"sum_hessian":[2.8E1,2.2E1,6E0,1.4E1,8E0,1E1,4E0,9E0,1E0,6E0,3E0,5E0,1E0,1E0,2E0],"tree_param":{"num_deleted":"0","num_feature":"3","num_nodes":"15","size_leaf_vector":"1"}},{"base_weights":[-9.764783E-2,-6.6625657E0,1.0743374E0,-1.6286507E1,5.058811E-1,-1.5910645E0,-1.2903931E1,-4.532617E0,-1.5799194E1,-6.8578494E-1,8.049927E-1,-1.6106262E0,-1.0396321E1,6.9923705E-1,-7.5960237E-1],"categories":[],"categories_nodes":[],"categories_segments":[],"categories_sizes":[],"default_left":[0,0,0,0,0,0,0,0,0,0,0,0,0,0,0],"id":47,"left_children":[1,3,-1,5,-1,-1,7,9,11,-1,-1,-1,13,-1,-1],"loss_changes":[4.2524507E3,3.8790862E3,0E0,3.77594E2,0E0,0E0,2.6770874E2,1.168169E3,5.518994E2,0E0,0E0,0E0,1.2647808E3,0E0,0E0],"parents":[2147483647,0,0,1,1,3,3,6,6,7,7,8,8,12,12],"right_children":[2,4,-1,6,-1,-1,8,10,12,-1,-1,-1,14,-1,-1],"split_conditions":[1.9148542E0,1.5811388E0,1.0743374E0,-5.191034E-1,5.058811E-1,-1.5910645E0,-4.9162722E-1,-5.0078595E-1,-4.6415105E-1,-6.8578494E-1,8.049927E-1,-1.6106262E0,-4.595717E-1,6.9923705E-1,-7.5960237E-1],"split_indices":[0,1,0,2,0,0,2,2,2,0,0,0,2,0,0],"split_type":[0,0,0,0,0,0,0,0,0,0,0,0,0,0,0],"sum_hessian":[2.8E1,2.2E1,6E0,1.4E1,8E0,1E0,1.3E1,4E0,9E0,3E0,1E0,1E0,8E0,1E0,7E0],"tree_param":{"num_deleted":"0","num_feature":"3","num_nodes":"15","size_leaf_vector":"1"}},{"base_weights":[-1.466359E-1,-6.4441023E0,1.0282995E0,-1.5681738E1,4.8339844E-1,-1.5512879E0,-1.2369612E1,-4.282129E0,-1.5176392E1,-6.6006774E-1,7.848694E-1,-1.5703614E0,-9.883274E0,6.817566E-1,-7.263733E-1],"categories":[],"categories_nodes":[],"categories_segments":[],"categories_sizes":[],"default_left":[0,0,0,0,0,0,0,0,0,0,0,0,0,0,0],"id":48,"left_children":[1,3,-1,5,-1,-1,7,9,11,-1,-1,-1,13,-1,-1],"loss_changes":[3.915204E3,3.574872E3,0E0,3.785437E2,0E0,0E0,2.5280981E2,1.098236E3,5.4871094E2,0E0,0E0,0E0,1.1810999E3,0E0,0E0],"parents":[2147483647,0,0,1,1,3,3,6,6,7,7,8,8,12,12],"right_children":[2,4,-1,6,-1,-1,8,10,12,-1,-1,-1,14,-1,-1],"split_conditions":[1.9148542E0,1.5811388E0,1.0282995E0,-5.191034E-1,4.8339844E-1,-1.5512879E0,-4.9162722E-1,-5.0078595E-1,-4.6415105E-1,-6.6006774E-1,7.848694E-1,-1.5703614E0,-4.595717E-1,6.817566E-1,-7.263733E-1],"split_indices":[0,1,0,2,0,0,2,2,2,0,0,0,2,0,0],"split_type":[0,0,0,0,0,0,0,0,0,0,0,0,0,0,0],"sum_hessian":[2.8E1,2.2E1,6E0,1.4E1,8E0,1E0,1.3E1,4E0,9E0,3E0,1E0,1E0,8E0,1E0,7E0],"tree_param":{"num_deleted":"0","num_feature":"3","num_nodes":"15","size_leaf_vector":"1"}},{"base_weights":[-1.920629E-1,-6.2331223E0,9.8422855E-1,-1.5100423E1,4.6191406E-1,-1.828227E1,-2.540137E-1,-1.2911743E1,-1.7996887E0,-2.0279924E1,3.2105103E0,-6.726278E-1,-1.5311035E0,6.647156E-1,-2.2910969E-1],"categories":[],"categories_nodes":[],"categories_segments":[],"categories_sizes":[],"default_left":[0,0,0,0,0,0,0,0,0,0,0,0,0,0,0],"id":49,"left_children":[1,3,-1,5,-1,7,-1,9,-1,11,13,-1,-1,-1,-1],"loss_changes":[3.6048982E3,3.2948623E3,0E0,3.8536035E2,0E0,5.8157837E2,0E0,1.2530259E3,0E0,8.232251E1,3.7523746E2,0E0,0E0,0E0,0E0],"parents":[2147483647,0,0,1,1,3,3,5,5,7,7,9,9,10,10],"right_children":[2,4,-1,6,-1,8,-1,10,-1,12,14,-1,-1,-1,-1],"split_conditions":[1.9148542E0,1.5811388E0,9.8422855E-1,-4.5041296E-1,4.6191406E-1,-4.57282E-1,-2.540137E-1,-4.6415105E-1,-1.7996887E0,-4.9162722E-1,-4.595717E-1,-6.726278E-1,-1.5311035E0,6.647156E-1,-2.2910969E-1],"split_indices":[0,1,0,2,0,2,0,2,0,2,2,0,0,0,0],"split_type":[0,0,0,0,0,0,0,0,0,0,0,0,0,0,0],"sum_hessian":[2.8E1,2.2E1,6E0,1.4E1,8E0,1E1,4E0,9E0,1E0,6E0,3E0,5E0,1E0,1E0,2E0],"tree_param":{"num_deleted":"0","num_feature":"3","num_nodes":"15","size_leaf_vector":"1"}},{"base_weights":[-2.6438746E-1,-6.0675845E0,9.4205153E-1,-1.46002445E1,4.4138455E-1,-1.495691E0,-1.1369716E1,-3.5049317E0,-1.4165136E1,-6.100891E-1,7.8206176E-1,-1.4928284E0,-9.104248E0,6.480957E-1,-6.741379E-1],"categories":[],"categories_nodes":[],"categories_segments":[],"categories_sizes":[],"default_left":[0,0,0,0,0,0,0,0,0,0,0,0,0,0,0],"id":50,"left_children":[1,3,-1,5,-1,-1,7,9,11,-1,-1,-1,13,-1,-1],"loss_changes":[3.3296223E3,3.052102E3,0E0,4.019524E2,0E0,0E0,2.5814734E2,1.0234077E3,5.223042E2,0E0,0E0,0E0,1.0443145E3,0E0,0E0],"parents":[2147483647,0,0,1,1,3,3,6,6,7,7,8,8,12,12],"right_children":[2,4,-1,6,-1,-1,8,10,12,-1,-1,-1,14,-1,-1],"split_conditions":[1.9148542E0,1.5811388E0,9.4205153E-1,-5.191034E-1,4.4138455E-1,-1.495691E0,-4.9162722E-1,-5.0078595E-1,-4.6415105E-1,-6.100891E-1,7.8206176E-1,-1.4928284E0,-4.595717E-1,6.480957E-1,-6.741379E-1],"split_indices":[0,1,0,2,0,0,2,2,2,0,0,0,2,0,0],"split_type":[0,0,0,0,0,0,0,0,0,0,0,0,0,0,0],"sum_hessian":[2.8E1,2.2E1,6E0,1.4E1,8E0,1E0,1.3E1,4E0,9E0,3E0,1E0,1E0,8E0,1E0,7E0],"tree_param":{"num_deleted":"0","num_feature":"3","num_nodes":"15","size_leaf_vector":"1"}},{"base_weights":[-3.0152208E-1,-5.868631E0,9.016741E-1,-1.4059766E1,4.217665E-1,-1.4583008E0,-1.0897461E1,-3.2952638E0,-1.3608813E1,-5.872101E-1,7.625122E-1,-1.4555054E0,-8.651991E0,6.318909E-1,-6.4464724E-1],"categories":[],"categories_nodes":[],"categories_segments":[],"categories_sizes":[],"default_left":[0,0,0,0,0,0,0,0,0,0,0,0,0,0,0],"id":51,"left_children":[1,3,-1,5,-1,-1,7,9,11,-1,-1,-1,13,-1,-1],"loss_changes":[3.065948E3,2.8134092E3,0E0,3.987229E2,0E0,0E0,2.4372668E2,9.6255115E2,5.165112E2,0E0,0E0,0E0,9.7554034E2,0E0,0E0],"parents":[2147483647,0,0,1,1,3,3,6,6,7,7,8,8,12,12],"right_children":[2,4,-1,6,-1,-1,8,10,12,-1,-1,-1,14,-1,-1],"split_conditions":[1.9148542E0,1.5811388E0,9.016741E-1,-5.191034E-1,4.217665E-1,-1.4583008E0,-4.9162722E-1,-5.0078595E-1,-4.6415105E-1,-5.872101E-1,7.625122E-1,-1.4555054E0,-4.595717E-1,6.318909E-1,-6.4464724E-1],"split_indices":[0,1,0,2,0,0,2,2,2,0,0,0,2,0,0],"split_type":[0,0,0,0,0,0,0,0,0,0,0,0,0,0,0],"sum_hessian":[2.8E1,2.2E1,6E0,1.4E1,8E0,1E0,1.3E1,4E0,9E0,3E0,1E0,1E0,8E0,1E0,7E0],"tree_param":{"num_deleted":"0","num_feature":"3","num_nodes":"15","size_leaf_vector":"1"}},{"base_weights":[-3.3572704E-1,-5.676556E0,8.630336E-1,-1.3540251E1,4.0301648E-1,-1.6726585E1,-1.9111328E-1,-1.1512329E1,-1.7217286E0,-1.8445103E1,3.498108E0,-1.4218445E0,-6.020162E-1,6.16095E-1,-1.775228E-1],"categories":[],"categories_nodes":[],"categories_segments":[],"categories_sizes":[],"default_left":[0,0,0,0,0,0,0,0,0,0,0,0,0,0,0],"id":52,"left_children":[1,3,-1,5,-1,7,-1,9,-1,11,13,-1,-1,-1,-1],"loss_changes":[2.8233828E3,2.5936602E3,0E0,4.0053784E2,0E0,6.1925146E2,0E0,1.1051626E3,0E0,1.0557715E2,2.9252856E2,0E0,0E0,0E0,0E0],"parents":[2147483647,0,0,1,1,3,3,5,5,7,7,9,9,10,10],"right_children":[2,4,-1,6,-1,8,-1,10,-1,12,14,-1,-1,-1,-1],"split_conditions":[1.9148542E0,1.5811388E0,8.630336E-1,-4.5041296E-1,4.0301648E-1,-4.57282E-1,-1.9111328E-1,-4.6415105E-1,-1.7217286E0,-5.191034E-1,-4.595717E-1,-1.4218445E0,-6.020162E-1,6.16095E-1,-1.775228E-1],"split_indices":[0,1,0,2,0,2,0,2,0,2,2,0,0,0,0],"split_type":[0,0,0,0,0,0,0,0,0,0,0,0,0,0,0],"sum_hessian":[2.8E1,2.2E1,6E0,1.4E1,8E0,1E1,4E0,9E0,1E0,6E0,3E0,1E0,5E0,1E0,2E0],"tree_param":{"num_deleted":"0","num_feature":"3","num_nodes":"15","size_leaf_vector":"1"}},{"base_weights":[-3.9592034E-1,-5.527312E0,8.260463E-1,-1.3096436E1,3.85102E-1,-1.3862976E0,-1.0071045E1,-2.6138184E0,-1.2792554E1,-5.4261476E-1,7.585022E-1,-1.404065E0,-7.97366E0,6.006897E-1,-5.986908E-1],"categories":[],"categories_nodes":[],"categories_segments":[],"categories_sizes":[],"default_left":[0,0,0,0,0,0,0,0,0,0,0,0,0,0,0],"id":53,"left_children":[1,3,-1,5,-1,-1,7,9,11,-1,-1,-1,13,-1,-1],"loss_changes":[2.6087183E3,2.4039653E3,0E0,3.846704E2,0E0,0E0,2.506914E2,8.971895E2,5.1283765E2,0E0,0E0,0E0,8.6342737E2,0E0,0E0],"parents":[2147483647,0,0,1,1,3,3,6,6,7,7,8,8,12,12],"right_children":[2,4,-1,6,-1,-1,8,10,12,-1,-1,-1,14,-1,-1],"split_conditions":[1.9148542E0,1.5811388E0,8.260463E-1,-5.191034E-1,3.85102E-1,-1.3862976E0,-4.9162722E-1,-5.0078595E-1,-4.6415105E-1,-5.4261476E-1,7.585022E-1,-1.404065E0,-4.595717E-1,6.006897E-1,-5.986908E-1],"split_indices":[0,1,0,2,0,0,2,2,2,0,0,0,2,0,0],"split_type":[0,0,0,0,0,0,0,0,0,0,0,0,0,0,0],"sum_hessian":[2.8E1,2.2E1,6E0,1.4E1,8E0,1E0,1.3E1,4E0,9E0,3E0,1E0,1E0,8E0,1E0,7E0],"tree_param":{"num_deleted":"0","num_feature":"3","num_nodes":"15","size_leaf_vector":"1"}},{"base_weights":[-4.2301995E-1,-5.3460217E0,7.906494E-1,-1.2613118E1,3.6799046E-1,-1.5749512E1,-1.5952149E-1,-1.066958E1,-1.6637207E0,-1.7289097E1,3.5819702E0,-5.522095E-1,-1.3689636E0,5.8567506E-1,-1.5165202E-1],"categories":[],"categories_nodes":[],"categories_segments":[],"categories_sizes":[],"default_left":[0,0,0,0,0,0,0,0,0,0,0,0,0,0,0],"id":54,"left_children":[1,3,-1,5,-1,7,-1,9,-1,11,13,-1,-1,-1,-1],"loss_changes":[2.4025037E3,2.216524E3,0E0,3.9305103E2,0E0,6.242544E2,0E0,1.00531274E3,0E0,1.3870361E2,2.5068814E2,0E0,0E0,0E0,0E0],"parents":[2147483647,0,0,1,1,3,3,5,5,7,7,9,9,10,10],"right_children":[2,4,-1,6,-1,8,-1,10,-1,12,14,-1,-1,-1,-1],"split_conditions":[1.9148542E0,1.5811388E0,7.906494E-1,-4.5041296E-1,3.6799046E-1,-4.57282E-1,-1.5952149E-1,-4.6415105E-1,-1.6637207E0,-4.9162722E-1,-4.595717E-1,-5.522095E-1,-1.3689636E0,5.8567506E-1,-1.5165202E-1],"split_indices":[0,1,0,2,0,2,0,2,0,2,2,0,0,0,0],"split_type":[0,0,0,0,0,0,0,0,0,0,0,0,0,0,0],"sum_hessian":[2.8E1,2.2E1,6E0,1.4E1,8E0,1E1,4E0,9E0,1E0,6E0,3E0,5E0,1E0,1E0,2E0],"tree_param":{"num_deleted":"0","num_feature":"3","num_nodes":"15","size_leaf_vector":"1"}},{"base_weights":[-4.7608262E-1,-5.2066383E0,7.567592E-1,-1.2203174E1,3.5163847E-1,-1.3378357E0,-9.252441E0,-1.9980958E0,-1.19543705E1,-5.0155336E-1,7.533447E-1,-1.3347412E0,-7.3504505E0,5.710327E-1,-5.56221E-1],"categories":[],"categories_nodes":[],"categories_segments":[],"categories_sizes":[],"default_left":[0,0,0,0,0,0,0,0,0,0,0,0,0,0,0],"id":55,"left_children":[1,3,-1,5,-1,-1,7,9,11,-1,-1,-1,13,-1,-1],"loss_changes":[2.2204526E3,2.0553914E3,0E0,3.9658936E2,0E0,0E0,2.5052405E2,8.365499E2,4.824198E2,0E0,0E0,0E0,7.6462244E2,0E0,0E0],"parents":[2147483647,0,0,1,1,3,3,6,6,7,7,8,8,12,12],"right_children":[2,4,-1,6,-1,-1,8,10,12,-1,-1,-1,14,-1,-1],"split_conditions":[1.9148542E0,1.5811388E0,7.567592E-1,-5.191034E-1,3.5163847E-1,-1.3378357E0,-4.9162722E-1,-5.0078595E-1,-4.6415105E-1,-5.0155336E-1,7.533447E-1,-1.3347412E0,-4.595717E-1,5.710327E-1,-5.56221E-1],"split_indices":[0,1,0,2,0,0,2,2,2,0,0,0,2,0,0],"split_type":[0,0,0,0,0,0,0,0,0,0,0,0,0,0,0],"sum_hessian":[2.8E1,2.2E1,6E0,1.4E1,8E0,1E0,1.3E1,4E0,9E0,3E0,1E0,1E0,8E0,1E0,7E0],"tree_param":{"num_deleted":"0","num_feature":"3","num_nodes":"15","size_leaf_vector":"1"}},{"base_weights":[-4.9704507E-1,-5.035634E0,7.243234E-1,-1.1753467E1,3.3601347E-1,-1.3043884E0,-8.866176E0,-1.8479004E0,-1.1488696E1,-4.8274842E-1,7.345093E-1,-1.3013734E0,-6.9813366E0,5.567566E-1,-5.318894E-1],"categories":[],"categories_nodes":[],"categories_segments":[],"categories_sizes":[],"default_left":[0,0,0,0,0,0,0,0,0,0,0,0,0,0,0],"id":56,"left_children":[1,3,-1,5,-1,-1,7,9,11,-1,-1,-1,13,-1,-1],"loss_changes":[2.0450645E3,1.8953927E3,0E0,3.8951074E2,0E0,0E0,2.3644812E2,7.874031E2,4.7360803E2,0E0,0E0,0E0,7.1463074E2,0E0,0E0],"parents":[2147483647,0,0,1,1,3,3,6,6,7,7,8,8,12,12],"right_children":[2,4,-1,6,-1,-1,8,10,12,-1,-1,-1,14,-1,-1],"split_conditions":[1.9148542E0,1.5811388E0,7.243234E-1,-5.191034E-1,3.3601347E-1,-1.3043884E0,-4.9162722E-1,-5.0078595E-1,-4.6415105E-1,-4.8274842E-1,7.345093E-1,-1.3013734E0,-4.595717E-1,5.567566E-1,-5.318894E-1],"split_indices":[0,1,0,2,0,0,2,2,2,0,0,0,2,0,0],"split_type":[0,0,0,0,0,0,0,0,0,0,0,0,0,0,0],"sum_hessian":[2.8E1,2.2E1,6E0,1.4E1,8E0,1E0,1.3E1,4E0,9E0,3E0,1E0,1E0,8E0,1E0,7E0],"tree_param":{"num_deleted":"0","num_feature":"3","num_nodes":"15","size_leaf_vector":"1"}},{"base_weights":[-5.159196E-1,-4.8704677E0,6.932792E-1,-1.1321045E1,3.2108292E-1,-1.4441251E1,-1.0961914E-1,-9.505689E0,-1.594922E0,-1.573584E1,3.7734985E0,-1.2717774E0,-4.939982E-1,5.428406E-1,-1.1032715E-1],"categories":[],"categories_nodes":[],"categories_segments":[],"categories_sizes":[],"default_left":[0,0,0,0,0,0,0,0,0,0,0,0,0,0,0],"id":57,"left_children":[1,3,-1,5,-1,7,-1,9,-1,11,13,-1,-1,-1,-1],"loss_changes":[1.8836553E3,1.7480367E3,0E0,3.95589E2,0E0,6.445547E2,0E0,8.866925E2,0E0,1.4629968E2,1.9339003E2,0E0,0E0,0E0,0E0],"parents":[2147483647,0,0,1,1,3,3,5,5,7,7,9,9,10,10],"right_children":[2,4,-1,6,-1,8,-1,10,-1,12,14,-1,-1,-1,-1],"split_conditions":[1.9148542E0,1.5811388E0,6.932792E-1,-4.5041296E-1,3.2108292E-1,-4.57282E-1,-1.0961914E-1,-4.6415105E-1,-1.594922E0,-5.191034E-1,-4.595717E-1,-1.2717774E0,-4.939982E-1,5.428406E-1,-1.1032715E-1],"split_indices":[0,1,0,2,0,2,0,2,0,2,2,0,0,0,0],"split_type":[0,0,0,0,0,0,0,0,0,0,0,0,0,0,0],"sum_hessian":[2.8E1,2.2E1,6E0,1.4E1,8E0,1E1,4E0,9E0,1E0,6E0,3E0,1E0,5E0,1E0,2E0],"tree_param":{"num_deleted":"0","num_feature":"3","num_nodes":"15","size_leaf_vector":"1"}},{"base_weights":[-5.599155E-1,-4.7450643E0,6.635638E-1,-1.0957536E1,3.0681425E-1,-1.3985418E1,-1.0523438E-1,-9.16377E0,-1.5550476E0,-1.5201381E1,3.6929932E0,-4.6791586E-1,-1.2564942E0,5.292725E-1,-1.06648766E-1],"categories":[],"categories_nodes":[],"categories_segments":[],"categories_sizes":[],"default_left":[0,0,0,0,0,0,0,0,0,0,0,0,0,0,0],"id":58,"left_children":[1,3,-1,5,-1,7,-1,9,-1,11,13,-1,-1,-1,-1],"loss_changes":[1.7416549E3,1.62204E3,0E0,3.7264587E2,0E0,6.227739E2,0E0,8.3238E2,0E0,1.709165E2,1.8319943E2,0E0,0E0,0E0,0E0],"parents":[2147483647,0,0,1,1,3,3,5,5,7,7,9,9,10,10],"right_children":[2,4,-1,6,-1,8,-1,10,-1,12,14,-1,-1,-1,-1],"split_conditions":[1.9148542E0,1.5811388E0,6.635638E-1,-4.5041296E-1,3.0681425E-1,-4.57282E-1,-1.0523438E-1,-4.6415105E-1,-1.5550476E0,-4.9162722E-1,-4.595717E-1,-4.6791586E-1,-1.2564942E0,5.292725E-1,-1.06648766E-1],"split_indices":[0,1,0,2,0,2,0,2,0,2,2,0,0,0,0],"split_type":[0,0,0,0,0,0,0,0,0,0,0,0,0,0,0],"sum_hessian":[2.8E1,2.2E1,6E0,1.4E1,8E0,1E1,4E0,9E0,1E0,6E0,3E0,5E0,1E0,1E0,2E0],"tree_param":{"num_deleted":"0","num_feature":"3","num_nodes":"15","size_leaf_vector":"1"}},{"base_weights":[-6.0060275E-1,-4.623259E0,6.3512486E-1,-1.0607097E1,2.9317492E-1,-1.2282838E0,-7.8553643E0,-9.356934E-1,-1.0529663E1,-4.2857668E-1,7.4019164E-1,-1.2250794E0,-6.2548285E0,5.1604E-1,-4.808441E-1],"categories":[],"categories_nodes":[],"categories_segments":[],"categories_sizes":[],"default_left":[0,0,0,0,0,0,0,0,0,0,0,0,0,0,0],"id":59,"left_children":[1,3,-1,5,-1,-1,7,9,11,-1,-1,-1,13,-1,-1],"loss_changes":[1.6106272E3,1.505469E3,0E0,3.8318164E2,0E0,0E0,2.4922113E2,7.27814E2,4.4402344E2,0E0,0E0,0E0,6.008074E2,0E0,0E0],"parents":[2147483647,0,0,1,1,3,3,6,6,7,7,8,8,12,12],"right_children":[2,4,-1,6,-1,-1,8,10,12,-1,-1,-1,14,-1,-1],"split_conditions":[1.9148542E0,1.5811388E0,6.3512486E-1,-5.191034E-1,2.9317492E-1,-1.2282838E0,-4.9162722E-1,-5.0078595E-1,-4.6415105E-1,-4.2857668E-1,7.4019164E-1,-1.2250794E0,-4.595717E-1,5.1604E-1,-4.808441E-1],"split_indices":[0,1,0,2,0,0,2,2,2,0,0,0,2,0,0],"split_type":[0,0,0,0,0,0,0,0,0,0,0,0,0,0,0],"sum_hessian":[2.8E1,2.2E1,6E0,1.4E1,8E0,1E0,1.3E1,4E0,9E0,3E0,1E0,1E0,8E0,1E0,7E0],"tree_param":{"num_deleted":"0","num_feature":"3","num_nodes":"15","size_leaf_vector":"1"}},{"base_weights":[-6.111766E-1,-4.470937E0,6.0791016E-1,-1.02171545E1,2.8014323E-1,-1.1975769E0,-7.5253034E0,-8.2666016E-1,-1.0122095E1,-4.1250917E-1,7.216858E-1,-1.1944519E0,-5.938097E0,5.0313723E-1,-4.5980224E-1],"categories":[],"categories_nodes":[],"categories_segments":[],"categories_sizes":[],"default_left":[0,0,0,0,0,0,0,0,0,0,0,0,0,0,0],"id":60,"left_children":[1,3,-1,5,-1,-1,7,9,11,-1,-1,-1,13,-1,-1],"loss_changes":[1.4836741E3,1.3886293E3,0E0,3.743213E2,0E0,0E0,2.3516217E2,6.855096E2,4.341532E2,0E0,0E0,0E0,5.6170667E2,0E0,0E0],"parents":[2147483647,0,0,1,1,3,3,6,6,7,7,8,8,12,12],"right_children":[2,4,-1,6,-1,-1,8,10,12,-1,-1,-1,14,-1,-1],"split_conditions":[1.9148542E0,1.5811388E0,6.0791016E-1,-5.191034E-1,2.8014323E-1,-1.1975769E0,-4.9162722E-1,-5.0078595E-1,-4.6415105E-1,-4.1250917E-1,7.216858E-1,-1.1944519E0,-4.595717E-1,5.0313723E-1,-4.5980224E-1],"split_indices":[0,1,0,2,0,0,2,2,2,0,0,0,2,0,0],"split_type":[0,0,0,0,0,0,0,0,0,0,0,0,0,0,0],"sum_hessian":[2.8E1,2.2E1,6E0,1.4E1,8E0,1E0,1.3E1,4E0,9E0,3E0,1E0,1E0,8E0,1E0,7E0],"tree_param":{"num_deleted":"0","num_feature":"3","num_nodes":"15","size_leaf_vector":"1"}},{"base_weights":[-6.2031084E-1,-4.3238683E0,5.818569E-1,-9.842301E0,2.6769748E-1,-1.2844971E1,-6.339844E-2,-8.158838E0,-1.4926575E0,-1.3843785E1,3.8295288E0,-1.1676391E0,-4.1834107E-1,4.9055788E-1,-7.1736656E-2],"categories":[],"categories_nodes":[],"categories_segments":[],"categories_sizes":[],"default_left":[0,0,0,0,0,0,0,0,0,0,0,0,0,0,0],"id":61,"left_children":[1,3,-1,5,-1,7,-1,9,-1,11,13,-1,-1,-1,-1],"loss_changes":[1.3668063E3,1.2810421E3,0E0,3.6990125E2,0E0,6.331615E2,0E0,7.3454736E2,0E0,1.6917456E2,1.4003183E2,0E0,0E0,0E0,0E0],"parents":[2147483647,0,0,1,1,3,3,5,5,7,7,9,9,10,10],"right_children":[2,4,-1,6,-1,8,-1,10,-1,12,14,-1,-1,-1,-1],"split_conditions":[1.9148542E0,1.5811388E0,5.818569E-1,-4.5041296E-1,2.6769748E-1,-4.57282E-1,-6.339844E-2,-4.6415105E-1,-1.4926575E0,-5.191034E-1,-4.595717E-1,-1.1676391E0,-4.1834107E-1,4.9055788E-1,-7.1736656E-2],"split_indices":[0,1,0,2,0,2,0,2,0,2,2,0,0,0,0],"split_type":[0,0,0,0,0,0,0,0,0,0,0,0,0,0,0],"sum_hessian":[2.8E1,2.2E1,6E0,1.4E1,8E0,1E1,4E0,9E0,1E0,6E0,3E0,1E0,5E0,1E0,2E0],"tree_param":{"num_deleted":"0","num_feature":"3","num_nodes":"15","size_leaf_vector":"1"}},{"base_weights":[-6.53817E-1,-4.214345E0,5.5692315E-1,-9.531657E0,2.558051E-1,-1.1384461E0,-6.9597864E0,-3.8867188E-1,-9.549365E0,-3.8134462E-1,7.1410525E-1,-1.4901286E1,-6.085938E-2,-3.119409E-1,-1.4553406E0],"categories":[],"categories_nodes":[],"categories_segments":[],"categories_sizes":[],"default_left":[0,0,0,0,0,0,0,0,0,0,0,0,0,0,0],"id":62,"left_children":[1,3,-1,5,-1,-1,7,9,11,-1,-1,13,-1,-1,-1],"loss_changes":[1.2645568E3,1.1898616E3,0E0,3.5220105E2,0E0,0E0,2.3451831E2,6.3987964E2,4.2779382E2,0E0,0E0,5.567373E2,0E0,0E0,0E0],"parents":[2147483647,0,0,1,1,3,3,6,6,7,7,8,8,11,11],"right_children":[2,4,-1,6,-1,-1,8,10,12,-1,-1,14,-1,-1,-1],"split_conditions":[1.9148542E0,1.5811388E0,5.5692315E-1,-5.191034E-1,2.558051E-1,-1.1384461E0,-4.9162722E-1,-5.0078595E-1,-4.5041296E-1,-3.8134462E-1,7.1410525E-1,-4.57282E-1,-6.085938E-2,-3.119409E-1,-1.4553406E0],"split_indices":[0,1,0,2,0,0,2,2,2,0,0,2,0,0,0],"split_type":[0,0,0,0,0,0,0,0,0,0,0,0,0,0,0],"sum_hessian":[2.8E1,2.2E1,6E0,1.4E1,8E0,1E0,1.3E1,4E0,9E0,3E0,1E0,5E0,4E0,4E0,1E0],"tree_param":{"num_deleted":"0","num_feature":"3","num_nodes":"15","size_leaf_vector":"1"}},{"base_weights":[-6.839305E-1,-4.10704E0,5.330567E-1,-9.230664E0,2.444336E-1,-1.1099854E0,-6.7186103E0,-3.0268556E-1,-9.254712E0,-3.6704406E-1,6.9625247E-1,-1.1463318E0,-5.1882052E0,4.860962E-1,-4.133606E-1],"categories":[],"categories_nodes":[],"categories_segments":[],"categories_sizes":[],"default_left":[0,0,0,0,0,0,0,0,0,0,0,0,0,0,0],"id":63,"left_children":[1,3,-1,5,-1,-1,7,9,11,-1,-1,-1,13,-1,-1],"loss_changes":[1.1700121E3,1.1052107E3,0E0,3.395327E2,0E0,0E0,2.2499884E2,6.0291003E2,4.370216E2,0E0,0E0,0E0,4.935487E2,0E0,0E0],"parents":[2147483647,0,0,1,1,3,3,6,6,7,7,8,8,12,12],"right_children":[2,4,-1,6,-1,-1,8,10,12,-1,-1,-1,14,-1,-1],"split_conditions":[1.9148542E0,1.5811388E0,5.330567E-1,-5.191034E-1,2.444336E-1,-1.1099854E0,-4.9162722E-1,-5.0078595E-1,-4.6415105E-1,-3.6704406E-1,6.9625247E-1,-1.1463318E0,-4.595717E-1,4.860962E-1,-4.133606E-1],"split_indices":[0,1,0,2,0,0,2,2,2,0,0,0,2,0,0],"split_type":[0,0,0,0,0,0,0,0,0,0,0,0,0,0,0],"sum_hessian":[2.8E1,2.2E1,6E0,1.4E1,8E0,1E0,1.3E1,4E0,9E0,3E0,1E0,1E0,8E0,1E0,7E0],"tree_param":{"num_deleted":"0","num_feature":"3","num_nodes":"15","size_leaf_vector":"1"}},{"base_weights":[-6.868602E-1,-3.971701E0,5.102155E-1,-8.892806E0,2.3357205E-1,-1.1745694E1,-4.1894533E-2,-7.2857666E0,-1.4086243E0,-1.2729353E1,4.0619507E0,-3.6998698E-1,-1.1176758E0,4.739441E-1,-4.5166016E-2],"categories":[],"categories_nodes":[],"categories_segments":[],"categories_sizes":[],"default_left":[0,0,0,0,0,0,0,0,0,0,0,0,0,0,0],"id":64,"left_children":[1,3,-1,5,-1,7,-1,9,-1,11,13,-1,-1,-1,-1],"loss_changes":[1.0780255E3,1.0198198E3,0E0,3.3485498E2,0E0,6.0062695E2,0E0,6.694289E2,0E0,1.9364124E2,1.1614859E2,0E0,0E0,0E0,0E0],"parents":[2147483647,0,0,1,1,3,3,5,5,7,7,9,9,10,10],"right_children":[2,4,-1,6,-1,8,-1,10,-1,12,14,-1,-1,-1,-1],"split_conditions":[1.9148542E0,1.5811388E0,5.102155E-1,-4.5041296E-1,2.3357205E-1,-4.57282E-1,-4.1894533E-2,-4.6415105E-1,-1.4086243E0,-4.9162722E-1,-4.595717E-1,-3.6998698E-1,-1.1176758E0,4.739441E-1,-4.5166016E-2],"split_indices":[0,1,0,2,0,2,0,2,0,2,2,0,0,0,0],"split_type":[0,0,0,0,0,0,0,0,0,0,0,0,0,0,0],"sum_hessian":[2.8E1,2.2E1,6E0,1.4E1,8E0,1E1,4E0,9E0,1E0,6E0,3E0,5E0,1E0,1E0,2E0],"tree_param":{"num_deleted":"0","num_feature":"3","num_nodes":"15","size_leaf_vector":"1"}},{"base_weights":[-7.134294E-1,-3.8720915E0,4.8834753E-1,-8.615462E0,2.2318792E-1,-1.072992E0,-6.165161E0,7.4121095E-2,-8.668286E0,-3.3941346E-1,6.8809205E-1,-1.089734E0,-4.7881675E0,4.6209717E-1,-3.848587E-1],"categories":[],"categories_nodes":[],"categories_segments":[],"categories_sizes":[],"default_left":[0,0,0,0,0,0,0,0,0,0,0,0,0,0,0],"id":65,"left_children":[1,3,-1,5,-1,-1,7,9,11,-1,-1,-1,13,-1,-1],"loss_changes":[9.978339E2,9.47878E2,0E0,3.3978552E2,0E0,0E0,2.1929034E2,5.630714E2,4.04963E2,0E0,0E0,0E0,4.3846002E2,0E0,0E0],"parents":[2147483647,0,0,1,1,3,3,6,6,7,7,8,8,12,12],"right_children":[2,4,-1,6,-1,-1,8,10,12,-1,-1,-1,14,-1,-1],"split_conditions":[1.9148542E0,1.5811388E0,4.8834753E-1,-5.191034E-1,2.2318792E-1,-1.072992E0,-4.9162722E-1,-5.0078595E-1,-4.6415105E-1,-3.3941346E-1,6.8809205E-1,-1.089734E0,-4.595717E-1,4.6209717E-1,-3.848587E-1],"split_indices":[0,1,0,2,0,0,2,2,2,0,0,0,2,0,0],"split_type":[0,0,0,0,0,0,0,0,0,0,0,0,0,0,0],"sum_hessian":[2.8E1,2.2E1,6E0,1.4E1,8E0,1E0,1.3E1,4E0,9E0,3E0,1E0,1E0,8E0,1E0,7E0],"tree_param":{"num_deleted":"0","num_feature":"3","num_nodes":"15","size_leaf_vector":"1"}},{"base_weights":[-7.131095E-1,-3.7443104E0,4.674212E-1,-8.300521E0,2.1327041E-1,-1.046167E0,-5.9043665E0,1.4013672E-1,-8.336182E0,-3.2668763E-1,6.7089236E-1,-1.3479899E1,-2.4824219E-2,-2.632788E-1,-1.3637879E0],"categories":[],"categories_nodes":[],"categories_segments":[],"categories_sizes":[],"default_left":[0,0,0,0,0,0,0,0,0,0,0,0,0,0,0],"id":66,"left_children":[1,3,-1,5,-1,-1,7,9,11,-1,-1,13,-1,-1,-1],"loss_changes":[9.194607E2,8.7476636E2,0E0,3.3015417E2,0E0,0E0,2.0695584E2,5.307387E2,3.965594E2,0E0,0E0,5.363192E2,0E0,0E0,0E0],"parents":[2147483647,0,0,1,1,3,3,6,6,7,7,8,8,11,11],"right_children":[2,4,-1,6,-1,-1,8,10,12,-1,-1,14,-1,-1,-1],"split_conditions":[1.9148542E0,1.5811388E0,4.674212E-1,-5.191034E-1,2.1327041E-1,-1.046167E0,-4.9162722E-1,-5.0078595E-1,-4.5041296E-1,-3.2668763E-1,6.7089236E-1,-4.57282E-1,-2.4824219E-2,-2.632788E-1,-1.3637879E0],"split_indices":[0,1,0,2,0,0,2,2,2,0,0,2,0,0,0],"split_type":[0,0,0,0,0,0,0,0,0,0,0,0,0,0,0],"sum_hessian":[2.8E1,2.2E1,6E0,1.4E1,8E0,1E0,1.3E1,4E0,9E0,3E0,1E0,5E0,4E0,4E0,1E0],"tree_param":{"num_deleted":"0","num_feature":"3","num_nodes":"15","size_leaf_vector":"1"}},{"base_weights":[-7.3520845E-1,-3.6502101E0,4.473842E-1,-8.042432E0,2.037869E-1,-1.0200135E0,-5.702567E0,2.0195313E-1,-8.08457E0,-3.1443787E-1,6.541199E-1,-1.0559082E0,-4.2899303E0,2.1201478E-1,-4.63088E-1],"categories":[],"categories_nodes":[],"categories_segments":[],"categories_sizes":[],"default_left":[0,0,0,0,0,0,0,0,0,0,0,0,0,0,0],"id":67,"left_children":[1,3,-1,5,-1,-1,7,9,11,-1,-1,-1,13,-1,-1],"loss_changes":[8.512047E2,8.132626E2,0E0,3.1740106E2,0E0,0E0,1.9853693E2,5.002882E2,4.0398242E2,0E0,0E0,0E0,4.2096997E2,0E0,0E0],"parents":[2147483647,0,0,1,1,3,3,6,6,7,7,8,8,12,12],"right_children":[2,4,-1,6,-1,-1,8,10,12,-1,-1,-1,14,-1,-1],"split_conditions":[1.9148542E0,1.5811388E0,4.473842E-1,-5.191034E-1,2.037869E-1,-1.0200135E0,-4.9162722E-1,-5.0078595E-1,-4.6415105E-1,-3.1443787E-1,6.541199E-1,-1.0559082E0,-4.57282E-1,2.1201478E-1,-4.63088E-1],"split_indices":[0,1,0,2,0,0,2,2,2,0,0,0,2,0,0],"split_type":[0,0,0,0,0,0,0,0,0,0,0,0,0,0,0],"sum_hessian":[2.8E1,2.2E1,6E0,1.4E1,8E0,1E0,1.3E1,4E0,9E0,3E0,1E0,1E0,8E0,3E0,5E0],"tree_param":{"num_deleted":"0","num_feature":"3","num_nodes":"15","size_leaf_vector":"1"}},{"base_weights":[-7.444942E-1,-3.5452404E0,4.282157E-1,-7.7727537E0,1.9472657E-1,-1.0551003E1,-5.302734E-3,-6.3336425E0,-1.3181152E0,-1.1380266E1,4.08136E0,-3.206787E-1,-1.0295105E0,4.5182496E-1,-2.9125977E-2],"categories":[],"categories_nodes":[],"categories_segments":[],"categories_sizes":[],"default_left":[0,0,0,0,0,0,0,0,0,0,0,0,0,0,0],"id":68,"left_children":[1,3,-1,5,-1,7,-1,9,-1,11,13,-1,-1,-1,-1],"loss_changes":[7.8643915E2,7.536612E2,0E0,3.1838116E2,0E0,5.665321E2,0E0,5.72053E2,0E0,1.8814392E2,9.7704636E1,0E0,0E0,0E0,0E0],"parents":[2147483647,0,0,1,1,3,3,5,5,7,7,9,9,10,10],"right_children":[2,4,-1,6,-1,8,-1,10,-1,12,14,-1,-1,-1,-1],"split_conditions":[1.9148542E0,1.5811388E0,4.282157E-1,-4.5041296E-1,1.9472657E-1,-4.57282E-1,-5.302734E-3,-4.6415105E-1,-1.3181152E0,-4.9162722E-1,-4.595717E-1,-3.206787E-1,-1.0295105E0,4.5182496E-1,-2.9125977E-2],"split_indices":[0,1,0,2,0,2,0,2,0,2,2,0,0,0,0],"split_type":[0,0,0,0,0,0,0,0,0,0,0,0,0,0,0],"sum_hessian":[2.8E1,2.2E1,6E0,1.4E1,8E0,1E1,4E0,9E0,1E0,6E0,3E0,5E0,1E0,1E0,2E0],"tree_param":{"num_deleted":"0","num_feature":"3","num_nodes":"15","size_leaf_vector":"1"}},{"base_weights":[-7.6344454E-1,-3.457424E0,4.098633E-1,-7.534196E0,1.8606772E-1,-9.86499E-1,-5.253784E0,5.163086E-1,-7.613452E0,-2.90625E-1,6.457886E-1,-1.2604289E1,-5.0878907E-3,-2.4219239E-1,-1.2851623E0],"categories":[],"categories_nodes":[],"categories_segments":[],"categories_sizes":[],"default_left":[0,0,0,0,0,0,0,0,0,0,0,0,0,0,0],"id":69,"left_children":[1,3,-1,5,-1,-1,7,9,11,-1,-1,13,-1,-1,-1],"loss_changes":[7.284005E2,7.01161E2,0E0,3.1351404E2,0E0,0E0,1.9454797E2,4.6744205E2,3.7361377E2,0E0,0E0,4.8541962E2,0E0,0E0,0E0],"parents":[2147483647,0,0,1,1,3,3,6,6,7,7,8,8,11,11],"right_children":[2,4,-1,6,-1,-1,8,10,12,-1,-1,14,-1,-1,-1],"split_conditions":[1.9148542E0,1.5811388E0,4.098633E-1,-5.191034E-1,1.8606772E-1,-9.86499E-1,-4.9162722E-1,-5.0078595E-1,-4.5041296E-1,-2.90625E-1,6.457886E-1,-4.57282E-1,-5.0878907E-3,-2.4219239E-1,-1.2851623E0],"split_indices":[0,1,0,2,0,0,2,2,2,0,0,2,0,0,0],"split_type":[0,0,0,0,0,0,0,0,0,0,0,0,0,0,0],"sum_hessian":[2.8E1,2.2E1,6E0,1.4E1,8E0,1E0,1.3E1,4E0,9E0,3E0,1E0,5E0,4E0,4E0,1E0],"tree_param":{"num_deleted":"0","num_feature":"3","num_nodes":"15","size_leaf_vector":"1"}},{"base_weights":[-7.7933896E-1,-3.370531E0,3.9229563E-1,-7.3017416E0,1.7779948E-1,-9.618347E-1,-5.0751953E0,5.614746E-1,-7.3860106E0,-2.7973023E-1,6.296448E-1,-9.977173E-1,-3.7723796E0,2.0822755E-1,-4.2174682E-1],"categories":[],"categories_nodes":[],"categories_segments":[],"categories_sizes":[],"default_left":[0,0,0,0,0,0,0,0,0,0,0,0,0,0,0],"id":70,"left_children":[1,3,-1,5,-1,-1,7,9,11,-1,-1,-1,13,-1,-1],"loss_changes":[6.7458575E2,6.52246E2,0E0,3.0097583E2,0E0,0E0,1.8650134E2,4.4078418E2,3.788979E2,0E0,0E0,0E0,3.6818524E2,0E0,0E0],"parents":[2147483647,0,0,1,1,3,3,6,6,7,7,8,8,12,12],"right_children":[2,4,-1,6,-1,-1,8,10,12,-1,-1,-1,14,-1,-1],"split_conditions":[1.9148542E0,1.5811388E0,3.9229563E-1,-5.191034E-1,1.7779948E-1,-9.618347E-1,-4.9162722E-1,-5.0078595E-1,-4.6415105E-1,-2.7973023E-1,6.296448E-1,-9.977173E-1,-4.57282E-1,2.0822755E-1,-4.2174682E-1],"split_indices":[0,1,0,2,0,0,2,2,2,0,0,0,2,0,0],"split_type":[0,0,0,0,0,0,0,0,0,0,0,0,0,0,0],"sum_hessian":[2.8E1,2.2E1,6E0,1.4E1,8E0,1E0,1.3E1,4E0,9E0,3E0,1E0,1E0,8E0,3E0,5E0],"tree_param":{"num_deleted":"0","num_feature":"3","num_nodes":"15","size_leaf_vector":"1"}},{"base_weights":[-7.83582E-1,-3.273533E0,3.754813E-1,-7.0582194E0,1.6990018E-1,-9.733776E0,1.1982421E-2,-5.7371826E0,-1.2424927E0,-1.0486467E1,4.008362E0,-2.874532E-1,-9.7277224E-1,4.4137573E-1,-2.7026368E-2],"categories":[],"categories_nodes":[],"categories_segments":[],"categories_sizes":[],"default_left":[0,0,0,0,0,0,0,0,0,0,0,0,0,0,0],"id":71,"left_children":[1,3,-1,5,-1,7,-1,9,-1,11,13,-1,-1,-1,-1],"loss_changes":[6.234238E2,6.047263E2,0E0,2.9522052E2,0E0,5.219728E2,0E0,5.0487726E2,0E0,1.8557703E2,9.245869E1,0E0,0E0,0E0,0E0],"parents":[2147483647,0,0,1,1,3,3,5,5,7,7,9,9,10,10],"right_children":[2,4,-1,6,-1,8,-1,10,-1,12,14,-1,-1,-1,-1],"split_conditions":[1.9148542E0,1.5811388E0,3.754813E-1,-4.5041296E-1,1.6990018E-1,-4.57282E-1,1.1982421E-2,-4.6415105E-1,-1.2424927E0,-4.9162722E-1,-4.595717E-1,-2.874532E-1,-9.7277224E-1,4.4137573E-1,-2.7026368E-2],"split_indices":[0,1,0,2,0,2,0,2,0,2,2,0,0,0,0],"split_type":[0,0,0,0,0,0,0,0,0,0,0,0,0,0,0],"sum_hessian":[2.8E1,2.2E1,6E0,1.4E1,8E0,1E1,4E0,9E0,1E0,6E0,3E0,5E0,1E0,1E0,2E0],"tree_param":{"num_deleted":"0","num_feature":"3","num_nodes":"15","size_leaf_vector":"1"}},{"base_weights":[-7.972202E-1,-3.1927755E0,3.5938895E-1,-6.843766E0,1.6234809E-1,-9.30603E-1,-4.673741E0,8.3330077E-1,-6.9598875E0,-2.5846252E-1,6.210877E-1,-1.1791545E1,1.1503907E-2,-2.2291993E-1,-1.2114319E0],"categories":[],"categories_nodes":[],"categories_segments":[],"categories_sizes":[],"default_left":[0,0,0,0,0,0,0,0,0,0,0,0,0,0,0],"id":72,"left_children":[1,3,-1,5,-1,-1,7,9,11,-1,-1,13,-1,-1,-1],"loss_changes":[5.776757E2,5.629841E2,0E0,2.9607452E2,0E0,0E0,1.8205838E2,4.1201254E2,3.5010748E2,0E0,0E0,4.3919714E2,0E0,0E0,0E0],"parents":[2147483647,0,0,1,1,3,3,6,6,7,7,8,8,11,11],"right_children":[2,4,-1,6,-1,-1,8,10,12,-1,-1,14,-1,-1,-1],"split_conditions":[1.9148542E0,1.5811388E0,3.5938895E-1,-5.191034E-1,1.6234809E-1,-9.30603E-1,-4.9162722E-1,-5.0078595E-1,-4.5041296E-1,-2.5846252E-1,6.210877E-1,-4.57282E-1,1.1503907E-2,-2.2291993E-1,-1.2114319E0],"split_indices":[0,1,0,2,0,0,2,2,2,0,0,2,0,0,0],"split_type":[0,0,0,0,0,0,0,0,0,0,0,0,0,0,0],"sum_hessian":[2.8E1,2.2E1,6E0,1.4E1,8E0,1E0,1.3E1,4E0,9E0,3E0,1E0,5E0,4E0,4E0,1E0],"tree_param":{"num_deleted":"0","num_feature":"3","num_nodes":"15","size_leaf_vector":"1"}},{"base_weights":[-8.0800444E-1,-3.1126232E0,3.4398717E-1,-6.6342773E0,1.5513238E-1,-9.073364E-1,-4.5157647E0,8.64209E-1,-6.7541747E0,-2.487671E-1,6.055603E-1,-9.428833E-1,-3.3140461E0,4.359131E-1,-2.9539338E-1],"categories":[],"categories_nodes":[],"categories_segments":[],"categories_sizes":[],"default_left":[0,0,0,0,0,0,0,0,0,0,0,0,0,0,0],"id":73,"left_children":[1,3,-1,5,-1,-1,7,9,11,-1,-1,-1,13,-1,-1],"loss_changes":[5.3521655E2,5.240086E2,0E0,2.8389276E2,0E0,0E0,1.7443326E2,3.8864444E2,3.538805E2,0E0,0E0,0E0,3.3239322E2,0E0,0E0],"parents":[2147483647,0,0,1,1,3,3,6,6,7,7,8,8,12,12],"right_children":[2,4,-1,6,-1,-1,8,10,12,-1,-1,-1,14,-1,-1],"split_conditions":[1.9148542E0,1.5811388E0,3.4398717E-1,-5.191034E-1,1.5513238E-1,-9.073364E-1,-4.9162722E-1,-5.0078595E-1,-4.6415105E-1,-2.487671E-1,6.055603E-1,-9.428833E-1,-4.595717E-1,4.359131E-1,-2.9539338E-1],"split_indices":[0,1,0,2,0,0,2,2,2,0,0,0,2,0,0],"split_type":[0,0,0,0,0,0,0,0,0,0,0,0,0,0,0],"sum_hessian":[2.8E1,2.2E1,6E0,1.4E1,8E0,1E0,1.3E1,4E0,9E0,3E0,1E0,1E0,8E0,1E0,7E0],"tree_param":{"num_deleted":"0","num_feature":"3","num_nodes":"15","size_leaf_vector":"1"}},{"base_weights":[-7.970181E-1,-3.0090332E0,3.2924458E-1,-6.392757E0,1.4824219E-1,-8.846558E-1,-4.321795E0,8.923828E-1,-6.496704E0,-2.3943786E-1,5.904236E-1,-9.193115E-1,-3.1327312E0,2.0587158E-1,-3.7220258E-1],"categories":[],"categories_nodes":[],"categories_segments":[],"categories_sizes":[],"default_left":[0,0,0,0,0,0,0,0,0,0,0,0,0,0,0],"id":74,"left_children":[1,3,-1,5,-1,-1,7,9,11,-1,-1,-1,13,-1,-1],"loss_changes":[4.9335208E2,4.8387436E2,0E0,2.7457324E2,0E0,0E0,1.6456259E2,3.6662708E2,3.4236136E2,0E0,0E0,0E0,3.1197028E2,0E0,0E0],"parents":[2147483647,0,0,1,1,3,3,6,6,7,7,8,8,12,12],"right_children":[2,4,-1,6,-1,-1,8,10,12,-1,-1,-1,14,-1,-1],"split_conditions":[1.9148542E0,1.5811388E0,3.2924458E-1,-5.191034E-1,1.4824219E-1,-8.846558E-1,-4.9162722E-1,-5.0078595E-1,-4.6415105E-1,-2.3943786E-1,5.904236E-1,-9.193115E-1,-4.57282E-1,2.0587158E-1,-3.7220258E-1],"split_indices":[0,1,0,2,0,0,2,2,2,0,0,0,2,0,0],"split_type":[0,0,0,0,0,0,0,0,0,0,0,0,0,0,0],"sum_hessian":[2.8E1,2.2E1,6E0,1.4E1,8E0,1E0,1.3E1,4E0,9E0,3E0,1E0,1E0,8E0,3E0,5E0],"tree_param":{"num_deleted":"0","num_feature":"3","num_nodes":"15","size_leaf_vector":"1"}},{"base_weights":[-7.9650456E-1,-2.9224694E0,3.1512973E-1,-6.1809897E0,1.4165582E-1,-8.771839E0,3.7753906E-2,-4.991211E0,-1.1644531E0,-9.394915E0,3.9630737E0,-2.4926148E-1,-8.963257E-1,4.1986695E-1,-1.570638E-2],"categories":[],"categories_nodes":[],"categories_segments":[],"categories_sizes":[],"default_left":[0,0,0,0,0,0,0,0,0,0,0,0,0,0,0],"id":75,"left_children":[1,3,-1,5,-1,7,-1,9,-1,11,13,-1,-1,-1,-1],"loss_changes":[4.5609976E2,4.488694E2,0E0,2.761781E2,0E0,4.8748584E2,0E0,4.3155292E2,0E0,1.7398383E2,7.8502815E1,0E0,0E0,0E0,0E0],"parents":[2147483647,0,0,1,1,3,3,5,5,7,7,9,9,10,10],"right_children":[2,4,-1,6,-1,8,-1,10,-1,12,14,-1,-1,-1,-1],"split_conditions":[1.9148542E0,1.5811388E0,3.1512973E-1,-4.5041296E-1,1.4165582E-1,-4.57282E-1,3.7753906E-2,-4.6415105E-1,-1.1644531E0,-4.9162722E-1,-4.595717E-1,-2.4926148E-1,-8.963257E-1,4.1986695E-1,-1.570638E-2],"split_indices":[0,1,0,2,0,2,0,2,0,2,2,0,0,0,0],"split_type":[0,0,0,0,0,0,0,0,0,0,0,0,0,0,0],"sum_hessian":[2.8E1,2.2E1,6E0,1.4E1,8E0,1E1,4E0,9E0,1E0,6E0,3E0,5E0,1E0,1E0,2E0],"tree_param":{"num_deleted":"0","num_feature":"3","num_nodes":"15","size_leaf_vector":"1"}},{"base_weights":[-8.05361E-1,-3.6424496E0,4.1682796E0,-1.3218316E0,-1.1353394E0,3.6240235E-2,3.016218E-1,-4.81582E0,1.3536242E-1,-9.088832E0,3.8659058E0,-4.7775064E0,-8.7391967E-1,4.093689E-1,-1.5185547E-2,-5.194092E-1,5.8189696E-1],"categories":[],"categories_nodes":[],"categories_segments":[],"categories_sizes":[],"default_left":[0,0,0,0,0,0,0,0,0,0,0,0,0,0,0,0,0],"id":76,"left_children":[1,3,5,7,-1,-1,-1,9,-1,11,13,15,-1,-1,-1,-1,-1],"loss_changes":[4.2439188E2,8.1056537E2,6.623857E1,2.6643372E2,0E0,0E0,0E0,4.0610773E2,0E0,1.6968774E2,7.456212E1,6.735077E2,0E0,0E0,0E0,0E0,0E0],"parents":[2147483647,0,0,1,1,2,2,3,3,7,7,9,9,10,10,11,11],"right_children":[2,4,6,8,-1,-1,-1,10,-1,12,14,16,-1,-1,-1,-1,-1],"split_conditions":[-4.5041296E-1,-4.57282E-1,1.9148542E0,1.5811388E0,-1.1353394E0,3.6240235E-2,3.016218E-1,-4.6415105E-1,1.3536242E-1,-4.9162722E-1,-4.595717E-1,-5.0078595E-1,-8.7391967E-1,4.093689E-1,-1.5185547E-2,-5.194092E-1,5.8189696E-1],"split_indices":[2,2,0,1,0,0,0,2,0,2,2,2,0,0,0,0,0],"split_type":[0,0,0,0,0,0,0,0,0,0,0,0,0,0,0,0,0],"sum_hessian":[2.8E1,1.8E1,1E1,1.7E1,1E0,4E0,6E0,9E0,8E0,6E0,3E0,5E0,1E0,1E0,2E0,4E0,1E0],"tree_param":{"num_deleted":"0","num_feature":"3","num_nodes":"17","size_leaf_vector":"1"}},{"base_weights":[-8.022629E-1,-3.5348992E0,3.9906783E0,-1.2713759E0,-1.106958E0,3.4794923E-2,2.8869978E-1,-4.616797E0,1.2935112E-1,-8.750349E0,3.7711182E0,-4.52828E0,-8.520691E-1,3.991333E-1,-1.4680989E-2,-4.9863768E-1,5.673523E-1],"categories":[],"categories_nodes":[],"categories_segments":[],"categories_sizes":[],"default_left":[0,0,0,0,0,0,0,0,0,0,0,0,0,0,0,0,0],"id":77,"left_children":[1,3,5,7,-1,-1,-1,9,-1,11,13,15,-1,-1,-1,-1,-1],"loss_changes":[3.9393024E2,7.719653E2,6.061389E1,2.4428719E2,0E0,0E0,0E0,3.797174E2,0E0,1.6786908E2,7.081922E1,6.317581E2,0E0,0E0,0E0,0E0,0E0],"parents":[2147483647,0,0,1,1,2,2,3,3,7,7,9,9,10,10,11,11],"right_children":[2,4,6,8,-1,-1,-1,10,-1,12,14,16,-1,-1,-1,-1,-1],"split_conditions":[-4.5041296E-1,-4.57282E-1,1.9148542E0,1.5811388E0,-1.106958E0,3.4794923E-2,2.8869978E-1,-4.6415105E-1,1.2935112E-1,-4.9162722E-1,-4.595717E-1,-5.0078595E-1,-8.520691E-1,3.991333E-1,-1.4680989E-2,-4.9863768E-1,5.673523E-1],"split_indices":[2,2,0,1,0,0,0,2,0,2,2,2,0,0,0,0,0],"split_type":[0,0,0,0,0,0,0,0,0,0,0,0,0,0,0,0,0],"sum_hessian":[2.8E1,1.8E1,1E1,1.7E1,1E0,4E0,6E0,9E0,8E0,6E0,3E0,5E0,1E0,1E0,2E0,4E0,1E0],"tree_param":{"num_deleted":"0","num_feature":"3","num_nodes":"17","size_leaf_vector":"1"}},{"base_weights":[-7.985335E-1,-3.4306512E0,3.8204458E0,-1.2228326E0,-1.0792847E0,3.339844E-2,2.7632186E-1,-4.4259033E0,1.2360026E-1,-8.3085936E-1,-1.224962E0,-4.2898765E0,3.67865E0,7.491455E-2,-8.307678E-1,3.8915405E-1,-1.4192708E-2],"categories":[],"categories_nodes":[],"categories_segments":[],"categories_sizes":[],"default_left":[0,0,0,0,0,0,0,0,0,0,0,0,0,0,0,0,0],"id":78,"left_children":[1,3,5,7,-1,-1,-1,9,-1,-1,11,13,15,-1,-1,-1,-1],"loss_changes":[3.656798E2,7.351821E2,5.5467606E1,2.2396773E2,0E0,0E0,0E0,3.698804E2,0E0,0E0,1.510433E2,4.5294626E2,6.7264565E1,0E0,0E0,0E0,0E0],"parents":[2147483647,0,0,1,1,2,2,3,3,7,7,10,10,11,11,12,12],"right_children":[2,4,6,8,-1,-1,-1,10,-1,-1,12,14,16,-1,-1,-1,-1],"split_conditions":[-4.5041296E-1,-4.57282E-1,1.9148542E0,1.5811388E0,-1.0792847E0,3.339844E-2,2.7632186E-1,-5.191034E-1,1.2360026E-1,-8.3085936E-1,-4.6415105E-1,-4.9162722E-1,-4.595717E-1,7.491455E-2,-8.307678E-1,3.8915405E-1,-1.4192708E-2],"split_indices":[2,2,0,1,0,0,0,2,0,0,2,2,2,0,0,0,0],"split_type":[0,0,0,0,0,0,0,0,0,0,0,0,0,0,0,0,0],"sum_hessian":[2.8E1,1.8E1,1E1,1.7E1,1E0,4E0,6E0,9E0,8E0,1E0,8E0,5E0,3E0,4E0,1E0,1E0,2E0],"tree_param":{"num_deleted":"0","num_feature":"3","num_nodes":"17","size_leaf_vector":"1"}},{"base_weights":[-8.2266974E-1,-3.3731754E0,3.6575372E0,-1.2221273E0,-1.052301E0,3.2060545E-2,2.6447755E-1,-4.3258057E0,1.18109815E-1,-8.100891E-1,-1.2060547E0,-4.2013755E0,3.58844E0,7.1916506E-2,-8.0999756E-1,3.7942505E-1,-1.3720703E-2],"categories":[],"categories_nodes":[],"categories_segments":[],"categories_sizes":[],"default_left":[0,0,0,0,0,0,0,0,0,0,0,0,0,0,0,0,0],"id":79,"left_children":[1,3,5,7,-1,-1,-1,9,-1,-1,11,13,15,-1,-1,-1,-1],"loss_changes":[3.4371454E2,6.965667E2,5.0757828E1,2.1046097E2,0E0,0E0,0E0,3.5096066E2,0E0,0E0,1.4432582E2,4.293115E2,6.3888992E1,0E0,0E0,0E0,0E0],"parents":[2147483647,0,0,1,1,2,2,3,3,7,7,10,10,11,11,12,12],"right_children":[2,4,6,8,-1,-1,-1,10,-1,-1,12,14,16,-1,-1,-1,-1],"split_conditions":[-4.5041296E-1,-4.57282E-1,1.9148542E0,1.5811388E0,-1.052301E0,3.2060545E-2,2.6447755E-1,-5.191034E-1,1.18109815E-1,-8.100891E-1,-4.6415105E-1,-4.9162722E-1,-4.595717E-1,7.1916506E-2,-8.0999756E-1,3.7942505E-1,-1.3720703E-2],"split_indices":[2,2,0,1,0,0,0,2,0,0,2,2,2,0,0,0,0],"split_type":[0,0,0,0,0,0,0,0,0,0,0,0,0,0,0,0,0],"sum_hessian":[2.8E1,1.8E1,1E1,1.7E1,1E0,4E0,6E0,9E0,8E0,1E0,8E0,5E0,3E0,4E0,1E0,1E0,2E0],"tree_param":{"num_deleted":"0","num_feature":"3","num_nodes":"17","size_leaf_vector":"1"}},{"base_weights":[-8.4430563E-1,-3.3159695E0,3.5016868E0,-1.2202013E0,-1.0259949E0,3.0781252E-2,2.5314593E-1,-4.2278075E0,1.1285807E-1,-7.8983766E-1,-1.1871744E0,-4.11438E0,3.5004272E0,6.903564E-2,-7.897461E-1,3.699402E-1,-1.3264974E-2],"categories":[],"categories_nodes":[],"categories_segments":[],"categories_sizes":[],"default_left":[0,0,0,0,0,0,0,0,0,0,0,0,0,0,0,0,0],"id":80,"left_children":[1,3,5,7,-1,-1,-1,9,-1,-1,11,13,15,-1,-1,-1,-1],"loss_changes":[3.231246E2,6.60015E2,4.6447067E1,1.9779651E2,0E0,0E0,0E0,3.330157E2,0E0,0E0,1.3789624E2,4.069222E2,6.0683784E1,0E0,0E0,0E0,0E0],"parents":[2147483647,0,0,1,1,2,2,3,3,7,7,10,10,11,11,12,12],"right_children":[2,4,6,8,-1,-1,-1,10,-1,-1,12,14,16,-1,-1,-1,-1],"split_conditions":[-4.5041296E-1,-4.57282E-1,1.9148542E0,1.5811388E0,-1.0259949E0,3.0781252E-2,2.5314593E-1,-5.191034E-1,1.1285807E-1,-7.8983766E-1,-4.6415105E-1,-4.9162722E-1,-4.595717E-1,6.903564E-2,-7.897461E-1,3.699402E-1,-1.3264974E-2],"split_indices":[2,2,0,1,0,0,0,2,0,0,2,2,2,0,0,0,0],"split_type":[0,0,0,0,0,0,0,0,0,0,0,0,0,0,0,0,0],"sum_hessian":[2.8E1,1.8E1,1E1,1.7E1,1E0,4E0,6E0,9E0,8E0,1E0,8E0,5E0,3E0,4E0,1E0,1E0,2E0],"tree_param":{"num_deleted":"0","num_feature":"3","num_nodes":"17","size_leaf_vector":"1"}},{"base_weights":[-8.635759E-1,-3.2589562E0,3.3524058E0,-1.2170138E0,-1.000348E0,2.9550781E-2,2.4229562E-1,-4.131836E0,1.0784506E-1,-7.700928E-1,-1.1682943E0,-4.0288086E0,3.4145508E0,6.6271976E-2,-7.7000123E-1,3.6069337E-1,-1.2825521E-2],"categories":[],"categories_nodes":[],"categories_segments":[],"categories_sizes":[],"default_left":[0,0,0,0,0,0,0,0,0,0,0,0,0,0,0,0,0],"id":81,"left_children":[1,3,5,7,-1,-1,-1,9,-1,-1,11,13,15,-1,-1,-1,-1],"loss_changes":[3.0379285E2,6.254219E2,4.2501694E1,1.8593045E2,0E0,0E0,0E0,3.1599783E2,0E0,0E0,1.317402E2,3.8571765E2,5.7640526E1,0E0,0E0,0E0,0E0],"parents":[2147483647,0,0,1,1,2,2,3,3,7,7,10,10,11,11,12,12],"right_children":[2,4,6,8,-1,-1,-1,10,-1,-1,12,14,16,-1,-1,-1,-1],"split_conditions":[-4.5041296E-1,-4.57282E-1,1.9148542E0,1.5811388E0,-1.000348E0,2.9550781E-2,2.4229562E-1,-5.191034E-1,1.0784506E-1,-7.700928E-1,-4.6415105E-1,-4.9162722E-1,-4.595717E-1,6.6271976E-2,-7.7000123E-1,3.6069337E-1,-1.2825521E-2],"split_indices":[2,2,0,1,0,0,0,2,0,0,2,2,2,0,0,0,0],"split_type":[0,0,0,0,0,0,0,0,0,0,0,0,0,0,0,0,0],"sum_hessian":[2.8E1,1.8E1,1E1,1.7E1,1E0,4E0,6E0,9E0,8E0,1E0,8E0,5E0,3E0,4E0,1E0,1E0,2E0],"tree_param":{"num_deleted":"0","num_feature":"3","num_nodes":"17","size_leaf_vector":"1"}},{"base_weights":[-8.805984E-1,-3.2022383E0,3.2095613E0,-1.2127143E0,-9.753418E-1,2.8369142E-2,2.3191617E-1,-4.0377684E0,1.0304904E-1,-7.508423E-1,-1.1493326E0,-3.94458E0,3.3308716E0,6.362549E-2,-7.507507E-1,3.5167846E-1,-1.2394206E-2],"categories":[],"categories_nodes":[],"categories_segments":[],"categories_sizes":[],"default_left":[0,0,0,0,0,0,0,0,0,0,0,0,0,0,0,0,0],"id":82,"left_children":[1,3,5,7,-1,-1,-1,9,-1,-1,11,13,15,-1,-1,-1,-1],"loss_changes":[2.8565826E2,5.926732E2,3.889377E1,1.7479236E2,0E0,0E0,0E0,2.9986426E2,0E0,0E0,1.25848404E2,3.6563947E2,5.474771E1,0E0,0E0,0E0,0E0],"parents":[2147483647,0,0,1,1,2,2,3,3,7,7,10,10,11,11,12,12],"right_children":[2,4,6,8,-1,-1,-1,10,-1,-1,12,14,16,-1,-1,-1,-1],"split_conditions":[-4.5041296E-1,-4.57282E-1,1.9148542E0,1.5811388E0,-9.753418E-1,2.8369142E-2,2.3191617E-1,-5.191034E-1,1.0304904E-1,-7.508423E-1,-4.6415105E-1,-4.9162722E-1,-4.595717E-1,6.362549E-2,-7.507507E-1,3.5167846E-1,-1.2394206E-2],"split_indices":[2,2,0,1,0,0,0,2,0,0,2,2,2,0,0,0,0],"split_type":[0,0,0,0,0,0,0,0,0,0,0,0,0,0,0,0,0],"sum_hessian":[2.8E1,1.8E1,1E1,1.7E1,1E0,4E0,6E0,9E0,8E0,1E0,8E0,5E0,3E0,4E0,1E0,1E0,2E0],"tree_param":{"num_deleted":"0","num_feature":"3","num_nodes":"17","size_leaf_vector":"1"}},{"base_weights":[-8.955583E-1,-3.1458676E0,3.072754E0,-1.2073975E0,-9.5095825E-1,2.7236328E-2,2.2197615E-1,-3.9457765E0,9.8470055E-2,-7.3207396E-1,-1.1305338E0,-3.8619385E0,3.2492065E0,6.107666E-2,-7.319824E-1,3.428894E-1,-1.1979166E-2],"categories":[],"categories_nodes":[],"categories_segments":[],"categories_sizes":[],"default_left":[0,0,0,0,0,0,0,0,0,0,0,0,0,0,0,0,0],"id":83,"left_children":[1,3,5,7,-1,-1,-1,9,-1,-1,11,13,15,-1,-1,-1,-1],"loss_changes":[2.6863443E2,5.616647E2,3.5589203E1,1.6435782E2,0E0,0E0,0E0,2.845573E2,0E0,0E0,1.2021384E2,3.466119E2,5.2001347E1,0E0,0E0,0E0,0E0],"parents":[2147483647,0,0,1,1,2,2,3,3,7,7,10,10,11,11,12,12],"right_children":[2,4,6,8,-1,-1,-1,10,-1,-1,12,14,16,-1,-1,-1,-1],"split_conditions":[-4.5041296E-1,-4.57282E-1,1.9148542E0,1.5811388E0,-9.5095825E-1,2.7236328E-2,2.2197615E-1,-5.191034E-1,9.8470055E-2,-7.3207396E-1,-4.6415105E-1,-4.9162722E-1,-4.595717E-1,6.107666E-2,-7.319824E-1,3.428894E-1,-1.1979166E-2],"split_indices":[2,2,0,1,0,0,0,2,0,0,2,2,2,0,0,0,0],"split_type":[0,0,0,0,0,0,0,0,0,0,0,0,0,0,0,0,0],"sum_hessian":[2.8E1,1.8E1,1E1,1.7E1,1E0,4E0,6E0,9E0,8E0,1E0,8E0,5E0,3E0,4E0,1E0,1E0,2E0],"tree_param":{"num_deleted":"0","num_feature":"3","num_nodes":"17","size_leaf_vector":"1"}},{"base_weights":[-9.08523E-1,-3.089818E0,2.9417613E0,-1.2010634E0,-9.2718506E-1,2.614258E-2,2.1246512E-1,-3.855664E0,9.409722E-2,-7.1376956E-1,-1.1117622E0,-3.7806396E0,3.1694946E0,5.8635253E-2,-7.136841E-1,3.3432007E-1,-1.1580404E-2],"categories":[],"categories_nodes":[],"categories_segments":[],"categories_sizes":[],"default_left":[0,0,0,0,0,0,0,0,0,0,0,0,0,0,0,0,0],"id":84,"left_children":[1,3,5,7,-1,-1,-1,9,-1,-1,11,13,15,-1,-1,-1,-1],"loss_changes":[2.5264908E2,5.3231116E2,3.2569305E1,1.5457094E2,0E0,0E0,0E0,2.7003625E2,0E0,0E0,1.1481807E2,3.2859274E2,4.9394066E1,0E0,0E0,0E0,0E0],"parents":[2147483647,0,0,1,1,2,2,3,3,7,7,10,10,11,11,12,12],"right_children":[2,4,6,8,-1,-1,-1,10,-1,-1,12,14,16,-1,-1,-1,-1],"split_conditions":[-4.5041296E-1,-4.57282E-1,1.9148542E0,1.5811388E0,-9.2718506E-1,2.614258E-2,2.1246512E-1,-5.191034E-1,9.409722E-2,-7.1376956E-1,-4.6415105E-1,-4.9162722E-1,-4.595717E-1,5.8635253E-2,-7.136841E-1,3.3432007E-1,-1.1580404E-2],"split_indices":[2,2,0,1,0,0,0,2,0,0,2,2,2,0,0,0,0],"split_type":[0,0,0,0,0,0,0,0,0,0,0,0,0,0,0,0,0],"sum_hessian":[2.8E1,1.8E1,1E1,1.7E1,1E0,4E0,6E0,9E0,8E0,1E0,8E0,5E0,3E0,4E0,1E0,1E0,2E0],"tree_param":{"num_deleted":"0","num_feature":"3","num_nodes":"17","size_leaf_vector":"1"}},{"base_weights":[-9.196188E-1,-3.0341797E0,2.8164062E0,-1.1938477E0,-9.040039E-1,2.5097657E-2,2.0336215E-1,-3.7674804E0,8.991971E-2,-6.9592285E-1,-1.093099E0,-3.700765E0,3.0916748E0,5.6291502E-2,-6.958435E-1,3.2596436E-1,-1.1197916E-2],"categories":[],"categories_nodes":[],"categories_segments":[],"categories_sizes":[],"default_left":[0,0,0,0,0,0,0,0,0,0,0,0,0,0,0,0,0],"id":85,"left_children":[1,3,5,7,-1,-1,-1,9,-1,-1,11,13,15,-1,-1,-1,-1],"loss_changes":[2.3764697E2,5.0451468E2,2.9803482E1,1.4539218E2,0E0,0E0,0E0,2.562616E2,0E0,0E0,1.0965401E2,3.1152203E2,4.6918873E1,0E0,0E0,0E0,0E0],"parents":[2147483647,0,0,1,1,2,2,3,3,7,7,10,10,11,11,12,12],"right_children":[2,4,6,8,-1,-1,-1,10,-1,-1,12,14,16,-1,-1,-1,-1],"split_conditions":[-4.5041296E-1,-4.57282E-1,1.9148542E0,1.5811388E0,-9.040039E-1,2.5097657E-2,2.0336215E-1,-5.191034E-1,8.991971E-2,-6.9592285E-1,-4.6415105E-1,-4.9162722E-1,-4.595717E-1,5.6291502E-2,-6.958435E-1,3.2596436E-1,-1.1197916E-2],"split_indices":[2,2,0,1,0,0,0,2,0,0,2,2,2,0,0,0,0],"split_type":[0,0,0,0,0,0,0,0,0,0,0,0,0,0,0,0,0],"sum_hessian":[2.8E1,1.8E1,1E1,1.7E1,1E0,4E0,6E0,9E0,8E0,1E0,8E0,5E0,3E0,4E0,1E0,1E0,2E0],"tree_param":{"num_deleted":"0","num_feature":"3","num_nodes":"17","size_leaf_vector":"1"}},{"base_weights":[-9.2903084E-1,-2.9790297E0,2.6963334E0,-1.1858588E0,-8.814026E-1,2.4091797E-2,1.9464634E-1,-3.6812255E0,8.592665E-2,-8.668457E0,1.0883383E0,-6.7852783E-1,-2.0251465E-1,5.401184E-1,-3.0149415E0,-6.784485E-1,1.5079041E-1],"categories":[],"categories_nodes":[],"categories_segments":[],"categories_sizes":[],"default_left":[0,0,0,0,0,0,0,0,0,0,0,0,0,0,0,0,0],"id":86,"left_children":[1,3,5,7,-1,-1,-1,9,-1,11,13,-1,-1,-1,15,-1,-1],"loss_changes":[2.2356024E2,4.7819135E2,2.7272629E1,1.3678172E2,0E0,0E0,0E0,2.473034E2,0E0,5.822876E1,2.717248E2,0E0,0E0,0E0,3.5916492E2,0E0,0E0],"parents":[2147483647,0,0,1,1,2,2,3,3,7,7,9,9,10,10,14,14],"right_children":[2,4,6,8,-1,-1,-1,10,-1,12,14,-1,-1,-1,16,-1,-1],"split_conditions":[-4.5041296E-1,-4.57282E-1,1.9148542E0,1.5811388E0,-8.814026E-1,2.4091797E-2,1.9464634E-1,-5.0078595E-1,8.592665E-2,-5.191034E-1,-4.9162722E-1,-6.7852783E-1,-2.0251465E-1,5.401184E-1,-4.6415105E-1,-6.784485E-1,1.5079041E-1],"split_indices":[2,2,0,1,0,0,0,2,0,2,2,0,0,0,2,0,0],"split_type":[0,0,0,0,0,0,0,0,0,0,0,0,0,0,0,0,0],"sum_hessian":[2.8E1,1.8E1,1E1,1.7E1,1E0,4E0,6E0,9E0,8E0,4E0,5E0,1E0,3E0,1E0,4E0,1E0,3E0],"tree_param":{"num_deleted":"0","num_feature":"3","num_nodes":"17","size_leaf_vector":"1"}},{"base_weights":[-9.324151E-1,-2.9176605E0,2.5814097E0,-1.170044E0,-8.593689E-1,2.3125E-2,1.863072E-1,-3.5840087E0,8.210721E-2,-8.411181E0,1.0359701E0,-6.615662E-1,-1.9491577E-1,5.2661747E-1,-2.9697754E0,-6.614868E-1,1.4513245E-1],"categories":[],"categories_nodes":[],"categories_segments":[],"categories_sizes":[],"default_left":[0,0,0,0,0,0,0,0,0,0,0,0,0,0,0,0,0],"id":87,"left_children":[1,3,5,7,-1,-1,-1,9,-1,11,13,-1,-1,-1,15,-1,-1],"loss_changes":[2.0983E2,4.5371188E2,2.495813E1,1.2807886E2,0E0,0E0,0E0,2.317281E2,0E0,5.718338E1,2.5951917E2,0E0,0E0,0E0,3.396555E2,0E0,0E0],"parents":[2147483647,0,0,1,1,2,2,3,3,7,7,9,9,10,10,14,14],"right_children":[2,4,6,8,-1,-1,-1,10,-1,12,14,-1,-1,-1,16,-1,-1],"split_conditions":[-4.5041296E-1,-4.57282E-1,1.9148542E0,1.5811388E0,-8.593689E-1,2.3125E-2,1.863072E-1,-5.0078595E-1,8.210721E-2,-5.191034E-1,-4.9162722E-1,-6.615662E-1,-1.9491577E-1,5.2661747E-1,-4.6415105E-1,-6.614868E-1,1.4513245E-1],"split_indices":[2,2,0,1,0,0,0,2,0,2,2,0,0,0,2,0,0],"split_type":[0,0,0,0,0,0,0,0,0,0,0,0,0,0,0,0,0],"sum_hessian":[2.8E1,1.8E1,1E1,1.7E1,1E0,4E0,6E0,9E0,8E0,4E0,5E0,1E0,3E0,1E0,4E0,1E0,3E0],"tree_param":{"num_deleted":"0","num_feature":"3","num_nodes":"17","size_leaf_vector":"1"}},{"base_weights":[-9.3453664E-1,-2.8571906E0,2.471369E0,-1.1539578E0,-8.3788455E-1,2.2197267E-2,1.783238E-1,-3.4894288E0,7.846137E-2,-6.450257E-1,-1.0103624E0,-3.378133E0,2.7938843E0,5.529297E-2,-6.449524E-1,3.104187E-1,-2.0686848E-2],"categories":[],"categories_nodes":[],"categories_segments":[],"categories_sizes":[],"default_left":[0,0,0,0,0,0,0,0,0,0,0,0,0,0,0,0,0],"id":88,"left_children":[1,3,5,7,-1,-1,-1,9,-1,-1,11,13,15,-1,-1,-1,-1],"loss_changes":[1.9696413E2,4.3050226E2,2.2839386E1,1.1995427E2,0E0,0E0,0E0,2.2027283E2,0E0,0E0,9.050637E1,2.704148E2,4.637819E1,0E0,0E0,0E0,0E0],"parents":[2147483647,0,0,1,1,2,2,3,3,7,7,10,10,11,11,12,12],"right_children":[2,4,6,8,-1,-1,-1,10,-1,-1,12,14,16,-1,-1,-1,-1],"split_conditions":[-4.5041296E-1,-4.57282E-1,1.9148542E0,1.5811388E0,-8.3788455E-1,2.2197267E-2,1.783238E-1,-5.191034E-1,7.846137E-2,-6.450257E-1,-4.6415105E-1,-4.9162722E-1,-4.595717E-1,5.529297E-2,-6.449524E-1,3.104187E-1,-2.0686848E-2],"split_indices":[2,2,0,1,0,0,0,2,0,0,2,2,2,0,0,0,0],"split_type":[0,0,0,0,0,0,0,0,0,0,0,0,0,0,0,0,0],"sum_hessian":[2.8E1,1.8E1,1E1,1.7E1,1E0,4E0,6E0,9E0,8E0,1E0,8E0,5E0,3E0,4E0,1E0,1E0,2E0],"tree_param":{"num_deleted":"0","num_feature":"3","num_nodes":"17","size_leaf_vector":"1"}},{"base_weights":[-9.3959624E-1,-2.803955E0,2.3660777E0,-1.1443143E0,-8.1693727E-1,2.1308593E-2,1.706857E-1,-3.409375E0,7.49783E-2,-8.066065E0,1.0394287E0,-6.289002E-1,-1.8967895E-1,5.1207274E-1,-2.8492675E0,-6.288269E-1,1.3633423E-1],"categories":[],"categories_nodes":[],"categories_segments":[],"categories_sizes":[],"default_left":[0,0,0,0,0,0,0,0,0,0,0,0,0,0,0,0,0],"id":89,"left_children":[1,3,5,7,-1,-1,-1,9,-1,11,13,-1,-1,-1,15,-1,-1],"loss_changes":[1.8536029E2,4.0809827E2,2.0900635E1,1.1290648E2,0E0,0E0,0E0,2.1555109E2,0E0,4.867032E1,2.4388397E2,0E0,0E0,0E0,3.054862E2,0E0,0E0],"parents":[2147483647,0,0,1,1,2,2,3,3,7,7,9,9,10,10,14,14],"right_children":[2,4,6,8,-1,-1,-1,10,-1,12,14,-1,-1,-1,16,-1,-1],"split_conditions":[-4.5041296E-1,-4.57282E-1,1.9148542E0,1.5811388E0,-8.1693727E-1,2.1308593E-2,1.706857E-1,-5.0078595E-1,7.49783E-2,-5.191034E-1,-4.9162722E-1,-6.289002E-1,-1.8967895E-1,5.1207274E-1,-4.6415105E-1,-6.288269E-1,1.3633423E-1],"split_indices":[2,2,0,1,0,0,0,2,0,2,2,0,0,0,2,0,0],"split_type":[0,0,0,0,0,0,0,0,0,0,0,0,0,0,0,0,0],"sum_hessian":[2.8E1,1.8E1,1E1,1.7E1,1E0,4E0,6E0,9E0,8E0,4E0,5E0,1E0,3E0,1E0,4E0,1E0,3E0],"tree_param":{"num_deleted":"0","num_feature":"3","num_nodes":"17","size_leaf_vector":"1"}},{"base_weights":[-9.3909115E-1,-2.7448215E0,2.26527E0,-1.1272787E0,-7.965149E-1,2.0458985E-2,1.6337194E-1,-3.31875E0,7.164714E-2,-7.8264647E0,9.90804E-1,-6.131775E-1,-1.8256532E-1,4.992737E-1,-2.8052247E0,-6.131043E-1,1.3122559E-1],"categories":[],"categories_nodes":[],"categories_segments":[],"categories_sizes":[],"default_left":[0,0,0,0,0,0,0,0,0,0,0,0,0,0,0,0,0],"id":90,"left_children":[1,3,5,7,-1,-1,-1,9,-1,11,13,-1,-1,-1,15,-1,-1],"loss_changes":[1.7401791E2,3.8727557E2,1.9124306E1,1.05747314E2,0E0,0E0,0E0,2.020169E2,0E0,4.78497E1,2.3287566E2,0E0,0E0,0E0,2.8892328E2,0E0,0E0],"parents":[2147483647,0,0,1,1,2,2,3,3,7,7,9,9,10,10,14,14],"right_children":[2,4,6,8,-1,-1,-1,10,-1,12,14,-1,-1,-1,16,-1,-1],"split_conditions":[-4.5041296E-1,-4.57282E-1,1.9148542E0,1.5811388E0,-7.965149E-1,2.0458985E-2,1.6337194E-1,-5.0078595E-1,7.164714E-2,-5.191034E-1,-4.9162722E-1,-6.131775E-1,-1.8256532E-1,4.992737E-1,-4.6415105E-1,-6.131043E-1,1.3122559E-1],"split_indices":[2,2,0,1,0,0,0,2,0,2,2,0,0,0,2,0,0],"split_type":[0,0,0,0,0,0,0,0,0,0,0,0,0,0,0,0,0],"sum_hessian":[2.8E1,1.8E1,1E1,1.7E1,1E0,4E0,6E0,9E0,8E0,4E0,5E0,1E0,3E0,1E0,4E0,1E0,3E0],"tree_param":{"num_deleted":"0","num_feature":"3","num_nodes":"17","size_leaf_vector":"1"}},{"base_weights":[-9.3758416E-1,-2.6866262E0,2.1687233E0,-1.1101074E0,-7.765991E-1,1.9638672E-2,1.5637207E-1,-3.2306151E0,6.846788E-2,-5.978455E-1,-9.324815E-1,-3.0828044E0,2.526123E0,5.4143067E-2,-5.977783E-1,2.959717E-1,-2.890625E-2],"categories":[],"categories_nodes":[],"categories_segments":[],"categories_sizes":[],"default_left":[0,0,0,0,0,0,0,0,0,0,0,0,0,0,0,0,0],"id":91,"left_children":[1,3,5,7,-1,-1,-1,9,-1,-1,11,13,15,-1,-1,-1,-1],"loss_changes":[1.6338536E2,3.6752582E2,1.7500614E1,9.906292E1,0E0,0E0,0E0,1.893923E2,0E0,0E0,7.472159E1,2.3471198E2,4.5556885E1,0E0,0E0,0E0,0E0],"parents":[2147483647,0,0,1,1,2,2,3,3,7,7,10,10,11,11,12,12],"right_children":[2,4,6,8,-1,-1,-1,10,-1,-1,12,14,16,-1,-1,-1,-1],"split_conditions":[-4.5041296E-1,-4.57282E-1,1.9148542E0,1.5811388E0,-7.765991E-1,1.9638672E-2,1.5637207E-1,-5.191034E-1,6.846788E-2,-5.978455E-1,-4.6415105E-1,-4.9162722E-1,-4.595717E-1,5.4143067E-2,-5.977783E-1,2.959717E-1,-2.890625E-2],"split_indices":[2,2,0,1,0,0,0,2,0,0,2,2,2,0,0,0,0],"split_type":[0,0,0,0,0,0,0,0,0,0,0,0,0,0,0,0,0],"sum_hessian":[2.8E1,1.8E1,1E1,1.7E1,1E0,4E0,6E0,9E0,8E0,1E0,8E0,5E0,3E0,4E0,1E0,1E0,2E0],"tree_param":{"num_deleted":"0","num_feature":"3","num_nodes":"17","size_leaf_vector":"1"}},{"base_weights":[-9.392006E-1,-2.6355622E0,2.0762606E0,-1.0993516E0,-7.5718385E-1,1.8857423E-2,1.4966518E-1,-3.1565673E0,6.542969E-2,-7.507178E0,9.950358E-1,-5.8289796E-1,-1.7774963E-1,4.85437E-1,-2.6894531E0,-5.828369E-1,1.23327635E-1],"categories":[],"categories_nodes":[],"categories_segments":[],"categories_sizes":[],"default_left":[0,0,0,0,0,0,0,0,0,0,0,0,0,0,0,0,0],"id":92,"left_children":[1,3,5,7,-1,-1,-1,9,-1,11,13,-1,-1,-1,15,-1,-1],"loss_changes":[1.538162E2,3.4843866E2,1.601083E1,9.32966E1,0E0,0E0,0E0,1.8809001E2,0E0,4.0579285E1,2.1874448E2,0E0,0E0,0E0,2.5992883E2,0E0,0E0],"parents":[2147483647,0,0,1,1,2,2,3,3,7,7,9,9,10,10,14,14],"right_children":[2,4,6,8,-1,-1,-1,10,-1,12,14,-1,-1,-1,16,-1,-1],"split_conditions":[-4.5041296E-1,-4.57282E-1,1.9148542E0,1.5811388E0,-7.5718385E-1,1.8857423E-2,1.4966518E-1,-5.0078595E-1,6.542969E-2,-5.191034E-1,-4.9162722E-1,-5.8289796E-1,-1.7774963E-1,4.85437E-1,-4.6415105E-1,-5.828369E-1,1.23327635E-1],"split_indices":[2,2,0,1,0,0,0,2,0,2,2,0,0,0,2,0,0],"split_type":[0,0,0,0,0,0,0,0,0,0,0,0,0,0,0,0,0],"sum_hessian":[2.8E1,1.8E1,1E1,1.7E1,1E0,4E0,6E0,9E0,8E0,4E0,5E0,1E0,3E0,1E0,4E0,1E0,3E0],"tree_param":{"num_deleted":"0","num_feature":"3","num_nodes":"17","size_leaf_vector":"1"}},{"base_weights":[-9.356058E-1,-2.5788574E0,1.987793E0,-1.0815566E0,-7.382569E-1,1.8105468E-2,1.4325126E-1,-3.0721924E0,6.25217E-2,-7.2839355E0,9.496257E-1,-5.683228E-1,-1.710846E-1,4.7330323E-1,-2.646875E0,-5.682678E-1,1.1870422E-1],"categories":[],"categories_nodes":[],"categories_segments":[],"categories_sizes":[],"default_left":[0,0,0,0,0,0,0,0,0,0,0,0,0,0,0,0,0],"id":93,"left_children":[1,3,5,7,-1,-1,-1,9,-1,11,13,-1,-1,-1,15,-1,-1],"loss_changes":[1.4443874E2,3.3071466E2,1.464967E1,8.740016E1,0E0,0E0,0E0,1.7630566E2,0E0,3.9945923E1,2.0883176E2,0E0,0E0,0E0,2.4585802E2,0E0,0E0],"parents":[2147483647,0,0,1,1,2,2,3,3,7,7,9,9,10,10,14,14],"right_children":[2,4,6,8,-1,-1,-1,10,-1,12,14,-1,-1,-1,16,-1,-1],"split_conditions":[-4.5041296E-1,-4.57282E-1,1.9148542E0,1.5811388E0,-7.382569E-1,1.8105468E-2,1.4325126E-1,-5.0078595E-1,6.25217E-2,-5.191034E-1,-4.9162722E-1,-5.683228E-1,-1.710846E-1,4.7330323E-1,-4.6415105E-1,-5.682678E-1,1.1870422E-1],"split_indices":[2,2,0,1,0,0,0,2,0,2,2,0,0,0,2,0,0],"split_type":[0,0,0,0,0,0,0,0,0,0,0,0,0,0,0,0,0],"sum_hessian":[2.8E1,1.8E1,1E1,1.7E1,1E0,4E0,6E0,9E0,8E0,4E0,5E0,1E0,3E0,1E0,4E0,1E0,3E0],"tree_param":{"num_deleted":"0","num_feature":"3","num_nodes":"17","size_leaf_vector":"1"}},{"base_weights":[-9.312281E-1,-2.5231164E0,1.903054E0,-1.0637343E0,-7.197998E-1,1.7382814E-2,1.3710938E-1,-2.9901123E0,5.9743922E-2,-7.0675783E0,9.061279E-1,-5.541138E-1,-1.6466676E-1,4.6146852E-1,-2.6043944E0,-5.5405885E-1,1.14254765E-1],"categories":[],"categories_nodes":[],"categories_segments":[],"categories_sizes":[],"default_left":[0,0,0,0,0,0,0,0,0,0,0,0,0,0,0,0,0],"id":94,"left_children":[1,3,5,7,-1,-1,-1,9,-1,11,13,-1,-1,-1,15,-1,-1],"loss_changes":[1.3564557E2,3.1390076E2,1.3403713E1,8.188977E1,0E0,0E0,0E0,1.6527199E2,0E0,3.9264587E1,1.993505E2,0E0,0E0,0E0,2.3255724E2,0E0,0E0],"parents":[2147483647,0,0,1,1,2,2,3,3,7,7,9,9,10,10,14,14],"right_children":[2,4,6,8,-1,-1,-1,10,-1,12,14,-1,-1,-1,16,-1,-1],"split_conditions":[-4.5041296E-1,-4.57282E-1,1.9148542E0,1.5811388E0,-7.197998E-1,1.7382814E-2,1.3710938E-1,-5.0078595E-1,5.9743922E-2,-5.191034E-1,-4.9162722E-1,-5.541138E-1,-1.6466676E-1,4.6146852E-1,-4.6415105E-1,-5.5405885E-1,1.14254765E-1],"split_indices":[2,2,0,1,0,0,0,2,0,2,2,0,0,0,2,0,0],"split_type":[0,0,0,0,0,0,0,0,0,0,0,0,0,0,0,0,0],"sum_hessian":[2.8E1,1.8E1,1E1,1.7E1,1E0,4E0,6E0,9E0,8E0,4E0,5E0,1E0,3E0,1E0,4E0,1E0,3E0],"tree_param":{"num_deleted":"0","num_feature":"3","num_nodes":"17","size_leaf_vector":"1"}},{"base_weights":[-9.2618537E-1,-2.4684417E0,1.8219105E0,-1.0460069E0,-7.0180666E-1,1.6689453E-2,1.3122909E-1,-2.9103515E0,5.7085503E-2,-5.402588E-1,-8.325738E-1,-2.7151287E0,2.1994019E0,5.3176273E-2,-5.4020995E-1,2.796692E-1,-3.9819337E-2],"categories":[],"categories_nodes":[],"categories_segments":[],"categories_sizes":[],"default_left":[0,0,0,0,0,0,0,0,0,0,0,0,0,0,0,0,0],"id":95,"left_children":[1,3,5,7,-1,-1,-1,9,-1,-1,11,13,15,-1,-1,-1,-1],"loss_changes":[1.2740706E2,2.9794952E2,1.2263134E1,7.6738625E1,0E0,0E0,0E0,1.550408E2,0E0,0E0,5.7342396E1,1.9488533E2,4.5125107E1,0E0,0E0,0E0,0E0],"parents":[2147483647,0,0,1,1,2,2,3,3,7,7,10,10,11,11,12,12],"right_children":[2,4,6,8,-1,-1,-1,10,-1,-1,12,14,16,-1,-1,-1,-1],"split_conditions":[-4.5041296E-1,-4.57282E-1,1.9148542E0,1.5811388E0,-7.0180666E-1,1.6689453E-2,1.3122909E-1,-5.191034E-1,5.7085503E-2,-5.402588E-1,-4.6415105E-1,-4.9162722E-1,-4.595717E-1,5.3176273E-2,-5.4020995E-1,2.796692E-1,-3.9819337E-2],"split_indices":[2,2,0,1,0,0,0,2,0,0,2,2,2,0,0,0,0],"split_type":[0,0,0,0,0,0,0,0,0,0,0,0,0,0,0,0,0],"sum_hessian":[2.8E1,1.8E1,1E1,1.7E1,1E0,4E0,6E0,9E0,8E0,1E0,8E0,5E0,3E0,4E0,1E0,1E0,2E0],"tree_param":{"num_deleted":"0","num_feature":"3","num_nodes":"17","size_leaf_vector":"1"}},{"base_weights":[-9.241901E-1,-2.420423E0,1.7442294E0,-1.0343153E0,-6.8425906E-1,1.6025392E-2,1.2559989E-1,-2.8436036E0,5.4546442E-2,-6.7818847E0,9.1223145E-1,-5.267517E-1,-1.6049194E-1,4.486023E-1,-2.4941406E0,-5.267029E-1,1.0746765E-1],"categories":[],"categories_nodes":[],"categories_segments":[],"categories_sizes":[],"default_left":[0,0,0,0,0,0,0,0,0,0,0,0,0,0,0,0,0],"id":96,"left_children":[1,3,5,7,-1,-1,-1,9,-1,11,13,-1,-1,-1,15,-1,-1],"loss_changes":[1.2000652E2,2.8251437E2,1.1218857E1,7.231539E1,0E0,0E0,0E0,1.5410199E2,0E0,3.3216354E1,1.871059E2,0E0,0E0,0E0,2.0930794E2,0E0,0E0],"parents":[2147483647,0,0,1,1,2,2,3,3,7,7,9,9,10,10,14,14],"right_children":[2,4,6,8,-1,-1,-1,10,-1,12,14,-1,-1,-1,16,-1,-1],"split_conditions":[-4.5041296E-1,-4.57282E-1,1.9148542E0,1.5811388E0,-6.8425906E-1,1.6025392E-2,1.2559989E-1,-5.0078595E-1,5.4546442E-2,-5.191034E-1,-4.9162722E-1,-5.267517E-1,-1.6049194E-1,4.486023E-1,-4.6415105E-1,-5.267029E-1,1.0746765E-1],"split_indices":[2,2,0,1,0,0,0,2,0,2,2,0,0,0,2,0,0],"split_type":[0,0,0,0,0,0,0,0,0,0,0,0,0,0,0,0,0],"sum_hessian":[2.8E1,1.8E1,1E1,1.7E1,1E0,4E0,6E0,9E0,8E0,4E0,5E0,1E0,3E0,1E0,4E0,1E0,3E0],"tree_param":{"num_deleted":"0","num_feature":"3","num_nodes":"17","size_leaf_vector":"1"}},{"base_weights":[-9.174552E-1,-2.3671234E0,1.6699219E0,-1.0160726E0,-6.671509E-1,1.5380859E-2,1.20221816E-1,-2.767212E0,5.2126735E-2,-6.5802736E0,8.715413E-1,-5.135803E-1,-1.5447693E-1,4.3739015E-1,-2.4532714E0,-5.135376E-1,1.0343933E-1],"categories":[],"categories_nodes":[],"categories_segments":[],"categories_sizes":[],"default_left":[0,0,0,0,0,0,0,0,0,0,0,0,0,0,0,0,0],"id":97,"left_children":[1,3,5,7,-1,-1,-1,9,-1,11,13,-1,-1,-1,15,-1,-1],